1.198906321481184811e+00
7.060623029755543900e-01
1.191275957547672376e-01
-1.252698189071893564e-01
-3.676328261728424862e-01
-5.432985580047416940e-01
-6.779489118748560639e-01
-3.099461052518764914e-01
-3.372541243421548263e+00
-2.736283795330400892e+00
-1.768394759237666536e+00
-8.228260548083320414e-01
-2.940594454094859755e-01
-4.453753402502719227e-02
1.385851690207163811e-01
8.900057663211816461e+00
1.568450417404687602e-01
1.450561788710598987e-01
7.651924685967551043e-02
7.642647998738208437e-02
-2.431242250329569698e-02
-8.641920184852260045e-02
-1.112424800648683376e-01
-2.328728430418992024e-01
1.877294797700191087e-01
1.312398780993866698e-01
-2.661753325815707436e-02
2.366482399259609015e-02
-7.289072517389776074e-02
-5.546486290247960166e-02
-1.009326667892889856e-01
-8.672839373817939346e-02
-4.815515837838215611e-04
-2.176192019793435350e-02
1.026975369867657029e-01
-4.315122146548353022e-02
-9.033502696491062245e-02
1.125413478791829902e-02
1.024221438507747113e-02
3.153583405235165643e-02
1.007810607525640445e-01
-3.829408342009552740e-02
2.410993813825568904e-02
3.376444529865479244e-02
-8.923655673337928251e-02
-3.546384186096214475e-02
-2.502933317970311780e-02
2.936837100466556383e-02
8.143033922580480977e-02
-4.465266836317446225e-02
1.122022081781107183e-02
-3.234095511207348700e-02
-8.483398313369940047e-02
-3.710833512131032214e-02
3.463771729537380717e-02
7.164766439126712960e-02
8.635398883784371760e-02
6.054773698300289914e-02
6.161251501950475162e-02
3.844267918486381913e-02
-7.984039321006983214e-02
6.704799657755459476e-03
-7.108913136075838135e-02
-1.027321951121426130e-01
1.238120737640686225e-01
3.784323028735925298e-02
5.671514814298370122e-02
4.659751470980780935e-02
-4.175280765290319968e-02
-1.157047238315836273e-03
-1.056330664510005679e-01
-1.164250455619992852e-01
7.579749475077597609e-02
4.678474532902118788e-02
-1.391098327527676495e-02
1.370956962078956065e-01
-5.390575431948553542e-02
-1.119419808607183264e-01
-1.899576936026234342e-02
-6.092344847194844371e-02
-1.408721777465246801e-02
-3.204907961043036019e-02
-6.260869005061465986e-02
-8.357653723487967756e-02
-1.759406548618324545e-02
4.517156477017011951e-02
-2.723905848484411973e-02
1.919830838714358945e-01
6.404717675928854603e-02
1.620832387206872990e-02
1.373675376073188459e-02
-2.491738358748546434e-02
-6.128098763376581271e-02
4.854190234557770323e-02
-1.670637728634561184e-02
-3.962940823006968344e-02
-6.735863227061637815e-02
8.623690742212537785e-02
4.902545726874065618e-03
-1.923244962262342025e-02
-3.955538161613331638e-04
3.789751092605211924e-02
3.101144305616368446e-02
-7.306177142181359552e-02
-5.923387490321602340e-03
1.792507382580195083e-02
-3.574788307903358636e-02
-2.786556133596389956e-02
-5.286599254497267864e-02
2.102938884859672369e-02
1.134578903894198215e-01
-3.000952861352702492e-02
-9.935303705797847440e-02
-8.972250460357007046e-03
-8.324958213666984463e-02
3.288478973068935385e-02
1.250687805200028369e-01
1.457793052748896367e-01
-2.276940000283355844e-02
-8.938860586774294292e-02
-8.717283048678145518e-02
-1.415262400777859420e-01
-8.922825068912994262e-02
4.874185554239066076e-02
-3.698005446829730203e-02
1.367171761113206985e-01
-8.211853133350127676e-03
1.776601972016332576e-01
2.230681207855551851e-02
4.433941311093453352e-02
4.787576125877326949e-02
6.336006277234895734e-02
-1.855940557630376270e-02
-4.183710268782185604e-02
-5.438275407441343912e-02
-6.310278688207311693e-02
7.422622785736006021e-03
-4.396413713651192712e-02
-2.095901169937387787e-03
-5.048364418942929976e-02
6.616069199729955608e-02
-3.844844374463250031e-02
6.073990556393969731e-02
6.689058935359830718e-04
4.278059801638559728e-02
-8.236100736723921123e-02
6.399560878238143118e-03
4.542220479035074393e-02
6.180058342291355061e-02
9.608095208525509884e-03
-1.553071991531506657e-01
7.165716420397662267e-02
1.184062908447274937e-01
-8.509155887789061901e-03
-5.009374919865754346e-03
-5.014506339980164679e-02
-1.604786673315282061e-02
-5.134419367369291720e-02
7.856692355616871903e-02
-6.591755978659405435e-02
-7.459434594680823538e-02
2.915074973483793019e-02
-1.009189326783946870e-03
1.682364118445358117e-02
1.125473538622051156e-01
-7.806898208937000649e-02
3.768942563078989810e-02
-4.253865304932450547e-02
2.041405665916734002e-01
9.532016696841909276e-02
9.496963477477519955e-02
1.432225638124145356e-02
-3.316444339815449033e-02
-1.799362885520822825e-02
-2.026595532933176957e-01
-1.549349991694309314e-01
4.235869467429905638e-02
5.254272316920746699e-02
1.743929104162048882e-01
-2.183486155458394529e-02
5.878913934930290325e-02
-1.679156968295787422e-01
-1.176458178246499592e-01
-2.068709140019965587e-02
3.280610930329651287e-02
9.919200297569140748e-03
1.665657908625119421e-01
-6.564184189379838885e-02
-4.966070446655547477e-02
-3.229375111569969536e-02
-2.573521641430031107e-02
-3.595958657302374128e-02
1.311464952712325382e-01
5.557109990259689186e-02
9.667245340270982923e-03
8.112804567455506044e-02
-8.405281180779761163e-02
-4.184182622416095926e-02
3.771112010911226164e-02
-1.893293682658094834e-01
1.751296800191648462e-01
1.115984280876984591e-01
5.123856172267007847e-02
-7.578020782853822634e-02
-6.764362236935679562e-02
-2.230631671655384715e-02
-9.818441714874986959e-02
-7.405210576633450281e-02
1.791792126748916192e-01
2.744000501270895537e-02
-7.217330061724325837e-04
-5.276741079548367269e-02
1.045836019433041449e-02
-2.532172423151499846e-02
-1.748304654133192859e-01
3.656375556455893766e-02
-6.871236546481883367e-02
-8.251391037151055430e-02
2.367312302634292515e-02
1.832535159673154557e-01
1.172212179805065882e-02
-3.848660557302012453e-02
1.469829597772672608e-02
-4.363417536008621506e-02
1.073587436243607623e-04
5.143199957914221243e-02
-1.650731954639819143e-01
3.111736714938066403e-02
4.857634186630725714e-02
-2.311669615744117723e-02
4.181708892307095526e-03
5.277511539065922463e-02
-1.798455936934309773e-01
-1.589598996153176180e-01
3.621863914505677601e-02
-3.504929558682345209e-02
4.692480232436912341e-02
-1.270501538653290817e-02
1.406889352586580544e-01
1.627274275540248893e-01
1.697998998523299052e-01
-4.493727181936033391e-03
6.127123366188320236e-02
-6.514543945659506674e-02
-9.633891034129155040e-02
1.995049152874680404e-02
-3.002503441136359849e-02
-5.501851365177334863e-02
-4.014838023054903560e-02
-7.346582359504037762e-02
-5.385878887017180039e-02
1.169180529210277764e-01
2.193219388227209479e-02
-2.175618335579248760e-02
7.351845054414758718e-02
-2.313952129589364609e-02
1.394498535653503901e-01
3.082128485820357852e-02
-5.036116202133464684e-03
-2.425830791020251384e-02
6.792866582454586133e-02
5.267193937102771992e-03
-8.964109525368866085e-03
-2.052084645474973323e-01
3.060012250763397001e-01
1.012196647846609066e-01
-5.829017521407198893e-02
2.969465180070151797e-02
9.344383048360794045e-03
-4.685921794716688127e-02
-1.600954040141706891e-01
-1.810151275346588151e-01
9.988179433353074066e-02
-1.371703511783059666e-02
-5.197890492953659292e-02
-4.370058946455043086e-02
-2.581469197714416838e-02
-6.044552858379509744e-03
-1.684855153989418515e-04
4.154246552931049191e-02
6.922412721376652867e-02
3.237563965004634087e-02
4.961651965510190977e-03
2.884988145627922357e-02
4.795830135347354389e-02
1.274883684188005822e-02
-9.652439695844640399e-02
-9.959404152251000175e-02
-2.307600739789173426e-03
-3.227278981291913790e-02
-1.106651290929905329e-02
-2.011032935609631880e-02
-2.736041930664965052e-02
2.215267384267606207e-02
-9.929504748380035481e-03
8.089448303045830568e-02
2.353959487561735342e-02
-1.170234942531559429e-02
3.944406453764705517e-04
-7.564168264124612739e-02
-1.153995899281233389e-01
1.320359102797724615e-02
7.763927181481507234e-02
8.796672363089996782e-02
-7.148152394415011783e-04
2.048559162021681632e-02
-2.855362216870784703e-02
-7.499782869458225532e-02
-1.356758397499686387e-02
-1.679000718106588019e-03
-5.617937090108552495e-02
1.552066300767032947e-01
-1.363612225825532598e-01
-4.168428981578056747e-02
2.237375389536886902e-02
-4.488534580651683953e-02
-2.000882942512266852e-02
-7.541693520200492412e-03
-3.158542890141725901e-02
2.596930561562235673e-01
8.330217736927958416e-02
1.694785342141754206e-02
3.956641427811149331e-02
-2.258828264241670089e-02
6.513358726206421728e-03
-1.187814924408267803e-01
-4.647016501020366508e-02
4.151013629843233049e-02
-3.784228349027879412e-02
-2.004305099643976726e-02
1.133883592306097199e-01
-5.930287228135237496e-03
-3.391542056335650895e-02
7.961606355687821102e-02
2.021778491132979563e-04
-9.547555835839029170e-02
2.127308428485239107e-03
-2.928328466230204624e-02
-1.786675973075772805e-02
-8.333134178773970308e-03
1.659136299172236928e-02
3.829232305899641503e-02
-9.584394300023398039e-03
8.056578392653125295e-03
-4.295519582880052978e-02
1.781455935351648479e-01
2.413572611050104726e-03
-2.581538066081596333e-03
-2.587643171743992179e-02
-1.917640360110509437e-02
-6.031209056192567142e-02
-2.965750637086198363e-02
3.201866153264160131e-02
7.599068999119477918e-02
-4.460955566650673387e-03
-1.212007626691378182e-01
4.054469430417785569e-02
-1.020316581498213922e-02
-3.737751222455862332e-02
2.468835044731677517e-02
1.403351790727045134e-01
5.066016245044334225e-03
1.294442894525502374e-01
2.727213320502400173e-02
-4.170231303610216766e-02
-5.794488039649176025e-02
-7.088223689209791067e-02
-1.315881876506319048e-01
-4.356398686343591203e-02
-2.465025796238461131e-02
1.121005860722235764e-02
-3.736617330264114384e-02
8.809642257221621947e-03
3.521224942723728824e-02
2.995740135552014613e-02
2.039106648125999996e-02
2.556209864992287084e-01
2.165662024982683842e-01
-5.816302729563598700e-02
-9.947135530827777572e-02
-1.343188909085711313e-01
-7.337164848971543252e-02
-5.014869356153236341e-02
-5.671357343376316057e-02
1.292591248097984570e-02
6.978690404029858074e-02
8.469038833021876045e-02
9.395639921157104835e-02
-1.323187452774672590e-01
-5.792791598501736278e-02
5.132584318021291697e-02
-1.224387859807954254e-01
-1.836817866080762418e-01
-5.739017059182681402e-02
-1.041088783231846615e-01
-5.570236217254603828e-02
-5.946657152321717377e-02
8.146371107056619987e-02
1.791966203397357960e-01
1.996894378085475596e-01
4.223967604394002207e-03
3.939659892019740234e-02
6.895106307271342723e-03
4.120576407456220946e-02
6.088103250480788112e-03
-1.546301183301506017e-02
-8.610245011593328779e-02
3.755921792042806080e-03
-1.423512204470712417e-01
-1.994190485477811137e-01
-2.000745867151914326e-01
7.923951526965435088e-03
3.271601588328203886e-02
-2.027838161952250431e-02
1.144570161092039601e-01
4.070262538101129257e-01
-6.817940031805061474e-02
1.479383631288134215e-01
8.346660971410820029e-02
-7.930448807526251087e-02
7.555011264081423761e-02
-4.674598835072769909e-02
-3.608678252340571935e-02
-7.663842621628941254e-02
-7.678273313413938594e-02
8.761793132768402881e-02
6.465412143205441498e-02
4.483700530687513564e-02
-2.144618187311834664e-02
-4.892137184636664859e-02
1.294851551939827164e-02
-6.290728673238756008e-02
6.609346630011915524e-02
-3.079230269527646197e-02
1.273582741417156328e-01
1.191846216233204969e-01
2.097925978180447890e-02
5.172965755432553520e-02
-1.745904997172591511e-01
-1.799624769887484266e-01
9.552613914343689727e-02
1.983993591125552958e-01
8.385184087320182722e-02
-9.335447212416701779e-02
-1.566165726948773318e-01
-2.490027444832207393e-02
-2.287350248863192353e-02
-8.003251737319441728e-02
1.030886614923535310e-01
-6.021293607175489185e-03
3.517645104755492275e-02
5.387477465475151023e-02
-6.187613742672914280e-02
-5.761651570363773150e-02
-1.509982843132298171e-02
-5.152611202579302635e-02
4.032379188641546652e-02
1.243940467297099950e-01
-1.057203153395047494e-02
-3.239036512362268583e-02
8.179987589363069134e-02
-5.675969929406152886e-02
-1.180702887740377599e-01
-2.872532978408360790e-02
-8.234484095974724249e-02
1.424002140482348577e-02
7.884948135703558070e-02
3.275005991710873421e-02
5.118680296297290627e-02
-4.305134047372825151e-02
3.950923513792893582e-02
-9.113941934639416265e-02
7.625722664137557505e-02
9.216585851169997734e-02
1.218927916592941890e-01
-1.573580115473313668e-02
-8.277940324828574059e-02
1.095383890107551154e-02
-4.742677253914771851e-03
-1.980118340565122648e-01
1.194574988129148418e-01
7.708035279300610998e-02
2.236266835719947360e-02
-3.841934815638028272e-02
2.280680004262546079e-02
-4.003755971816443798e-02
-5.718623584656003928e-02
-1.060641762846404323e-01
1.604378390186262660e-01
8.004908961703816050e-02
-7.698926864214704173e-03
3.685205122832688890e-02
3.292062633230762037e-02
-6.158753445484576455e-02
-9.366989269018226316e-02
-1.473032521870561995e-01
-2.400142456775987143e-01
-2.612747870645444892e-01
-2.423166282733287824e-01
2.501320462728811797e-02
7.889324891057465650e-02
-2.808127019483938266e-02
2.271981724095971655e-01
4.405823052628508041e-01
-3.247856231140444638e-02
-1.252032660977277778e-01
-7.225690496594572645e-03
5.442656756393379758e-02
-8.295955264449075828e-02
6.884962439558367508e-02
1.295420655791065800e-01
-4.951185988406345793e-03
-4.731452624338203933e-02
-2.306525658865119996e-02
-1.192503848847045744e-02
-6.404079677488994093e-02
1.066005968987537994e-01
8.980937039073313977e-02
-1.600573401506711138e-02
-3.405861517902595420e-02
3.929163391517677406e-02
9.583932677472291328e-02
1.919353979147201197e-03
9.630913172778135523e-02
-8.388382809623813954e-03
6.939798685202398787e-02
-1.329296151521449643e-01
-1.614394352870838212e-01
-3.545943807187147689e-02
-1.440426670199935165e-02
-6.625099099585186890e-02
-2.219874244394269905e-02
-7.565776675920399263e-02
-5.644035444610021046e-02
1.749623678737540280e-02
2.529153226315968839e-01
0.000000000000000000e+00
0.000000000000000000e+00
0.000000000000000000e+00
0.000000000000000000e+00
0.000000000000000000e+00
0.000000000000000000e+00
0.000000000000000000e+00
0.000000000000000000e+00
7.579749475077597609e-02
4.678474532902118788e-02
-1.391098327527676495e-02
1.370956962078956065e-01
-5.390575431948553542e-02
-1.119419808607183264e-01
-1.899576936026234342e-02
-6.092344847194844371e-02
3.634533693931493725e-02
6.876454315147356722e-02
9.839678483993115343e-02
3.444588965933710611e-02
-8.853679185513256555e-02
5.419292280563214881e-02
-1.366990513681501651e-01
-6.690963417240533562e-02
2.770183981997392797e-02
-5.255621927940503507e-02
-8.466003107919892190e-02
-5.936327324682292433e-02
2.725580422136656550e-02
-5.651020460054749159e-03
1.199926740818053478e-01
2.728022594233615872e-02
-6.735863227061637815e-02
8.623690742212537785e-02
4.902545726874065618e-03
-1.923244962262342025e-02
-3.955538161613331638e-04
3.789751092605211924e-02
3.101144305616368446e-02
-7.306177142181359552e-02
-6.521016809228175060e-02
-9.433769593789088914e-02
9.073657476538125530e-03
1.304659539896091403e-01
1.125880020796342362e-01
-5.683680507256506226e-02
3.171465795821607771e-04
-3.606009102262551502e-02
-5.923387490321602340e-03
1.792507382580195083e-02
-3.574788307903358636e-02
-2.786556133596389956e-02
-5.286599254497267864e-02
2.102938884859672369e-02
1.134578903894198215e-01
-3.000952861352702492e-02
6.613404559210527001e-02
2.041386501493373529e-01
-6.754950992667110854e-02
-6.808131781978975228e-02
-7.602228061573013118e-02
2.370842137564919613e-02
-5.058508899705770750e-02
-3.174291975784295644e-02
-1.430792110924391791e-01
-1.044713833998916763e-01
-1.282436820543641880e-02
-2.268377402685927552e-02
9.279597407300538281e-02
1.823957496297296532e-01
2.854243757693119068e-02
-2.067542455503863091e-02
4.280229653463670653e-02
-1.430182127191135209e-02
-1.194936148110039599e-02
-6.816072412270393448e-03
-4.292915016906206048e-03
-3.488060657923682407e-03
-1.043895162289375277e-03
-9.101705322353203457e-04
3.283017520015503368e-03
-3.159972422045819558e-04
-6.519278380295451258e-02
3.952415294581910349e-02
4.948834673975797960e-02
-9.621296752101390903e-02
1.238349516844366657e-02
5.704273619213742069e-02
-9.045584800679742910e-02
-1.412102428355805905e-01
-2.403546688617568330e-02
9.217702596571472271e-03
-8.646840120805536489e-02
2.329301436323351626e-01
-2.059534830179388099e-02
1.206174610094966487e-01
2.230681207855551851e-02
4.433941311093453352e-02
4.787576125877326949e-02
6.336006277234895734e-02
-1.855940557630376270e-02
-4.183710268782185604e-02
-5.438275407441343912e-02
-6.310278688207311693e-02
7.422622785736006021e-03
-4.396413713651192712e-02
-2.095901169937387787e-03
-5.048364418942929976e-02
6.616069199729955608e-02
-3.844844374463250031e-02
6.073990556393969731e-02
6.689058935359830718e-04
4.278059801638559728e-02
-8.236100736723921123e-02
6.399560878238143118e-03
4.542220479035074393e-02
6.180058342291355061e-02
9.608095208525509884e-03
-1.553071991531506657e-01
7.165716420397662267e-02
1.184062908447274937e-01
-8.509155887789061901e-03
-5.009374919865754346e-03
-5.014506339980164679e-02
-1.604786673315282061e-02
-5.134419367369291720e-02
7.856692355616871903e-02
-6.591755978659405435e-02
-5.539038664409282747e-02
1.589370705454303326e-02
-3.183628003991999245e-02
3.473893880280375102e-02
1.010745199991797960e-01
-2.233659102399026056e-02
-1.633971090680470112e-02
-2.580419724171886114e-02
1.058835089575726335e-02
1.646320875667298166e-03
3.337354420041858775e-03
-2.624439806432946054e-02
3.366379986801915775e-02
-3.993833126272946371e-02
1.683874259866388959e-02
1.081606689093796494e-04
-2.979231019847274411e-02
1.161072180462762761e-02
2.748973629309420588e-02
8.329100445979269879e-03
-2.219096600499385896e-02
-1.579405980265027529e-02
3.719039393893070616e-02
-1.684261647651493984e-02
1.608668973580488354e-02
4.896572817757442048e-02
4.204113108435256208e-02
1.805976012720230187e-02
2.374646524138625519e-03
3.273935167797532853e-02
-5.118961257112675939e-02
-1.090776947559216475e-01
2.873771156251087588e-01
7.845269343329346057e-02
-2.990956881355936667e-02
-4.255658467013880009e-02
-8.830283867281676913e-02
-2.258020438655809065e-02
-9.188325379934531023e-02
-9.059735871598396939e-02
-1.314899977878180304e-01
-6.972591556275647973e-02
-1.389874355584541817e-02
-3.780728031068524703e-02
4.591019521350549887e-02
-1.258336331198158312e-02
1.239121104650391797e-01
9.568299485054439224e-02
6.896828480456564103e-02
4.202481854215395912e-02
-1.156428849185938725e-02
-2.493206954239129969e-02
8.454542422217830797e-03
1.784290559929320799e-02
-4.352535570791039865e-02
-5.726883762606995582e-02
-1.292780579814597763e-01
-5.563779993452541706e-02
-2.109067796273306206e-02
1.248259936436383888e-01
1.264422534789719776e-01
-1.184709899930389693e-01
-4.937934667769568187e-02
1.225886254268430259e-01
-1.009383853391294938e-01
-1.095884309057055805e-01
1.986381732754771961e-03
-1.759533598561595358e-02
4.998197305216179817e-03
7.248930542224277240e-02
3.823232808566145308e-02
1.104159396845758728e-01
4.505715709767735833e-01
1.803935064566726254e-01
5.165343956275499082e-02
-6.680828645123947085e-02
-1.526612395016752888e-01
-1.055385666958166546e-01
-1.228865965047129388e-01
-2.347238278427560276e-01
7.811542046040495513e-02
8.978344396323950649e-02
1.665999325611591531e-01
-3.937945689061948112e-02
-1.396472383509675952e-01
-1.171508955624916970e-02
-6.736979624554763346e-02
-7.638721594142246218e-02
5.126173389735847602e-02
6.693798727918583852e-03
6.102200932474855649e-02
3.927480379024177876e-02
5.832008802143506115e-02
-9.789448963460523068e-02
1.761783856643849011e-02
-1.362957826935358163e-01
-1.069352780038591638e-03
-2.518700668324865000e-02
1.848909356520175018e-01
-5.407186364005196755e-02
-3.840055862928708208e-02
-2.357814301652370534e-02
-1.917128013817078966e-02
-2.341273076469671532e-02
3.387546208333511166e-02
3.510620698081776819e-02
-1.832514478950555623e-02
-1.156997825374646641e-02
-1.126014583726836667e-02
-8.715608099175996965e-03
-6.563936276129534418e-03
-1.254685580832698606e-02
-1.001122147377193211e-01
-1.412016243249117342e-01
9.828301381369972112e-02
5.196500164746024886e-02
2.875988970958025595e-02
1.024211548949525291e-02
2.054544751967867303e-02
3.151837088271715326e-02
2.312587100089521508e-01
1.967727242275084387e-01
-8.861576847342857166e-02
2.916304402709479771e-02
-1.128127015173781000e-01
-5.208394171365623992e-02
1.716567258943323473e-02
-2.208477391485262897e-01
1.751296800191648462e-01
1.115984280876984591e-01
5.123856172267007847e-02
-7.578020782853822634e-02
-6.764362236935679562e-02
-2.230631671655384715e-02
-9.818441714874986959e-02
-7.405210576633450281e-02
1.791792126748916192e-01
2.744000501270895537e-02
-7.217330061724325837e-04
-5.276741079548367269e-02
1.045836019433041449e-02
-2.532172423151499846e-02
-1.748304654133192859e-01
3.656375556455893766e-02
-6.871236546481883367e-02
-8.251391037151055430e-02
2.367312302634292515e-02
1.832535159673154557e-01
1.172212179805065882e-02
-3.848660557302012453e-02
1.469829597772672608e-02
-4.363417536008621506e-02
4.144211686117647842e-02
-1.405813206947623129e-01
-5.043731454984303614e-02
-1.273534673159183381e-02
-1.025948020323409621e-01
5.124799654881851546e-02
5.185669995325218468e-02
1.618019706452908379e-01
-2.426166709958628778e-02
6.216920059311540486e-02
-1.800316079346719889e-02
-1.011957085798453025e-02
-4.311872136246251708e-03
-2.384291483982579462e-03
-1.444335709737436507e-03
-1.644302512111090126e-03
-1.707309101796570042e-02
1.298441196807894882e-01
-9.663272012066996541e-02
5.397228473895712697e-02
1.554830160348946999e-01
-7.198040122227750137e-02
-4.623065535120746833e-02
-1.073825527425207871e-01
1.697998998523299052e-01
-4.493727181936033391e-03
6.127123366188320236e-02
-6.514543945659506674e-02
-9.633891034129155040e-02
1.995049152874680404e-02
-3.002503441136359849e-02
-5.501851365177334863e-02
-4.014838023054903560e-02
-7.346582359504037762e-02
-5.385878887017180039e-02
1.169180529210277764e-01
2.193219388227209479e-02
-2.175618335579248760e-02
7.351845054414758718e-02
-2.313952129589364609e-02
-1.379279806730599744e-01
1.115413831882686446e-01
1.210887348718566459e-01
3.777066810156484017e-02
1.162368005056669922e-02
-4.439335403473201186e-02
6.059742739141621079e-03
-1.057628742436066555e-01
2.773778342384104478e-01
-8.072009833006509039e-02
-1.261248510739903239e-01
-6.202897601176729503e-02
5.630498577397916732e-02
4.966054797183484110e-02
-1.502385226451049757e-02
-9.944559030389098220e-02
4.415519157894098878e-02
7.341119742084070698e-02
-3.806625177142645977e-02
3.932814393991324042e-02
-1.619492004312363467e-02
-1.955892268395543337e-02
-1.923734903083629613e-02
-6.383708941035390327e-02
1.446515782752336998e-01
6.394770541077213211e-02
-8.306048506263055686e-03
-4.806904078749468789e-02
-6.046797480690117160e-02
-1.782717795611049247e-02
4.352608501259188560e-05
-7.397256771424742805e-02
-2.895885292773725875e-02
-7.764211171930301969e-02
-1.228680630490759478e-02
-2.644880562155116702e-02
-2.391370114526353979e-02
3.620935258452790545e-02
2.939356100854564197e-02
1.036473641256886596e-01
0.000000000000000000e+00
0.000000000000000000e+00
0.000000000000000000e+00
0.000000000000000000e+00
0.000000000000000000e+00
0.000000000000000000e+00
0.000000000000000000e+00
0.000000000000000000e+00
-5.996612259290724778e-02
-7.343382623014049759e-02
6.680201653060269251e-03
-8.510886995417941275e-03
7.476190401814387931e-02
-4.867804802841017506e-03
-1.036822357812170262e-02
7.570475852822394769e-02
6.922412721376652867e-02
3.237563965004634087e-02
4.961651965510190977e-03
2.884988145627922357e-02
4.795830135347354389e-02
1.274883684188005822e-02
-9.652439695844640399e-02
-9.959404152251000175e-02
1.431238214818599253e-01
4.435948185922555798e-02
7.075826025457856994e-02
4.159475841489082559e-03
-9.384937514705393724e-02
-7.786255487864360281e-02
-1.326937252672283352e-01
4.200461585577339868e-02
-1.351275715011997398e-03
9.626827816597838955e-03
-4.754067059889147823e-02
2.959024682734677156e-02
-5.568383128683130658e-03
1.576763423020969418e-02
-4.635422837260347317e-02
4.582984894103649121e-02
-2.962706837433222440e-02
-1.316044190352606280e-01
-1.300735288279686597e-01
1.557953723386953405e-02
1.895244872266269726e-02
-5.412582188893971108e-02
1.787193864467947479e-01
1.321794657231744052e-01
-6.261841873775317313e-02
-2.647326727321206233e-02
-5.090675271941168603e-03
-6.674871786935985749e-03
-2.088719092205282291e-02
3.158162206340659611e-02
4.471096870024545561e-02
4.545183322824296324e-02
2.973115291324186782e-02
3.333525480010746805e-02
-4.504821704872589289e-02
5.229166590639052793e-03
6.184081396605863729e-02
1.650242176668158950e-02
-1.266748493332192638e-01
2.508425634521802353e-02
3.722644701719853445e-03
-8.654072166314800973e-02
7.083616870840274415e-02
-5.788605520093181855e-02
7.725655251618952779e-02
5.739874597664468975e-03
9.022257131489143378e-02
-1.033510349747857326e-01
5.078014953245014312e-02
6.013843034508931790e-02
-1.517690978206468443e-02
-2.527976346754861464e-02
-3.022937250312938626e-02
5.416180832889613134e-02
-3.090086643261093224e-02
-6.349347602108168509e-02
-9.580747566152217343e-02
4.734306714623355561e-02
4.156124288945918510e-02
1.544365238632275719e-02
-2.436468233279352399e-02
2.624207928173406118e-02
-6.635376640684545089e-05
-1.035152994302777733e-02
5.656224389643814410e-02
7.559846029137336915e-03
-3.804603309520403209e-02
-4.539381519601518380e-03
-2.485795534240024113e-02
-6.305780894300916373e-02
3.802880618031517779e-02
2.835028279432539808e-02
-1.413407512020894985e-01
-2.452845140438404126e-01
-1.006817221020774589e-01
-7.589921862450423051e-02
1.631432489559446475e-02
2.469536003925925927e-01
9.043493441734686000e-02
2.095033462669775859e-01
-3.634155742382875337e-02
1.990638985083595658e-01
7.102008159633836637e-02
3.739724805077091624e-02
2.243555256962671135e-02
-1.555960444640770435e-01
-1.763281993623365060e-02
-1.203463589009556994e-01
-4.362997085486191445e-02
3.117567992376697218e-03
-3.025906160366182568e-02
-3.655294187542471734e-02
-4.717712663274618856e-02
9.800626440036864367e-03
-9.409842472220352957e-03
1.541107490064999863e-01
7.783670562687861061e-02
3.079637115484348819e-02
-1.386677524522791395e-02
4.275562246754713303e-02
-6.502181427427380922e-02
-6.436099243896911681e-02
-1.250161670105524592e-01
1.168770497197544334e-01
-2.396844823600106575e-02
-1.089460491937648962e-01
-9.201197962590625112e-02
-5.630892642813914439e-02
4.041019640184422695e-02
1.128603158976599491e-01
9.352258863615567352e-02
3.444230254815262848e-02
-5.458307263031871026e-02
9.863526965913790856e-02
7.732513270242713510e-02
-6.144452473399082681e-02
1.104403389743260043e-02
-5.017832417679720519e-02
-2.468579252668832297e-02
3.887277808796353422e-03
-1.032075866885732857e-01
-3.595068819831853668e-02
4.975544155328955574e-03
3.565514107545172257e-02
1.195394460225308354e-02
1.880110485617942848e-02
7.903030927443174813e-02
-1.125776907675387663e-02
-3.852360641710431133e-02
7.887435800749863224e-02
4.280041793818686879e-02
-1.131345803099760051e-02
1.834163515790657520e-02
-3.964691171039205070e-02
-6.137805436641250584e-02
1.084561942131409551e-02
5.369970523123985054e-03
-8.460795962496076017e-02
-2.540220819814639069e-02
-6.922702885097145598e-02
-5.030440918528269328e-02
1.330411333401152786e-02
-4.923768380943625150e-02
2.601052058116620769e-01
-5.270149087548970691e-03
1.163473168965230287e-02
1.889671888118158241e-02
6.618100462418509411e-02
-8.676632089892511931e-03
-5.884148205744466759e-02
4.242883813248394392e-02
-6.635303009261701856e-02
1.315876533433713719e-02
-6.223395596142038827e-02
2.522454837128473154e-02
-5.208422226582243297e-02
8.471590826561310739e-02
-8.122829940757960929e-03
-6.522545760104768442e-02
6.456724379781317302e-02
7.541356112249120169e-02
6.754707769318538113e-02
-4.554852974354376555e-03
-3.668506500077942795e-02
-6.952591744951462649e-02
-5.181718044262502432e-02
-2.367354554163939723e-02
4.329592259323596093e-02
1.384020999530972962e-01
-4.669250090575747213e-03
-3.911196463012320962e-02
-1.376882762848418429e-01
-3.329059042203465213e-02
-1.164977069490328622e-04
2.414516674087806292e-02
5.232931244055048781e-02
-7.666052205332819780e-02
-2.199468864547736088e-02
-5.162020325470993709e-02
-3.013936653359684456e-02
3.313796899433499397e-03
1.089652314639233677e-01
3.128941197273065605e-02
3.684634015102660615e-02
-9.205697403170173820e-02
4.774005617360718712e-02
2.593090932755964251e-01
7.939207561007879943e-02
6.645665578682014019e-03
-7.674773438311213725e-02
-8.037914712201933709e-02
-1.439030351011319209e-01
-7.526887358342745568e-03
-4.111916843399393562e-02
-5.518856616015428707e-02
8.250527998022469389e-02
-1.058429261943720848e-02
4.751506418301568169e-02
2.514674625752370135e-02
-4.074817584883564520e-02
2.127308428485239107e-03
-2.928328466230204624e-02
-1.786675973075772805e-02
-8.333134178773970308e-03
1.659136299172236928e-02
3.829232305899641503e-02
-9.584394300023398039e-03
8.056578392653125295e-03
-4.295519582880052978e-02
1.781455935351648479e-01
2.413572611050104726e-03
-2.581538066081596333e-03
-2.587643171743992179e-02
-1.917640360110509437e-02
-6.031209056192567142e-02
-2.965750637086198363e-02
-9.221115094993023731e-02
1.742103652437417688e-02
2.929128436932575477e-02
-8.453983382168016314e-02
5.336272539752932864e-02
1.101248961371335648e-02
2.504442389094769378e-03
6.315900647757276276e-02
1.242298124825727546e-01
5.856965346681964474e-02
-3.375223993597654959e-02
-3.666092884745798808e-02
-1.281803109335158571e-02
-2.121565542869561019e-02
-3.988195461365370842e-02
-3.847065603025614372e-02
1.403351790727045134e-01
5.066016245044334225e-03
1.294442894525502374e-01
2.727213320502400173e-02
-4.170231303610216766e-02
-5.794488039649176025e-02
-7.088223689209791067e-02
-1.315881876506319048e-01
-1.266796336002596612e-01
5.885065997675741067e-02
1.079258804788631176e-01
4.547523787776678456e-02
5.932594891442346391e-02
-4.348200087816483927e-02
-4.063451529065754964e-02
-6.078157747872774130e-02
1.221956124056125005e-02
1.369930793548695680e-01
-5.324587827128030026e-02
-6.431850633565559805e-02
-1.234116950480504127e-01
1.038829022045745926e-02
1.903163657047063015e-02
6.234351226862729772e-02
3.700810588589260597e-01
2.072246316664096144e-02
-1.128430295032191027e-01
-8.062808685038951040e-02
-7.023314477494368990e-02
-4.027793783200805250e-02
-2.854581484134524963e-02
-5.827550822366240474e-02
-2.772627020216907323e-01
-2.386232369809793141e-01
-2.355929390728883355e-01
-1.286186458497143859e-01
-7.312549780578489478e-02
1.741564664384553374e-01
1.488612167681292731e-01
6.302053385244703598e-01
-1.156139596858828285e-02
1.214656197128572146e-01
1.329263260006460501e-01
2.882968784278100438e-02
3.923824461133950704e-03
-1.172667767171504533e-01
1.024289020361752317e-02
-1.685601755352963971e-01
1.051423113822036876e-01
5.976744667629393243e-02
-1.442265250943090826e-03
4.408659583438770402e-02
9.735101821433578620e-03
2.457402134926033391e-02
2.009251336798945423e-02
-2.619557251806263753e-01
-1.832259964097387311e-02
1.644384104055715209e-02
5.979062795129577029e-03
-2.741426543690504442e-03
1.180739707507571512e-01
2.351541086243471527e-04
-6.391042782120115451e-02
-5.575757468920285870e-02
2.418299352542281275e-02
-1.655501730535507282e-02
-5.063261848045978036e-02
-5.885627003568583149e-02
6.629188681608335146e-03
1.038178940001165292e-02
9.821987505461846069e-02
-1.336994084016072254e-02
-3.605034076064252569e-03
-1.238341029522709302e-01
2.656287176714145284e-03
3.088275295456461428e-02
1.533893141165122431e-01
2.340776427569160253e-02
4.694838627643872428e-03
-8.759182012279104201e-02
9.896525388057859918e-02
1.247793935816348121e-01
1.469728011423942493e-01
1.200105383976017570e-01
-2.441875267057973253e-01
2.581698774403235266e-02
-2.083817764097991854e-01
-6.397567163064553364e-02
-3.512714738884423205e-02
-3.162641705984258617e-02
2.238274150793726630e-02
2.988902685053083236e-02
-1.292568706127673883e-02
-8.112037974034480570e-03
-5.213009168520583991e-03
4.073253029405051601e-02
4.223967604394002207e-03
3.939659892019740234e-02
6.895106307271342723e-03
4.120576407456220946e-02
6.088103250480788112e-03
-1.546301183301506017e-02
-8.610245011593328779e-02
3.755921792042806080e-03
6.908306468753019902e-02
5.052850312831868446e-02
6.259823319599470449e-03
8.958747769415338624e-02
2.024567808577872399e-02
-1.429845984318294239e-01
-1.156253172941151992e-02
-8.115741675414014922e-02
-2.114342851346008301e-01
-2.499475516761004434e-01
-2.063344100347908605e-01
-8.166352616718751400e-02
1.247033779750300435e-02
1.227062168123062708e-01
1.260195478386147983e-01
4.881836705642559338e-01
-6.817940031805061474e-02
1.479383631288134215e-01
8.346660971410820029e-02
-7.930448807526251087e-02
7.555011264081423761e-02
-4.674598835072769909e-02
-3.608678252340571935e-02
-7.663842621628941254e-02
-7.678273313413938594e-02
8.761793132768402881e-02
6.465412143205441498e-02
4.483700530687513564e-02
-2.144618187311834664e-02
-4.892137184636664859e-02
1.294851551939827164e-02
-6.290728673238756008e-02
1.455522871840451982e-01
6.450516530907397794e-02
6.332649594806862015e-02
-1.151336671387027805e-01
-1.508032431157917130e-01
8.343236827186495397e-02
-4.328639301427316538e-02
-4.759301344428375907e-02
-6.604482484959670052e-02
1.846571880599680859e-01
6.188621836361428950e-03
-7.704551643733270616e-02
2.572671613652646391e-02
-8.144229161852717391e-02
3.800132785604869168e-02
-3.004122098344769523e-02
1.601867680898822963e-02
-5.076299425648628239e-02
1.433672308877093071e-02
9.882471145186856598e-02
-3.154004571561188491e-02
-2.689035110165937520e-02
-1.758843733040736310e-02
-2.398282945462766082e-03
-5.960793017317616432e-02
5.239918331531245692e-03
-1.293117085184009203e-02
-6.913168050691863298e-02
8.539949904353087012e-03
-1.231662812494287162e-02
3.166778282634750974e-02
1.085397585946453053e-01
2.651315959322872451e-01
1.357261161330806931e-01
1.202290957863558774e-01
-4.777848922053586078e-02
-1.120270026836391319e-01
-7.156617188175806721e-02
-8.360333349416612658e-02
-2.061118105716235882e-01
-2.128622705314300867e-02
1.732441291609563006e-01
-5.107345724664529019e-02
-4.584394297097232895e-02
-6.767273066708516527e-02
8.434146065832558159e-03
-1.086079092380878991e-01
1.128059919491433832e-01
-1.116889383344170511e-01
-3.159442687219437412e-02
1.653598932726812326e-02
-5.080621973517306274e-03
2.144526805062239513e-02
-1.514349388125917593e-03
3.454533008755616280e-02
7.735174910280812055e-02
-7.138344261507087452e-02
-8.149366059742815804e-02
-2.346779600809453456e-02
1.659613263766448188e-01
6.790074578522778403e-02
-1.278391654258618226e-01
2.480255980026575477e-02
4.551943268431662970e-02
7.327187788381313294e-02
3.430780646732037309e-02
8.065412045751103529e-03
9.805917957046349220e-03
-2.314842054151944328e-02
6.643313754765760304e-02
-9.482299738471802741e-02
-7.391273397535079448e-02
-1.052587346889225506e-01
-5.170308871119305705e-02
3.555396105301672494e-02
9.698820723925760667e-02
4.248393274908013328e-02
1.527382438216643053e-02
2.722139701880098989e-02
-6.055949904220546409e-02
1.055237615981463456e-01
-3.586204546802924248e-02
-3.018875916665877956e-02
-1.174877385883040110e-01
1.273701047272574050e-02
1.418696968123313307e-02
6.692605400113866426e-03
4.439819607077444275e-02
-1.374651352123605619e-01
-1.076662310206549511e-01
-4.307429111922329162e-02
-9.496364404241142490e-03
4.950060786611518854e-02
8.472994951028380017e-02
7.247016469523466509e-02
9.100129968484554910e-02
1.841318835473870208e-01
-7.939448697677610120e-03
1.463622375466215944e-02
6.975536969371243234e-02
-9.459617159597334679e-02
5.272116173097374930e-02
2.474729303569859346e-02
-2.434563114687845198e-01
-1.828004939219043598e-02
-3.828036233288573814e-02
8.912434729640236362e-04
6.182791052578404285e-03
3.296067323336290822e-02
-8.615938980109620615e-02
4.978727882163039298e-02
5.289781494563699366e-02
4.032379188641546652e-02
1.243940467297099950e-01
-1.057203153395047494e-02
-3.239036512362268583e-02
8.179987589363069134e-02
-5.675969929406152886e-02
-1.180702887740377599e-01
-2.872532978408360790e-02
-8.234484095974724249e-02
1.424002140482348577e-02
7.884948135703558070e-02
3.275005991710873421e-02
5.118680296297290627e-02
-4.305134047372825151e-02
3.950923513792893582e-02
-9.113941934639416265e-02
-5.975580029436530771e-02
2.109638555398466730e-01
1.951191608964279456e-01
-1.202081767299868903e-01
-6.951778119934622080e-02
3.312066689702047873e-02
-5.930359591745569536e-02
-1.304183291921412746e-01
1.541328839492107916e-01
-8.113878524636139455e-02
-7.248598364125899418e-02
2.535976781041295383e-02
-2.067293441763842082e-02
4.117192944089867468e-03
2.318137855915061371e-02
-3.249351995760710321e-02
-1.811985701347062008e-02
-3.765921178178480155e-02
-7.403855958746067981e-04
7.911260776484034529e-02
7.411312368699387622e-03
-2.628402094003499251e-02
3.137954010439029245e-02
-3.509998490676501104e-02
1.194574988129148418e-01
7.708035279300610998e-02
2.236266835719947360e-02
-3.841934815638028272e-02
2.280680004262546079e-02
-4.003755971816443798e-02
-5.718623584656003928e-02
-1.060641762846404323e-01
1.604378390186262660e-01
8.004908961703816050e-02
-7.698926864214704173e-03
3.685205122832688890e-02
3.292062633230762037e-02
-6.158753445484576455e-02
-9.366989269018226316e-02
-1.473032521870561995e-01
1.251887447402536546e-01
9.204508215329282317e-02
1.626408937499091711e-01
1.179463151026121683e-02
9.030878663001305762e-02
-5.424764949164473035e-03
-1.265973326777081742e-01
-3.499560411568569118e-01
2.359586883246254374e-01
8.875694885277153612e-02
-2.277965066448511475e-02
2.233961458528929342e-02
-5.897779316893971696e-03
-5.655033251127390692e-02
-5.646963055226958406e-02
-2.053578587177640746e-01
-2.356494342981528267e-01
-1.497193922105373720e-01
-1.829716847275143221e-01
-9.033662817178522708e-02
-1.254234103202606643e-01
-9.310360433305457650e-02
1.212518153377151603e-01
7.559523387235903558e-01
-1.754511873503862840e-01
-1.165880946156981207e-01
7.909965903111598751e-02
6.858227800617588965e-02
9.330830589840988796e-04
2.454648776141895861e-01
-7.571900458862847183e-02
-2.632161115575287758e-02
1.205687513375811731e-01
1.083794555915498364e-01
2.118996025894646640e-01
-6.196380456766712591e-02
-7.517785319169661105e-03
-6.181504307776453794e-02
-2.365505457657109123e-02
-2.858961219774237561e-01
7.442380617386436248e-02
3.791744403117899842e-02
-1.149156593630754342e-01
2.506782364380353845e-01
1.831739539333732958e-01
-3.155130103470218245e-02
-2.054285229847907790e-01
-1.942979571938861505e-01
-3.443829261170973099e-01
-3.155914384779774928e-01
-2.455440975259895464e-01
8.736551597356989607e-02
8.396871230325231306e-02
-1.522758819358268137e-02
2.318191012945418905e-01
5.175927207432805544e-01
1.798091784179626507e-01
1.102052553865946194e-01
9.325488745224429221e-02
-1.004215479250980883e-02
-1.001101926540897691e-01
-1.397096797483888819e-01
4.162890197116660140e-02
-1.750361960329812061e-01
2.995659373048393040e-02
-4.281124181103078408e-02
-8.535086452181220307e-03
-6.386878917744071189e-03
1.713857826188325273e-02
8.848582491496680136e-02
-7.281414878424162518e-02
-5.033640942135948065e-03
8.141589511516802991e-02
1.843379983096248842e-01
-3.545719828535460333e-02
3.194795908571936710e-02
-4.031124972575285403e-02
-5.763877246936713328e-02
-5.331801423295907255e-02
-1.109766177970790413e-01
-1.346889494369607754e-01
-7.110302232023027469e-02
-1.555384666109501865e-02
-5.456921442722856286e-02
4.726475995755363008e-02
1.766873355543611968e-02
2.040466531710184456e-03
2.089410728008148088e-01
-1.097009191091538327e-01
-7.886731586207690325e-02
6.896974284185167225e-02
-6.103159915998249141e-02
7.660050466963110039e-02
5.223044319903444310e-02
8.457764290228772866e-03
4.334137913046670620e-02
-3.247856231140444638e-02
-1.252032660977277778e-01
-7.225690496594572645e-03
5.442656756393379758e-02
-8.295955264449075828e-02
6.884962439558367508e-02
1.295420655791065800e-01
-4.951185988406345793e-03
-4.731452624338203933e-02
-2.306525658865119996e-02
-1.192503848847045744e-02
-6.404079677488994093e-02
1.066005968987537994e-01
8.980937039073313977e-02
-1.600573401506711138e-02
-3.405861517902595420e-02
-8.473994254626739109e-02
1.263753384841994620e-01
8.838269751371087557e-02
2.167172045887851284e-01
-1.307337965735959513e-02
-1.038597953990656325e-01
-7.360227070132448202e-02
-1.561998522826758551e-01
1.462286553542991030e-01
-3.392793894546652228e-02
-9.604197520413040867e-02
-5.976934428180642050e-02
-1.321748627490404449e-03
5.867018657090380951e-02
4.190634166027368268e-02
-5.574417652658239519e-02
1.138039138355713131e-01
5.790344625940588297e-02
-5.452422562158828340e-02
-8.973918766310816364e-02
5.115133175824248396e-02
8.120959062460247901e-02
6.876630726875494759e-02
-2.285711764618815756e-01
2.703527868701800507e-01
4.490605675965944621e-03
5.936519058797710274e-02
-8.746832315605954089e-02
-3.231487310376050109e-02
-2.292856801918306472e-02
-1.804752178490108827e-01
-1.102160100610915551e-02
-4.470888196283851479e-01
-1.485685812147887475e-01
-1.416644051234478285e-01
8.977458037464297949e-03
-8.287250024786814440e-02
-1.429160239563803496e-02
6.232940549831586909e-04
8.248851565176829048e-01
-7.083751269872778922e-02
-2.064293667671747087e-02
5.555799087980537593e-02
1.487936526210310341e-02
5.279894753823659130e-03
6.430144379911874319e-02
6.950608079523466765e-02
-1.180443261146417455e-01
5.819370103867675670e-02
-1.767901319302657079e-02
2.631603691705850998e-02
-8.717371002225841881e-02
5.555720963822953495e-02
-1.792969041056688417e-02
4.603640628624520309e-02
-6.332094025435788809e-02
-8.657031999745105205e-03
-1.750874892139901717e-02
-2.664694234754196381e-02
6.918185064484566604e-02
5.779008571765002940e-03
-1.191238622581442669e-02
9.598773782695519188e-03
-1.983452350480604393e-02
-1.518526219277153110e-02
2.302175447897313390e-02
3.360624072572616222e-02
-4.409423308326278906e-02
-3.346855612071251290e-02
8.985957306061141681e-02
5.272232115336548258e-02
-1.064618380219293226e-01
-1.320877001525449235e-01
-1.588153838258538619e-01
9.015585694825199725e-02
-9.310027274382735515e-03
5.651463353616850704e-02
3.559738050519126173e-02
2.623165045297434425e-02
9.171358981019643586e-02
-1.918015337889236727e-01
-1.459246588872038786e-01
-1.079089316498551276e-01
-3.995095572212348234e-02
1.141058037504800726e-01
1.112127214291158961e-01
1.063197726430483298e-01
1.539477822254626815e-01
9.310424746117040851e-02
-3.540768765743509960e-02
-1.047479828820363917e-01
-6.030916505882304851e-02
-4.119884428623221857e-03
3.997619663974975174e-02
3.793265531423716669e-02
3.357162061175939655e-02
7.990869233696284990e-02
1.416389486477356296e-01
7.222828251670052047e-02
2.793055112032143128e-02
-1.018334659600041679e-02
-7.566769405798949577e-02
-1.144640857970835035e-01
-1.213913481706474229e-01
1.101634732246135617e-01
2.702205259579899127e-02
2.721436024415349597e-02
-7.769115234995313535e-02
6.221627101259200737e-02
-7.863386389688481470e-02
1.840679649727362203e-03
-7.213182048004641855e-02
-1.702584099847896104e-01
-1.249720776142799888e-01
1.037290660049000751e-01
9.867063931859079706e-02
6.806089943010834586e-02
-8.425484522947548557e-03
4.635854574450274691e-03
2.855951279396568010e-02
-3.047226400501454671e-02
2.536970649528397931e-02
-4.108231665348398287e-02
9.334620473203622190e-03
-4.392373608699146059e-02
2.999201183082357211e-02
4.125063803758562131e-02
9.531339908593361790e-03
2.236393301854346372e-01
2.512918960286855338e-02
-2.775049240667745373e-02
-9.894682925482174707e-02
-4.072113258860830809e-02
-1.346378857305141272e-02
1.035021559236422480e-02
-7.823649255751072285e-02
1.609432792021927433e-02
2.449710838144407085e-03
-2.691228872062067460e-03
-2.250415200316499206e-02
2.843472852593207506e-02
-5.029296343119633861e-02
-4.428096203062101277e-02
7.279053905274918135e-02
-8.793451245739962452e-02
8.179578394136011871e-03
-3.186125709705735914e-02
7.040903660409962225e-03
3.493393777993489963e-02
6.196537376349977450e-02
-2.216730681354281418e-02
2.984328277001854768e-02
-1.167413215572764978e-01
-5.819629007031474482e-02
1.301481674907803941e-02
1.339283567639962813e-01
-6.730768827595491610e-02
-1.301987227551755777e-01
1.096285959298393814e-01
1.158722532158092677e-01
4.432571848262448731e-03
-3.808054842419511532e-02
-5.191678455445799395e-02
-3.283742454884713141e-02
-2.033874185569527204e-02
5.759536272884880487e-03
1.465764115508380420e-02
1.183237501069640957e-01
-1.169215997964845460e-01
3.706642788304918140e-02
7.340063620447902226e-02
4.711813107623604932e-03
2.624798374603045173e-02
-3.354132555510238450e-02
2.934475855396414049e-02
-2.030869414356045038e-02
1.730938047200067942e-01
2.290505380261368545e-02
4.653867178511591693e-03
2.887712129604425373e-02
-1.002755322527993515e-01
-2.723850390767000584e-02
-1.296872007241870184e-01
2.767138988748081216e-02
-1.236659204550620145e-01
-1.589074256875804003e-02
1.553744549978883054e-02
1.805841617364635221e-01
4.945158047043306943e-02
-9.826279575874198591e-02
4.762297352452884991e-02
-5.537670244865455088e-02
7.855287224042513394e-02
-1.040374662562428693e-02
-1.833776585086921776e-02
3.563098095145009279e-03
-3.558178593833456055e-02
-2.524412857801643789e-02
1.634352278136240802e-02
-8.892066124088403301e-03
-5.572634342100136334e-02
7.116732356136447335e-02
6.125640751018598257e-02
4.218930235579648053e-02
1.833553318742065300e-02
-1.130095044749458710e-02
-8.375768163811361799e-02
-4.216359110815792038e-02
4.498525541103150921e-02
-1.566362427627785159e-01
-8.386412015971063394e-02
-7.236938267293080429e-02
4.502018791018021215e-02
1.620898499757845723e-01
1.176836669035871419e-01
-5.690921460516217695e-02
-3.846978410033820989e-02
1.357849555347022952e-01
-3.267222133678128471e-02
-1.832745922162545144e-02
1.679440808418176598e-02
4.147813838404147690e-02
-2.588846167748756755e-02
-7.869957566669422144e-02
5.434765172121570898e-02
-1.366101813084688067e-02
7.958249152608924334e-03
-2.685613556272093555e-02
-1.714042534093627307e-02
3.520083825243539716e-02
-1.187815676675339945e-02
-2.797100332500261285e-02
6.096378247720653926e-02
3.736198130253653993e-02
3.360931731600739353e-02
-5.848001117237715263e-02
-1.515731461168879843e-02
-7.253358570384227377e-03
-1.192435778555279990e-02
-3.912003895574755336e-02
-5.646383687975950472e-02
-1.943367403006894881e-02
-1.963278696095635545e-02
-1.661861518688958345e-02
-1.482852514179768162e-02
-1.502346302721842448e-02
3.728999237125781713e-02
1.047109088554325773e-01
-3.722669212669452860e-02
4.583659769114270012e-03
-1.074849316258472548e-01
2.868683104924391741e-02
2.040142223452804868e-02
1.974446621319200096e-02
-1.693716892944244863e-03
7.298896137940713569e-02
-7.479018636784053042e-02
-4.174221894672871906e-03
-3.357170584938885122e-02
-3.148429279712162271e-02
-1.162935810777410151e-01
1.067597715320983687e-02
1.586232389257746234e-01
9.101477190778103910e-02
2.499323358241290621e-02
-9.646693637700139157e-02
-8.704968352571118562e-02
-7.438520088753485145e-03
-6.173236886220349884e-02
-9.629592492116803223e-03
9.069358748116526647e-02
1.466302802822081197e-01
-1.768328554633517014e-01
-9.391750373163625099e-02
-2.684703234601055685e-02
-3.900507577164469275e-02
1.299933796910341943e-01
1.353201509719336171e-01
2.889880427472410127e-02
4.239013237495319747e-02
1.395657194734063467e-01
2.118242151778728863e-02
5.313137368642928404e-02
-6.497319207783468220e-02
-5.904518789974409765e-02
-8.893760517872849325e-02
-2.493878697959857338e-02
2.401525745828309369e-02
5.513422835496781249e-02
7.625997015159809156e-02
7.204769308687811180e-02
-4.650890265694258667e-03
7.607186060252618676e-02
-7.374279076316783699e-02
-1.083786452195360100e-01
-9.274142594757224523e-02
1.507803917020877904e-01
4.248179121177068918e-02
2.212024130402634806e-02
-7.165846142109311145e-02
-9.964874590856592773e-02
2.128592931195712537e-02
-1.096285035821014005e-02
-5.439829584197433676e-02
-7.754178414285579912e-02
7.514245236941051453e-02
4.670858463774710256e-02
-1.920974478025308562e-04
-2.164049686983996260e-02
2.399870047691404773e-03
1.039773242190041545e-02
-3.527426101625040500e-02
9.361140073859453015e-02
-2.177427882361274852e-02
-1.287093354484304501e-02
7.932353428059375766e-02
-5.800186031274328496e-02
-1.205301195276777954e-01
3.512866036718859108e-02
5.113596822501096512e-03
-8.068548825761459597e-02
9.156118286391054517e-02
9.756132187506198761e-02
1.463286493097649445e-02
-7.431688496472405037e-02
6.260220354266145260e-02
1.619718281302417323e-02
-1.275523828032986140e-01
3.929163391517677406e-02
9.583932677472291328e-02
1.919353979147201197e-03
9.630913172778135523e-02
-8.388382809623813954e-03
6.939798685202398787e-02
-1.329296151521449643e-01
-1.614394352870838212e-01
8.430684031453017369e-02
9.604038421089235167e-02
-2.347889939095497425e-02
4.386326515466434234e-02
4.831555014563968485e-03
-1.097093911039355787e-02
2.672379468743902534e-03
-1.972645856620437455e-01
-1.585217105633317594e-02
1.364506548465094782e-01
3.532902600247412456e-02
-1.974875679458707248e-02
1.349782841522033372e-03
-4.068738029771824111e-02
-7.120149415438857543e-02
-2.563966138747848442e-02
0.000000000000000000e+00
0.000000000000000000e+00
0.000000000000000000e+00
0.000000000000000000e+00
0.000000000000000000e+00
0.000000000000000000e+00
0.000000000000000000e+00
0.000000000000000000e+00
7.579749475077597609e-02
4.678474532902118788e-02
-1.391098327527676495e-02
1.370956962078956065e-01
-5.390575431948553542e-02
-1.119419808607183264e-01
-1.899576936026234342e-02
-6.092344847194844371e-02
-8.665672009225436345e-02
-1.627605860759399892e-01
-1.115412184900479303e-01
-1.080415151978022514e-01
1.559573353895366832e-01
1.280505114076697648e-01
1.255324359496004516e-01
5.945975710923859237e-02
3.634533693931493725e-02
6.876454315147356722e-02
9.839678483993115343e-02
3.444588965933710611e-02
-8.853679185513256555e-02
5.419292280563214881e-02
-1.366990513681501651e-01
-6.690963417240533562e-02
1.143585599122278335e-01
1.102043667965349472e-01
2.688118741084961211e-02
4.867824195097904261e-02
-1.287015311681701524e-01
-1.337015318677249043e-01
-5.539761867795803783e-03
-3.217953116690212834e-02
-6.735863227061637815e-02
8.623690742212537785e-02
4.902545726874065618e-03
-1.923244962262342025e-02
-3.955538161613331638e-04
3.789751092605211924e-02
3.101144305616368446e-02
-7.306177142181359552e-02
-5.923387490321602340e-03
1.792507382580195083e-02
-3.574788307903358636e-02
-2.786556133596389956e-02
-5.286599254497267864e-02
2.102938884859672369e-02
1.134578903894198215e-01
-3.000952861352702492e-02
6.613404559210527001e-02
2.041386501493373529e-01
-6.754950992667110854e-02
-6.808131781978975228e-02
-7.602228061573013118e-02
2.370842137564919613e-02
-5.058508899705770750e-02
-3.174291975784295644e-02
-7.792988336904607682e-02
-4.774918911337514699e-02
7.180592804017323083e-02
-1.850831695142963335e-02
8.443428168995008309e-02
1.794196877337044527e-01
2.081337044558532329e-02
-2.122858784755620731e-01
-6.514932772339331046e-02
-5.672219428651697343e-02
-8.463029624560948483e-02
-4.175457075429746256e-03
8.361692383055998809e-03
2.976061896024118948e-03
7.729067131345874336e-03
1.916104539205236990e-01
4.280229653463670653e-02
-1.430182127191135209e-02
-1.194936148110039599e-02
-6.816072412270393448e-03
-4.292915016906206048e-03
-3.488060657923682407e-03
-1.043895162289375277e-03
-9.101705322353203457e-04
-6.521016809228175060e-02
-9.433769593789088914e-02
9.073657476538125530e-03
1.304659539896091403e-01
1.125880020796342362e-01
-5.683680507256506226e-02
3.171465795821607771e-04
-3.606009102262551502e-02
3.283017520015503368e-03
-3.159972422045819558e-04
-6.519278380295451258e-02
3.952415294581910349e-02
4.948834673975797960e-02
-9.621296752101390903e-02
1.238349516844366657e-02
5.704273619213742069e-02
-9.045584800679742910e-02
-1.412102428355805905e-01
-2.403546688617568330e-02
9.217702596571472271e-03
-8.646840120805536489e-02
2.329301436323351626e-01
-2.059534830179388099e-02
1.206174610094966487e-01
2.230681207855551851e-02
4.433941311093453352e-02
4.787576125877326949e-02
6.336006277234895734e-02
-1.855940557630376270e-02
-4.183710268782185604e-02
-5.438275407441343912e-02
-6.310278688207311693e-02
7.422622785736006021e-03
-4.396413713651192712e-02
-2.095901169937387787e-03
-5.048364418942929976e-02
6.616069199729955608e-02
-3.844844374463250031e-02
6.073990556393969731e-02
6.689058935359830718e-04
4.278059801638559728e-02
-8.236100736723921123e-02
6.399560878238143118e-03
4.542220479035074393e-02
6.180058342291355061e-02
9.608095208525509884e-03
-1.553071991531506657e-01
7.165716420397662267e-02
1.184062908447274937e-01
-8.509155887789061901e-03
-5.009374919865754346e-03
-5.014506339980164679e-02
-1.604786673315282061e-02
-5.134419367369291720e-02
7.856692355616871903e-02
-6.591755978659405435e-02
-2.979231019847274411e-02
1.161072180462762761e-02
2.748973629309420588e-02
8.329100445979269879e-03
-2.219096600499385896e-02
-1.579405980265027529e-02
3.719039393893070616e-02
-1.684261647651493984e-02
-5.539038664409282747e-02
1.589370705454303326e-02
-3.183628003991999245e-02
3.473893880280375102e-02
1.010745199991797960e-01
-2.233659102399026056e-02
-1.633971090680470112e-02
-2.580419724171886114e-02
1.058835089575726335e-02
1.646320875667298166e-03
3.337354420041858775e-03
-2.624439806432946054e-02
3.366379986801915775e-02
-3.993833126272946371e-02
1.683874259866388959e-02
1.081606689093796494e-04
-9.932323876923974948e-02
-3.209825464244757398e-02
8.283807250398150801e-02
3.881908092417787892e-02
5.276374875052352448e-02
-2.815277614662587205e-02
-5.958668692284676410e-02
4.474005430247621901e-02
1.608668973580488354e-02
4.896572817757442048e-02
4.204113108435256208e-02
1.805976012720230187e-02
2.374646524138625519e-03
3.273935167797532853e-02
-5.118961257112675939e-02
-1.090776947559216475e-01
2.873771156251087588e-01
7.845269343329346057e-02
-2.990956881355936667e-02
-4.255658467013880009e-02
-8.830283867281676913e-02
-2.258020438655809065e-02
-9.188325379934531023e-02
-9.059735871598396939e-02
1.435460600827642014e-02
4.856943863920158005e-02
-1.294195795354428080e-01
-3.770835468925279321e-02
-3.953027413255429459e-03
1.495638084450091713e-02
3.514014649487829517e-02
5.806038965109493882e-02
5.032805555788583129e-02
-1.789845299703373555e-02
-3.581726130171784123e-02
-8.394421238234210658e-02
1.238161534404387532e-01
-1.176881321791923701e-01
6.741985225852387131e-02
1.378399760343827947e-02
-1.314899977878180304e-01
-6.972591556275647973e-02
-1.389874355584541817e-02
-3.780728031068524703e-02
4.591019521350549887e-02
-1.258336331198158312e-02
1.239121104650391797e-01
9.568299485054439224e-02
6.896828480456564103e-02
4.202481854215395912e-02
-1.156428849185938725e-02
-2.493206954239129969e-02
8.454542422217830797e-03
1.784290559929320799e-02
-4.352535570791039865e-02
-5.726883762606995582e-02
-1.292780579814597763e-01
-5.563779993452541706e-02
-2.109067796273306206e-02
1.248259936436383888e-01
1.264422534789719776e-01
-1.184709899930389693e-01
-4.937934667769568187e-02
1.225886254268430259e-01
3.104929084539351236e-02
1.754486464808975577e-01
-5.004334866805194154e-02
8.917546826851610597e-02
-1.614410213003005246e-01
-6.111386324012269694e-02
3.683359730738756943e-02
-5.990876969372122690e-02
7.327187788381313294e-02
3.430780646732037309e-02
8.065412045751103529e-03
9.805917957046349220e-03
-2.314842054151944328e-02
6.643313754765760304e-02
-9.482299738471802741e-02
-7.391273397535079448e-02
7.811542046040495513e-02
8.978344396323950649e-02
1.665999325611591531e-01
-3.937945689061948112e-02
-1.396472383509675952e-01
-1.171508955624916970e-02
-6.736979624554763346e-02
-7.638721594142246218e-02
5.126173389735847602e-02
6.693798727918583852e-03
6.102200932474855649e-02
3.927480379024177876e-02
5.832008802143506115e-02
-9.789448963460523068e-02
1.761783856643849011e-02
-1.362957826935358163e-01
-1.319876761845230340e-01
-2.850370773866012231e-01
5.202973040080721007e-02
-1.067708042541329755e-01
1.664392186055135558e-01
1.336031686623651571e-01
1.398730778273680250e-03
1.703247093782972177e-01
-1.069352780038591638e-03
-2.518700668324865000e-02
1.848909356520175018e-01
-5.407186364005196755e-02
-3.840055862928708208e-02
-2.357814301652370534e-02
-1.917128013817078966e-02
-2.341273076469671532e-02
3.387546208333511166e-02
3.510620698081776819e-02
-1.832514478950555623e-02
-1.156997825374646641e-02
-1.126014583726836667e-02
-8.715608099175996965e-03
-6.563936276129534418e-03
-1.254685580832698606e-02
-1.001122147377193211e-01
-1.412016243249117342e-01
9.828301381369972112e-02
5.196500164746024886e-02
2.875988970958025595e-02
1.024211548949525291e-02
2.054544751967867303e-02
3.151837088271715326e-02
2.312587100089521508e-01
1.967727242275084387e-01
-8.861576847342857166e-02
2.916304402709479771e-02
-1.128127015173781000e-01
-5.208394171365623992e-02
1.716567258943323473e-02
-2.208477391485262897e-01
1.751296800191648462e-01
1.115984280876984591e-01
5.123856172267007847e-02
-7.578020782853822634e-02
-6.764362236935679562e-02
-2.230631671655384715e-02
-9.818441714874986959e-02
-7.405210576633450281e-02
2.021635563281365400e-01
1.295912310894770381e-01
6.992621782040732425e-02
4.857544845961106472e-02
8.158820372178671176e-02
-3.485287733699843349e-02
-2.021701445889955706e-01
-2.948216354934278249e-01
-2.298434365324514977e-02
-1.021512260767684227e-01
-7.064795082657968073e-02
-1.013428592550946333e-01
-7.112984352745653494e-02
9.531153105483176555e-03
2.733967917567579203e-02
3.313853910579855899e-01
-6.871236546481883367e-02
-8.251391037151055430e-02
2.367312302634292515e-02
1.832535159673154557e-01
1.172212179805065882e-02
-3.848660557302012453e-02
1.469829597772672608e-02
-4.363417536008621506e-02
4.144211686117647842e-02
-1.405813206947623129e-01
-5.043731454984303614e-02
-1.273534673159183381e-02
-1.025948020323409621e-01
5.124799654881851546e-02
5.185669995325218468e-02
1.618019706452908379e-01
-2.426166709958628778e-02
6.216920059311540486e-02
-1.800316079346719889e-02
-1.011957085798453025e-02
-4.311872136246251708e-03
-2.384291483982579462e-03
-1.444335709737436507e-03
-1.644302512111090126e-03
-1.707309101796570042e-02
1.298441196807894882e-01
-9.663272012066996541e-02
5.397228473895712697e-02
1.554830160348946999e-01
-7.198040122227750137e-02
-4.623065535120746833e-02
-1.073825527425207871e-01
1.697998998523299052e-01
-4.493727181936033391e-03
6.127123366188320236e-02
-6.514543945659506674e-02
-9.633891034129155040e-02
1.995049152874680404e-02
-3.002503441136359849e-02
-5.501851365177334863e-02
-4.014838023054903560e-02
-7.346582359504037762e-02
-5.385878887017180039e-02
1.169180529210277764e-01
2.193219388227209479e-02
-2.175618335579248760e-02
7.351845054414758718e-02
-2.313952129589364609e-02
-1.379279806730599744e-01
1.115413831882686446e-01
1.210887348718566459e-01
3.777066810156484017e-02
1.162368005056669922e-02
-4.439335403473201186e-02
6.059742739141621079e-03
-1.057628742436066555e-01
2.773778342384104478e-01
-8.072009833006509039e-02
-1.261248510739903239e-01
-6.202897601176729503e-02
5.630498577397916732e-02
4.966054797183484110e-02
-1.502385226451049757e-02
-9.944559030389098220e-02
4.415519157894098878e-02
7.341119742084070698e-02
-3.806625177142645977e-02
3.932814393991324042e-02
-1.619492004312363467e-02
-1.955892268395543337e-02
-1.923734903083629613e-02
-6.383708941035390327e-02
1.446515782752336998e-01
6.394770541077213211e-02
-8.306048506263055686e-03
-4.806904078749468789e-02
-6.046797480690117160e-02
-1.782717795611049247e-02
4.352608501259188560e-05
-7.397256771424742805e-02
-1.287945034348490780e-01
-1.175783589444966831e-01
4.683828484316272106e-02
4.439302693555137458e-02
2.755934715889067632e-02
3.754968117482283124e-02
-9.712621142358790829e-03
9.974514340927724543e-02
-2.895885292773725875e-02
-7.764211171930301969e-02
-1.228680630490759478e-02
-2.644880562155116702e-02
-2.391370114526353979e-02
3.620935258452790545e-02
2.939356100854564197e-02
1.036473641256886596e-01
0.000000000000000000e+00
0.000000000000000000e+00
0.000000000000000000e+00
0.000000000000000000e+00
0.000000000000000000e+00
0.000000000000000000e+00
0.000000000000000000e+00
0.000000000000000000e+00
6.882838084194178863e-02
4.414453271435630349e-02
-4.015808319010276406e-02
-5.290391393096896544e-02
4.720255685925379974e-02
-4.241748597766368395e-02
-6.556024357628806700e-04
-2.404038488105307222e-02
-9.779051360764279971e-03
-9.652144941912748841e-03
-1.072197925063263571e-02
-1.330354171872597489e-02
-1.634109042282678656e-02
-1.051545802149311815e-02
3.270750904164502343e-02
3.760575667471051375e-02
7.900317857453068027e-02
4.202778459195915389e-02
1.568363121614279806e-02
4.215342317500486713e-02
6.429939177630018821e-02
2.326429486337321106e-02
-1.292319060000913233e-01
-1.371997981972212233e-01
1.431238214818599253e-01
4.435948185922555798e-02
7.075826025457856994e-02
4.159475841489082559e-03
-9.384937514705393724e-02
-7.786255487864360281e-02
-1.326937252672283352e-01
4.200461585577339868e-02
-1.351275715011997398e-03
9.626827816597838955e-03
-4.754067059889147823e-02
2.959024682734677156e-02
-5.568383128683130658e-03
1.576763423020969418e-02
-4.635422837260347317e-02
4.582984894103649121e-02
-2.962706837433222440e-02
-1.316044190352606280e-01
-1.300735288279686597e-01
1.557953723386953405e-02
1.895244872266269726e-02
-5.412582188893971108e-02
1.787193864467947479e-01
1.321794657231744052e-01
-9.682337477687763538e-02
9.982710162311538016e-03
8.675384986305638424e-02
4.267663739255037059e-03
1.434672486455196815e-02
6.720341928467683801e-02
-2.492121421855634025e-02
-6.080977891841710808e-02
-6.261841873775317313e-02
-2.647326727321206233e-02
-5.090675271941168603e-03
-6.674871786935985749e-03
-2.088719092205282291e-02
3.158162206340659611e-02
4.471096870024545561e-02
4.545183322824296324e-02
2.973115291324186782e-02
3.333525480010746805e-02
-4.504821704872589289e-02
5.229166590639052793e-03
6.184081396605863729e-02
1.650242176668158950e-02
-1.266748493332192638e-01
2.508425634521802353e-02
-4.756027925767186693e-02
2.570691440951496792e-02
-7.088623706210075981e-02
6.237111283440564119e-02
3.765943535544240967e-02
4.884595441567807228e-02
-1.142118954530192965e-01
5.807499475775148440e-02
5.128292395939123421e-02
-1.122476360726635536e-01
1.417224057705034346e-01
-1.202571680353371614e-01
3.959711716074797161e-02
-4.310607981801396760e-02
2.044344667679104943e-01
-1.614260297325373628e-01
-9.580747566152217343e-02
4.734306714623355561e-02
4.156124288945918510e-02
1.544365238632275719e-02
-2.436468233279352399e-02
2.624207928173406118e-02
-6.635376640684545089e-05
-1.035152994302777733e-02
5.078014953245014312e-02
6.013843034508931790e-02
-1.517690978206468443e-02
-2.527976346754861464e-02
-3.022937250312938626e-02
5.416180832889613134e-02
-3.090086643261093224e-02
-6.349347602108168509e-02
5.656224389643814410e-02
7.559846029137336915e-03
-3.804603309520403209e-02
-4.539381519601518380e-03
-2.485795534240024113e-02
-6.305780894300916373e-02
3.802880618031517779e-02
2.835028279432539808e-02
-1.413407512020894985e-01
-2.452845140438404126e-01
-1.006817221020774589e-01
-7.589921862450423051e-02
1.631432489559446475e-02
2.469536003925925927e-01
9.043493441734686000e-02
2.095033462669775859e-01
-3.634155742382875337e-02
1.990638985083595658e-01
7.102008159633836637e-02
3.739724805077091624e-02
2.243555256962671135e-02
-1.555960444640770435e-01
-1.763281993623365060e-02
-1.203463589009556994e-01
2.448518743563982414e-01
3.140069811778940789e-02
6.031514275477645876e-02
-5.867701920883755008e-04
-1.069723407605989718e-01
-8.795459134057469208e-02
1.424699980592149598e-02
-1.553010127416229180e-01
-4.362997085486191445e-02
3.117567992376697218e-03
-3.025906160366182568e-02
-3.655294187542471734e-02
-4.717712663274618856e-02
9.800626440036864367e-03
-9.409842472220352957e-03
1.541107490064999863e-01
7.783670562687861061e-02
3.079637115484348819e-02
-1.386677524522791395e-02
4.275562246754713303e-02
-6.502181427427380922e-02
-6.436099243896911681e-02
-1.250161670105524592e-01
1.168770497197544334e-01
-2.396844823600106575e-02
-1.089460491937648962e-01
-9.201197962590625112e-02
-5.630892642813914439e-02
4.041019640184422695e-02
1.128603158976599491e-01
9.352258863615567352e-02
3.444230254815262848e-02
-5.458307263031871026e-02
9.863526965913790856e-02
7.732513270242713510e-02
-6.144452473399082681e-02
1.104403389743260043e-02
-5.017832417679720519e-02
-2.468579252668832297e-02
3.887277808796353422e-03
-3.354079188327078326e-02
1.794175835689575393e-01
4.675819202718037304e-02
-3.276534051942745027e-03
2.333665815926345630e-02
-5.220493239055468138e-02
-1.606827628285568965e-01
1.925873989236283476e-04
-1.032075866885732857e-01
-3.595068819831853668e-02
4.975544155328955574e-03
3.565514107545172257e-02
1.195394460225308354e-02
1.880110485617942848e-02
7.903030927443174813e-02
-1.125776907675387663e-02
-4.982814533833090920e-03
-1.005432255614589626e-01
-3.957774088993969153e-03
-8.036923979054649489e-03
-4.995023001356720636e-03
1.255802068016277986e-02
9.930470846214466130e-02
1.065303202239042436e-02
4.385176641704834760e-02
9.643673043769474332e-03
3.039129242626893712e-02
3.695318371741729280e-02
-1.147101702278410622e-02
6.095330547758086304e-02
-6.145709577146663688e-02
-1.088651082878352855e-01
-5.270149087548970691e-03
1.163473168965230287e-02
1.889671888118158241e-02
6.618100462418509411e-02
-8.676632089892511931e-03
-5.884148205744466759e-02
4.242883813248394392e-02
-6.635303009261701856e-02
1.315876533433713719e-02
-6.223395596142038827e-02
2.522454837128473154e-02
-5.208422226582243297e-02
8.471590826561310739e-02
-8.122829940757960929e-03
-6.522545760104768442e-02
6.456724379781317302e-02
7.541356112249120169e-02
6.754707769318538113e-02
-4.554852974354376555e-03
-3.668506500077942795e-02
-6.952591744951462649e-02
-5.181718044262502432e-02
-2.367354554163939723e-02
4.329592259323596093e-02
1.384020999530972962e-01
-4.669250090575747213e-03
-3.911196463012320962e-02
-1.376882762848418429e-01
-3.329059042203465213e-02
-1.164977069490328622e-04
2.414516674087806292e-02
5.232931244055048781e-02
-7.666052205332819780e-02
-2.199468864547736088e-02
-5.162020325470993709e-02
-3.013936653359684456e-02
3.313796899433499397e-03
1.089652314639233677e-01
3.128941197273065605e-02
3.684634015102660615e-02
-9.205697403170173820e-02
4.774005617360718712e-02
2.593090932755964251e-01
7.939207561007879943e-02
6.645665578682014019e-03
-7.674773438311213725e-02
-8.037914712201933709e-02
-1.439030351011319209e-01
-7.526887358342745568e-03
-4.111916843399393562e-02
-5.518856616015428707e-02
8.250527998022469389e-02
-1.058429261943720848e-02
4.751506418301568169e-02
2.514674625752370135e-02
-4.074817584883564520e-02
2.127308428485239107e-03
-2.928328466230204624e-02
-1.786675973075772805e-02
-8.333134178773970308e-03
1.659136299172236928e-02
3.829232305899641503e-02
-9.584394300023398039e-03
8.056578392653125295e-03
-2.710302477246746139e-02
4.169493868865514069e-02
-3.291545339142416121e-02
1.716721872850541716e-02
-2.722621455896200374e-02
2.151097669661319184e-02
1.088940359246300463e-02
-4.017844983383608501e-03
-9.221115094993023731e-02
1.742103652437417688e-02
2.929128436932575477e-02
-8.453983382168016314e-02
5.336272539752932864e-02
1.101248961371335648e-02
2.504442389094769378e-03
6.315900647757276276e-02
1.242298124825727546e-01
5.856965346681964474e-02
-3.375223993597654959e-02
-3.666092884745798808e-02
-1.281803109335158571e-02
-2.121565542869561019e-02
-3.988195461365370842e-02
-3.847065603025614372e-02
1.403351790727045134e-01
5.066016245044334225e-03
1.294442894525502374e-01
2.727213320502400173e-02
-4.170231303610216766e-02
-5.794488039649176025e-02
-7.088223689209791067e-02
-1.315881876506319048e-01
1.221956124056125005e-02
1.369930793548695680e-01
-5.324587827128030026e-02
-6.431850633565559805e-02
-1.234116950480504127e-01
1.038829022045745926e-02
1.903163657047063015e-02
6.234351226862729772e-02
-1.266796336002596612e-01
5.885065997675741067e-02
1.079258804788631176e-01
4.547523787776678456e-02
5.932594891442346391e-02
-4.348200087816483927e-02
-4.063451529065754964e-02
-6.078157747872774130e-02
-2.772627020216907323e-01
-2.386232369809793141e-01
-2.355929390728883355e-01
-1.286186458497143859e-01
-7.312549780578489478e-02
1.741564664384553374e-01
1.488612167681292731e-01
6.302053385244703598e-01
-1.156139596858828285e-02
1.214656197128572146e-01
1.329263260006460501e-01
2.882968784278100438e-02
3.923824461133950704e-03
-1.172667767171504533e-01
1.024289020361752317e-02
-1.685601755352963971e-01
1.051423113822036876e-01
5.976744667629393243e-02
-1.442265250943090826e-03
4.408659583438770402e-02
9.735101821433578620e-03
2.457402134926033391e-02
2.009251336798945423e-02
-2.619557251806263753e-01
-1.832259964097387311e-02
1.644384104055715209e-02
5.979062795129577029e-03
-2.741426543690504442e-03
1.180739707507571512e-01
2.351541086243471527e-04
-6.391042782120115451e-02
-5.575757468920285870e-02
2.418299352542281275e-02
-1.655501730535507282e-02
-5.063261848045978036e-02
-5.885627003568583149e-02
6.629188681608335146e-03
1.038178940001165292e-02
9.821987505461846069e-02
-1.336994084016072254e-02
-3.605034076064252569e-03
-1.238341029522709302e-01
2.656287176714145284e-03
3.088275295456461428e-02
1.533893141165122431e-01
2.340776427569160253e-02
4.694838627643872428e-03
-8.759182012279104201e-02
9.896525388057859918e-02
1.247793935816348121e-01
1.469728011423942493e-01
1.200105383976017570e-01
-2.441875267057973253e-01
2.581698774403235266e-02
-2.083817764097991854e-01
-6.397567163064553364e-02
-3.512714738884423205e-02
-3.162641705984258617e-02
2.238274150793726630e-02
2.988902685053083236e-02
-1.292568706127673883e-02
-8.112037974034480570e-03
-5.213009168520583991e-03
4.073253029405051601e-02
4.223967604394002207e-03
3.939659892019740234e-02
6.895106307271342723e-03
4.120576407456220946e-02
6.088103250480788112e-03
-1.546301183301506017e-02
-8.610245011593328779e-02
3.755921792042806080e-03
-1.252807696911625301e-01
6.916589783627799526e-02
1.159572679100529108e-01
-4.748816912410182278e-02
6.441362994808350062e-02
-6.394595058284242850e-02
-3.724466500404591523e-03
-9.097439795903746254e-03
-2.114342851346008301e-01
-2.499475516761004434e-01
-2.063344100347908605e-01
-8.166352616718751400e-02
1.247033779750300435e-02
1.227062168123062708e-01
1.260195478386147983e-01
4.881836705642559338e-01
1.943638343786927847e-01
-1.863739470795961611e-02
-1.096974445904530249e-01
1.370756468182548760e-01
-4.416795186230452336e-02
-7.903864784898660678e-02
-7.838065229006981743e-03
-7.205997695823657123e-02
-6.817940031805061474e-02
1.479383631288134215e-01
8.346660971410820029e-02
-7.930448807526251087e-02
7.555011264081423761e-02
-4.674598835072769909e-02
-3.608678252340571935e-02
-7.663842621628941254e-02
-7.678273313413938594e-02
8.761793132768402881e-02
6.465412143205441498e-02
4.483700530687513564e-02
-2.144618187311834664e-02
-4.892137184636664859e-02
1.294851551939827164e-02
-6.290728673238756008e-02
1.455522871840451982e-01
6.450516530907397794e-02
6.332649594806862015e-02
-1.151336671387027805e-01
-1.508032431157917130e-01
8.343236827186495397e-02
-4.328639301427316538e-02
-4.759301344428375907e-02
-6.604482484959670052e-02
1.846571880599680859e-01
6.188621836361428950e-03
-7.704551643733270616e-02
2.572671613652646391e-02
-8.144229161852717391e-02
3.800132785604869168e-02
-3.004122098344769523e-02
1.601867680898822963e-02
-5.076299425648628239e-02
1.433672308877093071e-02
9.882471145186856598e-02
-3.154004571561188491e-02
-2.689035110165937520e-02
-1.758843733040736310e-02
-2.398282945462766082e-03
-5.960793017317616432e-02
5.239918331531245692e-03
-1.293117085184009203e-02
-6.913168050691863298e-02
8.539949904353087012e-03
-1.231662812494287162e-02
3.166778282634750974e-02
1.085397585946453053e-01
2.651315959322872451e-01
1.357261161330806931e-01
1.202290957863558774e-01
-4.777848922053586078e-02
-1.120270026836391319e-01
-7.156617188175806721e-02
-8.360333349416612658e-02
-2.061118105716235882e-01
-2.128622705314300867e-02
1.732441291609563006e-01
-5.107345724664529019e-02
-4.584394297097232895e-02
-6.767273066708516527e-02
8.434146065832558159e-03
-1.086079092380878991e-01
1.128059919491433832e-01
-1.116889383344170511e-01
-3.159442687219437412e-02
1.653598932726812326e-02
-5.080621973517306274e-03
2.144526805062239513e-02
-1.514349388125917593e-03
3.454533008755616280e-02
7.735174910280812055e-02
-7.138344261507087452e-02
-8.149366059742815804e-02
-2.346779600809453456e-02
1.659613263766448188e-01
6.790074578522778403e-02
-1.278391654258618226e-01
2.480255980026575477e-02
4.551943268431662970e-02
-1.052587346889225506e-01
-5.170308871119305705e-02
3.555396105301672494e-02
9.698820723925760667e-02
4.248393274908013328e-02
1.527382438216643053e-02
2.722139701880098989e-02
-6.055949904220546409e-02
1.055237615981463456e-01
-3.586204546802924248e-02
-3.018875916665877956e-02
-1.174877385883040110e-01
1.273701047272574050e-02
1.418696968123313307e-02
6.692605400113866426e-03
4.439819607077444275e-02
-1.374651352123605619e-01
-1.076662310206549511e-01
-4.307429111922329162e-02
-9.496364404241142490e-03
4.950060786611518854e-02
8.472994951028380017e-02
7.247016469523466509e-02
9.100129968484554910e-02
1.841318835473870208e-01
-7.939448697677610120e-03
1.463622375466215944e-02
6.975536969371243234e-02
-9.459617159597334679e-02
5.272116173097374930e-02
2.474729303569859346e-02
-2.434563114687845198e-01
-1.828004939219043598e-02
-3.828036233288573814e-02
8.912434729640236362e-04
6.182791052578404285e-03
3.296067323336290822e-02
-8.615938980109620615e-02
4.978727882163039298e-02
5.289781494563699366e-02
4.032379188641546652e-02
1.243940467297099950e-01
-1.057203153395047494e-02
-3.239036512362268583e-02
8.179987589363069134e-02
-5.675969929406152886e-02
-1.180702887740377599e-01
-2.872532978408360790e-02
-8.234484095974724249e-02
1.424002140482348577e-02
7.884948135703558070e-02
3.275005991710873421e-02
5.118680296297290627e-02
-4.305134047372825151e-02
3.950923513792893582e-02
-9.113941934639416265e-02
-5.975580029436530771e-02
2.109638555398466730e-01
1.951191608964279456e-01
-1.202081767299868903e-01
-6.951778119934622080e-02
3.312066689702047873e-02
-5.930359591745569536e-02
-1.304183291921412746e-01
1.541328839492107916e-01
-8.113878524636139455e-02
-7.248598364125899418e-02
2.535976781041295383e-02
-2.067293441763842082e-02
4.117192944089867468e-03
2.318137855915061371e-02
-3.249351995760710321e-02
-1.811985701347062008e-02
-3.765921178178480155e-02
-7.403855958746067981e-04
7.911260776484034529e-02
7.411312368699387622e-03
-2.628402094003499251e-02
3.137954010439029245e-02
-3.509998490676501104e-02
1.194574988129148418e-01
7.708035279300610998e-02
2.236266835719947360e-02
-3.841934815638028272e-02
2.280680004262546079e-02
-4.003755971816443798e-02
-5.718623584656003928e-02
-1.060641762846404323e-01
1.604378390186262660e-01
8.004908961703816050e-02
-7.698926864214704173e-03
3.685205122832688890e-02
3.292062633230762037e-02
-6.158753445484576455e-02
-9.366989269018226316e-02
-1.473032521870561995e-01
1.251887447402536546e-01
9.204508215329282317e-02
1.626408937499091711e-01
1.179463151026121683e-02
9.030878663001305762e-02
-5.424764949164473035e-03
-1.265973326777081742e-01
-3.499560411568569118e-01
2.359586883246254374e-01
8.875694885277153612e-02
-2.277965066448511475e-02
2.233961458528929342e-02
-5.897779316893971696e-03
-5.655033251127390692e-02
-5.646963055226958406e-02
-2.053578587177640746e-01
-2.356494342981528267e-01
-1.497193922105373720e-01
-1.829716847275143221e-01
-9.033662817178522708e-02
-1.254234103202606643e-01
-9.310360433305457650e-02
1.212518153377151603e-01
7.559523387235903558e-01
-1.867857259750256849e-01
-1.403347207344522451e-01
-1.495861177542389675e-01
-1.245456700106706005e-01
-8.847096381742661220e-02
9.371606922062154484e-04
3.764151444585550621e-01
3.123708931410512091e-01
-1.754511873503862840e-01
-1.165880946156981207e-01
7.909965903111598751e-02
6.858227800617588965e-02
9.330830589840988796e-04
2.454648776141895861e-01
-7.571900458862847183e-02
-2.632161115575287758e-02
1.205687513375811731e-01
1.083794555915498364e-01
2.118996025894646640e-01
-6.196380456766712591e-02
-7.517785319169661105e-03
-6.181504307776453794e-02
-2.365505457657109123e-02
-2.858961219774237561e-01
1.376581409155844260e-01
9.038554524527411815e-02
-4.387125305927114770e-03
-8.782331352013252046e-02
2.157739049169160594e-03
3.871151423866737301e-02
1.748076609037991017e-02
-1.941832667130156120e-01
-7.995350322803961018e-02
-2.832927716295012208e-02
6.043783689756766775e-02
7.242966481530128953e-02
6.304072533810782530e-02
-9.412902133615172473e-02
7.332490931768045894e-02
-6.682133464151621127e-02
-1.397794180080926263e-01
-2.176765679890721450e-01
-5.835152245185255132e-02
3.366898407893903489e-01
2.495832607095748445e-01
-1.445117826609854661e-01
-1.753545581766850214e-01
1.494007477877252743e-01
1.798091784179626507e-01
1.102052553865946194e-01
9.325488745224429221e-02
-1.004215479250980883e-02
-1.001101926540897691e-01
-1.397096797483888819e-01
4.162890197116660140e-02
-1.750361960329812061e-01
2.995659373048393040e-02
-4.281124181103078408e-02
-8.535086452181220307e-03
-6.386878917744071189e-03
1.713857826188325273e-02
8.848582491496680136e-02
-7.281414878424162518e-02
-5.033640942135948065e-03
7.654508326637235460e-02
1.652084667749772473e-01
-5.217701160529527454e-02
1.811709168781482603e-03
-6.856704582536971015e-02
7.424896738761599391e-02
-4.755473089848553242e-02
-1.495154382685962013e-01
8.141589511516802991e-02
1.843379983096248842e-01
-3.545719828535460333e-02
3.194795908571936710e-02
-4.031124972575285403e-02
-5.763877246936713328e-02
-5.331801423295907255e-02
-1.109766177970790413e-01
-2.644294228890561871e-01
-2.872621613150263542e-01
-3.059819344235576444e-01
1.493585115826886502e-02
2.092798696514425530e-02
7.890143314256919949e-02
1.584941919768612650e-01
5.844140553847980701e-01
-1.346889494369607754e-01
-7.110302232023027469e-02
-1.555384666109501865e-02
-5.456921442722856286e-02
4.726475995755363008e-02
1.766873355543611968e-02
2.040466531710184456e-03
2.089410728008148088e-01
-1.037768033991455160e-02
-4.676906121962918356e-02
-1.386832966213031107e-02
-9.985068008416025931e-02
2.383675591910826980e-02
8.038321934566022842e-02
6.804445121307529931e-02
-1.398675172008978073e-03
-3.247856231140444638e-02
-1.252032660977277778e-01
-7.225690496594572645e-03
5.442656756393379758e-02
-8.295955264449075828e-02
6.884962439558367508e-02
1.295420655791065800e-01
-4.951185988406345793e-03
-4.731452624338203933e-02
-2.306525658865119996e-02
-1.192503848847045744e-02
-6.404079677488994093e-02
1.066005968987537994e-01
8.980937039073313977e-02
-1.600573401506711138e-02
-3.405861517902595420e-02
-1.465023235662930301e-01
8.323350653565871060e-02
2.623485662795246171e-02
3.106323036725545661e-01
-1.773507742993820843e-02
-1.604411659379838262e-02
-1.655814855011847053e-01
-7.423766374495172071e-02
1.462286553542991030e-01
-3.392793894546652228e-02
-9.604197520413040867e-02
-5.976934428180642050e-02
-1.321748627490404449e-03
5.867018657090380951e-02
4.190634166027368268e-02
-5.574417652658239519e-02
-1.483344934248353730e-01
8.209388727131025632e-02
-1.555615687017574029e-02
-2.482878348622602482e-02
1.712748868016334899e-02
6.716074739559224627e-02
1.210918662548456232e-01
-9.875455582067468874e-02
1.044201668793352661e-01
-3.937664504531603743e-02
-3.159533232144415282e-02
-4.348367053420677114e-02
6.350198656311099865e-02
-3.556877671485963316e-02
-3.916921138323323226e-02
2.127148255661367310e-02
2.703527868701800507e-01
4.490605675965944621e-03
5.936519058797710274e-02
-8.746832315605954089e-02
-3.231487310376050109e-02
-2.292856801918306472e-02
-1.804752178490108827e-01
-1.102160100610915551e-02
-4.470888196283851479e-01
-1.485685812147887475e-01
-1.416644051234478285e-01
8.977458037464297949e-03
-8.287250024786814440e-02
-1.429160239563803496e-02
6.232940549831586909e-04
8.248851565176829048e-01
-7.083751269872778922e-02
-2.064293667671747087e-02
5.555799087980537593e-02
1.487936526210310341e-02
5.279894753823659130e-03
6.430144379911874319e-02
6.950608079523466765e-02
-1.180443261146417455e-01
6.176238102002582636e-02
4.314183194853958569e-02
6.214784088575727589e-02
-9.391509908376992344e-02
4.661697772578787639e-03
-8.781567880526765235e-02
9.197921479986001514e-02
-8.196218853772260782e-02
5.819370103867675670e-02
-1.767901319302657079e-02
2.631603691705850998e-02
-8.717371002225841881e-02
5.555720963822953495e-02
-1.792969041056688417e-02
4.603640628624520309e-02
-6.332094025435788809e-02
-8.657031999745105205e-03
-1.750874892139901717e-02
-2.664694234754196381e-02
6.918185064484566604e-02
5.779008571765002940e-03
-1.191238622581442669e-02
9.598773782695519188e-03
-1.983452350480604393e-02
-1.518526219277153110e-02
2.302175447897313390e-02
3.360624072572616222e-02
-4.409423308326278906e-02
-3.346855612071251290e-02
8.985957306061141681e-02
5.272232115336548258e-02
-1.064618380219293226e-01
-1.320877001525449235e-01
-1.588153838258538619e-01
9.015585694825199725e-02
-9.310027274382735515e-03
5.651463353616850704e-02
3.559738050519126173e-02
2.623165045297434425e-02
9.171358981019643586e-02
-1.918015337889236727e-01
-1.459246588872038786e-01
-1.079089316498551276e-01
-3.995095572212348234e-02
1.141058037504800726e-01
1.112127214291158961e-01
1.063197726430483298e-01
1.539477822254626815e-01
9.310424746117040851e-02
-3.540768765743509960e-02
-1.047479828820363917e-01
-6.030916505882304851e-02
-4.119884428623221857e-03
3.997619663974975174e-02
3.793265531423716669e-02
3.357162061175939655e-02
1.165600747242260815e-01
8.743133947413579687e-02
1.347398914290204863e-01
-3.869342712119527850e-03
-1.394417749669895346e-01
1.866476539759470005e-02
-1.622844604160312842e-01
-5.180049292983785608e-02
7.990869233696284990e-02
1.416389486477356296e-01
7.222828251670052047e-02
2.793055112032143128e-02
-1.018334659600041679e-02
-7.566769405798949577e-02
-1.144640857970835035e-01
-1.213913481706474229e-01
1.101634732246135617e-01
2.702205259579899127e-02
2.721436024415349597e-02
-7.769115234995313535e-02
6.221627101259200737e-02
-7.863386389688481470e-02
1.840679649727362203e-03
-7.213182048004641855e-02
-1.167413215572764978e-01
-5.819629007031474482e-02
1.301481674907803941e-02
1.339283567639962813e-01
-6.730768827595491610e-02
-1.301987227551755777e-01
1.096285959298393814e-01
1.158722532158092677e-01
-3.047226400501454671e-02
2.536970649528397931e-02
-4.108231665348398287e-02
9.334620473203622190e-03
-4.392373608699146059e-02
2.999201183082357211e-02
4.125063803758562131e-02
9.531339908593361790e-03
2.236393301854346372e-01
2.512918960286855338e-02
-2.775049240667745373e-02
-9.894682925482174707e-02
-4.072113258860830809e-02
-1.346378857305141272e-02
1.035021559236422480e-02
-7.823649255751072285e-02
1.609432792021927433e-02
2.449710838144407085e-03
-2.691228872062067460e-03
-2.250415200316499206e-02
2.843472852593207506e-02
-5.029296343119633861e-02
-4.428096203062101277e-02
7.279053905274918135e-02
-2.364361133923833236e-01
-8.334941078018905103e-02
7.948342440839835724e-03
7.421027920905091946e-02
8.410653821137779873e-02
-3.980361907300630775e-02
8.801044776009651904e-02
1.053135356242132087e-01
1.418639336956663277e-01
1.254636287552425011e-01
1.018198220620413486e-01
3.324210435595704310e-02
-1.521970793137778499e-01
1.259579596296951376e-01
-1.991820742820915868e-01
-1.769682949027335528e-01
4.432571848262448731e-03
-3.808054842419511532e-02
-5.191678455445799395e-02
-3.283742454884713141e-02
-2.033874185569527204e-02
5.759536272884880487e-03
1.465764115508380420e-02
1.183237501069640957e-01
1.195145135958983196e-01
1.204158386632385724e-01
6.545229376363898011e-02
-6.949846610142690340e-02
-5.785855446534735741e-02
6.262293517904316160e-03
-5.866568920613265264e-02
-1.256222297677729305e-01
1.730938047200067942e-01
2.290505380261368545e-02
4.653867178511591693e-03
2.887712129604425373e-02
-1.002755322527993515e-01
-2.723850390767000584e-02
-1.296872007241870184e-01
2.767138988748081216e-02
1.086531992907446564e-01
6.240766635549437752e-02
-2.126270419615837182e-01
-4.291392236612334016e-02
1.304829555920266476e-02
-9.585351399630422098e-02
2.033345517937696148e-02
1.469518619391928793e-01
-1.236659204550620145e-01
-1.589074256875804003e-02
1.553744549978883054e-02
1.805841617364635221e-01
4.945158047043306943e-02
-9.826279575874198591e-02
4.762297352452884991e-02
-5.537670244865455088e-02
7.855287224042513394e-02
-1.040374662562428693e-02
-1.833776585086921776e-02
3.563098095145009279e-03
-3.558178593833456055e-02
-2.524412857801643789e-02
1.634352278136240802e-02
-8.892066124088403301e-03
-5.572634342100136334e-02
7.116732356136447335e-02
6.125640751018598257e-02
4.218930235579648053e-02
1.833553318742065300e-02
-1.130095044749458710e-02
-8.375768163811361799e-02
-4.216359110815792038e-02
4.498525541103150921e-02
-1.566362427627785159e-01
-8.386412015971063394e-02
-7.236938267293080429e-02
4.502018791018021215e-02
1.620898499757845723e-01
1.176836669035871419e-01
-5.690921460516217695e-02
4.775810106185455345e-02
5.016262086242354035e-02
5.320411304119946477e-02
-7.447654741246959031e-02
2.569738114572337265e-02
-8.266705295325117719e-02
-4.057895261955454802e-02
2.090033687407604618e-02
7.656077663535931777e-02
-1.943336301050839834e-02
-7.837704927689434498e-02
9.738221283101627934e-02
3.087541105677510736e-02
-2.474862808858684093e-02
-2.545026093248750274e-02
-5.680909921467258705e-02
5.434765172121570898e-02
-1.366101813084688067e-02
7.958249152608924334e-03
-2.685613556272093555e-02
-1.714042534093627307e-02
3.520083825243539716e-02
-1.187815676675339945e-02
-2.797100332500261285e-02
-2.624399661416665364e-01
-1.452553460605170987e-01
-2.959778109328473072e-02
7.547009612748768748e-02
1.467949016423164277e-01
9.693321481190225741e-02
1.402572883437097073e-01
-2.216240762994749203e-02
-5.386697848760328006e-02
-2.010537464288148293e-02
1.613846344333240423e-02
-3.021449694006485796e-03
1.215114705416490276e-01
-3.672843619084318386e-03
-5.653291452135917466e-02
-4.503730200476172181e-04
1.447749322809750161e-01
5.256809827588319883e-02
3.759556551003701702e-02
-7.181660663011692203e-02
-2.087385313744441473e-02
2.092862120399083606e-02
-1.261975262410584830e-01
-3.697923126226681373e-02
-8.381114980376866419e-02
-1.520611697334689483e-02
-3.986248194029231445e-03
1.333659545774036094e-02
5.716538525755637118e-03
-2.818197977437547630e-02
1.142731684555060301e-01
-2.140807693480777357e-03
-3.094967520318672380e-02
1.515169388251083327e-01
4.075385792277291808e-02
9.347683888644479910e-02
-2.082411373452690631e-02
-6.183481116349525547e-02
-2.287233545728857911e-02
-1.492667000758283458e-01
-5.646383687975950472e-02
-1.943367403006894881e-02
-1.963278696095635545e-02
-1.661861518688958345e-02
-1.482852514179768162e-02
-1.502346302721842448e-02
3.728999237125781713e-02
1.047109088554325773e-01
2.499323358241290621e-02
-9.646693637700139157e-02
-8.704968352571118562e-02
-7.438520088753485145e-03
-6.173236886220349884e-02
-9.629592492116803223e-03
9.069358748116526647e-02
1.466302802822081197e-01
-1.768328554633517014e-01
-9.391750373163625099e-02
-2.684703234601055685e-02
-3.900507577164469275e-02
1.299933796910341943e-01
1.353201509719336171e-01
2.889880427472410127e-02
4.239013237495319747e-02
1.395657194734063467e-01
2.118242151778728863e-02
5.313137368642928404e-02
-6.497319207783468220e-02
-5.904518789974409765e-02
-8.893760517872849325e-02
-2.493878697959857338e-02
2.401525745828309369e-02
-4.848166049285747292e-02
-1.126189819531647415e-02
-1.060637537675685332e-01
-8.739730356703609426e-02
7.276665964877823689e-02
6.442281459868864912e-02
8.151518509511722355e-02
3.449995668019294193e-02
1.507803917020877904e-01
4.248179121177068918e-02
2.212024130402634806e-02
-7.165846142109311145e-02
-9.964874590856592773e-02
2.128592931195712537e-02
-1.096285035821014005e-02
-5.439829584197433676e-02
-1.702584099847896104e-01
-1.249720776142799888e-01
1.037290660049000751e-01
9.867063931859079706e-02
6.806089943010834586e-02
-8.425484522947548557e-03
4.635854574450274691e-03
2.855951279396568010e-02
-7.754178414285579912e-02
7.514245236941051453e-02
4.670858463774710256e-02
-1.920974478025308562e-04
-2.164049686983996260e-02
2.399870047691404773e-03
1.039773242190041545e-02
-3.527426101625040500e-02
5.655669523597964266e-02
-6.808679149757526639e-02
6.181835531158971775e-02
9.520861392641379040e-02
-1.439809263063574190e-03
-9.024651030313794731e-02
5.202039359336651896e-03
-5.901259276954397281e-02
-8.622788516219247190e-02
8.562233467227883810e-02
-8.587633437798009028e-02
5.614908819084388908e-02
-8.902973061541705549e-03
1.241451913372937227e-01
1.469049094206740201e-02
-9.959991254076995537e-02
-8.793451245739962452e-02
8.179578394136011871e-03
-3.186125709705735914e-02
7.040903660409962225e-03
3.493393777993489963e-02
6.196537376349977450e-02
-2.216730681354281418e-02
2.984328277001854768e-02
2.006031616663588382e-02
-1.598622679943230082e-02
8.997314222242085158e-02
1.232259080345618207e-01
-8.063574913327276050e-02
-1.253700928906542056e-01
-1.191489930074617586e-02
6.476017004883371847e-04
-4.973581305442724421e-02
-5.995575596119710055e-02
5.680746395228904178e-02
-7.884397395546940968e-02
-5.349277123019689772e-02
1.244370147061568954e-01
3.906951827031285990e-02
2.171431727253105362e-02
7.355108457195759508e-02
-5.788052024180676686e-03
-1.028440757672638844e-01
-4.390237375396723041e-02
2.263388882053007575e-02
4.839973362975491696e-03
4.704355966793477561e-02
4.465995122012829908e-03
1.577182403810730160e-01
1.518620403341170572e-02
-7.372736429967879403e-03
-2.142673364267622116e-02
-2.947814348503247431e-02
4.961761994387049735e-02
-1.315634760285909130e-02
-1.510881031978181521e-01
1.410370350542164697e-01
1.183218226967168579e-01
1.565751376451397503e-01
5.543105081244386473e-02
-1.655520247682585322e-01
8.514777597945025200e-02
-2.396935950640360913e-01
-1.512672023556674294e-01
1.438825683887255125e-01
1.456259496821778743e-01
2.953924167979943630e-02
-1.672986436432799193e-02
-9.601714647741125402e-03
-1.151225143433961540e-01
-1.701746554554323110e-01
-7.419010939804526056e-03
-5.256219223623527503e-02
5.023560773792597883e-02
7.643317567636970233e-02
-3.454149027941707389e-02
-2.801241954496264466e-02
-8.779767146102085418e-02
6.337334420315561545e-02
1.287164590418499351e-02
-3.848179589392469041e-02
-9.425163266873018419e-02
-5.579350062441565394e-02
-1.061802125683882075e-01
-3.883339216249896003e-02
-4.764919214356919119e-02
1.221941196203019629e-02
3.689703140994961550e-01
3.700810588589260597e-01
2.072246316664096144e-02
-1.128430295032191027e-01
-8.062808685038951040e-02
-7.023314477494368990e-02
-4.027793783200805250e-02
-2.854581484134524963e-02
-5.827550822366240474e-02
-1.197662783864014147e-01
-1.104446509128915455e-01
-4.277209160489638118e-02
-6.606200759860673954e-02
-8.048932177376844077e-02
-4.546941533570624666e-02
1.482385731863146254e-02
4.501799082936392971e-01
-1.261020872159331896e-01
-1.151942413094735190e-01
-2.085513750089491580e-01
-3.383581537311602244e-02
6.911861156314817733e-02
3.810030778139182617e-02
1.985866491886748297e-01
1.778779503742595747e-01
3.929163391517677406e-02
9.583932677472291328e-02
1.919353979147201197e-03
9.630913172778135523e-02
-8.388382809623813954e-03
6.939798685202398787e-02
-1.329296151521449643e-01
-1.614394352870838212e-01
2.312587100089521508e-01
1.967727242275084387e-01
-8.861576847342857166e-02
2.916304402709479771e-02
-1.128127015173781000e-01
-5.208394171365623992e-02
1.716567258943323473e-02
-2.208477391485262897e-01
3.283017520015503368e-03
-3.159972422045819558e-04
-6.519278380295451258e-02
3.952415294581910349e-02
4.948834673975797960e-02
-9.621296752101390903e-02
1.238349516844366657e-02
5.704273619213742069e-02
-5.923387490321602340e-03
1.792507382580195083e-02
-3.574788307903358636e-02
-2.786556133596389956e-02
-5.286599254497267864e-02
2.102938884859672369e-02
1.134578903894198215e-01
-3.000952861352702492e-02
-9.221115094993023731e-02
1.742103652437417688e-02
2.929128436932575477e-02
-8.453983382168016314e-02
5.336272539752932864e-02
1.101248961371335648e-02
2.504442389094769378e-03
6.315900647757276276e-02
4.432571848262448731e-03
-3.808054842419511532e-02
-5.191678455445799395e-02
-3.283742454884713141e-02
-2.033874185569527204e-02
5.759536272884880487e-03
1.465764115508380420e-02
1.183237501069640957e-01
5.126173389735847602e-02
6.693798727918583852e-03
6.102200932474855649e-02
3.927480379024177876e-02
5.832008802143506115e-02
-9.789448963460523068e-02
1.761783856643849011e-02
-1.362957826935358163e-01
-1.346889494369607754e-01
-7.110302232023027469e-02
-1.555384666109501865e-02
-5.456921442722856286e-02
4.726475995755363008e-02
1.766873355543611968e-02
2.040466531710184456e-03
2.089410728008148088e-01
-7.526887358342745568e-03
-4.111916843399393562e-02
-5.518856616015428707e-02
8.250527998022469389e-02
-1.058429261943720848e-02
4.751506418301568169e-02
2.514674625752370135e-02
-4.074817584883564520e-02
6.176238102002582636e-02
4.314183194853958569e-02
6.214784088575727589e-02
-9.391509908376992344e-02
4.661697772578787639e-03
-8.781567880526765235e-02
9.197921479986001514e-02
-8.196218853772260782e-02
-1.465023235662930301e-01
8.323350653565871060e-02
2.623485662795246171e-02
3.106323036725545661e-01
-1.773507742993820843e-02
-1.604411659379838262e-02
-1.655814855011847053e-01
-7.423766374495172071e-02
-8.657031999745105205e-03
-1.750874892139901717e-02
-2.664694234754196381e-02
6.918185064484566604e-02
5.779008571765002940e-03
-1.191238622581442669e-02
9.598773782695519188e-03
-1.983452350480604393e-02
-5.960793017317616432e-02
5.239918331531245692e-03
-1.293117085184009203e-02
-6.913168050691863298e-02
8.539949904353087012e-03
-1.231662812494287162e-02
3.166778282634750974e-02
1.085397585946453053e-01
-1.518526219277153110e-02
2.302175447897313390e-02
3.360624072572616222e-02
-4.409423308326278906e-02
-3.346855612071251290e-02
8.985957306061141681e-02
5.272232115336548258e-02
-1.064618380219293226e-01
6.613404559210527001e-02
2.041386501493373529e-01
-6.754950992667110854e-02
-6.808131781978975228e-02
-7.602228061573013118e-02
2.370842137564919613e-02
-5.058508899705770750e-02
-3.174291975784295644e-02
1.435460600827642014e-02
4.856943863920158005e-02
-1.294195795354428080e-01
-3.770835468925279321e-02
-3.953027413255429459e-03
1.495638084450091713e-02
3.514014649487829517e-02
5.806038965109493882e-02
-4.470888196283851479e-01
-1.485685812147887475e-01
-1.416644051234478285e-01
8.977458037464297949e-03
-8.287250024786814440e-02
-1.429160239563803496e-02
6.232940549831586909e-04
8.248851565176829048e-01
9.896525388057859918e-02
1.247793935816348121e-01
1.469728011423942493e-01
1.200105383976017570e-01
-2.441875267057973253e-01
2.581698774403235266e-02
-2.083817764097991854e-01
-6.397567163064553364e-02
-1.707309101796570042e-02
1.298441196807894882e-01
-9.663272012066996541e-02
5.397228473895712697e-02
1.554830160348946999e-01
-7.198040122227750137e-02
-4.623065535120746833e-02
-1.073825527425207871e-01
4.032379188641546652e-02
1.243940467297099950e-01
-1.057203153395047494e-02
-3.239036512362268583e-02
8.179987589363069134e-02
-5.675969929406152886e-02
-1.180702887740377599e-01
-2.872532978408360790e-02
-8.234484095974724249e-02
1.424002140482348577e-02
7.884948135703558070e-02
3.275005991710873421e-02
5.118680296297290627e-02
-4.305134047372825151e-02
3.950923513792893582e-02
-9.113941934639416265e-02
2.230681207855551851e-02
4.433941311093453352e-02
4.787576125877326949e-02
6.336006277234895734e-02
-1.855940557630376270e-02
-4.183710268782185604e-02
-5.438275407441343912e-02
-6.310278688207311693e-02
-1.832259964097387311e-02
1.644384104055715209e-02
5.979062795129577029e-03
-2.741426543690504442e-03
1.180739707507571512e-01
2.351541086243471527e-04
-6.391042782120115451e-02
-5.575757468920285870e-02
1.315876533433713719e-02
-6.223395596142038827e-02
2.522454837128473154e-02
-5.208422226582243297e-02
8.471590826561310739e-02
-8.122829940757960929e-03
-6.522545760104768442e-02
6.456724379781317302e-02
-3.512714738884423205e-02
-3.162641705984258617e-02
2.238274150793726630e-02
2.988902685053083236e-02
-1.292568706127673883e-02
-8.112037974034480570e-03
-5.213009168520583991e-03
4.073253029405051601e-02
-6.817940031805061474e-02
1.479383631288134215e-01
8.346660971410820029e-02
-7.930448807526251087e-02
7.555011264081423761e-02
-4.674598835072769909e-02
-3.608678252340571935e-02
-7.663842621628941254e-02
4.278059801638559728e-02
-8.236100736723921123e-02
6.399560878238143118e-03
4.542220479035074393e-02
6.180058342291355061e-02
9.608095208525509884e-03
-1.553071991531506657e-01
7.165716420397662267e-02
2.773778342384104478e-01
-8.072009833006509039e-02
-1.261248510739903239e-01
-6.202897601176729503e-02
5.630498577397916732e-02
4.966054797183484110e-02
-1.502385226451049757e-02
-9.944559030389098220e-02
-1.918015337889236727e-01
-1.459246588872038786e-01
-1.079089316498551276e-01
-3.995095572212348234e-02
1.141058037504800726e-01
1.112127214291158961e-01
1.063197726430483298e-01
1.539477822254626815e-01
1.455522871840451982e-01
6.450516530907397794e-02
6.332649594806862015e-02
-1.151336671387027805e-01
-1.508032431157917130e-01
8.343236827186495397e-02
-4.328639301427316538e-02
-4.759301344428375907e-02
1.184062908447274937e-01
-8.509155887789061901e-03
-5.009374919865754346e-03
-5.014506339980164679e-02
-1.604786673315282061e-02
-5.134419367369291720e-02
7.856692355616871903e-02
-6.591755978659405435e-02
4.385176641704834760e-02
9.643673043769474332e-03
3.039129242626893712e-02
3.695318371741729280e-02
-1.147101702278410622e-02
6.095330547758086304e-02
-6.145709577146663688e-02
-1.088651082878352855e-01
-3.848179589392469041e-02
-9.425163266873018419e-02
-5.579350062441565394e-02
-1.061802125683882075e-01
-3.883339216249896003e-02
-4.764919214356919119e-02
1.221941196203019629e-02
3.689703140994961550e-01
0.000000000000000000e+00
0.000000000000000000e+00
0.000000000000000000e+00
0.000000000000000000e+00
0.000000000000000000e+00
0.000000000000000000e+00
0.000000000000000000e+00
0.000000000000000000e+00
2.448518743563982414e-01
3.140069811778940789e-02
6.031514275477645876e-02
-5.867701920883755008e-04
-1.069723407605989718e-01
-8.795459134057469208e-02
1.424699980592149598e-02
-1.553010127416229180e-01
1.058835089575726335e-02
1.646320875667298166e-03
3.337354420041858775e-03
-2.624439806432946054e-02
3.366379986801915775e-02
-3.993833126272946371e-02
1.683874259866388959e-02
1.081606689093796494e-04
-2.128622705314300867e-02
1.732441291609563006e-01
-5.107345724664529019e-02
-4.584394297097232895e-02
-6.767273066708516527e-02
8.434146065832558159e-03
-1.086079092380878991e-01
1.128059919491433832e-01
-1.413407512020894985e-01
-2.452845140438404126e-01
-1.006817221020774589e-01
-7.589921862450423051e-02
1.631432489559446475e-02
2.469536003925925927e-01
9.043493441734686000e-02
2.095033462669775859e-01
-1.811985701347062008e-02
-3.765921178178480155e-02
-7.403855958746067981e-04
7.911260776484034529e-02
7.411312368699387622e-03
-2.628402094003499251e-02
3.137954010439029245e-02
-3.509998490676501104e-02
-1.252807696911625301e-01
6.916589783627799526e-02
1.159572679100529108e-01
-4.748816912410182278e-02
6.441362994808350062e-02
-6.394595058284242850e-02
-3.724466500404591523e-03
-9.097439795903746254e-03
1.943638343786927847e-01
-1.863739470795961611e-02
-1.096974445904530249e-01
1.370756468182548760e-01
-4.416795186230452336e-02
-7.903864784898660678e-02
-7.838065229006981743e-03
-7.205997695823657123e-02
2.499323358241290621e-02
-9.646693637700139157e-02
-8.704968352571118562e-02
-7.438520088753485145e-03
-6.173236886220349884e-02
-9.629592492116803223e-03
9.069358748116526647e-02
1.466302802822081197e-01
-1.314899977878180304e-01
-6.972591556275647973e-02
-1.389874355584541817e-02
-3.780728031068524703e-02
4.591019521350549887e-02
-1.258336331198158312e-02
1.239121104650391797e-01
9.568299485054439224e-02
7.541356112249120169e-02
6.754707769318538113e-02
-4.554852974354376555e-03
-3.668506500077942795e-02
-6.952591744951462649e-02
-5.181718044262502432e-02
