0.004853147916634165
0.025170710656968156
0.012937275688302599
-0.004508272904094829
-0.013365139197286359
-0.01754713603912285
-0.019627143500929582
0.012086557379528696
-0.0002728050371370474
-0.00013789738445675
-8.995085882464758e-05
-0.0001708983027347072
-0.00023049677776521143
-0.0002618435472350534
-0.00027280090637283477
0.0014366928145262516
5.867011124626394e-05
0.0020848040565725583
0.0009363577062056394
-0.00027607687926479323
-0.0008722872431220108
-0.0011477446151461337
-0.001343619041171397
0.0005598959046798724
0.0007390264554302963
0.001804274392810257
0.0006422883697160046
-0.0004649003933926152
-0.0009495332774595909
-0.0011245429866337145
-0.0012804008077728192
0.0006337882473021817
-0.00015637506642647732
0.002325706897911224
0.0015403324416724566
-0.00023369871899590452
-0.0012903138611924968
-0.0018426683212834462
-0.0020317861183640016
0.001688802746678646
0.0005906826392047464
0.002837836959335172
0.0019777363534613625
-0.00026651696210504137
-0.0019032207300692958
-0.002409958837236865
-0.002767530393845617
0.0019409709712555389
0.0030446136691899845
0.012080870368544524
0.005591372349960884
-0.0027368975340130333
-0.006514678243844022
-0.008352698844403912
-0.009151171010462419
0.006038589245027997
5.50769759058333e-05
0.00032461083264238036
0.00020184316831874693
-4.5598618476000156e-05
-0.00019346358199733563
-0.00018867127133209927
-0.0002498938640753173
9.60963590137918e-05
0.000306934471227153
0.0017580925114862886
0.0012416916587309219
-0.00019178096337007472
-0.0009006544752761822
-0.0012311729234255708
-0.0014164757960549394
0.0004333655166824033
1.3945135333887764e-05
4.269912268833939e-05
2.3417287562545593e-05
1.2186768137290528e-05
-2.0206698394270163e-05
-2.7503559743473232e-05
-2.4769916809950657e-05
-1.9768138774369218e-05
0.0011115461121111929
0.0018383817887659953
0.0007447664774347328
-0.0005143547961430996
-0.0010739913661559812
-0.001438480873612542
-0.0015762350168451755
0.0009083676744448765
5.440966097102196e-05
0.0002945508587032829
0.00018377273157978817
-4.936936307954251e-05
-0.0001824225686746335
-0.00017530738116521355
-0.0002340974677846818
0.00010846352944997846
-2.6859026752241296e-05
8.87051908657574e-05
3.7822284546354704e-05
-9.561586296106152e-06
-2.0517662200250364e-05
-2.2222140988524646e-05
-3.7080105065458806e-05
-1.028695410953087e-05
3.5412482276260067e-06
7.624284727458706e-05
4.67586907221364e-06
-7.435177610751994e-06
-2.624468989388384e-05
-2.294108327091848e-05
-1.9994538331719753e-05
-7.844475467152666e-06
-3.727179317219049e-05
0.00011491514257885224
5.142315582631886e-05
7.6276664027023256e-06
-2.6981353466242656e-05
-3.547960613230811e-05
-9.068693576294701e-05
1.6453723725814785e-05
3.6900866697824995e-05
0.00013793774171384608
3.542822160041145e-05
-8.618595564444205e-06
-7.782745440368245e-05
-8.326419467038125e-05
-0.00011525959506774842
7.470300969417379e-05
6.673149348113369e-07
3.0059973939097456e-05
1.8070436738958798e-05
3.7707446035423487e-06
-1.1041013322702206e-05
-1.3363890166885582e-05
-1.5796396290635536e-05
-1.236717043618662e-05
3.656602866464516e-07
9.262801419348525e-05
5.3793096347558714e-05
-3.182190471681597e-05
-1.8492810750424043e-05
-6.80135404029298e-05
-5.44834292780352e-05
2.6024914320514608e-05
1.3239042398246031e-05
1.4142259136495336e-05
2.9497050220052996e-05
7.669507671527432e-06
-5.754754994956354e-06
-3.545587663697174e-05
-5.792745266034148e-05
3.459022486594778e-05
2.477698833082402e-05
5.741958047548044e-05
1.5992120534983648e-05
-1.2071173367642179e-05
-2.100768259123109e-05
-3.061209056969971e-05
-2.2646408661668127e-05
-1.1851334151047007e-05
5.050283391706512e-07
7.659553349388213e-06
2.8672206967037844e-06
7.509164303783897e-07
3.525233482936306e-06
-9.120225702433283e-06
-3.9618085320392845e-06
-2.225918064104777e-06
2.667562568899226e-05
0.0004098011537163896
0.0002992754431261049
-5.733194608311477e-05
-0.00016041233004860907
-0.00024157745587667762
-0.0003177646388828107
4.133414835972542e-05
0.0003137562156508667
0.0012736212937628536
0.0009908789628693619
-0.00016815886385066907
-0.0007003371550955348
-0.0010020077184760617
-0.001060834488366634
0.00035308175350581665
3.452396899804883e-06
3.243834674663304e-06
1.3572019321810419e-05
-4.094754989142403e-06
-3.998215365998924e-06
-3.951057467016579e-06
-3.925388630959211e-06
-4.298834443161481e-06
1.2743604261580317e-05
7.789426228656826e-05
2.9223164983013465e-05
-7.582295429163288e-07
-2.979507426520658e-05
-3.6708702960251323e-05
-3.632991603051177e-05
-1.626910873227605e-05
1.5214271524207517e-05
4.650519393054211e-05
3.4860765963107125e-05
-1.4583171049702423e-05
-1.8888169657607664e-05
-2.1060315829286387e-05
-2.8518101608636016e-05
-1.3530473272624283e-05
2.262558768593345e-05
6.459730477481365e-05
3.643225605869929e-05
-8.688696786525673e-06
-1.9772475237283553e-05
-3.683532382378576e-05
-5.68253614923724e-05
-1.5332911794789762e-06
-2.0265401342023355e-06
-2.494774671319956e-06
5.432353188086034e-06
1.6046682784068005e-05
-1.5892680140949907e-06
-6.584601898672261e-06
-3.977413864622903e-06
-4.806437389241598e-06
-2.5812090284941375e-06
0.0001800573646691801
4.769933076337765e-05
-1.3659812214272126e-06
-6.669067423640865e-05
-8.800310851242778e-05
-0.00010246370155056788
3.3347979116767906e-05
1.829457717532148e-05
0.0026739021294944726
0.0013360329174773393
-0.0006100919017511139
-0.0014300241145413042
-0.001790737090913695
-0.0019315760473006143
0.0017341995303595949
1.697279954206074e-05
2.8647832517016037e-05
1.6568019446475352e-05
-8.064276158985307e-06
-1.5281341945807978e-05
-9.978491086397152e-06
-1.4975911717740783e-05
-1.3888630596620912e-05
1.7617333478091049e-06
3.5539558943917795e-05
1.635488814617937e-05
1.030932779322196e-05
-1.185508986148166e-05
-1.91364096227239e-05
-1.63928055759875e-05
-1.6581203170935167e-05
3.3517074149377655e-05
8.593265234026139e-05
4.4873104122949495e-05
-8.124472219840268e-06
-2.6964523185908975e-05
-3.898697061996195e-05
-4.370958773575844e-05
-4.65372768511189e-05
0.0014303865808857892
0.0044912052660007525
0.0017430811984557979
-0.0009020241474342181
-0.0024069564446204824
-0.003104429081257969
-0.003503180319805586
0.002251916947775915
0.0005824631668145244
0.001257397183844454
0.0004086519297008668
-0.0003799814786554449
-0.0007232034071444023
-0.0008385786093237532
-0.0009239902506018374
0.0006172414653655928
9.991551004667694e-06
6.810154695451032e-05
3.08780253823181e-05
-2.539461866982644e-06
-7.75249447016495e-06
-3.974756330673106e-05
-6.209470577978401e-05
3.163102082166553e-06
0.0002642369022036889
0.001539687291180143
0.0009746259363419698
-0.000249628063156395
-0.0010246227182737408
-0.0012474541215627348
-0.0014917189375635005
0.001234873710830571
1.1467662014217114e-05
0.00016402900859574252
8.306519111670931e-05
-2.7937528193343352e-05
-9.360423084056409e-05
-9.854451132599006e-05
-0.00013283519999281334
9.435960862604195e-05
5.1598101403067403e-05
0.00039881002875874456
0.0001163035178256335
-0.00010204728475845383
-0.00017047338050215483
-0.00020879992000703571
-0.00024951826529050203
0.00016412720257070077
-2.887831985431028e-05
0.0009378046672974021
0.0004565308596120897
-0.00016847798036048777
-0.00043666071988219754
-0.0005766510319168811
-0.0006744527734660928
0.0004907852985704776
4.1195981441258505e-05
0.00014399588373597335
7.08543449328405e-05
-3.0663040660924485e-05
-5.9725328884905124e-05
-9.348298052952618e-05
-0.00010010852045843417
2.7933660423717614e-05
-4.722374388902682e-05
0.0003385177338257738
0.0003483757214793436
-9.273095666855126e-05
-0.0002009522646966052
-0.00023248504327713895
-0.0003232987555403792
0.0002097973087665843
5.599482173776829e-06
2.5192292821100267e-06
2.8413573512093277e-06
7.578543525782585e-07
-1.5533317513332947e-06
-1.4385019197203426e-06
-6.476790083711453e-06
-2.2492994049093493e-06
-2.0977814885711463e-05
9.513232604115704e-05
1.5841979977105066e-05
1.151667205871287e-06
-2.5292220928587976e-05
-2.9632203499128285e-05
-4.1988094605004445e-05
5.764360694298808e-06
5.18710052076245e-05
0.00015743183513187365
4.5859097857565884e-05
-5.3403588085875865e-05
-4.947117705906169e-05
-8.330459038870582e-05
-0.00010274417167498027
3.376158901155956e-05
2.4015378612701886e-05
4.3653870873883794e-05
0.00012374176634993
-6.304305567817532e-06
-4.7073659327415636e-05
-6.114302589774014e-05
-6.815119400810777e-05
-8.738831035434627e-06
0.0002862149644501318
0.0025170642797251327
0.0014471389803462223
-0.000617737167488204
-0.0012417884121255509
-0.0015779520881178835
-0.0016913981958035396
0.0008784576390136913
-9.537916936099798e-06
0.00017034492418835384
8.408402926546779e-05
-2.5796460740626734e-05
-7.042203854564397e-05
-8.902094696752131e-05
-0.00010339977589889164
4.374818563496179e-05
0.00019817143456754663
0.0005603169045581652
0.00032035277624679274
-9.268952119639775e-05
-0.00036191790640070196
-0.0004410997105018221
-0.00044878143070750426
0.00026564745343392136
-0.00010396202888969339
0.0005400713441553627
0.0002201015646930474
-7.16770032613693e-05
-0.00019865632154949676
-0.00025738928618007596
-0.0002395493373130893
0.00011106106834531465
-1.1109798427197159e-07
0.00015034781409458987
5.571548874793483e-05
-1.4498263064438641e-06
-4.659108881346247e-05
-7.307577194259948e-05
-9.520565827186492e-05
1.0370140476118047e-05
-6.291185020794985e-06
0.0002779127362486238
9.970776754268855e-05
-6.227875473554873e-05
-0.0001395510766888384
-0.0001949992298315291
-0.00018572164931116882
0.00021122139179656748
-4.516649844288145e-06
1.0579669354921296e-05
8.15004787170276e-06
-4.415167257865195e-06
3.3383302224126647e-06
-4.263050984745493e-06
-4.235308703132493e-06
-4.637870659005387e-06
-2.6113377848007178e-06
7.359503784504768e-06
7.4933212702916506e-06
2.6025241725116177e-06
-2.387355480237811e-06
-4.884074604194396e-06
-2.3033137357126207e-06
-5.269267622362486e-06
-2.040046597290805e-06
0.00013780817547258664
0.00011987009511562844
2.2167899234633492e-05
-6.1009342158115735e-05
-7.975295039072766e-05
-0.00011968439435768552
-1.7359436319028827e-05
2.657163281949108e-05
0.00010108450103546463
6.819741741546147e-05
-3.753794311546301e-05
-4.830231874072399e-05
-3.461023118145572e-05
-5.19629835390816e-05
-2.3440074693692813e-05
0.0003264457370010575
0.001298149668155029
0.0010031104171193926
-1.68888989486464e-05
-0.0008785980117955554
-0.0011625047156741297
-0.0012758114562821162
0.0007060972604249683
-1.0765392104464213e-05
9.017844987584424e-05
2.8683446417826018e-05
-2.1834226450795183e-05
-1.0121697170702304e-05
-4.0011319941131965e-05
-4.729479037156227e-05
1.116552974498567e-05
-1.5232169906682888e-05
8.944335639746363e-05
9.257045654709676e-05
-7.856782791777346e-06
-2.107339978361911e-05
-5.580216337428371e-05
-5.020795159003444e-05
-3.184134549816289e-05
3.787306226782266e-05
6.989651700241504e-05
5.7538063698679195e-05
-8.837135732957807e-06
-5.5994316607179336e-05
-6.945743385930556e-05
-8.380825915574701e-05
5.278950238627285e-05
4.693704646771339e-05
0.0001455829485017006
8.35574632186937e-05
-3.444313462455395e-05
-3.984118308751913e-05
-9.873683380722472e-05
-0.00011537342919629601
1.2317122527486186e-05
4.680969964657422e-05
0.00011805187707879902
3.466063037823924e-05
-1.4429733714597449e-05
-3.007085953429101e-05
-5.197981935854644e-05
-6.418312243099269e-05
-3.885867206518481e-05
-8.298796811280974e-05
0.0008335878284615555
0.00046261643590752574
2.5016854768701317e-05
-0.0006171032717924889
-0.0009406047562513757
-0.0009519191430923053
0.0012713940201111971
3.6712082929029165e-06
7.006218937819507e-06
1.581116339972255e-05
1.9934228639984145e-06
-1.768156829070324e-05
-7.14156101570709e-06
-6.966998481051329e-06
3.308114293018273e-06
5.934712447614763e-06
2.9081426732977578e-06
6.476162717141479e-07
-6.5814536474748514e-06
3.838536590133246e-06
1.393332656866963e-06
-6.2002163630247974e-06
-1.9406706291272277e-06
-1.293166580298004e-06
1.2707652649600564e-05
5.818131785526129e-06
1.4655258409283237e-05
-5.091438851607775e-06
-2.2193895689865454e-06
-2.2446215223434738e-05
-2.130832620082867e-06
-2.713829134235768e-05
0.00040875969899615243
0.0001631031166931359
9.271909502089083e-06
-0.00013655733054922573
-0.0002135780065085208
-0.00023673498939000807
3.2873892598734836e-05
0.0
0.0
0.0
0.0
0.0
0.0
0.0
0.0
1.3945135333887764e-05
4.269912268833939e-05
2.3417287562545593e-05
1.2186768137290528e-05
-2.0206698394270163e-05
-2.7503559743473232e-05
-2.4769916809950657e-05
-1.9768138774369218e-05
3.8221854042518894e-05
0.00012161411626581358
0.0001244479213480368
-1.1141540519072062e-05
-7.636345130134826e-05
-5.6806682778247235e-05
-0.00010945467484647207
-3.0517542211229565e-05
1.6187806928503084e-05
0.0001729367424374693
5.932481023175146e-05
-3.822782256047044e-05
-0.00010605911737328521
-0.00011850069838696633
-0.00012464279293820978
0.00013898107166120794
-2.6859026752241296e-05
8.87051908657574e-05
3.7822284546354704e-05
-9.561586296106152e-06
-2.0517662200250364e-05
-2.2222140988524646e-05
-3.7080105065458806e-05
-1.028695410953087e-05
-9.507123091403363e-06
-5.269143021502072e-06
2.949700276656471e-06
1.3904989183784128e-05
6.640166980784869e-06
-8.481914594502967e-06
-8.387769556318504e-06
8.151093822501443e-06
3.5412482276260067e-06
7.624284727458706e-05
4.67586907221364e-06
-7.435177610751994e-06
-2.624468989388384e-05
-2.294108327091848e-05
-1.9994538331719753e-05
-7.844475467152666e-06
-6.758785991388762e-06
7.57745893623626e-05
1.557294735350728e-05
-8.581072147551103e-06
-1.8120872905913627e-05
-1.5264547666138525e-05
-2.530669193963015e-05
-1.73155660652477e-05
-2.323245273213777e-05
4.4751976402195e-05
3.3231397469603835e-05
2.6186047440885336e-06
-1.5194192012006769e-05
-1.1430667587230533e-05
-5.669227127779306e-05
2.5947604993280748e-05
2.226568642739416e-06
-3.4228016420327444e-07
-3.3088927344872304e-07
-3.1485537761923166e-07
-3.0645552910712176e-07
-3.024762844360831e-07
-3.0020298920528277e-07
-3.294090247196998e-07
4.0694952380440855e-05
0.00015406591681352963
4.2505576926648375e-05
-5.9243161969984656e-06
-5.8206039594185865e-05
-9.467910306566156e-05
-9.629268359932696e-05
1.7835696335553896e-05
-3.7940856826158812e-06
-1.6128175099683534e-05
-7.077355326236923e-06
-2.6942793674457392e-06
-1.9621414809496597e-05
1.1414908395280244e-05
-1.896691146842147e-05
5.6867313358619905e-05
6.673149348113369e-07
3.0059973939097456e-05
1.8070436738958798e-05
3.7707446035423487e-06
-1.1041013322702206e-05
-1.3363890166885582e-05
-1.5796396290635536e-05
-1.236717043618662e-05
3.656602866464516e-07
9.262801419348525e-05
5.3793096347558714e-05
-3.182190471681597e-05
-1.8492810750424043e-05
-6.80135404029298e-05
-5.44834292780352e-05
2.6024914320514608e-05
1.3239042398246031e-05
1.4142259136495336e-05
2.9497050220052996e-05
7.669507671527432e-06
-5.754754994956354e-06
-3.545587663697174e-05
-5.792745266034148e-05
3.459022486594778e-05
2.477698833082402e-05
5.741958047548044e-05
1.5992120534983648e-05
-1.2071173367642179e-05
-2.100768259123109e-05
-3.061209056969971e-05
-2.2646408661668127e-05
-1.1851334151047007e-05
-6.774205923125446e-07
4.266854067373252e-06
-7.411281920342609e-07
1.94825082564585e-06
4.570932327522036e-06
-3.045705364642998e-06
-3.0265065175386515e-06
-3.2952765540126825e-06
8.960616929339009e-07
6.700368552853276e-07
8.126296818169069e-07
-1.5429582586287586e-06
1.107593195971191e-06
-3.945433479913022e-06
-1.3697893500335748e-06
3.3718596625680278e-06
2.8638723854929525e-07
2.722662426729634e-06
2.7957192069211375e-06
3.4562386336129855e-07
-2.1532920405569205e-06
-2.1290868578772624e-06
4.3448733553294237e-07
-2.302501172660124e-06
-6.8746995283250874e-06
0.0002980168205343866
0.00022555888601647636
-3.369479237026287e-05
-0.00010215982932905145
-0.00015699283209746748
-0.00021110839473541875
-1.2745158490337319e-05
5.1522515172438935e-05
0.00011831081953788925
3.4493454429154425e-05
-2.036589305589435e-05
-4.403945729001121e-05
-4.828645738665015e-05
-5.8053514939679074e-05
-3.3581466467247786e-05
-1.3369994848338824e-05
3.993639296135261e-05
5.5895951373084194e-05
-1.4197603849934981e-05
-4.913117881710218e-05
-0.00013048588033967007
-0.00010868241757656783
0.0002200347310971772
3.734187402022926e-05
0.0002629126825062456
0.00015580847245883246
-2.8771500546012875e-05
-0.00010829534554044847
-0.00015592168975192124
-0.00018221591518917786
1.9141422042253283e-05
-1.8625286105534326e-05
-8.892911709111793e-06
8.238668062624372e-06
1.8521269682840872e-05
9.630017524907692e-06
-4.074402065410418e-05
-3.787794729385145e-05
6.975021049222882e-05
-4.305329195018418e-05
0.00030367842332732425
0.00017543197113574724
-3.064260851191154e-06
-0.00012433480083842352
-0.00015204202839455122
-0.00016078459732670787
4.168584897986481e-06
0.00036527340066590865
0.0006389015506874735
0.0004534028105653608
-0.00012946855767398692
-0.0003787495912684942
-0.00046691754973020403
-0.0005058277913689508
2.3385728122892994e-05
7.725211979789855e-06
3.7727854902903446e-05
0.00014304605237829297
-1.4892426943695257e-05
-6.569707544358511e-05
-5.9277685122670234e-05
-7.132302072954618e-05
2.2691088978510517e-05
7.790342182735282e-06
7.127138853070618e-06
1.2623287432956565e-05
3.026909490506998e-06
7.985809568353096e-07
-1.1797121004901498e-05
-6.609628079883373e-06
-1.2959509831319893e-05
1.5454275382499245e-06
1.366694058351123e-06
1.4228813041536536e-05
-3.46453399561354e-06
-3.3821899876063254e-06
-3.3422468612157024e-06
-3.3205821938063975e-06
-3.631381599895618e-06
1.9069693615549578e-06
1.8771406163121816e-06
-6.567937197261234e-07
-6.30220993528863e-07
-6.160253783926011e-07
-6.088106058008765e-07
-6.048064371528139e-07
-6.674528432658619e-07
-2.486211399436364e-06
2.5988128474532678e-05
2.98823685875954e-05
-1.426881958374897e-06
-1.3267039089205158e-05
-2.0489406379124236e-05
-2.2821001092580647e-05
4.620042856593236e-06
1.5229815661016681e-05
5.1906133812035604e-05
-6.592036045819193e-07
6.686524154585682e-07
-1.652803517600143e-05
-1.621929658112709e-05
-1.3508914937931118e-05
-2.0889151588869288e-05
1.5214271524207517e-05
4.650519393054211e-05
3.4860765963107125e-05
-1.4583171049702423e-05
-1.8888169657607664e-05
-2.1060315829286387e-05
-2.8518101608636016e-05
-1.3530473272624283e-05
2.262558768593345e-05
6.459730477481365e-05
3.643225605869929e-05
-8.688696786525673e-06
-1.9772475237283553e-05
-3.683532382378576e-05
-5.68253614923724e-05
-1.5332911794789762e-06
-2.0265401342023355e-06
-2.494774671319956e-06
5.432353188086034e-06
1.6046682784068005e-05
-1.5892680140949907e-06
-6.584601898672261e-06
-3.977413864622903e-06
-4.806437389241598e-06
5.182419807574546e-07
0.00013573032007640855
4.8631472138901925e-05
-3.8118292038773214e-06
-6.953188718703037e-05
-7.317320915123004e-05
-8.772691015668039e-05
4.936380150275018e-05
-6.510133710468245e-07
4.403314292283513e-06
-6.659691131674821e-07
-6.275861251815325e-07
-6.09065261704815e-07
-6.006360249652186e-07
-5.964397456852798e-07
-6.526046505323609e-07
-2.4484376382047656e-06
3.992373030048803e-05
-2.661722623568098e-07
3.0734341076316425e-06
3.4502782123265003e-06
-1.4229263336232542e-05
-1.4140351648202163e-05
-1.53632177354499e-05
1.697279954206074e-05
2.8647832517016037e-05
1.6568019446475352e-05
-8.064276158985307e-06
-1.5281341945807978e-05
-9.978491086397152e-06
-1.4975911717740783e-05
-1.3888630596620912e-05
1.7617333478091049e-06
3.5539558943917795e-05
1.635488814617937e-05
1.030932779322196e-05
-1.185508986148166e-05
-1.91364096227239e-05
-1.63928055759875e-05
-1.6581203170935167e-05
-1.5288223696544764e-05
7.640073278967024e-05
4.745275385785613e-05
1.2100016594428337e-06
-2.0616577931334774e-05
-3.0292441322991563e-05
-3.0017740802079315e-05
-2.8848504554018766e-05
4.880529784592241e-05
9.53191955059117e-06
-2.5796497349066455e-06
-9.3344738792831e-06
-6.34794525457421e-06
-8.69452929697038e-06
-1.3691846933679111e-05
-1.7688772297100146e-05
8.655901596497286e-05
0.00046299874035453956
9.58929309372137e-05
-4.867154136909968e-05
-0.0001466772439342983
-0.00017425035619967065
-0.00019056005697532557
-8.5291488778332e-05
0.00027744933566897713
0.0003747507481899186
0.00011278643934979488
-0.00014066871042241286
-0.00022146528986399317
-0.00023667544092599856
-0.00026197867766643946
9.580159567015327e-05
0.00020861489452631872
0.00022472799812880403
0.00011376212777646501
-0.00013584623370502475
-0.0002655132041115654
-0.00028740032447292877
-0.000319939963889459
0.0004615947057473903
0.0
0.0
0.0
0.0
0.0
0.0
0.0
0.0
9.839920654255753e-06
0.00019491969717119173
8.621043163739311e-05
-5.479499315890752e-05
-8.954766923454532e-05
-0.00014025248772515583
-0.00015151155207061322
0.0001451366527263813
9.991551004667694e-06
6.810154695451032e-05
3.08780253823181e-05
-2.539461866982644e-06
-7.75249447016495e-06
-3.974756330673106e-05
-6.209470577978401e-05
3.163102082166553e-06
1.790906211417196e-05
4.298834807871465e-06
1.907960363133451e-05
-1.6082994876528222e-05
-3.739987198705619e-05
-3.917584143214685e-05
-4.639719720492097e-05
9.776840494727431e-05
7.661573121918732e-05
0.0004856053301097415
0.00020065311333913093
-3.9336195421208015e-05
-0.0002510685454406003
-0.00027334907056556943
-0.0003340546589822617
0.00013493429574157985
2.2128038702469902e-06
5.2105934628462694e-05
2.6920828149530475e-05
-1.650600760765739e-05
-6.875032195623505e-05
-9.756537250411663e-05
-6.0927345769044006e-05
0.0001625094811888129
-6.185679469681888e-06
0.00019927380582962072
0.00016606715523625204
-4.6632249560369776e-05
-0.000128648842257249
-0.0001405972193414394
-0.00015156863630246667
0.0001082916658653338
0.00010675619944879128
0.0001694561831012566
3.0369881650914757e-05
-4.692464570093374e-05
-9.42705994217247e-05
-0.00014239081216175974
-0.00018425774085530664
0.00016126153393876218
2.9285976154012018e-05
0.00048728075138387313
0.00036769447230391636
-5.758617273316612e-05
-0.0002611362679836189
-0.0003470936432235464
-0.0004471614796391723
0.00022871636373770186
2.1473906759348667e-05
4.5550648363403794e-05
3.159246746002754e-05
-5.767848970261551e-06
-3.82549980993349e-05
-3.41795946640821e-05
-6.647883698474574e-05
4.606425613564426e-05
-2.2011730650192285e-05
1.7635792034303492e-05
2.489305775163905e-05
5.350878724563011e-06
-2.0860313910576962e-05
-1.998405100652813e-05
-3.22450004032053e-05
4.722136745999714e-05
3.77944418142928e-05
2.1713633359927567e-05
3.0720396358659256e-05
-1.7708815267998067e-05
-8.111289822277325e-05
-0.00010148162176117453
-8.730351408188499e-05
0.00019737837780095128
-6.04267279419615e-06
-4.543271406323754e-06
1.8085627445003506e-05
-9.390428542552791e-06
-2.056237340639471e-05
5.886171345651153e-07
-2.962060137375064e-05
5.148510294364941e-05
-1.2624307852905575e-05
0.00010291545132212452
2.6650942811630796e-05
-5.411534053456712e-06
-2.4030512806855887e-05
-4.870340411439926e-05
-4.3184585870921064e-05
4.387950564783216e-06
8.086023675799009e-07
5.788699091353699e-05
2.476037032253847e-05
-1.2448258756529612e-05
-3.356910629653756e-05
-3.525146782419488e-05
-4.754318355008987e-05
4.5356052823696525e-05
5.523920218308119e-06
6.31126420094684e-05
1.6886443220398897e-05
-3.0115525775805677e-06
-3.207725012579881e-05
-3.899429327621687e-05
-4.6256684084730464e-05
3.481677461615128e-05
7.097369358185456e-05
2.969029893260062e-05
-8.432468134858752e-07
-3.185293308202264e-05
-4.092369467082004e-05
-3.66206419278042e-05
-6.373530814497912e-05
7.331183212465667e-05
-2.4899512397095236e-05
0.0003060070878166756
0.00010026032141872043
-6.718279909885062e-05
-9.747243570553596e-05
-0.00013318498480301467
-0.0001395262730607924
5.59985958298928e-05
-8.299038819348394e-05
0.0002836768050367907
0.00017169009760850594
-1.9484893203786086e-05
-0.00011512234164107955
-0.000169549699388345
-0.00018519916421638074
0.00011697958399777849
6.0232146219784783e-05
0.00030021296377580044
8.419139572669328e-05
-9.303394273349984e-05
-0.0001586719521673139
-0.00023001176447121988
-0.00026047257108110556
0.00029755372473086076
-6.12007788061118e-06
0.00035391489848481117
0.00020064936627689055
-5.5959144423201945e-05
-0.00016286642607380396
-0.0001770895680573164
-0.0002287810381686066
7.625198984183848e-05
8.494956795453795e-06
2.8600640167013004e-05
2.0129280129655085e-05
4.812480878385765e-06
-1.429584822082739e-05
-2.897310075478038e-05
-2.354013819240267e-05
4.771729197502795e-06
1.3818895279354321e-05
-7.582801255875514e-07
5.528334409360407e-06
-1.0729403123074178e-05
-2.263319300720056e-06
-1.4627083936693768e-05
-2.2074716046033846e-05
3.110557284339466e-05
1.8882129366450403e-05
0.00011615352369454785
4.519673039382501e-05
-2.474611841623608e-05
-4.316616136335767e-05
-4.988279583805204e-05
-5.4493666219997614e-05
-7.943641617179852e-06
3.8967835588909054e-05
8.805658418344515e-05
8.471268526716244e-05
-5.196603551806235e-05
-5.6506522751330833e-05
-7.033560465502109e-05
-7.976159467143477e-05
4.683265255633243e-05
-7.19744902648939e-05
0.00021670226418822936
0.0001754100926779869
-4.968594316432378e-05
-0.00011755946933260513
-0.0001185757482960501
-0.00018781934584004149
0.00015350264003169815
-1.5157646436819854e-05
2.6080500195492838e-05
7.326324923918587e-05
-1.4451130108712603e-06
-1.585113155454738e-05
-2.562864745453516e-05
-2.7956478625154715e-05
-1.33047323527503e-05
9.405572237778552e-07
7.678385258606333e-06
1.4989694295008348e-05
1.0366135024706075e-05
-1.1035141058121847e-05
-1.7945042871532494e-05
-2.776133640374831e-05
2.2766748531304054e-05
5.599482173776829e-06
2.5192292821100267e-06
2.8413573512093277e-06
7.578543525782585e-07
-1.5533317513332947e-06
-1.4385019197203426e-06
-6.476790083711453e-06
-2.2492994049093493e-06
-2.0977814885711463e-05
9.513232604115704e-05
1.5841979977105066e-05
1.151667205871287e-06
-2.5292220928587976e-05
-2.9632203499128285e-05
-4.1988094605004445e-05
5.764360694298808e-06
-1.3708442689916684e-06
3.0224589420151793e-05
1.844485829509038e-05
-1.0803607553681506e-05
-2.46326598660446e-06
-1.2336106922114678e-05
-1.7259843435717747e-05
-4.435779548132103e-06
5.324184947661619e-05
0.00012720724571172183
2.7414239562475528e-05
-4.259998053219435e-05
-4.700791107245724e-05
-7.096848346659115e-05
-8.548432823926243e-05
3.819736855969167e-05
2.4015378612701886e-05
4.3653870873883794e-05
0.00012374176634993
-6.304305567817532e-06
-4.7073659327415636e-05
-6.114302589774014e-05
-6.815119400810777e-05
-8.738831035434627e-06
-3.668494963737812e-05
3.505226761773385e-05
5.837514990499143e-05
1.4282891833662702e-06
-1.9239490778509886e-05
-4.3644819289092987e-05
-5.32656409366568e-05
5.797919393554627e-05
1.7354705831041e-06
3.316450933596337e-05
3.6590547447884394e-06
-5.027412459705332e-06
-1.9511845539894066e-05
-1.4016744905095065e-05
-1.8912081834847083e-05
1.8909050075685628e-05
2.5411562118174227e-05
0.00010212814723465662
2.2049824615687937e-05
-2.2197337464287682e-05
-3.1670702227240014e-05
-3.135938277333325e-05
-3.1222053127387804e-05
-3.314005837627007e-05
-2.2892807693433884e-05
-2.141846728755353e-05
-2.3315477798390834e-05
-1.9846821522501518e-05
-1.93886730535035e-05
-6.419141774584333e-06
-6.308951841389898e-06
0.00011959034097135748
-7.071416804098957e-05
0.00023454989177369582
0.0001393853446914516
-3.2680905268297375e-05
-8.182167768463057e-05
-0.00012310880513108
-0.00010166742548713199
3.605774514698219e-05
-1.0355053155269921e-05
0.00032693991966922055
0.00010403169779998669
-1.9149276470570408e-05
-9.744597081136268e-05
-0.00012786133927441168
-0.00013157295998456745
-4.458701777302507e-05
-6.423443602585698e-06
2.6697272204439716e-05
2.0689088328620905e-05
-4.6417606272900535e-08
-1.4650775476164921e-06
-1.878732287761689e-05
-3.1256340043107794e-05
1.059224114413915e-05
5.334224589417246e-06
2.930785707129253e-05
1.4956671616296798e-05
-4.114992182843596e-06
-8.52742701044069e-06
-1.3303441891517795e-05
-1.3126364858789087e-05
-1.052652733341541e-05
8.836964447555808e-07
-4.501417349829265e-06
3.3156833942675925e-06
3.573572788819516e-06
8.816320392501778e-06
-1.3154566919389365e-06
-3.826162360185564e-06
-6.9462366183907085e-06
-8.668483216317631e-07
8.732100528347477e-05
7.934543696633216e-05
2.1150292516979235e-05
-5.890997169724908e-05
-4.543409573920461e-05
-7.056872048244013e-05
-1.2037098526260557e-05
-9.676757072461689e-07
-1.0165417367911359e-06
1.5632148101109898e-06
1.6054437179512472e-06
-9.231862953112348e-07
-9.126331904494401e-07
-9.068066131629573e-07
1.5581850148987e-06
-1.1109798427197159e-07
0.00015034781409458987
5.571548874793483e-05
-1.4498263064438641e-06
-4.659108881346247e-05
-7.307577194259948e-05
-9.520565827186492e-05
1.0370140476118047e-05
1.626398790584611e-05
0.0003067937534301776
0.00012788545916295925
-4.278502618797885e-05
-0.00012314703078660397
-0.00018395681408090304
-0.00017481490548853642
7.376057604503936e-05
-2.25551729266411e-05
-2.8881017181553753e-05
-2.8177691620270672e-05
-1.949372854756989e-05
-1.640404590223437e-05
-1.104241575062602e-05
-1.0906743822632314e-05
0.00013746081575152812
-4.516649844288145e-06
1.0579669354921296e-05
8.15004787170276e-06
-4.415167257865195e-06
3.3383302224126647e-06
-4.263050984745493e-06
-4.235308703132493e-06
-4.637870659005387e-06
-2.6113377848007178e-06
7.359503784504768e-06
7.4933212702916506e-06
2.6025241725116177e-06
-2.387355480237811e-06
-4.884074604194396e-06
-2.3033137357126207e-06
-5.269267622362486e-06
2.42411768106993e-05
7.910715817364062e-05
6.104423495421728e-05
-3.516635803184882e-05
-4.373224952918695e-05
-2.255759773420027e-05
-4.510378129527547e-05
-1.7832583348045732e-05
1.4992825070003456e-07
2.2515287653037752e-05
5.031905848719995e-06
-7.193657959163174e-06
-1.819790931949249e-06
-9.340118622411609e-06
-4.167311536999935e-06
-5.176242701933829e-06
2.180527758091731e-06
-5.379447912137528e-07
2.1212766125241895e-06
4.822072875548968e-06
-2.7502782795878144e-06
-2.712514824843859e-06
-2.691890706806214e-06
-4.3124864371324637e-07
-5.19122656434661e-06
2.217091644943678e-05
1.445043611789662e-05
-2.6353640653599805e-05
-5.023386758877202e-05
-6.865839836505651e-05
-6.757123508641242e-05
0.00018138701569085392
4.998950110714202e-05
7.659554958248329e-05
6.380553475950243e-05
-1.9525787589640932e-05
-4.333891494854949e-05
-4.511601519312027e-05
-4.9812220516868366e-05
-3.259764720094877e-05
-6.634208151760924e-06
1.9412272534281614e-05
3.058329111549049e-07
2.0445114038303994e-06
-1.2365947703356766e-05
-1.4502381581535742e-05
-2.4491765239693823e-05
3.6231685827080334e-05
1.1287109374698651e-06
4.634014305938126e-05
3.35656173335856e-05
-7.2615482168204e-06
-5.669091313383605e-05
-7.260903040791484e-05
-6.9002715238258e-05
0.00012452973566639256
-2.2152106119581425e-05
8.301786691926308e-05
6.86645629285356e-05
6.134119819089032e-05
-6.21847267539288e-05
-0.00011391076702430422
-9.514361104226328e-05
8.036758290138878e-05
9.63094064481728e-05
0.0003305037511355896
0.00020037510090410135
-3.036286278980881e-05
-0.00020935368064995053
-0.00021903564273565617
-0.000307924631184736
0.0001394885588722878
-3.9553302831374525e-05
0.0001518790641759746
0.000148560782925216
5.436391027278876e-05
-7.424703233295695e-05
-0.00012222501055811317
-0.0001257446967012898
6.96628504975506e-06
0.00016420838530419973
0.00024327777921322882
0.00016011101175194067
-9.235221700882305e-05
-0.00013823271236696206
-0.00017552513850289215
-0.0001890431713567585
2.7556062966066516e-05
1.1879079911464758e-05
0.0002176628052753563
0.00016101579174325145
1.3237692316552755e-05
-0.00012411149123189193
-0.00018297504349930373
-0.00020594634433990412
0.00010923750982447468
6.751306053695017e-05
4.403110434678558e-05
9.336329617607282e-05
2.4563104185926588e-05
-6.199643556158476e-05
-5.31022135641179e-05
-6.77422967001115e-05
-4.662961941992093e-05
8.948436422721563e-06
6.325841546324831e-05
5.889244956813546e-05
3.4167409400577652e-06
-4.5842289523765774e-05
-9.484507424211464e-05
-7.338876887582067e-05
7.956009024753802e-05
-1.0765392104464213e-05
9.017844987584424e-05
2.8683446417826018e-05
-2.1834226450795183e-05
-1.0121697170702304e-05
-4.0011319941131965e-05
-4.729479037156227e-05
1.116552974498567e-05
-1.5232169906682888e-05
8.944335639746363e-05
9.257045654709676e-05
-7.856782791777346e-06
-2.107339978361911e-05
-5.580216337428371e-05
-5.020795159003444e-05
-3.184134549816289e-05
-1.759925247913707e-05
2.820121819547868e-05
2.9932200517696123e-05
-2.3967200942693213e-05
-2.5451575738722076e-05
-1.9855847173185687e-05
-2.7273191123999983e-05
5.60136487445632e-05
5.5832936054263726e-05
4.2205660456999136e-05
2.547499852048304e-05
1.0313407155727185e-05
-3.033079043181008e-05
-4.6874551404154154e-05
-5.63777842767669e-05
-2.4387607474193996e-07
-3.606213073039862e-07
-5.103616500627671e-07
2.130864660500033e-06
4.816658054008223e-06
-2.119504366471902e-07
-2.727035281965734e-06
-1.5728375498015667e-07
-2.9802702835484225e-06
4.693704646771339e-05
0.0001455829485017006
8.35574632186937e-05
-3.444313462455395e-05
-3.984118308751913e-05
-9.873683380722472e-05
-0.00011537342919629601
1.2317122527486186e-05
4.680969964657422e-05
0.00011805187707879902
3.466063037823924e-05
-1.4429733714597449e-05
-3.007085953429101e-05
-5.197981935854644e-05
-6.418312243099269e-05
-3.885867206518481e-05
-7.667797821450977e-06
7.242397546035718e-05
0.00010446188617038209
-4.54608256787439e-06
-1.1777652533470697e-05
-5.6258052181324626e-05
-7.59105771674128e-05
-2.0725699359205766e-05
8.555044342012681e-05
0.00021459675064101934
7.098172162325445e-05
2.9515084528833797e-05
-0.00010058240759595259
-0.00013903513813433264
-0.00013276112864925521
-2.8265325833694008e-05
-2.8015629442054514e-05
-2.4233748520225843e-05
-2.60184310061459e-05
-2.2345878976303418e-05
-2.6873682534024983e-05
-2.6596929487774147e-05
-1.3703851574953327e-05
0.00016778815154148215
-8.82991351437932e-06
-4.1377479543765346e-07
1.601348250217704e-05
9.978049219871704e-06
-1.464311454623575e-05
1.0817213989502486e-06
-2.6754486807503296e-05
2.356803654255704e-05
1.9212532324503743e-05
0.0001033650771352393
0.0001039196080619908
-2.9512459875297424e-05
-5.281917887112928e-05
-6.709796616159865e-05
-6.1481801972674e-05
-1.5585810641034456e-05
-2.359422424249273e-05
9.143481690243855e-05
4.829634227782822e-05
0.00020912575647974725
-1.4936412254528895e-05
-0.0001424226661751195
-0.00017944715134369377
1.1543538355820724e-05
-4.507644307870049e-05
-3.968915390801244e-05
-3.145678878304982e-05
-1.7617278682439485e-06
-4.037526201441981e-05
-5.9758519608931416e-05
-4.140073393677428e-05
0.00025951862919813216
2.8149719059304603e-05
0.00016967696800879756
0.00010128286101761538
-2.1325650612771936e-05
-8.394349998325916e-05
-0.00010517716051321874
-8.136100837603763e-05
-7.302228600430116e-06
4.6926760109102885e-06
0.00011614710552873939
7.023589526980959e-05
1.1037899851574869e-05
-5.408494888426453e-05
-7.018328422237724e-05
-0.00010754842017496376
2.970307662057142e-05
-2.691668496399197e-05
0.0001481091418267235
1.1530727065075534e-05
-3.821166289352874e-06
-5.985303520869768e-05
-7.392627622687184e-05
-7.331648906811867e-05
7.819378286523399e-05
-7.726550536409116e-06
-8.042958929129636e-06
-5.29226333446698e-06
-7.58104818936366e-06
-2.3499199778286744e-06
-4.838115555288764e-06
-4.810428533028949e-06
4.064128505551578e-05
-3.421564958563015e-05
3.897604734854502e-05
9.063155367778368e-05
-0.00010260918746649475
-0.00012122332086451901
-0.00019324746973590075
-0.00020630436822232195
0.0005279923948485378
3.6712082929029165e-06
7.006218937819507e-06
1.581116339972255e-05
1.9934228639984145e-06
-1.768156829070324e-05
-7.14156101570709e-06
-6.966998481051329e-06
3.308114293018273e-06
5.934712447614763e-06
2.9081426732977578e-06
6.476162717141479e-07
-6.5814536474748514e-06
3.838536590133246e-06
1.393332656866963e-06
-6.2002163630247974e-06
-1.9406706291272277e-06
4.130767487443374e-05
0.0003770363370379259
0.0001941168054352646
-4.6395221779637055e-06
-0.0001856759880935573
-0.00027777527348237446
-0.00026782221403407255
0.00012345218044034392
0.0001512869927563439
0.0001305222666240316
-1.873129374221779e-06
-6.99156623769223e-05
-0.00012436238990810053
-0.00014159659022426407
-0.00015788592159174817
0.00021382443409488118
0.0005195259382245476
0.0009156132531615073
0.00028548918650612244
-0.00025751970957023417
-0.0004321463446439544
-0.0006286085889916596
-0.000720451352099685
0.0003180976174133558
0.00040365594614159996
0.00020783594260208294
0.0001277478171994315
-0.00012240794614789657
-0.00016850866092681102
-0.0002007208711341024
-0.00023215662029041681
-1.544560744388764e-05
-2.1999392432632706e-05
-2.095752085860657e-05
-2.51781081808299e-05
-1.874718667177246e-05
-2.8273414055864148e-05
-2.539224801406388e-05
-2.5214479437924507e-05
0.0001657623496516942
-1.8573444264412533e-06
0.00012581007513195322
0.00010103436986176397
-2.732811230808985e-06
-8.644421992770537e-05
-9.659130014853809e-05
-0.00010802901064173747
6.881024138151394e-05
1.9626296973342214e-05
0.00010252143506710069
6.342953598720165e-05
-3.839195796750122e-05
-4.8580348599988576e-05
-6.779600161753942e-05
-6.467541874959063e-05
3.3866458906975263e-05
-1.0559085679129766e-05
6.050579434489354e-05
3.337401377798599e-05
3.7185888219816725e-06
-7.744297785515432e-05
-9.780865273963981e-05
-0.00010924350670650629
0.0001974558260355691
-2.623960987446002e-05
0.00018431262750617696
0.00015062913418074602
-3.89411742204958e-05
-9.297137890689151e-05
-8.828797485314155e-05
-0.00011274515394707551
2.4243530115141523e-05
-1.0627218544654353e-05
-1.583650018006197e-05
5.622059053476342e-05
-5.410933499746689e-06
-1.8238380036432866e-05
-3.4896423221958766e-05
-4.44629816936877e-05
7.325184664177888e-05
-4.876017837826798e-05
5.124868109350529e-05
2.8505951853025276e-05
-2.9973968078909143e-05
-3.242140360945696e-05
-6.569062157286702e-05
-9.249302052534414e-05
0.00018958455921831477
9.182144190994761e-05
0.00016347567317080163
8.50994502309733e-06
-9.955172423665654e-05
-0.00014226506995307706
-0.0001460760486080382
-0.0001722097604690224
0.0002962955431629477
-0.0001390779951236262
0.0010011243229234464
0.00037667779198667135
-0.00014742982264122882
-0.0003109193952852089
-0.000390764377427275
-0.00041549535947358
2.588483504080127e-05
7.603042209544992e-05
0.00045230689556711166
0.0002649075990896773
-0.00012730550240017797
-0.0002203071692691961
-0.00031827855049137445
-0.0002971373139787885
0.00016978361938729816
-4.2717198144979826e-05
-2.8547457715914175e-06
7.486474191934219e-05
1.3881912526758214e-05
-2.92753259899599e-05
-6.111483473470758e-05
-5.279066246548848e-05
0.00010000611266062684
-2.1692625362392257e-05
1.0503036223569087e-05
-1.123115445111347e-05
-1.603733020819817e-05
-5.144457390750088e-05
-4.498759266968221e-05
-4.682809336794947e-05
0.00018171833374326733
0.00019066202150327493
0.00015697549979873103
5.679610533874766e-05
-6.161564472010862e-05
-9.52539125925253e-05
-0.00011351080168230903
-0.00010989217500067332
-2.4161092645137362e-05
3.4166370393566415e-05
0.00010578440961184875
7.389802043486017e-05
-3.2483222130831626e-05
-6.910354248594708e-05
-0.00010285732925420733
-0.00011463976915798018
0.00010523506258869091
-4.683250174092578e-05
0.00013096231069971637
6.164606482885948e-05
-2.1099144176693566e-05
-6.257098586285086e-05
-7.83851829070699e-05
-0.00010543172725775071
0.00012171116641671511
-2.609707574293663e-05
5.610014915149105e-06
-7.888499375187145e-06
2.320413587520981e-05
-6.064047481698293e-05
-7.97050916921325e-05
-5.355513358953895e-05
0.00019907212442641913
0.00020429076929310007
0.00017623733366539223
-2.820938398488688e-05
-0.00010068755349281352
-0.00019692835650585408
-0.00021740756869043383
-0.00025570848116700516
0.0004184132408825013
-2.9356887234038735e-05
0.00042692465084966943
0.00022976058379296516
-6.814820740846319e-05
-0.000190303886096415
-0.0002785436232801737
-0.0002984475926170909
0.00020811496199354694
0.00022038422425441564
0.00011717738631748865
2.795337085236463e-05
-2.8544131570641175e-05
-0.00011290808163236329
-0.00011828077636066645
-0.00014264601010173755
3.686401824113958e-05
2.6987157534907306e-06
0.00021101535141231542
0.0002254556998594069
2.8731941440457126e-05
-8.903560948994905e-05
-0.00013277098922149684
-0.000124076380314435
-0.00012201872943978942
0.0004249651646919841
0.00041956364070821285
0.00014503590047925893
-7.819565493323805e-05
-0.00023736987646188446
-0.0002779037516527678
-0.0003058024569321605
-9.02929658994052e-05
-6.077638423047037e-06
5.3052940625356474e-05
5.6367394461973194e-05
-1.2362294694528789e-05
-7.583854305271463e-05
-0.00011283051562545018
-0.0001822174790930391
0.00027990613580145007
9.686528474198225e-05
1.825681555220116e-05
7.027590041759241e-06
-4.328146055552215e-05
-6.208079596752594e-05
-5.250936889489835e-05
-8.215871256874858e-05
0.00011788064765075237
0.00012271189117424406
0.0009298216451696965
0.00024084491299657202
-0.0002490820034583142
-0.00035696158151861266
-0.0005097345585794862
-0.0005607444860988043
0.0003831441803147048
1.015562969486393e-05
-1.97915429547858e-07
-9.606787104444932e-08
-2.5156747616989467e-06
-2.452480327763598e-06
1.268115931518302e-07
-2.4103817233722842e-06
-2.609921174588624e-06
5.918668342049016e-05
0.0003792193574962226
0.00021444372821335844
-0.00011028349557409149
-0.00020520780952383767
-0.0002683826083636274
-0.00030634728005228556
0.00023737142438377096
-2.571882738977743e-06
-2.670875728274234e-06
-2.6101893874440136e-06
-2.5232143577360332e-06
-2.4778888627876357e-06
-2.456605207965295e-06
1.0578781315476916e-07
1.5204868470030185e-05
3.806280028530662e-05
0.0009823384989588427
0.0003588043666437055
-0.00011953253455199404
-0.0003816638198564759
-0.0004958423904448974
-0.0005746623059473934
0.0001924953849129059
0.00017597027701017078
0.0011676858847861349
0.00047811336210764493
-0.00020531932111912362
-0.000766436508292612
-0.0009362905759703782
-0.000980511473214442
0.0010667883546926047
1.1578158089819527e-05
0.00016694895188362023
9.960098353989778e-05
-4.846933322001129e-05
-0.00016096591270171125
-0.00017287517826486108
-0.00015846203874514644
0.00026264436941839255
-6.615333472795372e-05
0.00023304160502912827
0.0001727140392007134
-5.2896379243692226e-05
-6.149309835080413e-05
-0.00011702890774230219
-0.0001588414744826071
5.065755031751775e-05
0.00018189930849157282
0.0002464343172964741
0.00015644671278254018
-0.00012034985026321698
-0.0001773957713649951
-0.00021131762671378494
-0.00021423403303437718
0.00013851694280578718
0.00034256020432078734
0.00122060884115564
0.000580710895304845
-0.0002942080215392345
-0.0005185326592894674
-0.0007082955515089309
-0.0007726945966135356
0.00014985088816989612
5.090259003932058e-05
0.0001990613817806919
0.00010265676220129992
-5.515829032108131e-05
-0.00010869845997250661
-0.00010122897694011274
-0.00012045902549848147
3.2924018710869766e-05
-0.0001793890476913099
0.0004350113167560939
0.0003182100344092654
-8.082591382491052e-05
-0.00020013718039614786
-0.00022826197750858281
-0.00023595743869862164
0.00017135020695421369
0.0002488258430667952
0.00033423269728287056
9.129126382124847e-05
-3.458378510579472e-05
-0.00022629138760980186
-0.00032382970712853724
-0.0002998796596288698
0.00021023473530208943
-5.0654408499248655e-05
0.000226084207275295
0.00022906151242554427
-5.8105736090603015e-05
-0.00013562651879090012
-0.00011727000337328498
-0.00014890177107863446
5.541271813183185e-05
-1.293166580298004e-06
1.2707652649600564e-05
5.818131785526129e-06
1.4655258409283237e-05
-5.091438851607775e-06
-2.2193895689865454e-06
-2.2446215223434738e-05
-2.130832620082867e-06
-2.0293226824595226e-05
0.0004161548899831558
0.00016758463721635732
1.585140731384598e-05
-0.000127651120114937
-0.00020477755344347717
-0.00023053341905102223
-1.6335615079327554e-05
-2.69549513079111e-06
9.558110859739222e-06
-3.078959807283189e-07
-2.4359153457243672e-06
-2.2237532952783527e-06
-4.676383743268738e-06
-7.17781579619984e-06
9.959148432251508e-06
0.0
0.0
0.0
0.0
0.0
0.0
0.0
0.0
1.3945135333887764e-05
4.269912268833939e-05
2.3417287562545593e-05
1.2186768137290528e-05
-2.0206698394270163e-05
-2.7503559743473232e-05
-2.4769916809950657e-05
-1.9768138774369218e-05
-9.934872201852951e-06
-8.47387967898927e-06
-3.6225503951478682e-06
-2.338167885571393e-05
-6.443989187639401e-06
-1.3329285362107719e-05
-2.0578175510171434e-05
8.576443119162256e-05
3.8221854042518894e-05
0.00012161411626581358
0.0001244479213480368
-1.1141540519072062e-05
-7.636345130134826e-05
-5.6806682778247235e-05
-0.00010945467484647207
-3.0517542211229565e-05
2.612267913035604e-05
0.00018141062211645857
6.294736062689933e-05
-1.4846143704756506e-05
-9.961512818564583e-05
-0.00010517141302485864
-0.00010406461742803838
5.321664046958543e-05
-2.6859026752241296e-05
8.87051908657574e-05
3.7822284546354704e-05
-9.561586296106152e-06
-2.0517662200250364e-05
-2.2222140988524646e-05
-3.7080105065458806e-05
-1.028695410953087e-05
3.5412482276260067e-06
7.624284727458706e-05
4.67586907221364e-06
-7.435177610751994e-06
-2.624468989388384e-05
-2.294108327091848e-05
-1.9994538331719753e-05
-7.844475467152666e-06
-6.758785991388762e-06
7.57745893623626e-05
1.557294735350728e-05
-8.581072147551103e-06
-1.8120872905913627e-05
-1.5264547666138525e-05
-2.530669193963015e-05
-1.73155660652477e-05
-1.046014508200581e-05
-8.777892250660674e-06
-5.38409971931397e-07
-4.894216267554697e-06
5.795985029043634e-07
1.3502889330315128e-05
-1.7115683283898892e-06
1.2299744067322975e-05
-1.2772307650131964e-05
5.3529868652855675e-05
3.3769807441535225e-05
7.51282101164323e-06
-1.5773790514911136e-05
-2.4933556917545663e-05
-5.498070294940316e-05
1.3647860925957769e-05
2.226568642739416e-06
-3.4228016420327444e-07
-3.3088927344872304e-07
-3.1485537761923166e-07
-3.0645552910712176e-07
-3.024762844360831e-07
-3.0020298920528277e-07
-3.294090247196998e-07
-9.507123091403363e-06
-5.269143021502072e-06
2.949700276656471e-06
1.3904989183784128e-05
6.640166980784869e-06
-8.481914594502967e-06
-8.387769556318504e-06
8.151093822501443e-06
4.0694952380440855e-05
0.00015406591681352963
4.2505576926648375e-05
-5.9243161969984656e-06
-5.8206039594185865e-05
-9.467910306566156e-05
-9.629268359932696e-05
1.7835696335553896e-05
-3.7940856826158812e-06
-1.6128175099683534e-05
-7.077355326236923e-06
-2.6942793674457392e-06
-1.9621414809496597e-05
1.1414908395280244e-05
-1.896691146842147e-05
5.6867313358619905e-05
6.673149348113369e-07
3.0059973939097456e-05
1.8070436738958798e-05
3.7707446035423487e-06
-1.1041013322702206e-05
-1.3363890166885582e-05
-1.5796396290635536e-05
-1.236717043618662e-05
3.656602866464516e-07
9.262801419348525e-05
5.3793096347558714e-05
-3.182190471681597e-05
-1.8492810750424043e-05
-6.80135404029298e-05
-5.44834292780352e-05
2.6024914320514608e-05
1.3239042398246031e-05
1.4142259136495336e-05
2.9497050220052996e-05
7.669507671527432e-06
-5.754754994956354e-06
-3.545587663697174e-05
-5.792745266034148e-05
3.459022486594778e-05
2.477698833082402e-05
5.741958047548044e-05
1.5992120534983648e-05
-1.2071173367642179e-05
-2.100768259123109e-05
-3.061209056969971e-05
-2.2646408661668127e-05
-1.1851334151047007e-05
2.8638723854929525e-07
2.722662426729634e-06
2.7957192069211375e-06
3.4562386336129855e-07
-2.1532920405569205e-06
-2.1290868578772624e-06
4.3448733553294237e-07
-2.302501172660124e-06
-6.774205923125446e-07
4.266854067373252e-06
-7.411281920342609e-07
1.94825082564585e-06
4.570932327522036e-06
-3.045705364642998e-06
-3.0265065175386515e-06
-3.2952765540126825e-06
8.960616929339009e-07
6.700368552853276e-07
8.126296818169069e-07
-1.5429582586287586e-06
1.107593195971191e-06
-3.945433479913022e-06
-1.3697893500335748e-06
3.3718596625680278e-06
-1.7972189955121572e-05
-6.526486355886297e-06
3.922310268047423e-05
-3.2712606569575482e-06
-1.4213043429546424e-05
-3.629816639256009e-05
-4.8602729207712876e-05
8.766077331731052e-05
-6.8746995283250874e-06
0.0002980168205343866
0.00022555888601647636
-3.369479237026287e-05
-0.00010215982932905145
-0.00015699283209746748
-0.00021110839473541875
-1.2745158490337319e-05
5.1522515172438935e-05
0.00011831081953788925
3.4493454429154425e-05
-2.036589305589435e-05
-4.403945729001121e-05
-4.828645738665015e-05
-5.8053514939679074e-05
-3.3581466467247786e-05
0.00016973395688011302
0.00014058083117484449
3.314452616002076e-05
-4.357434134887437e-05
-0.00012491662588067664
-0.00017464135620957977
-0.000177758268068402
0.0001774312772925544
0.00013952543770691487
0.000212800394509369
0.00011272605157243211
-5.450080300597218e-05
-8.606998696836102e-05
-0.00013518637465585485
-0.00012409078861550592
-6.520393054302189e-05
-1.3369994848338824e-05
3.993639296135261e-05
5.5895951373084194e-05
-1.4197603849934981e-05
-4.913117881710218e-05
-0.00013048588033967007
-0.00010868241757656783
0.0002200347310971772
3.734187402022926e-05
0.0002629126825062456
0.00015580847245883246
-2.8771500546012875e-05
-0.00010829534554044847
-0.00015592168975192124
-0.00018221591518917786
1.9141422042253283e-05
-1.8625286105534326e-05
-8.892911709111793e-06
8.238668062624372e-06
1.8521269682840872e-05
9.630017524907692e-06
-4.074402065410418e-05
-3.787794729385145e-05
6.975021049222882e-05
-3.555718280832906e-05
0.00031409759626802687
0.00012545514623197264
5.489719067679144e-06
-0.00012483558312980788
-0.00013536284122337808
-0.00012916400008089856
-2.0122854325265193e-05
9.63094064481728e-05
0.0003305037511355896
0.00020037510090410135
-3.036286278980881e-05
-0.00020935368064995053
-0.00021903564273565617
-0.000307924631184736
0.0001394885588722878
7.725211979789855e-06
3.7727854902903446e-05
0.00014304605237829297
-1.4892426943695257e-05
-6.569707544358511e-05
-5.9277685122670234e-05
-7.132302072954618e-05
2.2691088978510517e-05
7.790342182735282e-06
7.127138853070618e-06
1.2623287432956565e-05
3.026909490506998e-06
7.985809568353096e-07
-1.1797121004901498e-05
-6.609628079883373e-06
-1.2959509831319893e-05
-7.49610914185512e-06
-1.0419172940702725e-05
4.997682490377454e-05
-8.553979918870303e-06
5.007822913843291e-07
-1.6679187171173076e-05
-3.1620597245809326e-05
2.4291439223251677e-05
1.5454275382499245e-06
1.366694058351123e-06
1.4228813041536536e-05
-3.46453399561354e-06
-3.3821899876063254e-06
-3.3422468612157024e-06
-3.3205821938063975e-06
-3.631381599895618e-06
1.9069693615549578e-06
1.8771406163121816e-06
-6.567937197261234e-07
-6.30220993528863e-07
-6.160253783926011e-07
-6.088106058008765e-07
-6.048064371528139e-07
-6.674528432658619e-07
-2.486211399436364e-06
2.5988128474532678e-05
2.98823685875954e-05
-1.426881958374897e-06
-1.3267039089205158e-05
-2.0489406379124236e-05
-2.2821001092580647e-05
4.620042856593236e-06
1.5229815661016681e-05
5.1906133812035604e-05
-6.592036045819193e-07
6.686524154585682e-07
-1.652803517600143e-05
-1.621929658112709e-05
-1.3508914937931118e-05
-2.0889151588869288e-05
1.5214271524207517e-05
4.650519393054211e-05
3.4860765963107125e-05
-1.4583171049702423e-05
-1.8888169657607664e-05
-2.1060315829286387e-05
-2.8518101608636016e-05
-1.3530473272624283e-05
2.433789654711992e-05
7.183967611569438e-05
4.083707797885996e-05
-2.0827134996601126e-06
-1.333637378655013e-05
-3.302919714674606e-05
-5.305616305911214e-05
-3.551020314960583e-05
-1.7123088611864677e-06
-7.242371340880743e-06
-4.404821920160683e-06
-6.605983286865562e-06
-6.436101450733416e-06
-3.8061266770396957e-06
-3.7691984332602725e-06
3.397691197012684e-05
-2.0265401342023355e-06
-2.494774671319956e-06
5.432353188086034e-06
1.6046682784068005e-05
-1.5892680140949907e-06
-6.584601898672261e-06
-3.977413864622903e-06
-4.806437389241598e-06
5.182419807574546e-07
0.00013573032007640855
4.8631472138901925e-05
-3.8118292038773214e-06
-6.953188718703037e-05
-7.317320915123004e-05
-8.772691015668039e-05
4.936380150275018e-05
-6.510133710468245e-07
4.403314292283513e-06
-6.659691131674821e-07
-6.275861251815325e-07
-6.09065261704815e-07
-6.006360249652186e-07
-5.964397456852798e-07
-6.526046505323609e-07
-2.4484376382047656e-06
3.992373030048803e-05
-2.661722623568098e-07
3.0734341076316425e-06
3.4502782123265003e-06
-1.4229263336232542e-05
-1.4140351648202163e-05
-1.53632177354499e-05
1.697279954206074e-05
2.8647832517016037e-05
1.6568019446475352e-05
-8.064276158985307e-06
-1.5281341945807978e-05
-9.978491086397152e-06
-1.4975911717740783e-05
-1.3888630596620912e-05
1.7617333478091049e-06
3.5539558943917795e-05
1.635488814617937e-05
1.030932779322196e-05
-1.185508986148166e-05
-1.91364096227239e-05
-1.63928055759875e-05
-1.6581203170935167e-05
-1.5288223696544764e-05
7.640073278967024e-05
4.745275385785613e-05
1.2100016594428337e-06
-2.0616577931334774e-05
-3.0292441322991563e-05
-3.0017740802079315e-05
-2.8848504554018766e-05
4.880529784592241e-05
9.53191955059117e-06
-2.5796497349066455e-06
-9.3344738792831e-06
-6.34794525457421e-06
-8.69452929697038e-06
-1.3691846933679111e-05
-1.7688772297100146e-05
8.655901596497286e-05
0.00046299874035453956
9.58929309372137e-05
-4.867154136909968e-05
-0.0001466772439342983
-0.00017425035619967065
-0.00019056005697532557
-8.5291488778332e-05
0.00027744933566897713
0.0003747507481899186
0.00011278643934979488
-0.00014066871042241286
-0.00022146528986399317
-0.00023667544092599856
-0.00026197867766643946
9.580159567015327e-05
-7.1462252628177e-06
-7.589927357124373e-06
3.6189562179319016e-07
7.434621832068779e-07
-1.615402321018655e-06
-1.5270453443899787e-06
-4.032863165033994e-06
2.080610564538463e-05
0.00020861489452631872
0.00022472799812880403
0.00011376212777646501
-0.00013584623370502475
-0.0002655132041115654
-0.00028740032447292877
-0.000319939963889459
0.0004615947057473903
0.0
0.0
0.0
0.0
0.0
0.0
0.0
0.0
1.698614591707346e-05
0.00020250962452831607
8.584853601559992e-05
-5.5538455342114406e-05
-8.79322669135267e-05
-0.00013872544238076575
-0.0001474786889055793
0.0001243305470809967
-1.6114099990831607e-06
-1.6910152633698686e-06
-1.6451089056969761e-06
-1.576305008778e-06
-1.541626965624911e-06
-1.5247025888014948e-06
1.0347023954793789e-06
8.555466335875032e-06
1.160296100375085e-05
6.979256221788023e-05
3.252313428801506e-05
-9.63156858204644e-07
-6.210867504540038e-06
-3.822286071792958e-05
-6.312940817526338e-05
-5.392364253708481e-06
1.790906211417196e-05
4.298834807871465e-06
1.907960363133451e-05
-1.6082994876528222e-05
-3.739987198705619e-05
-3.917584143214685e-05
-4.639719720492097e-05
9.776840494727431e-05
7.661573121918732e-05
0.0004856053301097415
0.00020065311333913093
-3.9336195421208015e-05
-0.0002510685454406003
-0.00027334907056556943
-0.0003340546589822617
0.00013493429574157985
2.2128038702469902e-06
5.2105934628462694e-05
2.6920828149530475e-05
-1.650600760765739e-05
-6.875032195623505e-05
-9.756537250411663e-05
-6.0927345769044006e-05
0.0001625094811888129
3.8619094351207983e-07
5.6766377561681326e-05
7.663496046056476e-05
-8.434011742835055e-06
-4.312005899457172e-05
-5.163689490237151e-05
-8.132452734049276e-05
5.07279640145129e-05
-6.185679469681888e-06
0.00019927380582962072
0.00016606715523625204
-4.6632249560369776e-05
-0.000128648842257249
-0.0001405972193414394
-0.00015156863630246667
0.0001082916658653338
0.00010675619944879128
0.0001694561831012566
3.0369881650914757e-05
-4.692464570093374e-05
-9.42705994217247e-05
-0.00014239081216175974
-0.00018425774085530664
0.00016126153393876218
2.3316954999454718e-05
0.0004865067069293128
0.00030159853045769294
-3.9396152270014496e-05
-0.0002467516997880869
-0.0003205438575083431
-0.00043622950651131493
0.00023149902369129865
5.969021154557312e-06
7.740444545604043e-07
6.609594184622347e-05
-1.8190020463151614e-05
-1.4384568195531949e-05
-2.654978571520358e-05
-1.0931973127857324e-05
-2.7826599535967444e-06
-2.2011730650192285e-05
1.7635792034303492e-05
2.489305775163905e-05
5.350878724563011e-06
-2.0860313910576962e-05
-1.998405100652813e-05
-3.22450004032053e-05
4.722136745999714e-05
2.1473906759348667e-05
4.5550648363403794e-05
3.159246746002754e-05
-5.767848970261551e-06
-3.82549980993349e-05
-3.41795946640821e-05
-6.647883698474574e-05
4.606425613564426e-05
3.77944418142928e-05
2.1713633359927567e-05
3.0720396358659256e-05
-1.7708815267998067e-05
-8.111289822277325e-05
-0.00010148162176117453
-8.730351408188499e-05
0.00019737837780095128
-6.04267279419615e-06
-4.543271406323754e-06
1.8085627445003506e-05
-9.390428542552791e-06
-2.056237340639471e-05
5.886171345651153e-07
-2.962060137375064e-05
5.148510294364941e-05
-1.2624307852905575e-05
0.00010291545132212452
2.6650942811630796e-05
-5.411534053456712e-06
-2.4030512806855887e-05
-4.870340411439926e-05
-4.3184585870921064e-05
4.387950564783216e-06
2.9326040293738927e-05
7.76983776640476e-06
1.3568250537536538e-05
-6.873068408042469e-07
-1.5442238330775954e-05
-1.5178256521961055e-05
-1.2486829198051729e-05
-6.869497706087243e-06
8.086023675799009e-07
5.788699091353699e-05
2.476037032253847e-05
-1.2448258756529612e-05
-3.356910629653756e-05
-3.525146782419488e-05
-4.754318355008987e-05
4.5356052823696525e-05
5.523920218308119e-06
6.31126420094684e-05
1.6886443220398897e-05
-3.0115525775805677e-06
-3.207725012579881e-05
-3.899429327621687e-05
-4.6256684084730464e-05
3.481677461615128e-05
7.097369358185456e-05
2.969029893260062e-05
-8.432468134858752e-07
-3.185293308202264e-05
-4.092369467082004e-05
-3.66206419278042e-05
-6.373530814497912e-05
7.331183212465667e-05
-2.4899512397095236e-05
0.0003060070878166756
0.00010026032141872043
-6.718279909885062e-05
-9.747243570553596e-05
-0.00013318498480301467
-0.0001395262730607924
5.59985958298928e-05
-3.557668718113e-05
0.00021196643408308123
5.092047408300815e-05
-3.7263864897620346e-05
-5.2126856661598174e-05
-7.62355956014782e-05
-9.337553964300486e-05
3.169163581874205e-05
-8.299038819348394e-05
0.0002836768050367907
0.00017169009760850594
-1.9484893203786086e-05
-0.00011512234164107955
-0.000169549699388345
-0.00018519916421638074
0.00011697958399777849
9.58088334009148e-05
8.824652969271914e-05
3.327092164368512e-05
-5.577007783587951e-05
-0.00010654509550571577
-0.00015377616886974165
-0.00016709703143810058
0.0002658620889121185
2.37030574533674e-06
0.0003656928124857516
0.00020937921612264811
-4.5270618432617635e-05
-0.00015501455459516038
-0.00016682061008535754
-0.00022112370172581438
1.078715048521336e-05
8.494956795453795e-06
2.8600640167013004e-05
2.0129280129655085e-05
4.812480878385765e-06
-1.429584822082739e-05
-2.897310075478038e-05
-2.354013819240267e-05
4.771729197502795e-06
1.3818895279354321e-05
-7.582801255875514e-07
5.528334409360407e-06
-1.0729403123074178e-05
-2.263319300720056e-06
-1.4627083936693768e-05
-2.2074716046033846e-05
3.110557284339466e-05
1.8882129366450403e-05
0.00011615352369454785
4.519673039382501e-05
-2.474611841623608e-05
-4.316616136335767e-05
-4.988279583805204e-05
-5.4493666219997614e-05
-7.943641617179852e-06
3.8967835588909054e-05
8.805658418344515e-05
8.471268526716244e-05
-5.196603551806235e-05
-5.6506522751330833e-05
-7.033560465502109e-05
-7.976159467143477e-05
4.683265255633243e-05
-7.19744902648939e-05
0.00021670226418822936
0.0001754100926779869
-4.968594316432378e-05
-0.00011755946933260513
-0.0001185757482960501
-0.00018781934584004149
0.00015350264003169815
-1.5157646436819854e-05
2.6080500195492838e-05
7.326324923918587e-05
-1.4451130108712603e-06
-1.585113155454738e-05
-2.562864745453516e-05
-2.7956478625154715e-05
-1.33047323527503e-05
9.405572237778552e-07
7.678385258606333e-06
1.4989694295008348e-05
1.0366135024706075e-05
-1.1035141058121847e-05
-1.7945042871532494e-05
-2.776133640374831e-05
2.2766748531304054e-05
5.599482173776829e-06
2.5192292821100267e-06
2.8413573512093277e-06
7.578543525782585e-07
-1.5533317513332947e-06
-1.4385019197203426e-06
-6.476790083711453e-06
-2.2492994049093493e-06
-1.8282319754920352e-05
8.557421518141776e-05
1.6149875957833375e-05
3.587582551595653e-06
-2.3068467633309612e-05
-2.495581975585954e-05
-3.481027880880459e-05
-4.194787737952699e-06
-1.3708442689916684e-06
3.0224589420151793e-05
1.844485829509038e-05
-1.0803607553681506e-05
-2.46326598660446e-06
-1.2336106922114678e-05
-1.7259843435717747e-05
-4.435779548132103e-06
5.324184947661619e-05
0.00012720724571172183
2.7414239562475528e-05
-4.259998053219435e-05
-4.700791107245724e-05
-7.096848346659115e-05
-8.548432823926243e-05
3.819736855969167e-05
2.4015378612701886e-05
4.3653870873883794e-05
0.00012374176634993
-6.304305567817532e-06
-4.7073659327415636e-05
-6.114302589774014e-05
-6.815119400810777e-05
-8.738831035434627e-06
1.7354705831041e-06
3.316450933596337e-05
3.6590547447884394e-06
-5.027412459705332e-06
-1.9511845539894066e-05
-1.4016744905095065e-05
-1.8912081834847083e-05
1.8909050075685628e-05
-3.668494963737812e-05
3.505226761773385e-05
5.837514990499143e-05
1.4282891833662702e-06
-1.9239490778509886e-05
-4.3644819289092987e-05
-5.32656409366568e-05
5.797919393554627e-05
-2.2892807693433884e-05
-2.141846728755353e-05
-2.3315477798390834e-05
-1.9846821522501518e-05
-1.93886730535035e-05
-6.419141774584333e-06
-6.308951841389898e-06
0.00011959034097135748
-7.071416804098957e-05
0.00023454989177369582
0.0001393853446914516
-3.2680905268297375e-05
-8.182167768463057e-05
-0.00012310880513108
-0.00010166742548713199
3.605774514698219e-05
-1.0355053155269921e-05
0.00032693991966922055
0.00010403169779998669
-1.9149276470570408e-05
-9.744597081136268e-05
-0.00012786133927441168
-0.00013157295998456745
-4.458701777302507e-05
-6.423443602585698e-06
2.6697272204439716e-05
2.0689088328620905e-05
-4.6417606272900535e-08
-1.4650775476164921e-06
-1.878732287761689e-05
-3.1256340043107794e-05
1.059224114413915e-05
5.334224589417246e-06
2.930785707129253e-05
1.4956671616296798e-05
-4.114992182843596e-06
-8.52742701044069e-06
-1.3303441891517795e-05
-1.3126364858789087e-05
-1.052652733341541e-05
8.836964447555808e-07
-4.501417349829265e-06
3.3156833942675925e-06
3.573572788819516e-06
8.816320392501778e-06
-1.3154566919389365e-06
-3.826162360185564e-06
-6.9462366183907085e-06
-8.668483216317631e-07
8.732100528347477e-05
7.934543696633216e-05
2.1150292516979235e-05
-5.890997169724908e-05
-4.543409573920461e-05
-7.056872048244013e-05
-1.2037098526260557e-05
-9.676757072461689e-07
-1.0165417367911359e-06
1.5632148101109898e-06
1.6054437179512472e-06
-9.231862953112348e-07
-9.126331904494401e-07
-9.068066131629573e-07
1.5581850148987e-06
-1.1109798427197159e-07
0.00015034781409458987
5.571548874793483e-05
-1.4498263064438641e-06
-4.659108881346247e-05
-7.307577194259948e-05
-9.520565827186492e-05
1.0370140476118047e-05
2.8091923128368403e-05
0.00012240370332316548
5.9957326855408986e-05
-4.3159432671808684e-05
-6.908545060856998e-05
-0.00012042195749250251
-0.00011416124875640795
0.0001363751362223462
-2.25551729266411e-05
-2.8881017181553753e-05
-2.8177691620270672e-05
-1.949372854756989e-05
-1.640404590223437e-05
-1.104241575062602e-05
-1.0906743822632314e-05
0.00013746081575152812
-1.1827935222522313e-05
0.00018439005010701211
6.792813230755026e-05
3.74406483829845e-07
-5.406158017803403e-05
-6.353485658840053e-05
-6.0653656732128474e-05
-6.261456017730682e-05
-4.516649844288145e-06
1.0579669354921296e-05
8.15004787170276e-06
-4.415167257865195e-06
3.3383302224126647e-06
-4.263050984745493e-06
-4.235308703132493e-06
-4.637870659005387e-06
-2.6113377848007178e-06
7.359503784504768e-06
7.4933212702916506e-06
2.6025241725116177e-06
-2.387355480237811e-06
-4.884074604194396e-06
-2.3033137357126207e-06
-5.269267622362486e-06
2.42411768106993e-05
7.910715817364062e-05
6.104423495421728e-05
-3.516635803184882e-05
-4.373224952918695e-05
-2.255759773420027e-05
-4.510378129527547e-05
-1.7832583348045732e-05
1.4992825070003456e-07
2.2515287653037752e-05
5.031905848719995e-06
-7.193657959163174e-06
-1.819790931949249e-06
-9.340118622411609e-06
-4.167311536999935e-06
-5.176242701933829e-06
2.180527758091731e-06
-5.379447912137528e-07
2.1212766125241895e-06
4.822072875548968e-06
-2.7502782795878144e-06
-2.712514824843859e-06
-2.691890706806214e-06
-4.3124864371324637e-07
-5.19122656434661e-06
2.217091644943678e-05
1.445043611789662e-05
-2.6353640653599805e-05
-5.023386758877202e-05
-6.865839836505651e-05
-6.757123508641242e-05
0.00018138701569085392
4.998950110714202e-05
7.659554958248329e-05
6.380553475950243e-05
-1.9525787589640932e-05
-4.333891494854949e-05
-4.511601519312027e-05
-4.9812220516868366e-05
-3.259764720094877e-05
-6.634208151760924e-06
1.9412272534281614e-05
3.058329111549049e-07
2.0445114038303994e-06
-1.2365947703356766e-05
-1.4502381581535742e-05
-2.4491765239693823e-05
3.6231685827080334e-05
1.1287109374698651e-06
4.634014305938126e-05
3.35656173335856e-05
-7.2615482168204e-06
-5.669091313383605e-05
-7.260903040791484e-05
-6.9002715238258e-05
0.00012452973566639256
-2.2152106119581425e-05
8.301786691926308e-05
6.86645629285356e-05
6.134119819089032e-05
-6.21847267539288e-05
-0.00011391076702430422
-9.514361104226328e-05
8.036758290138878e-05
-3.9553302831374525e-05
0.0001518790641759746
0.000148560782925216
5.436391027278876e-05
-7.424703233295695e-05
-0.00012222501055811317
-0.0001257446967012898
6.96628504975506e-06
0.00016420838530419973
0.00024327777921322882
0.00016011101175194067
-9.235221700882305e-05
-0.00013823271236696206
-0.00017552513850289215
-0.0001890431713567585
2.7556062966066516e-05
1.1879079911464758e-05
0.0002176628052753563
0.00016101579174325145
1.3237692316552755e-05
-0.00012411149123189193
-0.00018297504349930373
-0.00020594634433990412
0.00010923750982447468
6.751306053695017e-05
4.403110434678558e-05
9.336329617607282e-05
2.4563104185926588e-05
-6.199643556158476e-05
-5.31022135641179e-05
-6.77422967001115e-05
-4.662961941992093e-05
8.948436422721563e-06
6.325841546324831e-05
5.889244956813546e-05
3.4167409400577652e-06
-4.5842289523765774e-05
-9.484507424211464e-05
-7.338876887582067e-05
7.956009024753802e-05
-1.0765392104464213e-05
9.017844987584424e-05
2.8683446417826018e-05
-2.1834226450795183e-05
-1.0121697170702304e-05
-4.0011319941131965e-05
-4.729479037156227e-05
1.116552974498567e-05
-1.5232169906682888e-05
8.944335639746363e-05
9.257045654709676e-05
-7.856782791777346e-06
-2.107339978361911e-05
-5.580216337428371e-05
-5.020795159003444e-05
-3.184134549816289e-05
-1.759925247913707e-05
2.820121819547868e-05
2.9932200517696123e-05
-2.3967200942693213e-05
-2.5451575738722076e-05
-1.9855847173185687e-05
-2.7273191123999983e-05
5.60136487445632e-05
5.5832936054263726e-05
4.2205660456999136e-05
2.547499852048304e-05
1.0313407155727185e-05
-3.033079043181008e-05
-4.6874551404154154e-05
-5.63777842767669e-05
-2.4387607474193996e-07
-3.606213073039862e-07
-5.103616500627671e-07
2.130864660500033e-06
4.816658054008223e-06
-2.119504366471902e-07
-2.727035281965734e-06
-1.5728375498015667e-07
-2.9802702835484225e-06
4.693704646771339e-05
0.0001455829485017006
8.35574632186937e-05
-3.444313462455395e-05
-3.984118308751913e-05
-9.873683380722472e-05
-0.00011537342919629601
1.2317122527486186e-05
4.680969964657422e-05
0.00011805187707879902
3.466063037823924e-05
-1.4429733714597449e-05
-3.007085953429101e-05
-5.197981935854644e-05
-6.418312243099269e-05
-3.885867206518481e-05
-7.667797821450977e-06
7.242397546035718e-05
0.00010446188617038209
-4.54608256787439e-06
-1.1777652533470697e-05
-5.6258052181324626e-05
-7.59105771674128e-05
-2.0725699359205766e-05
8.555044342012681e-05
0.00021459675064101934
7.098172162325445e-05
2.9515084528833797e-05
-0.00010058240759595259
-0.00013903513813433264
-0.00013276112864925521
-2.8265325833694008e-05
-2.8015629442054514e-05
-2.4233748520225843e-05
-2.60184310061459e-05
-2.2345878976303418e-05
-2.6873682534024983e-05
-2.6596929487774147e-05
-1.3703851574953327e-05
0.00016778815154148215
-5.6522635697667485e-05
-5.528890459338521e-05
-5.274705595425416e-05
-4.4407994122581554e-05
-4.785387995370404e-05
-3.944306604014766e-05
4.278573526719539e-06
0.00029198496283502055
-8.82991351437932e-06
-4.1377479543765346e-07
1.601348250217704e-05
9.978049219871704e-06
-1.464311454623575e-05
1.0817213989502486e-06
-2.6754486807503296e-05
2.356803654255704e-05
1.9212532324503743e-05
0.0001033650771352393
0.0001039196080619908
-2.9512459875297424e-05
-5.281917887112928e-05
-6.709796616159865e-05
-6.1481801972674e-05
-1.5585810641034456e-05
-2.8705105536424007e-06
0.00011777819780776832
6.0712661723225095e-05
1.2929673492662589e-05
-4.01287501826227e-05
-6.419084566790972e-05
-8.386260907381702e-05
-3.6781754566415537e-07
-1.2821892971654914e-05
-2.4693158306969305e-06
9.230745062368595e-06
1.1405170216794324e-05
-1.547543786027401e-05
-3.27720613096678e-05
-2.228000805875804e-05
6.518280075188877e-05
-2.8549181396893587e-05
-4.3869073656619144e-05
-1.239866653396173e-05
0.00019321519412874533
3.217256475907721e-05
-7.646733053639078e-05
-8.622693598729395e-05
2.212342922333665e-05
2.8149719059304603e-05
0.00016967696800879756
0.00010128286101761538
-2.1325650612771936e-05
-8.394349998325916e-05
-0.00010517716051321874
-8.136100837603763e-05
-7.302228600430116e-06
4.6926760109102885e-06
0.00011614710552873939
7.023589526980959e-05
1.1037899851574869e-05
-5.408494888426453e-05
-7.018328422237724e-05
-0.00010754842017496376
2.970307662057142e-05
7.82546770804323e-06
1.7525692751289387e-05
-1.765291143513522e-08
2.9808888583394194e-06
-6.980226830983412e-06
-1.7644899708190009e-06
-9.357606282582732e-06
-1.0212073321851754e-05
-2.691668496399197e-05
0.0001481091418267235
1.1530727065075534e-05
-3.821166289352874e-06
-5.985303520869768e-05
-7.392627622687184e-05
-7.331648906811867e-05
7.819378286523399e-05
-3.225455010704556e-05
-3.7219838077315476e-05
-4.0687533845418424e-05
-1.3166898085038268e-05
-2.489982415414582e-05
-2.6986458299263603e-05
-1.912072587801622e-05
0.00019433582844624345
-7.726550536409116e-06
-8.042958929129636e-06
-5.29226333446698e-06
-7.58104818936366e-06
-2.3499199778286744e-06
-4.838115555288764e-06
-4.810428533028949e-06
4.064128505551578e-05
-1.6243459630508557e-05
4.550253370443132e-05
5.140845099730944e-05
-9.933792680953721e-05
-0.00010701027743497249
-0.00015694930334334077
-0.00015770163901460913
0.0004403316215312273
3.6712082929029165e-06
7.006218937819507e-06
1.581116339972255e-05
1.9934228639984145e-06
-1.768156829070324e-05
-7.14156101570709e-06
-6.966998481051329e-06
3.308114293018273e-06
5.934712447614763e-06
2.9081426732977578e-06
6.476162717141479e-07
-6.5814536474748514e-06
3.838536590133246e-06
1.393332656866963e-06
-6.2002163630247974e-06
-1.9406706291272277e-06
-4.2263257842448596e-05
-2.0440269413712294e-05
-2.045472822175692e-05
3.1151723663270604e-05
-3.1038183352043905e-05
-3.796312941021697e-05
-4.782536326513718e-05
0.0001688332078420452
0.0001512869927563439
0.0001305222666240316
-1.873129374221779e-06
-6.99156623769223e-05
-0.00012436238990810053
-0.00014159659022426407
-0.00015788592159174817
0.00021382443409488118
-6.38690702583217e-05
0.000297148298912994
0.00012249890711733152
-4.687086738681893e-05
-9.475231277361363e-05
-0.00012269430735989216
-0.00012650566202884451
3.504501377716539e-05
0.00046510362316254925
0.00025649170758154037
3.604466218249135e-07
-0.00014358490528498707
-0.00016932118345297644
-0.00030487088127371183
-0.0003445544619223045
0.00024037565456806552
0.00040365594614159996
0.00020783594260208294
0.0001277478171994315
-0.00012240794614789657
-0.00016850866092681102
-0.0002007208711341024
-0.00023215662029041681
-1.544560744388764e-05
-2.1999392432632706e-05
-2.095752085860657e-05
-2.51781081808299e-05
-1.874718667177246e-05
-2.8273414055864148e-05
-2.539224801406388e-05
-2.5214479437924507e-05
0.0001657623496516942
-1.8573444264412533e-06
0.00012581007513195322
0.00010103436986176397
-2.732811230808985e-06
-8.644421992770537e-05
-9.659130014853809e-05
-0.00010802901064173747
6.881024138151394e-05
8.357093271688237e-05
0.0003974766064516382
0.0002145715336570215
-3.5791245841234316e-05
-0.00015463780474151345
-0.0002398121440721575
-0.00021999685076893547
-4.5381027401701274e-05
1.9626296973342214e-05
0.00010252143506710069
6.342953598720165e-05
-3.839195796750122e-05
-4.8580348599988576e-05
-6.779600161753942e-05
-6.467541874959063e-05
3.3866458906975263e-05
-1.0559085679129766e-05
6.050579434489354e-05
3.337401377798599e-05
3.7185888219816725e-06
-7.744297785515432e-05
-9.780865273963981e-05
-0.00010924350670650629
0.0001974558260355691
-2.623960987446002e-05
0.00018431262750617696
0.00015062913418074602
-3.89411742204958e-05
-9.297137890689151e-05
-8.828797485314155e-05
-0.00011274515394707551
2.4243530115141523e-05
-1.0627218544654353e-05
-1.583650018006197e-05
5.622059053476342e-05
-5.410933499746689e-06
-1.8238380036432866e-05
-3.4896423221958766e-05
-4.44629816936877e-05
7.325184664177888e-05
-4.876017837826798e-05
5.124868109350529e-05
2.8505951853025276e-05
-2.9973968078909143e-05
-3.242140360945696e-05
-6.569062157286702e-05
-9.249302052534414e-05
0.00018958455921831477
9.182144190994761e-05
0.00016347567317080163
8.50994502309733e-06
-9.955172423665654e-05
-0.00014226506995307706
-0.0001460760486080382
-0.0001722097604690224
0.0002962955431629477
1.190572057154389e-05
0.00036337455535488027
0.00020094134789551724
-7.275037531275724e-05
-0.00017935056235095467
-0.00017305855512646955
-0.00021454901689600206
6.348688586424191e-05
-0.0001390779951236262
0.0010011243229234464
0.00037667779198667135
-0.00014742982264122882
-0.0003109193952852089
-0.000390764377427275
-0.00041549535947358
2.588483504080127e-05
7.603042209544992e-05
0.00045230689556711166
0.0002649075990896773
-0.00012730550240017797
-0.0002203071692691961
-0.00031827855049137445
-0.0002971373139787885
0.00016978361938729816
-2.609707574293663e-05
5.610014915149105e-06
-7.888499375187145e-06
2.320413587520981e-05
-6.064047481698293e-05
-7.97050916921325e-05
-5.355513358953895e-05
0.00019907212442641913
-2.1692625362392257e-05
1.0503036223569087e-05
-1.123115445111347e-05
-1.603733020819817e-05
-5.144457390750088e-05
-4.498759266968221e-05
-4.682809336794947e-05
0.00018171833374326733
0.00019066202150327493
0.00015697549979873103
5.679610533874766e-05
-6.161564472010862e-05
-9.52539125925253e-05
-0.00011351080168230903
-0.00010989217500067332
-2.4161092645137362e-05
3.4166370393566415e-05
0.00010578440961184875
7.389802043486017e-05
-3.2483222130831626e-05
-6.910354248594708e-05
-0.00010285732925420733
-0.00011463976915798018
0.00010523506258869091
-5.6405108852068194e-05
3.5548084647044392e-06
4.304600635968832e-05
1.5584215177499037e-05
-1.709428760912425e-05
-5.6429888667530796e-05
-4.289303523671518e-05
0.00011063729036354658
-2.1359057478554312e-05
0.00029141607741005646
0.00015323492041207712
-1.3851200579388495e-05
-0.00011159742962545772
-9.181754125979894e-05
-0.00013422534002631545
-7.180042885261886e-05
0.00020429076929310007
0.00017623733366539223
-2.820938398488688e-05
-0.00010068755349281352
-0.00019692835650585408
-0.00021740756869043383
-0.00025570848116700516
0.0004184132408825013
2.7048221618029466e-05
0.0004233698423849648
0.0001867145774332768
-8.373242258596219e-05
-0.00017320959848729072
-0.00022211373461264284
-0.00025555455738037565
9.747767163000038e-05
0.00022038422425441564
0.00011717738631748865
2.795337085236463e-05
-2.8544131570641175e-05
-0.00011290808163236329
-0.00011828077636066645
-0.00014264601010173755
3.686401824113958e-05
3.555924337086512e-05
0.00012607376802095365
5.120745642220765e-06
-2.7486661320200815e-05
-5.031638431617373e-05
-7.457138138721195e-05
-7.142335959989669e-05
5.704402958944359e-05
2.6987157534907306e-06
0.00021101535141231542
0.0002254556998594069
2.8731941440457126e-05
-8.903560948994905e-05
-0.00013277098922149684
-0.000124076380314435
-0.00012201872943978942
0.0004249651646919841
0.00041956364070821285
0.00014503590047925893
-7.819565493323805e-05
-0.00023736987646188446
-0.0002779037516527678
-0.0003058024569321605
-9.02929658994052e-05
-6.077638423047037e-06
5.3052940625356474e-05
5.6367394461973194e-05
-1.2362294694528789e-05
-7.583854305271463e-05
-0.00011283051562545018
-0.0001822174790930391
0.00027990613580145007
9.686528474198225e-05
1.825681555220116e-05
7.027590041759241e-06
-4.328146055552215e-05
-6.208079596752594e-05
-5.250936889489835e-05
-8.215871256874858e-05
0.00011788064765075237
0.00013479141615785673
0.0008542426560129402
0.00022227514154768833
-0.0002609367001126639
-0.0003285515184640825
-0.00048026862897251324
-0.0005014610324930299
0.00035990866632380417
0.00019685181574373813
0.0003519409362178278
5.995092286583982e-05
4.2762869272723835e-06
-0.0002491416510276448
-0.0003062509749047918
-0.00033604738634706867
0.0002784200505248267
1.015562969486393e-05
-1.97915429547858e-07
-9.606787104444932e-08
-2.5156747616989467e-06
-2.452480327763598e-06
1.268115931518302e-07
-2.4103817233722842e-06
-2.609921174588624e-06
-9.402163657102394e-06
0.0004928901755830088
0.0001527422731059676
-1.9295497919036037e-05
-0.0001519968731893475
-0.00024821245393121585
-0.0002886899294514951
7.196446945922044e-05
8.878491477384334e-05
0.00038933565297124086
0.00018986717341898228
-0.00013191070985027194
-0.00026861909149528574
-0.0003859742146579535
-0.0004154023236455892
0.0005339185984850343
5.746914275307537e-05
0.000350397873096365
0.00021338735180542498
-8.598223324745979e-05
-0.0001493393756149587
-0.00019155058749993644
-0.0002382089189982834
4.382674770577314e-05
1.7175406674147828e-06
2.8821484399857852e-05
1.0563764079333302e-06
-2.4301262326631683e-05
-5.586843390887898e-05
-7.683202086369102e-05
-6.813836105400198e-05
0.00019354467667799768
-7.199267995219355e-06
2.376354147982239e-06
-2.3014035042711095e-06
7.904056624699051e-07
-6.591497338692388e-06
-6.468687706355807e-06
-3.857453642780609e-06
2.3251550376867126e-05
-2.571882738977743e-06
-2.670875728274234e-06
-2.6101893874440136e-06
-2.5232143577360332e-06
-2.4778888627876357e-06
-2.456605207965295e-06
1.0578781315476916e-07
1.5204868470030185e-05
1.1578158089819527e-05
0.00016694895188362023
9.960098353989778e-05
-4.846933322001129e-05
-0.00016096591270171125
-0.00017287517826486108
-0.00015846203874514644
0.00026264436941839255
-6.615333472795372e-05
0.00023304160502912827
0.0001727140392007134
-5.2896379243692226e-05
-6.149309835080413e-05
-0.00011702890774230219
-0.0001588414744826071
5.065755031751775e-05
0.00018189930849157282
0.0002464343172964741
0.00015644671278254018
-0.00012034985026321698
-0.0001773957713649951
-0.00021131762671378494
-0.00021423403303437718
0.00013851694280578718
0.00010552893495566552
0.0004857903946648934
0.0002352632853387747
-0.00014744316273403797
-0.00021172484566595368
-0.0003017341402234063
-0.0003289758547434261
0.00016329538840749032
5.090259003932058e-05
0.0001990613817806919
0.00010265676220129992
-5.515829032108131e-05
-0.00010869845997250661
-0.00010122897694011274
-0.00012045902549848147
3.2924018710869766e-05
-4.2717198144979826e-05
-2.8547457715914175e-06
7.486474191934219e-05
1.3881912526758214e-05
-2.92753259899599e-05
-6.111483473470758e-05
-5.279066246548848e-05
0.00010000611266062684
-0.0001793890476913099
0.0004350113167560939
0.0003182100344092654
-8.082591382491052e-05
-0.00020013718039614786
-0.00022826197750858281
-0.00023595743869862164
0.00017135020695421369
4.957251360445929e-05
0.00014531429910906405
0.00016435334034093854
-4.695662322126267e-06
-8.296547080601583e-05
-0.0001413958838557388
-0.0001425419233874146
1.2358787316833606e-05
-1.2079524983612711e-05
7.557898915675627e-05
1.8569771448883708e-05
1.185469665434955e-05
-2.8410063054530067e-05
-2.9465929606972834e-05
-5.9283453605774464e-05
2.323551399090052e-05
-4.683250174092578e-05
0.00013096231069971637
6.164606482885948e-05
-2.1099144176693566e-05
-6.257098586285086e-05
-7.83851829070699e-05
-0.00010543172725775071
0.00012171116641671511
6.356765465327412e-05
1.2008731205923088e-05
4.035136885152582e-05
3.9881495879971335e-05
-5.3368120261634514e-05
-8.478567781746184e-05
-7.6259642005263e-05
5.8604189493664964e-05
-4.34551405040293e-05
0.00022370785312731276
0.00023136291592981546
-5.889614175307292e-05
-0.00012903502145220769
-0.0001108013156669291
-0.0001450443174358538
3.216116775496471e-05
0.00018525818841352116
0.00032222396607694734
5.093989496972269e-05
-7.446528098576608e-05
-0.0001729232673481674
-0.00023904402931107556
-0.0002236200176236067
0.0001516305458084246
0.00011829138532032008
0.00036197324666697273
0.00016262983276696597
-6.706393689842821e-05
-0.00016807284841736405
-0.00020104340035805536
-0.0002493912281485359
4.2676949068124826e-05
2.6687965785141866e-05
0.0002777504872368553
0.0002939639822953715
-3.0706106478336125e-05
-0.0001523207400886806
-0.00014191156234280849
-0.00019149190548699128
-8.197212092055224e-05
0.00018707256481715034
0.0005327377698200015
0.00010445930916456688
-0.00013363518474023505
-0.00018072228382292626
-0.00021352863252741455
-0.00021985229114220223
-7.653125156894068e-05
-3.178476033118894e-05
0.00019028212278039463
0.00012780740136499985
-1.9425703494154028e-05
-8.922445619051985e-05
-0.00011280477910768607
-9.911499672218786e-05
3.426517170034228e-05
-8.490383625947918e-06
-1.1777914000940526e-05
-8.729849845757588e-06
-1.0688525990584323e-05
-7.851871478643647e-06
-1.0268957971958884e-05
-7.657336442792213e-06
6.54648393566251e-05
2.5411562118174227e-05
0.00010212814723465662
2.2049824615687937e-05
-2.2197337464287682e-05
-3.1670702227240014e-05
-3.135938277333325e-05
-3.1222053127387804e-05
-3.314005837627007e-05
-6.845064517762441e-06
-7.395190987003503e-06
-4.4815205232214155e-06
-6.579497811756894e-06
-8.906210434288705e-06
-8.800453065043646e-06
-6.2015703389857725e-06
4.92095076780624e-05
0.00010908736217481567
0.0003106726939742882
6.496715433929947e-05
-8.956597257417243e-05
-0.0001756444949310563
-0.0002764231373556539
-0.00027316446899298464
0.00033007086336546394
-1.293166580298004e-06
1.2707652649600564e-05
5.818131785526129e-06
1.4655258409283237e-05
-5.091438851607775e-06
-2.2193895689865454e-06
-2.2446215223434738e-05
-2.130832620082867e-06
1.5229815661016681e-05
5.1906133812035604e-05
-6.592036045819193e-07
6.686524154585682e-07
-1.652803517600143e-05
-1.621929658112709e-05
-1.3508914937931118e-05
-2.0889151588869288e-05
4.0694952380440855e-05
0.00015406591681352963
4.2505576926648375e-05
-5.9243161969984656e-06
-5.8206039594185865e-05
-9.467910306566156e-05
-9.629268359932696e-05
1.7835696335553896e-05
3.5412482276260067e-06
7.624284727458706e-05
4.67586907221364e-06
-7.435177610751994e-06
-2.624468989388384e-05
-2.294108327091848e-05
-1.9994538331719753e-05
-7.844475467152666e-06
-1.3708442689916684e-06
3.0224589420151793e-05
1.844485829509038e-05
-1.0803607553681506e-05
-2.46326598660446e-06
-1.2336106922114678e-05
-1.7259843435717747e-05
-4.435779548132103e-06
0.00020429076929310007
0.00017623733366539223
-2.820938398488688e-05
-0.00010068755349281352
-0.00019692835650585408
-0.00021740756869043383
-0.00025570848116700516
0.0004184132408825013
7.790342182735282e-06
7.127138853070618e-06
1.2623287432956565e-05
3.026909490506998e-06
7.985809568353096e-07
-1.1797121004901498e-05
-6.609628079883373e-06
-1.2959509831319893e-05
-7.726550536409116e-06
-8.042958929129636e-06
-5.29226333446698e-06
-7.58104818936366e-06
-2.3499199778286744e-06
-4.838115555288764e-06
-4.810428533028949e-06
4.064128505551578e-05
9.405572237778552e-07
7.678385258606333e-06
1.4989694295008348e-05
1.0366135024706075e-05
-1.1035141058121847e-05
-1.7945042871532494e-05
-2.776133640374831e-05
2.2766748531304054e-05
8.357093271688237e-05
0.0003974766064516382
0.0002145715336570215
-3.5791245841234316e-05
-0.00015463780474151345
-0.0002398121440721575
-0.00021999685076893547
-4.5381027401701274e-05
-4.2263257842448596e-05
-2.0440269413712294e-05
-2.045472822175692e-05
3.1151723663270604e-05
-3.1038183352043905e-05
-3.796312941021697e-05
-4.782536326513718e-05
0.0001688332078420452
-1.0559085679129766e-05
6.050579434489354e-05
3.337401377798599e-05
3.7185888219816725e-06
-7.744297785515432e-05
-9.780865273963981e-05
-0.00010924350670650629
0.0001974558260355691
-5.19122656434661e-06
2.217091644943678e-05
1.445043611789662e-05
-2.6353640653599805e-05
-5.023386758877202e-05
-6.865839836505651e-05
-6.757123508641242e-05
0.00018138701569085392
-2.623960987446002e-05
0.00018431262750617696
0.00015062913418074602
-3.89411742204958e-05
-9.297137890689151e-05
-8.828797485314155e-05
-0.00011274515394707551
2.4243530115141523e-05
-6.758785991388762e-06
7.57745893623626e-05
1.557294735350728e-05
-8.581072147551103e-06
-1.8120872905913627e-05
-1.5264547666138525e-05
-2.530669193963015e-05
-1.73155660652477e-05
0.00016973395688011302
0.00014058083117484449
3.314452616002076e-05
-4.357434134887437e-05
-0.00012491662588067664
-0.00017464135620957977
-0.000177758268068402
0.0001774312772925544
-2.1999392432632706e-05
-2.095752085860657e-05
-2.51781081808299e-05
-1.874718667177246e-05
-2.8273414055864148e-05
-2.539224801406388e-05
-2.5214479437924507e-05
0.0001657623496516942
-8.668483216317631e-07
8.732100528347477e-05
7.934543696633216e-05
2.1150292516979235e-05
-5.890997169724908e-05
-4.543409573920461e-05
-7.056872048244013e-05
-1.2037098526260557e-05
-2.4484376382047656e-06
3.992373030048803e-05
-2.661722623568098e-07
3.0734341076316425e-06
3.4502782123265003e-06
-1.4229263336232542e-05
-1.4140351648202163e-05
-1.53632177354499e-05
-1.0765392104464213e-05
9.017844987584424e-05
2.8683446417826018e-05
-2.1834226450795183e-05
-1.0121697170702304e-05
-4.0011319941131965e-05
-4.729479037156227e-05
1.116552974498567e-05
-1.5232169906682888e-05
8.944335639746363e-05
9.257045654709676e-05
-7.856782791777346e-06
-2.107339978361911e-05
-5.580216337428371e-05
-5.020795159003444e-05
-3.184134549816289e-05
6.673149348113369e-07
3.0059973939097456e-05
1.8070436738958798e-05
3.7707446035423487e-06
-1.1041013322702206e-05
-1.3363890166885582e-05
-1.5796396290635536e-05
-1.236717043618662e-05
-6.423443602585698e-06
2.6697272204439716e-05
2.0689088328620905e-05
-4.6417606272900535e-08
-1.4650775476164921e-06
-1.878732287761689e-05
-3.1256340043107794e-05
1.059224114413915e-05
1.3818895279354321e-05
-7.582801255875514e-07
5.528334409360407e-06
-1.0729403123074178e-05
-2.263319300720056e-06
-1.4627083936693768e-05
-2.2074716046033846e-05
3.110557284339466e-05
-9.676757072461689e-07
-1.0165417367911359e-06
1.5632148101109898e-06
1.6054437179512472e-06
-9.231862953112348e-07
-9.126331904494401e-07
-9.068066131629573e-07
1.5581850148987e-06
-4.516649844288145e-06
1.0579669354921296e-05
8.15004787170276e-06
-4.415167257865195e-06
3.3383302224126647e-06
-4.263050984745493e-06
-4.235308703132493e-06
-4.637870659005387e-06
1.3239042398246031e-05
1.4142259136495336e-05
2.9497050220052996e-05
7.669507671527432e-06
-5.754754994956354e-06
-3.545587663697174e-05
-5.792745266034148e-05
3.459022486594778e-05
4.880529784592241e-05
9.53191955059117e-06
-2.5796497349066455e-06
-9.3344738792831e-06
-6.34794525457421e-06
-8.69452929697038e-06
-1.3691846933679111e-05
-1.7688772297100146e-05
-4.876017837826798e-05
5.124868109350529e-05
2.8505951853025276e-05
-2.9973968078909143e-05
-3.242140360945696e-05
-6.569062157286702e-05
-9.249302052534414e-05
0.00018958455921831477
2.42411768106993e-05
7.910715817364062e-05
6.104423495421728e-05
-3.516635803184882e-05
-4.373224952918695e-05
-2.255759773420027e-05
-4.510378129527547e-05
-1.7832583348045732e-05
2.477698833082402e-05
5.741958047548044e-05
1.5992120534983648e-05
-1.2071173367642179e-05
-2.100768259123109e-05
-3.061209056969971e-05
-2.2646408661668127e-05
-1.1851334151047007e-05
2.37030574533674e-06
0.0003656928124857516
0.00020937921612264811
-4.5270618432617635e-05
-0.00015501455459516038
-0.00016682061008535754
-0.00022112370172581438
1.078715048521336e-05
-8.490383625947918e-06
-1.1777914000940526e-05
-8.729849845757588e-06
-1.0688525990584323e-05
-7.851871478643647e-06
-1.0268957971958884e-05
-7.657336442792213e-06
6.54648393566251e-05
0.0
0.0
0.0
0.0
0.0
0.0
0.0
0.0
2.9326040293738927e-05
7.76983776640476e-06
1.3568250537536538e-05
-6.873068408042469e-07
-1.5442238330775954e-05
-1.5178256521961055e-05
-1.2486829198051729e-05
-6.869497706087243e-06
8.960616929339009e-07
6.700368552853276e-07
8.126296818169069e-07
-1.5429582586287586e-06
1.107593195971191e-06
-3.945433479913022e-06
-1.3697893500335748e-06
3.3718596625680278e-06
-6.634208151760924e-06
1.9412272534281614e-05
3.058329111549049e-07
2.0445114038303994e-06
-1.2365947703356766e-05
-1.4502381581535742e-05
-2.4491765239693823e-05
3.6231685827080334e-05
-6.04267279419615e-06
-4.543271406323754e-06
1.8085627445003506e-05
-9.390428542552791e-06
-2.056237340639471e-05
5.886171345651153e-07
-2.962060137375064e-05
5.148510294364941e-05
-3.606213073039862e-07
-5.103616500627671e-07
2.130864660500033e-06
4.816658054008223e-06
-2.119504366471902e-07
-2.727035281965734e-06
-1.5728375498015667e-07
-2.9802702835484225e-06
2.8091923128368403e-05
0.00012240370332316548
5.9957326855408986e-05
-4.3159432671808684e-05
-6.908545060856998e-05
-0.00012042195749250251
-0.00011416124875640795
0.0001363751362223462
-1.1827935222522313e-05
0.00018439005010701211
6.792813230755026e-05
3.74406483829845e-07
-5.406158017803403e-05
-6.353485658840053e-05
-6.0653656732128474e-05
-6.261456017730682e-05
1.1578158089819527e-05
0.00016694895188362023
9.960098353989778e-05
-4.846933322001129e-05
-0.00016096591270171125
-0.00017287517826486108
-0.00015846203874514644
0.00026264436941839255
-1.3369994848338824e-05
3.993639296135261e-05
5.5895951373084194e-05
-1.4197603849934981e-05
-4.913117881710218e-05
-0.00013048588033967007
-0.00010868241757656783
0.0002200347310971772
1.8882129366450403e-05
0.00011615352369454785
4.519673039382501e-05
-2.474611841623608e-05
-4.316616136335767e-05
-4.988279583805204e-05
-5.4493666219997614e-05
-7.943641617179852e-06
-2.4899512397095236e-05
0.0003060070878166756
0.00010026032141872043
-6.718279909885062e-05
-9.747243570553596e-05
-0.00013318498480301467
-0.0001395262730607924
5.59985958298928e-05
-6.615333472795372e-05
0.00023304160502912827
0.0001727140392007134
-5.2896379243692226e-05
-6.149309835080413e-05
-0.00011702890774230219
-0.0001588414744826071
5.065755031751775e-05
8.494956795453795e-06
2.8600640167013004e-05
2.0129280129655085e-05
4.812480878385765e-06
-1.429584822082739e-05
-2.897310075478038e-05
-2.354013819240267e-05
4.771729197502795e-06
1.790906211417196e-05
4.298834807871465e-06
1.907960363133451e-05
-1.6082994876528222e-05
-3.739987198705619e-05
-3.917584143214685e-05
-4.639719720492097e-05
9.776840494727431e-05
4.693704646771339e-05
0.0001455829485017006
8.35574632186937e-05
-3.444313462455395e-05
-3.984118308751913e-05
-9.873683380722472e-05
-0.00011537342919629601
1.2317122527486186e-05
1.1879079911464758e-05
0.0002176628052753563
0.00016101579174325145
1.3237692316552755e-05
-0.00012411149123189193
-0.00018297504349930373
-0.00020594634433990412
0.00010923750982447468
-1.0355053155269921e-05
0.00032693991966922055
0.00010403169779998669
-1.9149276470570408e-05
-9.744597081136268e-05
-0.00012786133927441168
-0.00013157295998456745
-4.458701777302507e-05
8.836964447555808e-07
-4.501417349829265e-06
3.3156833942675925e-06
3.573572788819516e-06
8.816320392501778e-06
-1.3154566919389365e-06
-3.826162360185564e-06
-6.9462366183907085e-06
0.00022038422425441564
0.00011717738631748865
2.795337085236463e-05
-2.8544131570641175e-05
-0.00011290808163236329
-0.00011828077636066645
-0.00014264601010173755
3.686401824113958e-05
5.5832936054263726e-05
4.2205660456999136e-05
2.547499852048304e-05
1.0313407155727185e-05
-3.033079043181008e-05
-4.6874551404154154e-05
-5.63777842767669e-05
-2.4387607474193996e-07
-1.759925247913707e-05
2.820121819547868e-05
2.9932200517696123e-05
-2.3967200942693213e-05
-2.5451575738722076e-05
-1.9855847173185687e-05
-2.7273191123999983e-05
5.60136487445632e-05
-2.2892807693433884e-05
-2.141846728755353e-05
-2.3315477798390834e-05
-1.9846821522501518e-05
-1.93886730535035e-05
-6.419141774584333e-06
-6.308951841389898e-06
0.00011959034097135748
-2.571882738977743e-06
-2.670875728274234e-06
-2.6101893874440136e-06
-2.5232143577360332e-06
-2.4778888627876357e-06
-2.456605207965295e-06
1.0578781315476916e-07
1.5204868470030185e-05
8.655901596497286e-05
0.00046299874035453956
9.58929309372137e-05
-4.867154136909968e-05
-0.0001466772439342983
-0.00017425035619967065
-0.00019056005697532557
-8.5291488778332e-05
2.6987157534907306e-06
0.00021101535141231542
0.0002254556998594069
2.8731941440457126e-05
-8.903560948994905e-05
-0.00013277098922149684
-0.000124076380314435
-0.00012201872943978942
-3.9553302831374525e-05
0.0001518790641759746
0.000148560782925216
5.436391027278876e-05
-7.424703233295695e-05
-0.00012222501055811317
-0.0001257446967012898
6.96628504975506e-06
-2.609707574293663e-05
5.610014915149105e-06
-7.888499375187145e-06
2.320413587520981e-05
-6.064047481698293e-05
-7.97050916921325e-05
-5.355513358953895e-05
0.00019907212442641913
2.180527758091731e-06
-5.379447912137528e-07
2.1212766125241895e-06
4.822072875548968e-06
-2.7502782795878144e-06
-2.712514824843859e-06
-2.691890706806214e-06
-4.3124864371324637e-07
0.0001512869927563439
0.0001305222666240316
-1.873129374221779e-06
-6.99156623769223e-05
-0.00012436238990810053
-0.00014159659022426407
-0.00015788592159174817
0.00021382443409488118
0.00018189930849157282
0.0002464343172964741
0.00015644671278254018
-0.00012034985026321698
-0.0001773957713649951
-0.00021131762671378494
-0.00021423403303437718
0.00013851694280578718
1.1287109374698651e-06
4.634014305938126e-05
3.35656173335856e-05
-7.2615482168204e-06
-5.669091313383605e-05
-7.260903040791484e-05
-6.9002715238258e-05
0.00012452973566639256
7.725211979789855e-06
3.7727854902903446e-05
0.00014304605237829297
-1.4892426943695257e-05
-6.569707544358511e-05
-5.9277685122670234e-05
-7.132302072954618e-05
2.2691088978510517e-05
9.182144190994761e-05
0.00016347567317080163
8.50994502309733e-06
-9.955172423665654e-05
-0.00014226506995307706
-0.0001460760486080382
-0.0001722097604690224
0.0002962955431629477
-2.1692625362392257e-05
1.0503036223569087e-05
-1.123115445111347e-05
-1.603733020819817e-05
-5.144457390750088e-05
-4.498759266968221e-05
-4.682809336794947e-05
0.00018171833374326733
0.0004249651646919841
0.00041956364070821285
0.00014503590047925893
-7.819565493323805e-05
-0.00023736987646188446
-0.0002779037516527678
-0.0003058024569321605
-9.02929658994052e-05
1.697279954206074e-05
2.8647832517016037e-05
1.6568019446475352e-05
-8.064276158985307e-06
-1.5281341945807978e-05
-9.978491086397152e-06
-1.4975911717740783e-05
-1.3888630596620912e-05
0.00040365594614159996
0.00020783594260208294
0.0001277478171994315
-0.00012240794614789657
-0.00016850866092681102
-0.0002007208711341024
-0.00023215662029041681
-1.544560744388764e-05
-2.0265401342023355e-06
-2.494774671319956e-06
5.432353188086034e-06
1.6046682784068005e-05
-1.5892680140949907e-06
-6.584601898672261e-06
-3.977413864622903e-06
-4.806437389241598e-06
4.957251360445929e-05
0.00014531429910906405
0.00016435334034093854
-4.695662322126267e-06
-8.296547080601583e-05
-0.0001413958838557388
-0.0001425419233874146
1.2358787316833606e-05
0.00010552893495566552
0.0004857903946648934
0.0002352632853387747
-0.00014744316273403797
-0.00021172484566595368
-0.0003017341402234063
-0.0003289758547434261
0.00016329538840749032
0.00018707256481715034
0.0005327377698200015
0.00010445930916456688
-0.00013363518474023505
-0.00018072228382292626
-0.00021352863252741455
-0.00021985229114220223
-7.653125156894068e-05
3.8619094351207983e-07
5.6766377561681326e-05
7.663496046056476e-05
-8.434011742835055e-06
-4.312005899457172e-05
-5.163689490237151e-05
-8.132452734049276e-05
5.07279640145129e-05
-0.0001390779951236262
0.0010011243229234464
0.00037667779198667135
-0.00014742982264122882
-0.0003109193952852089
-0.000390764377427275
-0.00041549535947358
2.588483504080127e-05
-6.774205923125446e-07
4.266854067373252e-06
-7.411281920342609e-07
1.94825082564585e-06
4.570932327522036e-06
-3.045705364642998e-06
-3.0265065175386515e-06
-3.2952765540126825e-06
5.324184947661619e-05
0.00012720724571172183
2.7414239562475528e-05
-4.259998053219435e-05
-4.700791107245724e-05
-7.096848346659115e-05
-8.548432823926243e-05
3.819736855969167e-05
5.334224589417246e-06
2.930785707129253e-05
1.4956671616296798e-05
-4.114992182843596e-06
-8.52742701044069e-06
-1.3303441891517795e-05
-1.3126364858789087e-05
-1.052652733341541e-05
5.599482173776829e-06
2.5192292821100267e-06
2.8413573512093277e-06
7.578543525782585e-07
-1.5533317513332947e-06
-1.4385019197203426e-06
-6.476790083711453e-06
-2.2492994049093493e-06
1.3945135333887764e-05
4.269912268833939e-05
2.3417287562545593e-05
1.2186768137290528e-05
-2.0206698394270163e-05
-2.7503559743473232e-05
-2.4769916809950657e-05
-1.9768138774369218e-05
-6.077638423047037e-06
5.3052940625356474e-05
5.6367394461973194e-05
-1.2362294694528789e-05
-7.583854305271463e-05
-0.00011283051562545018
-0.0001822174790930391
0.00027990613580145007
3.734187402022926e-05
0.0002629126825062456
0.00015580847245883246
-2.8771500546012875e-05
-0.00010829534554044847
-0.00015592168975192124
-0.00018221591518917786
1.9141422042253283e-05
2.2128038702469902e-06
5.2105934628462694e-05
2.6920828149530475e-05
-1.650600760765739e-05
-6.875032195623505e-05
-9.756537250411663e-05
-6.0927345769044006e-05
0.0001625094811888129
9.686528474198225e-05
1.825681555220116e-05
7.027590041759241e-06
-4.328146055552215e-05
-6.208079596752594e-05
-5.250936889489835e-05
-8.215871256874858e-05
0.00011788064765075237
-1.7972189955121572e-05
-6.526486355886297e-06
3.922310268047423e-05
-3.2712606569575482e-06
-1.4213043429546424e-05
-3.629816639256009e-05
-4.8602729207712876e-05
8.766077331731052e-05
2.6687965785141866e-05
0.0002777504872368553
0.0002939639822953715
-3.0706106478336125e-05
-0.0001523207400886806
-0.00014191156234280849
-0.00019149190548699128
-8.197212092055224e-05
0.0
0.0
0.0
0.0
0.0
0.0
0.0
0.0
0.00011829138532032008
0.00036197324666697273
0.00016262983276696597
-6.706393689842821e-05
-0.00016807284841736405
-0.00020104340035805536
-0.0002493912281485359
4.2676949068124826e-05
0.00046510362316254925
0.00025649170758154037
3.604466218249135e-07
-0.00014358490528498707
-0.00016932118345297644
-0.00030487088127371183
-0.0003445544619223045
0.00024037565456806552
-6.38690702583217e-05
0.000297148298912994
0.00012249890711733152
-4.687086738681893e-05
-9.475231277361363e-05
-0.00012269430735989216
-0.00012650566202884451
3.504501377716539e-05
-8.82991351437932e-06
-4.1377479543765346e-07
1.601348250217704e-05
9.978049219871704e-06
-1.464311454623575e-05
1.0817213989502486e-06
-2.6754486807503296e-05
2.356803654255704e-05
1.9212532324503743e-05
0.0001033650771352393
0.0001039196080619908
-2.9512459875297424e-05
-5.281917887112928e-05
-6.709796616159865e-05
-6.1481801972674e-05
-1.5585810641034456e-05
1.9069693615549578e-06
1.8771406163121816e-06
-6.567937197261234e-07
-6.30220993528863e-07
-6.160253783926011e-07
-6.088106058008765e-07
-6.048064371528139e-07
-6.674528432658619e-07
2.7048221618029466e-05
0.0004233698423849648
0.0001867145774332768
-8.373242258596219e-05
-0.00017320959848729072
-0.00022211373461264284
-0.00025555455738037565
9.747767163000038e-05
-5.6405108852068194e-05
3.5548084647044392e-06
4.304600635968832e-05
1.5584215177499037e-05
-1.709428760912425e-05
-5.6429888667530796e-05
-4.289303523671518e-05
0.00011063729036354658
0.00013479141615785673
0.0008542426560129402
0.00022227514154768833
-0.0002609367001126639
-0.0003285515184640825
-0.00048026862897251324
-0.0005014610324930299
0.00035990866632380417
-1.2079524983612711e-05
7.557898915675627e-05
1.8569771448883708e-05
1.185469665434955e-05
-2.8410063054530067e-05
-2.9465929606972834e-05
-5.9283453605774464e-05
2.323551399090052e-05
1.7175406674147828e-06
2.8821484399857852e-05
1.0563764079333302e-06
-2.4301262326631683e-05
-5.586843390887898e-05
-7.683202086369102e-05
-6.813836105400198e-05
0.00019354467667799768
5.746914275307537e-05
0.000350397873096365
0.00021338735180542498
-8.598223324745979e-05
-0.0001493393756149587
-0.00019155058749993644
-0.0002382089189982834
4.382674770577314e-05
8.086023675799009e-07
5.788699091353699e-05
2.476037032253847e-05
-1.2448258756529612e-05
-3.356910629653756e-05
-3.525146782419488e-05
-4.754318355008987e-05
4.5356052823696525e-05
3.555924337086512e-05
0.00012607376802095365
5.120745642220765e-06
-2.7486661320200815e-05
-5.031638431617373e-05
-7.457138138721195e-05
-7.142335959989669e-05
5.704402958944359e-05
-9.402163657102394e-06
0.0004928901755830088
0.0001527422731059676
-1.9295497919036037e-05
