0.038236576388838026
0.1392239791936312
0.0965858662580565
-0.009607564945706543
-0.08348287460176286
-0.12738454969614552
-0.15102853133981678
0.09745709874290606
-0.009367547291200172
-0.010662562660315808
-0.00640474091549565
-0.0033094870552906517
-0.002240421558126236
-0.0019042694044474101
-0.0016127760097794806
0.03550180489465541
-0.004203994095376574
0.020598622336348602
0.008295524661013683
-0.0002586805053395669
-0.005340882528357599
-0.008034812075988614
-0.011124656113586942
6.887832128698785e-05
0.014952241629716465
0.016725180878469057
0.0016732456143226091
-0.006105854774319688
-0.008733191756025329
-0.008838676902928836
-0.010913180315939047
0.001240235626704767
-0.01354806421695752
0.009924071331122011
0.01591566855348569
0.004268741085685086
-0.00702710594418893
-0.014695098139277843
-0.016201272224673675
0.021363059554805164
0.002344669749014536
0.005108033766681031
0.016034425722086947
0.007781454191988627
-0.011496784538209119
-0.014543360448017078
-0.019034604985857097
0.01380616654231216
0.03675280608949942
0.055049412207548026
0.03230963583289034
-0.0166797753327898
-0.04258614774616038
-0.06097180193763708
-0.06828980637598368
0.06441567726263314
0.0003776186843893357
0.0024078419139501785
0.0024454380831025573
9.133508233787016e-05
-0.0018906186006700334
-0.0007382774060031938
-0.002017006284539067
-0.0006763314725676448
0.002441004213265261
0.012152755272043826
0.01604072219639035
0.0020723065000172757
-0.005658755758980483
-0.009688489330748165
-0.012398510632065823
-0.004961032459922255
0.000364409846035726
0.0006230900300667495
0.00040013935651532425
0.00046997014351033865
-0.0002978026652792399
-0.00043221695678162287
-0.0003116367159590172
-0.0008159530381082589
0.0205605984150708
0.007047707268877035
0.0004841092829341264
-0.0049283307862334185
-0.006878347010934424
-0.011375667627678759
-0.01264163499447049
0.007731565452435126
0.0004049029081957952
0.0019475437394552513
0.0020977948935171904
-9.829888909656483e-05
-0.0017558322458502851
-0.0005818586811873445
-0.0018123370965996573
-0.0002019146284343855
-0.0009536828090973315
0.0012614246705317995
0.0004792793130190737
-1.2641961650048607e-05
6.795880456633809e-05
0.00019257669401559358
-0.00015643141206543912
-0.0008784832993199867
-5.090916904835764e-05
0.0010661838905807327
-0.0003937229823851361
1.4726793245312346e-05
-0.0001808757663467874
7.314356573974599e-05
0.0002387161277309643
-0.0007672624595164738
-0.0015508983720727042
0.0007294464132294149
0.00024646884282327
0.0007181523640958768
0.0005507720015062997
0.0006622271120544697
-0.0007749583919286484
-0.000581209969707978
0.0004349143537251444
0.00044684260193243616
-0.0005941378719530535
0.00045462967637243615
-0.0004990799726528937
-0.00020195340157819206
-0.0009117438318151843
0.0008705284459693076
-2.7284223806459844e-05
0.0004602981744949249
0.00034764318958536685
0.00018963397143443515
-0.00013478635481974823
-0.00015641872481585015
-0.00020466918793941028
-0.0004744168441332588
-0.00035958574322938265
0.0006104440070273286
0.0005475937031095363
-0.0005052114117872722
0.0005949141963041571
-0.0005450285109768461
9.821871601113794e-06
-0.0003529481120486349
0.00016459146028584824
-0.000681520125152428
0.0002634245187408803
0.00045802015661304036
0.0004911543527051792
-0.0001870717246013172
-0.0007486105396630746
0.00024001190107187124
0.000613181831858552
0.0007105904616749068
4.403487231644635e-05
-0.00016554894490654053
-0.00014225283429102848
-0.00029802990725578276
4.964873352487495e-07
-0.0007624719667318013
-1.734448289868626e-05
9.135280099457591e-05
8.518386362404681e-06
4.670170627377563e-05
0.00018195745880261944
-0.0001655109655728435
-9.739065243654279e-07
-0.00014470099743748048
-0.0004332803670556151
0.0036618875424171107
0.004572909291123262
-4.7878196596290786e-05
-0.00038414086101684863
-0.001583942048801761
-0.0032461807673366872
-0.002539374592733163
0.0043933940874982145
0.008435846469870107
0.013822771578963127
0.0007484142934811317
-0.005154627784100078
-0.009786121695284854
-0.009503508516030481
-0.0029561684343971744
8.99855605797413e-05
4.857510316657163e-05
0.000368914341134874
-0.00011023360025582737
-8.487607369202617e-05
-7.250497270281667e-05
-6.589862091647671e-05
-0.00017396173731404018
0.00016325635638100673
0.0011164386749994214
0.00027338905425273796
0.00020611919887701918
-0.00028326086763665823
-0.00032904359563248523
-0.00024241505351913346
-0.0009044837677219109
0.00040309847252319745
0.0008018709475430916
0.000734888104061478
-0.00032493759524149826
-0.0002584378074844204
-0.00023442733205584086
-0.0004110044660155557
-0.0007110503233304512
0.0005013267102131312
0.0006792712432056585
0.00048252983045810326
-1.7435263571632403e-05
3.75607307722496e-05
-0.00029683519752563426
-0.0008011602961416461
-0.0005852577574102289
-7.911307403608018e-05
-0.0001810376826128934
9.047295568541759e-05
0.0004928146972319915
2.6574835848259845e-05
-9.533656399064367e-05
-5.557961191866595e-06
-0.00024881720693418504
-0.0003616615431780034
0.002310969285939218
8.72430659371366e-05
0.00047269593437384324
-0.0005893413118882751
-0.0008503985622466274
-0.0010965679828042483
2.706111386695844e-05
-0.008459693553043143
0.011649434682203452
0.010468854102857932
-0.0037726183175237193
-0.008991475452755637
-0.011723645636018517
-0.012233534267106234
0.023062678441385827
0.0004632602613276275
0.0004491702344616661
0.00032317819573563525
-0.00017112698616586364
-0.0002793958732419167
-7.905345296789798e-05
-0.00020429137670939529
-0.0005017410024398553
-3.374599155908087e-05
0.00039208926592191847
0.00019504262367850316
0.00042511884708251415
-4.809911614553301e-05
-0.00018558069846815316
-6.683401790238205e-05
-0.0006779909126077864
0.0008047509080356424
0.0013059059669942212
0.000730544468822585
-2.420556952679269e-05
-0.0002036501856720079
-0.00039726817114091534
-0.0004568074041486338
-0.0017592700133640961
0.022490849888551163
0.02039442704749425
0.002872351910896225
-0.002863759862095202
-0.015952201462459934
-0.023527721169571768
-0.02940740731115668
0.025993460958341912
0.012125291844033274
0.010805755081134955
-0.00033984650754885644
-0.005642665798399917
-0.007327502381749789
-0.007080359523126459
-0.0077913804628219
0.005250707748478694
-1.9386280580545225e-05
0.0003129213077343411
9.574236676564007e-05
0.0002595539832180859
0.0006628703918562468
-2.985818856714754e-05
-0.0005639339561197914
-0.0007179096243068301
8.122933513298528e-05
0.005375476210281904
0.006892883541799489
0.0008344267493115672
-0.0069538956818567385
-0.007291016983559803
-0.011236131410803707
0.012297028239694297
-0.00044222330646614434
0.0008753852885088105
0.0004051657102320553
-5.6008512405595916e-05
-0.000655744308479288
-0.0002260706932910241
-0.0009509324502764109
0.0010504282721775986
0.00023139683714361404
0.004004420069462134
-0.0002459229775720516
-0.0014494506945436662
-0.001072497836390369
-0.0011559500134992232
-0.001834162396004305
0.0015221670114038636
-0.0039293946854922265
0.006722887494736885
0.003506222385600502
-0.0008258637525654699
-0.0024409909890441327
-0.0038428506247312052
-0.0053881008304094685
0.006198091001905122
0.000683164170906221
0.0014972967442096533
0.000704196172794888
-0.0003368741287696375
-0.00026320557259976564
-0.0008414487878302149
-0.0008286960567727185
-0.0006144325419384255
-0.002970068177262255
0.0006907352250569759
0.005264585187090512
-0.0008392406457469487
-0.0007495628063304297
-0.0002404141325894121
-0.002183340272488625
0.0010273056222701881
0.00013351935828694015
-6.151175162524848e-05
-5.201266907006523e-07
4.756835842715672e-05
3.615754119823806e-05
6.517737614456557e-05
-6.934719347722977e-05
-0.00015104356226372157
-0.0007523175504023761
0.0016764671707279759
-7.149759422310933e-05
0.00025519653308379283
-0.00014640680156793144
-0.00010858190760577867
-0.00038948627990180565
-0.0004633735701107681
0.0010504101684152274
0.0017993751131374302
-4.753327021626765e-05
-0.00102648384493767
4.046955812627046e-06
-0.0005791418341309128
-0.0009517215626741828
-0.0002489517254062503
0.00043505397684256774
-0.00031673485072420874
0.002742306337150534
0.00015727265504573588
-0.00044645225006088163
-0.0005946928741439306
-0.0006700551918528522
-0.001306697802256965
-0.0007379550208819001
0.015324870966444519
0.016246684709436205
-0.005803407805075395
-0.008240111249171272
-0.011465070794212823
-0.011806437351687673
0.00648142654514835
-0.0007076368004532045
0.002256817599475534
0.0011780262678676332
-0.00026489795881908554
-0.0006470730092528926
-0.0007862677592121591
-0.0010117116751342458
-1.725666447157772e-05
0.0028990063598024847
0.0006329722425287799
0.002237635826765842
0.0006883414381379471
-0.0025240125708390943
-0.002879696710155244
-0.002200792451562644
0.0011465458653219269
-0.003876868709299994
0.006743840143701864
0.0025326139819515647
-0.0003754250442281836
-0.0016770784525237848
-0.0023623272595528415
-0.001348259088381318
0.00036350442833269327
-0.000442516085496269
0.0020900237582140444
0.0004905541048434496
0.0004116005649913016
-0.00015224877224619655
-0.0005960927646560978
-0.0010794329428062588
-0.000721887862843972
-0.0009492313573577643
0.0025153650030472585
0.0003693972835308712
-0.0007488686453510416
-0.0014117009476268172
-0.0023466125312678063
-0.0017386231082212366
0.004310274303246539
-0.00014187577741417697
0.00027193125883093964
0.0002110262319264286
-0.00012189731851900923
0.00013081956519434996
-8.064620072689322e-05
-7.320038603412099e-05
-0.0001961573732575177
-9.000573839895288e-05
0.0001645648772929484
0.00018100778506996188
8.472106625536394e-05
-3.407484973520421e-05
-9.419528557555424e-05
-1.0731315127484575e-05
-0.00020128653978107833
-0.0004653841025852071
0.0015934763370888617
0.0022858208543231145
0.0010821459007806218
-0.0004961482101180897
-0.000667531978231375
-0.0016464757184401345
-0.0016859030828177905
0.0005572927515971761
0.0016386165946034516
0.0013249590049793385
-0.000832178657071301
-0.0006924060561990162
-8.905818348469136e-05
-0.0004956984890052603
-0.0014115269654196964
0.0022634404138815486
-0.00026744244360087354
0.00914154218028745
0.00694702744267706
-0.004542888856352378
-0.007252343464457264
-0.007798473575053385
0.0015091383026178597
-0.00046200177090908675
0.0015026290760978484
0.00030565890259690894
-0.00041826833349972595
0.00026863534739222396
-0.00046040158978991004
-0.0006029064297492751
-0.00013334520213898303
-0.0006778038089997569
0.000939589107294912
0.0019391514167731482
5.993558365320591e-05
0.00018410244435468554
-0.0006129544600589114
-0.0003424187790432981
-0.0014896015039739866
0.0006377477050671844
-0.00040099550895341253
0.00039700084300439887
0.00023811298984613305
-0.0002604628296349091
-0.0002617544441469559
-0.000493560086558846
0.00014391133137640717
0.0008431301466106032
0.0012647055862658933
0.0008681882922640114
-0.000382823862246479
0.0005455289648929327
-0.0006874146181923313
-0.0009296756721919572
-0.0015216388374026744
0.0011250156886431707
0.0018059468375724655
0.0002487170535021782
-9.06453425480784e-05
-5.7220109688423984e-05
-0.00048625004759340613
-0.0007379280551570536
-0.00180763602473085
-0.0068786468743403245
-0.001957290296474159
0.00010059401056851211
0.005554167660864367
-0.0037780440920142976
-0.009191565790253016
-0.007656970388306057
0.023807755769954975
-4.8413011325695306e-06
-0.0003901970917434538
0.00020488769107009737
0.00017428707813004746
-0.000243030079165
0.00013277402992034187
0.0001694643438130434
-4.3344670892506775e-05
0.0001503145507695031
-2.5931124198758286e-05
-4.6692646200353826e-05
-0.00016796043724106625
0.00018839630274530746
0.00014016902472783506
-7.016808733706733e-05
-0.00016812758326540002
-9.054327063313064e-05
0.00015137280659159626
5.180609406135731e-06
0.00048362817159314307
6.221045502962718e-05
0.00022444413579412732
-0.0003277981320866653
-0.0005084947756948336
-0.0018961663588636223
0.0046153464902197764
0.001225720598053748
0.0016708690158051395
-0.00035564444597327574
-0.001642048651670783
-0.0018568921624225077
-0.0017611844851484779
0.0
0.0
0.0
0.0
0.0
0.0
0.0
0.0
0.000364409846035726
0.0006230900300667495
0.00040013935651532425
0.00046997014351033865
-0.0002978026652792399
-0.00043221695678162287
-0.0003116367159590172
-0.0008159530381082589
0.0006001832521287479
0.0010655838862219421
0.0024115717374011397
0.00016849222946970432
-0.0009084959933262071
2.652316788785741e-05
-0.0013348107573132356
-0.002029047522469946
-0.0001952803439329527
0.0008819598532333103
-0.0003137768438839478
-0.0002667911185662695
-0.0008473362525240783
-0.0006083818490752019
-0.00047752633928642164
0.0018271328940355617
-0.0009536828090973315
0.0012614246705317995
0.0004792793130190737
-1.2641961650048607e-05
6.795880456633809e-05
0.00019257669401559358
-0.00015643141206543912
-0.0008784832993199867
-0.00035764392204813656
-0.0004098964707180046
-4.750496038628396e-05
0.0004544089554711489
0.00033316923668131134
-7.327935835829143e-05
-5.1961211106716966e-05
0.000152707730464973
-5.090916904835764e-05
0.0010661838905807327
-0.0003937229823851361
1.4726793245312346e-05
-0.0001808757663467874
7.314356573974599e-05
0.0002387161277309643
-0.0007672624595164738
-0.00025886098679050497
0.0016421853336343985
0.00019064415948461457
-0.00015247527680334514
-0.00027366202592859015
-0.00012154094272547149
-0.00038167287629455076
-0.0006446173845765507
-0.0009985193618322963
-0.00048775138272059363
0.00011615938118895667
0.00042480240683153797
0.0004975133225067058
0.0008622819626229516
-0.00033666264722046765
-7.782368137679424e-05
6.412589859823295e-05
-1.5091066966384918e-05
-1.2829737464017477e-05
-8.58372140346517e-06
-6.2485317531270124e-06
-5.234549484719597e-06
-4.66165730691326e-06
-1.14766342196055e-05
0.0007108981753895561
0.0015710025568283904
-7.847162284481208e-05
0.0004040984855888367
-0.00026572548185000507
-0.0009704509663107551
-0.0008310722415542654
-0.0005402789052469472
-0.000275983821664412
-0.001124159954895955
-0.000515666249108241
5.053119078359942e-05
-0.00023335449080288912
0.0007684975647325626
-8.067159026091924e-05
0.001410807351216255
-2.7284223806459844e-05
0.0004602981744949249
0.00034764318958536685
0.00018963397143443515
-0.00013478635481974823
-0.00015641872481585015
-0.00020466918793941028
-0.0004744168441332588
-0.00035958574322938265
0.0006104440070273286
0.0005475937031095363
-0.0005052114117872722
0.0005949141963041571
-0.0005450285109768461
9.821871601113794e-06
-0.0003529481120486349
0.00016459146028584824
-0.000681520125152428
0.0002634245187408803
0.00045802015661304036
0.0004911543527051792
-0.0001870717246013172
-0.0007486105396630746
0.00024001190107187124
0.000613181831858552
0.0007105904616749068
4.403487231644635e-05
-0.00016554894490654053
-0.00014225283429102848
-0.00029802990725578276
4.964873352487495e-07
-0.0007624719667318013
-2.8345770488346753e-05
8.686945035118112e-05
-4.724540742038182e-05
6.388488510792086e-05
0.00015879272845404185
-5.684599811231674e-05
-5.1740989834719726e-05
-0.0001253688980573788
1.184794080027891e-05
-4.286960836379918e-05
-9.191462041326315e-06
-3.3645365400349695e-05
6.791481209702129e-05
-7.000859671508418e-05
1.116525092565711e-05
6.478702869760218e-05
-8.466532106184021e-07
4.7352959007194013e-05
6.49552558241128e-05
1.6462186566204433e-05
-4.475008174844375e-05
-3.865637074544253e-05
3.960183238469716e-05
-8.411912807770371e-05
-0.0009891488808749325
0.003016930480705113
0.003721461629639189
0.00016113650091804062
-1.64652853476054e-05
-0.0008160901342329778
-0.002007870237040261
-0.0030699540737665672
0.0013402353600843327
0.0018169487385732864
0.00028550660230700786
-0.0002952318522979354
-0.000580380839502684
-0.0005332846044128007
-0.0007394515953125393
-0.0012943418094386661
-0.001426275166101319
-0.0024342891238560665
-0.0003974830549153502
0.000306230882218534
0.0006613787253414474
-0.0011257682272685025
-0.00021591203890997652
0.004632118003491232
0.00041313456089400296
0.0026221212441095484
0.0020115526406960555
0.00017522821116383434
-0.0005142993232113014
-0.001201196254705068
-0.0016197804600690125
-0.0018867606188780594
-0.000726262282859429
-0.0011174453297208484
-0.0002889994635810655
0.0006973197266681576
0.0007619867391768901
-0.0005665220227312984
-0.00041318423500572477
0.00165310686805332
-0.0017538152074081785
0.003567925820636462
0.002698510250899754
0.0009015875021603452
-0.0012214628188865447
-0.0014329485140975535
-0.0014050677813451247
-0.0013547292519591645
0.008534609424433185
0.005766478716868036
0.006442997752039207
-0.0012745650320563403
-0.00425315145586926
-0.004951934699678568
-0.005203550647134521
-0.005060884058601744
-5.5617714443337423e-05
-8.359816366900854e-05
0.0032971274404749763
-0.00014184120118347317
-0.0009862383860007244
-0.0005028056090603099
-0.0007034573246334826
-0.0008235690414846405
0.000193837134689271
7.55411805550107e-05
0.00027734347047973383
0.00011919775120937799
0.00012827324181397638
-0.00020719609763667954
-3.583987741183225e-05
-0.0005511568036988584
3.3686930089514916e-05
-3.0961055329119416e-06
0.0003913676919241688
-9.315318776876123e-05
-7.136277914375723e-05
-6.095312911780501e-05
-5.542608112941837e-05
-0.00014106333932102996
5.629863049022642e-05
5.16712086994835e-05
-2.2453350789294903e-05
-1.7080412487066153e-05
-1.3513294548268924e-05
-1.1551843585011638e-05
-1.0472539787058334e-05
-3.289839799301003e-05
-0.00021292205320886575
0.00010076426708416083
0.0005301599933866676
8.823616739350174e-05
-4.427810459365587e-05
-0.00016314958302901357
-0.00018727631796414167
-0.00011153436906865389
0.0003761784095898726
0.0010156744079152617
-0.00025677093913393
0.00011788303148351733
-0.00023898276304300248
-0.00016589401260347166
-5.513873555499187e-05
-0.0007929493986532566
0.00040309847252319745
0.0008018709475430916
0.000734888104061478
-0.00032493759524149826
-0.0002584378074844204
-0.00023442733205584086
-0.0004110044660155557
-0.0007110503233304512
0.0005013267102131312
0.0006792712432056585
0.00048252983045810326
-1.7435263571632403e-05
3.75607307722496e-05
-0.00029683519752563426
-0.0008011602961416461
-0.0005852577574102289
-7.911307403608018e-05
-0.0001810376826128934
9.047295568541759e-05
0.0004928146972319915
2.6574835848259845e-05
-9.533656399064367e-05
-5.557961191866595e-06
-0.00024881720693418504
-0.0002381459382347916
0.0014033146371079679
0.00027868692939928837
0.00033276313739885496
-0.0008311798351499092
-0.0006097166404472688
-0.0008765014994868048
0.0005407792094126626
-2.310826822349589e-05
0.00011119531026476082
-2.705695217260698e-05
-1.5323663533749317e-05
-1.0636682881673132e-05
-8.84011060289223e-06
-8.035322435586603e-06
-1.819431041475661e-05
-0.00010040733671971586
0.0007964593385664878
-0.00016438691128954478
0.0001552564605087376
0.0002524752061433066
-0.0002318418111964675
-0.00021203116088185705
-0.0004955237851309478
0.0004632602613276275
0.0004491702344616661
0.00032317819573563525
-0.00017112698616586364
-0.0002793958732419167
-7.905345296789798e-05
-0.00020429137670939529
-0.0005017410024398553
-3.374599155908087e-05
0.00039208926592191847
0.00019504262367850316
0.00042511884708251415
-4.809911614553301e-05
-0.00018558069846815316
-6.683401790238205e-05
-0.0006779909126077864
-0.0005479607933093883
0.0013615912912737689
0.0009923720218412311
0.00018725803720299284
-0.00018248383571074488
-0.0003500210917072233
-0.00028285306069024966
-0.0011779025689003869
0.0013527117013450308
-5.568532427954731e-05
-0.00026182755301864635
-0.00021146360672978553
-2.1166349961262985e-05
-4.7247079433692104e-05
-0.0001739543434583845
-0.0005813674444637118
0.0018089446187035153
0.007728532441466466
0.0003177754563315803
-0.00030100569863139836
-0.001693046169460667
-0.0018808397598419455
-0.0020608352305622147
-0.003919525658005331
0.006539966526210022
0.0036932505876612833
-0.0002520157121937874
-0.0025032023717566944
-0.0024166643332117544
-0.0017861890282690784
-0.0019817484325773613
-0.0012933972358626286
0.004153607010385635
-0.002319104856402804
-0.0009348830952571526
-0.002109812458630619
-0.0028462121032552887
-0.002157369950840549
-0.002466978923751537
0.00868075437775232
0.0
0.0
0.0
0.0
0.0
0.0
0.0
0.0
-0.00037722631126589683
0.001703076908410015
0.0005292768435705035
-0.0007286452693811996
-0.00037157977582208336
-0.0012559607841748886
-0.0012818178759307875
0.0017828762645943374
-1.9386280580545225e-05
0.0003129213077343411
9.574236676564007e-05
0.0002595539832180859
0.0006628703918562468
-2.985818856714754e-05
-0.0005639339561197914
-0.0007179096243068301
0.00035927449357953133
-0.0005707906461352779
7.709102560752215e-05
-0.00030159974734392036
-0.000544870938307172
-0.0004279066438803424
-0.0005467245733149871
0.0019555270297946454
0.0007674136203309095
0.00471321396131341
0.001300089578347422
0.0006755293224147943
-0.002590549635050951
-0.00207214504891733
-0.003253545960584823
0.00045999416214656145
-0.0003627326082880007
-0.0010106092209054864
-0.0005325357286748018
3.28068412458319e-05
-0.0005957670795174299
-0.0010636877498649722
0.0002021589719644918
0.0033303665740403677
-0.0010255182816168908
0.0011136919379228089
0.002373648630618446
-0.0003943678230868208
-0.001138124760560041
-0.0008018487496584055
-0.0007728420296345635
0.0006453610760154686
0.0021593298282368326
0.0008707551648872952
-0.0011742249115131384
-0.0005997422857760016
-0.0004933422815550189
-0.0012830238445870998
-0.002210094520581202
0.002730342850888333
-0.0013237345721658765
0.0016912977161515383
0.004065559053363121
0.0007898527387652272
-0.0009031475809375808
-0.0016938809391306485
-0.0037303514715438346
0.0011044050554980542
0.0002815513128841672
7.707316130620774e-05
2.092441701456145e-05
0.00014052637752440952
-6.527770791873712e-05
0.0003824689916271201
-0.00038322864895499786
-0.00045403790348273065
-0.0008019859556475299
-0.0001322600239257998
0.00022338800915922057
0.00032540127173912074
-1.1631033379701368e-05
0.00020706507502982313
-4.523906282359559e-05
0.0002352617198484619
0.0005433583624803562
-0.0013784967488985175
-0.0006385655773081957
3.7796080900582446e-05
-0.0005601193490008995
-0.0006006204209286487
0.00011983983637312247
0.002476807816382201
-0.00037278238204101275
-0.001170222764151188
-2.9681518025595916e-05
-7.443675281666868e-05
-3.648308202029972e-05
0.000744961131071542
-6.221767317129887e-05
0.0010008630411545215
-0.0006409301632250874
0.0015585176687510354
0.00010969997513905024
0.00011735669659270169
-2.256463288950701e-05
-0.0005788172909638715
-0.00033918246942803057
-0.00020407978397629244
-0.00021472742290602872
0.0005262025088559331
0.00010686979598841488
-0.00013367200288093146
-0.0003278111000340442
-0.00018996480350556472
-0.0004562484591978865
0.0006893514836801072
4.400474435631017e-05
0.0008077871108968712
-7.191569427873416e-06
0.00012583608822808602
-0.00038239141037631495
-0.00043040417743436604
-0.0005652633276106881
0.0004076225413679757
0.0014699726776136559
-0.001255681705804811
-0.0012229039124235827
-0.00047239255693755675
9.391457159126246e-05
0.0005875181402287329
-2.1601284421604014e-05
0.0008211740701539015
-0.0012825805848263527
0.00445231466437007
0.0009841725042794044
-0.0011028942258341952
-0.0007840209976053155
-0.0013130639762935878
-0.001247297783972011
0.0002933703998819861
-0.003369897278827797
0.002075525540761926
0.0018860679865272882
0.0007008046446131301
-8.896144087848418e-05
-0.0008016213605082293
-0.0008265667079008348
0.0004246486162129982
0.00026939468082976643
0.0014081455432888414
-0.001210215835800523
-0.0012165960959989166
-0.0006816233528891503
-0.0016933505128638793
-0.0020591390365769908
0.005183384610010852
-0.0008288920874941979
0.003239216410686111
0.0028303702348737377
-0.0003100723011796829
-0.0016704061952764956
-0.0013478787513590996
-0.002502395085931639
0.0005900577756812712
9.292367461809753e-05
0.00014171660606660942
0.00016092434379396878
0.0002945922660549889
3.223592779307078e-05
-0.00026078064641993506
-3.085112515893711e-05
-0.00043076104674786355
0.0002660261124907114
-0.0005301910587323006
-9.487688854890233e-05
-0.00021028197989860178
0.00022561762852826357
-5.480507137510579e-05
-0.00023266189177914977
0.0006311731493150853
0.0003242143837974118
0.0018857711968753455
0.0006381487175498212
-0.00042118441492602487
-0.0005210591289211001
-0.0005258630700351743
-0.0005651830398346328
-0.0008148446445056479
0.0007814488947067685
0.0005542292042002372
0.0013757642634698037
-0.0011235908287680176
-0.0005158144417796285
-0.0005883883712401286
-0.0006936543267860109
0.00021000560619697655
-0.0030313245859681153
0.0007034858104142609
0.0021289684452778994
-0.000294618107475199
-0.00031999062595184453
0.0005079408674059102
-0.0010918611201150346
0.0013973993164121238
-0.0005104881761242102
0.00013215733392347073
0.0018206379219086136
8.381862207741206e-05
-0.00013537828664749124
-0.00033316795034809383
-0.00035671333732432563
-0.000700866127465378
-0.00020970430987669953
-0.0006991371234809907
-6.078544356581211e-05
0.0004951496684188557
0.00022162054804853476
0.0001732013215928999
-4.1111488263255267e-05
0.00012076682712646744
0.00013351935828694015
-6.151175162524848e-05
-5.201266907006523e-07
4.756835842715672e-05
3.615754119823806e-05
6.517737614456557e-05
-6.934719347722977e-05
-0.00015104356226372157
-0.0007523175504023761
0.0016764671707279759
-7.149759422310933e-05
0.00025519653308379283
-0.00014640680156793144
-0.00010858190760577867
-0.00038948627990180565
-0.0004633735701107681
-0.00013032226868649673
0.0004517635900967021
0.00030726881655899953
-0.00023378304554957897
0.00017032208239919853
-4.90103451844184e-05
-0.00015716410557493869
-0.00035907472405946806
0.0011807324371017247
0.001347611523040726
-0.00035480208677526686
-0.0007927007993880922
-0.0001662751265865716
-0.0005301314889464944
-0.0007945574570992441
0.00011012299865321772
0.00043505397684256774
-0.00031673485072420874
0.002742306337150534
0.00015727265504573588
-0.00044645225006088163
-0.0005946928741439306
-0.0006700551918528522
-0.001306697802256965
-0.0013577834539533786
-5.876663584397575e-05
0.0010383476074841461
0.00026493499103737156
0.00021387227794640465
-0.00024764494856882564
-0.0004005746176016623
0.0005476147794999189
-7.610024703784255e-05
0.000539422240692131
-0.00013240435576787325
-7.004127851629393e-05
-0.0002946153003789963
-4.178409077805765e-05
-0.00014080139865949284
0.00021632443044642554
0.0007262469005380166
0.0017761619946273775
0.0002720830161513603
-0.00045979167134016345
-0.0005663299868203013
-0.000496838719865276
-0.0004703356588730912
-0.0007811958744179221
-0.0007269717890666475
-0.000950486576391646
-0.0008670311208690423
-0.0005263848281532226
-0.00039776038597913216
3.648933426961792e-05
6.523159308531369e-05
0.00336691377310476
-0.0023961244345788103
0.0031745007126652773
0.0024897227736955267
-0.00024209492921296432
-0.0006873825735085633
-0.0014715801077770253
-0.0006415657624519056
-0.00022547567883153592
-0.0007537724856545347
0.0045198260074282275
0.0009099223291250792
0.00039305471313800345
-0.0005919354930360906
-0.0009272364860454334
-0.0007719249190147253
-0.002777933665940528
-0.00033786870948066965
3.9640025403270565e-05
0.00024039072466041248
0.00014852662289750276
0.0003658140859903187
-3.259252102837559e-05
-0.0003417795352371292
-8.213069320533001e-05
7.518759670005276e-05
0.0004332908832684391
0.00021647678199947112
-3.7177071813415295e-05
-6.620433854971442e-06
-7.688890565124067e-05
-3.389071121338569e-05
-0.0005703781394349499
1.4730354315765573e-05
-0.00018089900596398356
5.993855374399116e-05
0.00011490313097718772
0.0003037623154205836
2.355888012769359e-05
-4.002781467700721e-05
-0.00029596641394423077
-0.0001870880432314441
0.0013421861777836968
0.0017297126359722926
0.0008062631692357199
-0.0011395009265013935
-0.0005647542842930666
-0.0012154347878026253
-0.0007713839411631791
-3.0345300888911624e-05
-4.0741743402562756e-05
3.930215794694865e-05
4.963004948362662e-05
-1.960325117262626e-05
-1.685514738638572e-05
-1.5342869509986906e-05
3.395610492989798e-05
-0.000442516085496269
0.0020900237582140444
0.0004905541048434496
0.0004116005649913016
-0.00015224877224619655
-0.0005960927646560978
-0.0010794329428062588
-0.000721887862843972
-0.0002687901601929031
0.0036527673951143535
0.0013738421969016461
-0.00023443320079132935
-0.0011243114426542973
-0.0022841212916083434
-0.001714502394214374
0.0005995488974452432
-0.000680441197164861
-0.0011374023920670987
-0.0010044449133707735
-0.0005144354445597123
-0.0002873895049725205
-6.249123965946425e-05
-2.412071400686155e-05
0.0037107254058012904
-0.00014187577741417697
0.00027193125883093964
0.0002110262319264286
-0.00012189731851900923
0.00013081956519434996
-8.064620072689322e-05
-7.320038603412099e-05
-0.0001961573732575177
-9.000573839895288e-05
0.0001645648772929484
0.00018100778506996188
8.472106625536394e-05
-3.407484973520421e-05
-9.419528557555424e-05
-1.0731315127484575e-05
-0.00020128653978107833
0.0005451572980846885
0.0011780415617753763
0.0012226704331571776
-0.0008011832409605406
-0.000676639920752277
0.00011130818150394115
-0.00046668374479082376
-0.0011126705680175437
-3.7957412888951574e-05
0.0005187996754491225
6.273594605618507e-05
-0.00018156728524726216
3.8413101203571456e-05
-0.0001551494043841302
1.1446716978206547e-05
-0.00025672133716674137
5.0092866401439186e-05
-5.822464262104665e-05
3.9552625765974774e-05
0.00015057186913650176
-5.417923665031099e-05
-4.521696060450219e-05
-4.04614611926439e-05
-4.213506023541214e-05
-0.000596122965729833
-0.0008789173134658986
-0.0006370196520837912
-0.0003727016880607458
-0.00010226133725803869
-0.0002158606484646976
4.829321690071917e-05
0.002754590388162287
0.0012669363116131886
0.0009428206949305271
0.0012502588219686513
-0.0003306567826050071
-0.0006386624281779735
-0.0005342579479146731
-0.00059440567997357
-0.0013620329898411442
-0.00034901653522214986
-2.157728938083421e-05
-0.0002984480840744681
0.00017009507361008593
-4.505927408398929e-05
-2.4627433460546776e-05
-0.00027922172490040523
0.0008478552675123079
-0.0004867284830425055
-0.00039843491972590717
-0.0001642098698015213
0.0001891149485494193
-0.0002867413729196428
-0.000338215407206088
-7.54598998267594e-06
0.0014927610941289219
-0.0011276679251689102
-0.0007949074869901514
0.0004992477690913848
0.0023683489553331725
-0.00032200037505129543
-0.0014702732916493492
-0.0007501924976554602
0.0015974448520906038
0.0013774380123845408
0.000943837929080868
0.0014737989229457633
0.0007959015834171854
-0.0015995448985134432
-0.0007433849895432025
-0.0027940049758196535
0.000545958416047941
-0.0018797945661375279
-3.278554307227082e-05
0.002101655224309214
0.0024681484591471234
0.00018501206438907355
-0.000621314407684614
-0.0004298543118010182
-0.0017910669191499814
0.003740940087078213
0.0013263044790003786
0.0017536291658893602
-0.001639210529500197
-0.0011663546435203437
-0.0015327357402284004
-0.0015848897720834442
-0.0008976830466355689
-0.000979176878835386
-0.000494366225544954
0.0010688905819797804
0.0016882634913042611
0.00014175830067264788
-0.0005745503803439558
-0.0007596165058340485
-9.120238339834599e-05
0.0015570604801861917
-0.00019379417514600768
0.0017673474759891106
0.001002565027888451
-0.0008658795787016555
-0.0003269269185262436
-0.0006120236979091525
-0.0023283486137806956
-0.0002604271232442717
-0.0006656225932866252
0.0003263918240739665
0.000607158903593305
0.00015684468681227603
-0.0008701962994355012
-3.501163599467776e-05
0.0007408622374815279
-0.00046200177090908675
0.0015026290760978484
0.00030565890259690894
-0.00041826833349972595
0.00026863534739222396
-0.00046040158978991004
-0.0006029064297492751
-0.00013334520213898303
-0.0006778038089997569
0.000939589107294912
0.0019391514167731482
5.993558365320591e-05
0.00018410244435468554
-0.0006129544600589114
-0.0003424187790432981
-0.0014896015039739866
-0.0006986963225707212
-0.0001101875252505711
0.0004355789730705755
-0.0005333339136811841
-0.00032311300871581765
-5.457597696393055e-05
-0.00022998184988983514
0.0015143096240014839
0.0013561193651969654
-0.0002435337368837696
-7.934695768554108e-05
0.0006238179663491577
4.5561790753866676e-05
-0.00015851850884227026
-0.0002947894935855949
-0.001249310425302813
-1.9675337559059603e-05
-4.727424681907206e-05
4.076882761936463e-05
0.00014762893717815972
1.708838832704214e-05
-4.865995834075528e-05
3.1211256916584236e-05
-0.00012108786732226383
0.0008431301466106032
0.0012647055862658933
0.0008681882922640114
-0.000382823862246479
0.0005455289648929327
-0.0006874146181923313
-0.0009296756721919572
-0.0015216388374026744
0.0011250156886431707
0.0018059468375724655
0.0002487170535021782
-9.06453425480784e-05
-5.7220109688423984e-05
-0.00048625004759340613
-0.0007379280551570536
-0.00180763602473085
-0.00044801491568448657
0.0004506203420219941
0.0021322861292596682
0.00023618333304117927
0.0007033295756697982
-0.0002952589717673555
-0.0007191153907745951
-0.0020600301017662053
0.0020406581100482625
0.0029763502761869197
0.00038986855162309814
0.00145632383872402
-0.0010785878076545615
-0.0016648645624812164
-0.0012282704427111543
-0.0028914779637353697
-0.0008561003393930156
-0.001044365152487428
-0.0009724343783305029
-0.000593180523146285
-0.0005838862563214317
-0.0005077843005290061
-9.6090760271508e-05
0.004653841710479176
-0.000404613218457528
-0.00043468559322895096
0.0002092723146622253
0.00036956476612786163
-0.00012989515558299865
0.0004337209233273291
-0.00033465222722183684
0.0002912881903738986
0.00038391349120210736
0.0013896889696282653
0.0022409064454075194
-0.0005768823057087315
-0.0007134925501310907
-0.0008955299615317373
-0.0006155209590427205
-0.0012130831298236104
-0.0013971886905127919
-0.0013361159800490076
-0.0005777691902702242
0.006732110114970666
0.001592618725894074
-0.001535496583780489
-0.0023639224235319596
-0.0011142359727202684
-0.0017051363774267779
-0.002558988447561149
-0.0016364394681426195
0.00021874625882793456
-0.00037270598571734323
-0.0007146639165958639
-7.164935511813307e-05
0.006840837291733952
0.00047821677307583247
0.002023218367411011
0.0015961040965243739
-6.187399754949324e-05
-0.001052274951740989
-0.0013211711840817955
-0.00045801652531704415
-0.0012042025783218949
-0.00017190156976384897
0.0009137181827518878
0.000777797637223805
0.0007583506786855411
-0.00022275557961127363
-0.00029337290160197756
-0.0011999301230251607
-0.0005619063246589714
-0.0010039869126951715
0.0024760802438130915
-0.0005873947694984908
0.00021336761715963943
-0.000777340007882426
-0.0009109353574399123
-0.0007657426319818064
0.001355951818525077
-0.00024427663664486685
-0.0003345487884565459
-0.0002058570521561061
-0.0002045063508746277
-1.6245727274276725e-05
-7.289747789635906e-05
-6.582385683461995e-05
0.0011441558901374024
-0.0024066491725188255
-0.004823744974370878
-0.0005810805331445434
-0.0018294922552878322
-0.00013256906714091828
-0.0012712574932391878
-0.0012118548061915292
0.01225664830189372
-4.8413011325695306e-06
-0.0003901970917434538
0.00020488769107009737
0.00017428707813004746
-0.000243030079165
0.00013277402992034187
0.0001694643438130434
-4.3344670892506775e-05
0.0001503145507695031
-2.5931124198758286e-05
-4.6692646200353826e-05
-0.00016796043724106625
0.00018839630274530746
0.00014016902472783506
-7.016808733706733e-05
-0.00016812758326540002
-0.0008450284937762398
0.0031927660063730944
0.002120639836918358
0.0014514718988703481
-0.001522252846071204
-0.0032460517077066093
-0.002542108186379512
0.0013905634917717666
0.0031920917613285893
-0.0010957975365731918
-0.0022887370365009996
-0.0009853212321475104
-0.0010738791162563104
-0.0009463945524294089
-0.001141947747422335
0.004339985460001171
0.009601045386014941
0.004899827376214452
-0.0018019521579084076
-0.0026350859636796926
-0.0007495541765735805
-0.0034512957738380957
-0.00475429112286745
-0.00110869356736217
0.010217285656683478
0.00036571976925446457
0.0012267109470851013
-0.0023765399406432855
-0.002072925529784446
-0.002326778283153875
-0.002942455008551807
-0.00209101761088964
-0.0006721470807408249
-0.0008889649225806334
-0.0009281672041491909
-0.0004601693232165615
-0.0005853411314003778
-0.00042080473172523356
-0.0003726445210580984
0.00432823891487092
-0.0010879692995404576
-0.00013451271464006556
0.0012071256017726958
0.0007433670290150667
-0.00047156505891718874
-0.0002455944737687977
-0.00033853392751385377
0.00032768284359260163
0.00015532048510129618
0.0007086692908289258
0.0009484892957165685
-0.0006660532544317873
-0.00040282915193131806
-0.0007387481050567459
-0.0005496544806774224
0.0005448059204504837
-0.00111838901671613
-0.0020886816165413867
-0.0008041673304343968
0.0009705350632753433
-0.00019792876365491645
-0.0002923572682752449
-0.00039204113857455736
0.003923030070921285
-0.0011984506151942642
0.0016275131752339867
0.0027103156705003753
-0.000399889895488703
-0.0008900565557438962
-0.0002922170693589183
-0.000800451656820151
-0.0007567630531284291
-0.0005597197121955335
-0.0014976647971393904
0.0010119639040880707
0.00013550009201352398
0.00031005098051385574
7.287149052609416e-05
-8.081849821691878e-05
0.0006078165404102961
-0.002059987661246234
-0.0020528784474580113
-0.0007816436436121426
-7.735946993924158e-05
0.0009747601743752852
0.00046679496443477936
-9.348192211802522e-05
0.003623796005563591
0.0014217990160908306
-0.0016744054254241385
-0.002524999965905339
-0.0015457551935864327
-0.0010112613033041462
-0.0004022644244521704
-0.0008435108442350323
0.006580398140816426
-0.004828186090652011
0.013920783286135318
0.005422307403624282
-0.0012880431191994565
-0.0028560931383228728
-0.0038956050258736447
-0.004047380872782321
-0.002427782442929296
0.0009917172062857398
0.002421064729908318
0.003080906788464888
-0.0013857546084980082
-0.001030846273949676
-0.002598649860679253
-0.0013740368174124723
-0.00010440116411953398
-0.0015471712548230073
-0.0015977747533025342
0.0013807162814407487
0.0007754512132045136
0.0001432289572393803
-0.0005011089367772659
-0.00011580696531086019
0.001462465458329024
-0.0009318971607256959
-0.0009526223694641733
-0.0010675810358596475
-0.00011207976792813365
-0.0005028910620663359
-2.1596352358457107e-05
7.038224611204596e-05
0.0035182855022903975
0.0049452035520788865
0.0012513229989128693
0.0001272978900175432
-0.0011353935520193345
-0.0010427708430165556
-0.001124427858537057
-0.0008087664771003143
-0.002212465710336037
0.0005007855718164387
-2.8854628134707864e-05
0.0007026185620273332
-0.0003215266639974847
-0.0004280721217212662
-0.0010113337061580093
-0.001170520159099981
0.0017569031452676755
-0.0019824845883777745
0.00015465277400495412
0.00026709415900391073
0.00013811548854013544
-0.00011240814834494004
-0.00019202607435588173
-0.0008131133013756667
0.002540169690905263
-0.0012886142866389574
-0.0017574444992394603
-0.0011576751383622658
0.0010696473325058778
-0.0006912730069000208
-0.0009509232185009825
-5.115594777520725e-05
0.004827438764911017
0.0037306589222724524
-0.002933295997897381
-0.004272877080852063
-0.0011712808207515926
-0.0016497314142388663
-0.001324637480175367
-0.002036369660719965
0.009657533532362775
-0.0022687209179166517
0.003105819562681883
0.002489415019683297
2.9863655157034955e-05
-0.0006121959050779596
-0.0019289245372970307
-0.001926440749932418
0.0011111838727018441
0.0054797775012922255
-0.0001929878504357877
-0.0007857932437126719
-6.775588926741615e-05
-0.0014578671657800024
-0.0011743226575919323
-0.0016901489687042796
-0.00011090172580013182
-0.0007071765897740075
0.0027684203369680773
0.004521755482855818
0.0015929758987953918
-0.0008100011110015829
-0.0016598181063795102
-0.0012220611451551257
-0.004484094766309062
0.010407803750277897
0.002475625004907713
4.79091633178695e-05
-0.00023969060780900257
-0.002364867780128099
-0.002537708664154691
-0.0028858856575816935
-0.004903185208829997
-0.001259586312210611
-0.002518824232257007
-0.0006970299815489976
0.00063389155848216
0.0005758547002008351
0.00031249334873153476
-0.001308936941901958
0.004262137860504046
0.0020015184077875597
-0.0026162007165297135
-0.0011522839689214225
-0.0006026902550600987
-0.00023882876419809907
0.00040773862657767515
-0.0002995385457337232
0.002500285216077824
0.0011672522248924392
0.009068698026190787
-0.0005414515129806573
-0.0033765833945266846
-0.0016667233360151317
-0.004038996236420179
-0.004607944158303289
0.00399574838716272
0.0002831386750274927
-6.149276623466301e-05
-2.926890404040264e-05
-6.329561511262717e-05
-4.618892048749041e-05
3.567230878742954e-05
-3.655649355929287e-05
-8.200828438044623e-05
0.0003011681951450115
0.0015224497279239225
0.0021125369069957493
-0.0012133999350369658
-0.0012564059550906218
-0.0019484166939877777
-0.002523029349565674
0.0030050971036163533
-7.682544005806303e-05
-9.448003850878679e-05
-8.498108427448633e-05
-6.619078376442443e-05
-5.476293161749502e-05
-4.931744128405197e-05
2.8994718728027005e-05
0.00039756300077928053
-0.0017211844811350187
0.007073350019878434
0.0018785651241468387
0.0009646821596364616
-0.0017582978492520357
-0.0031270716805591363
-0.004554549487526496
0.0012445061948109556
0.00010125209172638925
0.0030122885900519965
0.0003859676234242325
0.0005616392977120774
-0.006663493569844928
-0.007829815767822016
-0.0073984445029840595
0.017830606237736316
-0.0006731419160790659
-0.0011336008552756311
0.00022575353481742296
-0.00017594774587588577
-0.0018494907079389632
-0.0015442314322031633
-0.0008309066361935991
0.005981565758748885
-0.0027856961746239844
0.0007974503242078225
0.0025464907881050155
-0.00032054079844863183
0.0008394040041977428
-0.0002148189266744236
-0.001187640541745962
0.00032535132498241905
0.0038031251099657835
0.00017258172266680348
0.0013936621599325333
-0.001986770338444205
-0.0016795420848634286
-0.001849667078861146
-0.0015559935167839866
0.0017026040263876426
0.005996316218723265
0.009766876006990947
0.005509698885899102
-0.0033114955457330857
-0.0030364248836408734
-0.005742015338073229
-0.00634833755328026
-0.00283461779088585
0.0007612815128305915
0.0016329172666561757
0.0011582935382879122
-0.0007622586352153807
-0.0012050008324093915
-0.0005252098699461667
-0.000882453157155634
-0.00017756982304810833
-0.0060360255497146215
0.004973219626236075
0.005573159058834614
-0.0006384874947075942
-0.001746261908620951
-0.0015485855981446316
-0.0013017780001129127
0.0007247598662300253
0.005159097703117955
-0.00032960512398553713
-0.002021644291935083
0.0012282600873065274
-0.0011616395940347894
-0.0026449430414029916
-0.0013055582730494295
0.001076032533983344
-0.0022600913433154703
0.0009625773665143206
0.004259280118700925
-0.0005399186491685812
-0.0013623729768043058
-0.0002347536687522552
-0.0008952341785132132
7.051333133858292e-05
-9.054327063313064e-05
0.00015137280659159626
5.180609406135731e-06
0.00048362817159314307
6.221045502962718e-05
0.00022444413579412732
-0.0003277981320866653
-0.0005084947756948336
-0.001652120222777448
0.005029904924431836
0.001450275590559855
0.0018332924334663915
-0.0001814331826942228
-0.0014949419421499467
-0.0017954397873836704
-0.0031895378134527913
-0.00012136443226942365
0.00012076246013515661
-8.09939118102154e-05
-4.0590561812352834e-05
1.4313542048346522e-05
-3.854415632573202e-05
-0.0001034793368891688
0.0002498963969233894
0.0
0.0
0.0
0.0
0.0
0.0
0.0
0.0
0.000364409846035726
0.0006230900300667495
0.00040013935651532425
0.00046997014351033865
-0.0002978026652792399
-0.00043221695678162287
-0.0003116367159590172
-0.0008159530381082589
-0.0005387225461897137
-0.001241074170212161
-0.000651913112033615
-0.00048314642969139927
0.00039826982959363986
0.0003594390741910328
0.00022878343618228846
0.001928363918159927
0.0006001832521287479
0.0010655838862219421
0.0024115717374011397
0.00016849222946970432
-0.0009084959933262071
2.652316788785741e-05
-0.0013348107573132356
-0.002029047522469946
0.0003434422022567607
0.00212303402344547
0.00033813626814966697
0.0002163553111251299
-0.0012456060821177178
-0.0009678209232662346
-0.0007063097754687106
-0.000101231024124366
-0.0009536828090973315
0.0012614246705317995
0.0004792793130190737
-1.2641961650048607e-05
6.795880456633809e-05
0.00019257669401559358
-0.00015643141206543912
-0.0008784832993199867
-5.090916904835764e-05
0.0010661838905807327
-0.0003937229823851361
1.4726793245312346e-05
-0.0001808757663467874
7.314356573974599e-05
0.0002387161277309643
-0.0007672624595164738
-0.00025886098679050497
0.0016421853336343985
0.00019064415948461457
-0.00015247527680334514
-0.00027366202592859015
-0.00012154094272547149
-0.00038167287629455076
-0.0006446173845765507
-0.00038189454545962796
-0.0005193131511971499
-0.0001339385540637219
-8.768034559813484e-05
0.00015499506389322074
0.0005669066811741007
0.00013471522823391916
0.0002662096230173945
-0.0006166248163726679
3.1561768476556314e-05
0.00025009793525267865
0.0005124827524296725
0.0003425182586134849
0.0002953752814488509
-0.000471377875454387
-0.0003440333043941888
6.412589859823295e-05
-1.5091066966384918e-05
-1.2829737464017477e-05
-8.58372140346517e-06
-6.2485317531270124e-06
-5.234549484719597e-06
-4.66165730691326e-06
-1.14766342196055e-05
-0.00035764392204813656
-0.0004098964707180046
-4.750496038628396e-05
0.0004544089554711489
0.00033316923668131134
-7.327935835829143e-05
-5.1961211106716966e-05
0.000152707730464973
0.0007108981753895561
0.0015710025568283904
-7.847162284481208e-05
0.0004040984855888367
-0.00026572548185000507
-0.0009704509663107551
-0.0008310722415542654
-0.0005402789052469472
-0.000275983821664412
-0.001124159954895955
-0.000515666249108241
5.053119078359942e-05
-0.00023335449080288912
0.0007684975647325626
-8.067159026091924e-05
0.001410807351216255
-2.7284223806459844e-05
0.0004602981744949249
0.00034764318958536685
0.00018963397143443515
-0.00013478635481974823
-0.00015641872481585015
-0.00020466918793941028
-0.0004744168441332588
-0.00035958574322938265
0.0006104440070273286
0.0005475937031095363
-0.0005052114117872722
0.0005949141963041571
-0.0005450285109768461
9.821871601113794e-06
-0.0003529481120486349
0.00016459146028584824
-0.000681520125152428
0.0002634245187408803
0.00045802015661304036
0.0004911543527051792
-0.0001870717246013172
-0.0007486105396630746
0.00024001190107187124
0.000613181831858552
0.0007105904616749068
4.403487231644635e-05
-0.00016554894490654053
-0.00014225283429102848
-0.00029802990725578276
4.964873352487495e-07
-0.0007624719667318013
-8.466532106184021e-07
4.7352959007194013e-05
6.49552558241128e-05
1.6462186566204433e-05
-4.475008174844375e-05
-3.865637074544253e-05
3.960183238469716e-05
-8.411912807770371e-05
-2.8345770488346753e-05
8.686945035118112e-05
-4.724540742038182e-05
6.388488510792086e-05
0.00015879272845404185
-5.684599811231674e-05
-5.1740989834719726e-05
-0.0001253688980573788
1.184794080027891e-05
-4.286960836379918e-05
-9.191462041326315e-06
-3.3645365400349695e-05
6.791481209702129e-05
-7.000859671508418e-05
1.116525092565711e-05
6.478702869760218e-05
-0.0007843668462650143
-0.0011719916768612897
0.0005659410591770609
8.621715478360395e-05
0.00021270526383344082
-0.00023456731015598323
-0.0004988589349838882
0.0018249212904720702
-0.0009891488808749325
0.003016930480705113
0.003721461629639189
0.00016113650091804062
-1.64652853476054e-05
-0.0008160901342329778
-0.002007870237040261
-0.0030699540737665672
0.0013402353600843327
0.0018169487385732864
0.00028550660230700786
-0.0002952318522979354
-0.000580380839502684
-0.0005332846044128007
-0.0007394515953125393
-0.0012943418094386661
0.0039087163577751485
0.00045972216952145246
-0.0015423976945124357
-0.0004311656006818298
-0.000933257132205534
-0.0015195602419451459
-0.0011881272786877781
0.001246069420736123
0.003508740529242535
0.0018281094342635208
0.001431970766755274
-0.0008624952178624017
-0.0008218430780561625
-0.0018861109141057463
-0.0014050753275406315
-0.0017932961926963853
-0.001426275166101319
-0.0024342891238560665
-0.0003974830549153502
0.000306230882218534
0.0006613787253414474
-0.0011257682272685025
-0.00021591203890997652
0.004632118003491232
0.00041313456089400296
0.0026221212441095484
0.0020115526406960555
0.00017522821116383434
-0.0005142993232113014
-0.001201196254705068
-0.0016197804600690125
-0.0018867606188780594
-0.000726262282859429
-0.0011174453297208484
-0.0002889994635810655
0.0006973197266681576
0.0007619867391768901
-0.0005665220227312984
-0.00041318423500572477
0.00165310686805332
-0.0013685081008471477
0.004520491595056011
0.0016814202717825048
0.0010064903751045566
-0.00171230159197488
-0.001567212043761855
-0.00117683353542072
-0.0013835469699384703
0.0013774380123845408
0.000943837929080868
0.0014737989229457633
0.0007959015834171854
-0.0015995448985134432
-0.0007433849895432025
-0.0027940049758196535
0.000545958416047941
-5.5617714443337423e-05
-8.359816366900854e-05
0.0032971274404749763
-0.00014184120118347317
-0.0009862383860007244
-0.0005028056090603099
-0.0007034573246334826
-0.0008235690414846405
0.000193837134689271
7.55411805550107e-05
0.00027734347047973383
0.00011919775120937799
0.00012827324181397638
-0.00020719609763667954
-3.583987741183225e-05
-0.0005511568036988584
-0.0003853071065610312
-0.0009525657744195446
0.0010170899791172503
-0.00010490287294421213
0.0004908387730883354
0.00013426352966430002
-0.00022823424592440444
2.8817717979306344e-05
3.3686930089514916e-05
-3.0961055329119416e-06
0.0003913676919241688
-9.315318776876123e-05
-7.136277914375723e-05
-6.095312911780501e-05
-5.542608112941837e-05
-0.00014106333932102996
5.629863049022642e-05
5.16712086994835e-05
-2.2453350789294903e-05
-1.7080412487066153e-05
-1.3513294548268924e-05
-1.1551843585011638e-05
-1.0472539787058334e-05
-3.289839799301003e-05
-0.00021292205320886575
0.00010076426708416083
0.0005301599933866676
8.823616739350174e-05
-4.427810459365587e-05
-0.00016314958302901357
-0.00018727631796414167
-0.00011153436906865389
0.0003761784095898726
0.0010156744079152617
-0.00025677093913393
0.00011788303148351733
-0.00023898276304300248
-0.00016589401260347166
-5.513873555499187e-05
-0.0007929493986532566
0.00040309847252319745
0.0008018709475430916
0.000734888104061478
-0.00032493759524149826
-0.0002584378074844204
-0.00023442733205584086
-0.0004110044660155557
-0.0007110503233304512
0.0005857133319378752
0.0010580791095417363
0.0006842690722080556
0.00015042634333555622
0.0001589376996037789
-0.0002697735081327808
-0.0007818651144927832
-0.001585786934001437
-8.438662172474409e-05
-0.00037880786633607747
-0.00020173924174995278
-0.0001678616069071886
-0.00012137696883152924
-2.7061689392853446e-05
-1.9295181648863395e-05
0.0010005291765912089
-7.911307403608018e-05
-0.0001810376826128934
9.047295568541759e-05
0.0004928146972319915
2.6574835848259845e-05
-9.533656399064367e-05
-5.557961191866595e-06
-0.00024881720693418504
-0.0002381459382347916
0.0014033146371079679
0.00027868692939928837
0.00033276313739885496
-0.0008311798351499092
-0.0006097166404472688
-0.0008765014994868048
0.0005407792094126626
-2.310826822349589e-05
0.00011119531026476082
-2.705695217260698e-05
-1.5323663533749317e-05
-1.0636682881673132e-05
-8.84011060289223e-06
-8.035322435586603e-06
-1.819431041475661e-05
-0.00010040733671971586
0.0007964593385664878
-0.00016438691128954478
0.0001552564605087376
0.0002524752061433066
-0.0002318418111964675
-0.00021203116088185705
-0.0004955237851309478
0.0004632602613276275
0.0004491702344616661
0.00032317819573563525
-0.00017112698616586364
-0.0002793958732419167
-7.905345296789798e-05
-0.00020429137670939529
-0.0005017410024398553
-3.374599155908087e-05
0.00039208926592191847
0.00019504262367850316
0.00042511884708251415
-4.809911614553301e-05
-0.00018558069846815316
-6.683401790238205e-05
-0.0006779909126077864
-0.0005479607933093883
0.0013615912912737689
0.0009923720218412311
0.00018725803720299284
-0.00018248383571074488
-0.0003500210917072233
-0.00028285306069024966
-0.0011779025689003869
0.0013527117013450308
-5.568532427954731e-05
-0.00026182755301864635
-0.00021146360672978553
-2.1166349961262985e-05
-4.7247079433692104e-05
-0.0001739543434583845
-0.0005813674444637118
0.0018089446187035153
0.007728532441466466
0.0003177754563315803
-0.00030100569863139836
-0.001693046169460667
-0.0018808397598419455
-0.0020608352305622147
-0.003919525658005331
0.006539966526210022
0.0036932505876612833
-0.0002520157121937874
-0.0025032023717566944
-0.0024166643332117544
-0.0017861890282690784
-0.0019817484325773613
-0.0012933972358626286
-0.00024877676530131736
-0.00036049610486698296
-5.0267411283800736e-05
5.1202952270120426e-05
2.4690389325266327e-05
4.451202835613921e-05
-2.1174550313114317e-05
0.0005603094618136897
0.004153607010385635
-0.002319104856402804
-0.0009348830952571526
-0.002109812458630619
-0.0028462121032552887
-0.002157369950840549
-0.002466978923751537
0.00868075437775232
0.0
0.0
0.0
0.0
0.0
0.0
0.0
0.0
-0.00012844954596457952
0.002063573013276997
0.0005795442548543043
-0.00077984822165132
-0.00039627016514735006
-0.0013004728125310275
-0.0012606433256176722
0.0012225668027806473
-4.975210257880074e-05
-6.923380198666395e-05
-6.142368671913354e-05
-4.266397948760184e-05
-3.3169141253406494e-05
-2.8535385543476475e-05
4.880494583079313e-05
0.0002359731517382899
3.0365821998255495e-05
0.00038215510972100476
0.00015716605348477385
0.0003022179627056877
0.000696039533109653
-1.3228030236709171e-06
-0.0006127389019505835
-0.0009538827760451197
0.00035927449357953133
-0.0005707906461352779
7.709102560752215e-05
-0.00030159974734392036
-0.000544870938307172
-0.0004279066438803424
-0.0005467245733149871
0.0019555270297946454
0.0007674136203309095
0.00471321396131341
0.001300089578347422
0.0006755293224147943
-0.002590549635050951
-0.00207214504891733
-0.003253545960584823
0.00045999416214656145
-0.0003627326082880007
-0.0010106092209054864
-0.0005325357286748018
3.28068412458319e-05
-0.0005957670795174299
-0.0010636877498649722
0.0002021589719644918
0.0033303665740403677
-0.0005157268646605158
1.600908565721734e-06
0.001177509045185334
0.00012822397292834513
-5.1065315629204305e-05
6.256234675069682e-05
-0.0006161039517033143
-0.00018700014143706233
-0.0010255182816168908
0.0011136919379228089
0.002373648630618446
-0.0003943678230868208
-0.001138124760560041
-0.0008018487496584055
-0.0007728420296345635
0.0006453610760154686
0.0021593298282368326
0.0008707551648872952
-0.0011742249115131384
-0.0005997422857760016
-0.0004933422815550189
-0.0012830238445870998
-0.002210094520581202
0.002730342850888333
-0.0013426500354085252
0.002288881571528232
0.002569013155358163
0.0011874099886252621
-0.0009168709282885233
-0.0014769622713536976
-0.004038792877333496
0.0017299713968725841
1.8915463242648665e-05
-0.0005975838553766938
0.0014965458980049594
-0.00039755724986003445
1.3723347350941488e-05
-0.00021691866777695087
0.00030844140578966
-0.0006255663413745297
-0.0008019859556475299
-0.0001322600239257998
0.00022338800915922057
0.00032540127173912074
-1.1631033379701368e-05
0.00020706507502982313
-4.523906282359559e-05
0.0002352617198484619
0.0002815513128841672
7.707316130620774e-05
2.092441701456145e-05
0.00014052637752440952
-6.527770791873712e-05
0.0003824689916271201
-0.00038322864895499786
-0.00045403790348273065
0.0005433583624803562
-0.0013784967488985175
-0.0006385655773081957
3.7796080900582446e-05
-0.0005601193490008995
-0.0006006204209286487
0.00011983983637312247
0.002476807816382201
-0.00037278238204101275
-0.001170222764151188
-2.9681518025595916e-05
-7.443675281666868e-05
-3.648308202029972e-05
0.000744961131071542
-6.221767317129887e-05
0.0010008630411545215
-0.0006409301632250874
0.0015585176687510354
0.00010969997513905024
0.00011735669659270169
-2.256463288950701e-05
-0.0005788172909638715
-0.00033918246942803057
-0.00020407978397629244
0.0007862166617059846
-3.911212494697035e-05
0.00021827745713018615
3.474354669930267e-05
-0.00026888549353543833
-0.0002022497298931303
-9.328384847919589e-05
-0.00043570646868073827
-0.00021472742290602872
0.0005262025088559331
0.00010686979598841488
-0.00013367200288093146
-0.0003278111000340442
-0.00018996480350556472
-0.0004562484591978865
0.0006893514836801072
4.400474435631017e-05
0.0008077871108968712
-7.191569427873416e-06
0.00012583608822808602
-0.00038239141037631495
-0.00043040417743436604
-0.0005652633276106881
0.0004076225413679757
0.0014699726776136559
-0.001255681705804811
-0.0012229039124235827
-0.00047239255693755675
9.391457159126246e-05
0.0005875181402287329
-2.1601284421604014e-05
0.0008211740701539015
-0.0012825805848263527
0.00445231466437007
0.0009841725042794044
-0.0011028942258341952
-0.0007840209976053155
-0.0013130639762935878
-0.001247297783972011
0.0002933703998819861
-0.0013455370049717337
0.0036105496637909946
0.0003490682838233741
-0.0006010306329096164
-0.0003664319190865264
-0.0007922538023696982
-0.0011614940267802767
0.00030712943850348364
-0.003369897278827797
0.002075525540761926
0.0018860679865272882
0.0007008046446131301
-8.896144087848418e-05
-0.0008016213605082293
-0.0008265667079008348
0.0004246486162129982
0.0016149316858015
-0.002202404120502154
-0.001559284119623897
-0.0006155654630893011
-0.0003151914338026254
-0.0009010967104941801
-0.0008976450097967134
0.004876255171507368
-0.0005228342877262315
0.0038808732888924095
0.003208736735506967
-4.261105637029849e-05
-0.0015552603737266444
-0.0011891106471324092
-0.00243091433399943
-0.001348879325444366
9.292367461809753e-05
0.00014171660606660942
0.00016092434379396878
0.0002945922660549889
3.223592779307078e-05
-0.00026078064641993506
-3.085112515893711e-05
-0.00043076104674786355
0.0002660261124907114
-0.0005301910587323006
-9.487688854890233e-05
-0.00021028197989860178
0.00022561762852826357
-5.480507137510579e-05
-0.00023266189177914977
0.0006311731493150853
0.0003242143837974118
0.0018857711968753455
0.0006381487175498212
-0.00042118441492602487
-0.0005210591289211001
-0.0005258630700351743
-0.0005651830398346328
-0.0008148446445056479
0.0007814488947067685
0.0005542292042002372
0.0013757642634698037
-0.0011235908287680176
-0.0005158144417796285
-0.0005883883712401286
-0.0006936543267860109
0.00021000560619697655
-0.0030313245859681153
0.0007034858104142609
0.0021289684452778994
-0.000294618107475199
-0.00031999062595184453
0.0005079408674059102
-0.0010918611201150346
0.0013973993164121238
-0.0005104881761242102
0.00013215733392347073
0.0018206379219086136
8.381862207741206e-05
-0.00013537828664749124
-0.00033316795034809383
-0.00035671333732432563
-0.000700866127465378
-0.00020970430987669953
-0.0006991371234809907
-6.078544356581211e-05
0.0004951496684188557
0.00022162054804853476
0.0001732013215928999
-4.1111488263255267e-05
0.00012076682712646744
0.00013351935828694015
-6.151175162524848e-05
-5.201266907006523e-07
4.756835842715672e-05
3.615754119823806e-05
6.517737614456557e-05
-6.934719347722977e-05
-0.00015104356226372157
-0.0006309531181329527
0.0015557047105928207
9.496317587106123e-06
0.0002957870948961456
-0.0001607203436162777
-7.00377512800466e-05
-0.0002860069430126373
-0.0007132699670341576
-0.00013032226868649673
0.0004517635900967021
0.00030726881655899953
-0.00023378304554957897
0.00017032208239919853
-4.90103451844184e-05
-0.00015716410557493869
-0.00035907472405946806
0.0011807324371017247
0.001347611523040726
-0.00035480208677526686
-0.0007927007993880922
-0.0001662751265865716
-0.0005301314889464944
-0.0007945574570992441
0.00011012299865321772
0.00043505397684256774
-0.00031673485072420874
0.002742306337150534
0.00015727265504573588
-0.00044645225006088163
-0.0005946928741439306
-0.0006700551918528522
-0.001306697802256965
-7.610024703784255e-05
0.000539422240692131
-0.00013240435576787325
-7.004127851629393e-05
-0.0002946153003789963
-4.178409077805765e-05
-0.00014080139865949284
0.00021632443044642554
-0.0013577834539533786
-5.876663584397575e-05
0.0010383476074841461
0.00026493499103737156
0.00021387227794640465
-0.00024764494856882564
-0.0004005746176016623
0.0005476147794999189
-0.0007269717890666475
-0.000950486576391646
-0.0008670311208690423
-0.0005263848281532226
-0.00039776038597913216
3.648933426961792e-05
6.523159308531369e-05
0.00336691377310476
-0.0023961244345788103
0.0031745007126652773
0.0024897227736955267
-0.00024209492921296432
-0.0006873825735085633
-0.0014715801077770253
-0.0006415657624519056
-0.00022547567883153592
-0.0007537724856545347
0.0045198260074282275
0.0009099223291250792
0.00039305471313800345
-0.0005919354930360906
-0.0009272364860454334
-0.0007719249190147253
-0.002777933665940528
-0.00033786870948066965
3.9640025403270565e-05
0.00024039072466041248
0.00014852662289750276
0.0003658140859903187
-3.259252102837559e-05
-0.0003417795352371292
-8.213069320533001e-05
7.518759670005276e-05
0.0004332908832684391
0.00021647678199947112
-3.7177071813415295e-05
-6.620433854971442e-06
-7.688890565124067e-05
-3.389071121338569e-05
-0.0005703781394349499
1.4730354315765573e-05
-0.00018089900596398356
5.993855374399116e-05
0.00011490313097718772
0.0003037623154205836
2.355888012769359e-05
-4.002781467700721e-05
-0.00029596641394423077
-0.0001870880432314441
0.0013421861777836968
0.0017297126359722926
0.0008062631692357199
-0.0011395009265013935
-0.0005647542842930666
-0.0012154347878026253
-0.0007713839411631791
-3.0345300888911624e-05
-4.0741743402562756e-05
3.930215794694865e-05
4.963004948362662e-05
-1.960325117262626e-05
-1.685514738638572e-05
-1.5342869509986906e-05
3.395610492989798e-05
-0.000442516085496269
0.0020900237582140444
0.0004905541048434496
0.0004116005649913016
-0.00015224877224619655
-0.0005960927646560978
-0.0010794329428062588
-0.000721887862843972
0.00013651478478728584
0.0008758357620572248
0.00024424471776297597
-0.0006817965522047391
-0.00033777205515688125
-0.001348561822584169
-0.0009136193381940691
0.0020251545035323694
-0.000680441197164861
-0.0011374023920670987
-0.0010044449133707735
-0.0005144354445597123
-0.0002873895049725205
-6.249123965946425e-05
-2.412071400686155e-05
0.0037107254058012904
-0.0004053049449801888
0.0027769316330571317
0.0011295974791386708
0.00044736335141340976
-0.0007865393874974156
-0.0009355594690241762
-0.0008008830560203058
-0.0014256056060871264
-0.00014187577741417697
0.00027193125883093964
0.0002110262319264286
-0.00012189731851900923
0.00013081956519434996
-8.064620072689322e-05
-7.320038603412099e-05
-0.0001961573732575177
-9.000573839895288e-05
0.0001645648772929484
0.00018100778506996188
8.472106625536394e-05
-3.407484973520421e-05
-9.419528557555424e-05
-1.0731315127484575e-05
-0.00020128653978107833
0.0005451572980846885
0.0011780415617753763
0.0012226704331571776
-0.0008011832409605406
-0.000676639920752277
0.00011130818150394115
-0.00046668374479082376
-0.0011126705680175437
-3.7957412888951574e-05
0.0005187996754491225
6.273594605618507e-05
-0.00018156728524726216
3.8413101203571456e-05
-0.0001551494043841302
1.1446716978206547e-05
-0.00025672133716674137
5.0092866401439186e-05
-5.822464262104665e-05
3.9552625765974774e-05
0.00015057186913650176
-5.417923665031099e-05
-4.521696060450219e-05
-4.04614611926439e-05
-4.213506023541214e-05
-0.000596122965729833
-0.0008789173134658986
-0.0006370196520837912
-0.0003727016880607458
-0.00010226133725803869
-0.0002158606484646976
4.829321690071917e-05
0.002754590388162287
0.0012669363116131886
0.0009428206949305271
0.0012502588219686513
-0.0003306567826050071
-0.0006386624281779735
-0.0005342579479146731
-0.00059440567997357
-0.0013620329898411442
-0.00034901653522214986
-2.157728938083421e-05
-0.0002984480840744681
0.00017009507361008593
-4.505927408398929e-05
-2.4627433460546776e-05
-0.00027922172490040523
0.0008478552675123079
-0.0004867284830425055
-0.00039843491972590717
-0.0001642098698015213
0.0001891149485494193
-0.0002867413729196428
-0.000338215407206088
-7.54598998267594e-06
0.0014927610941289219
-0.0011276679251689102
-0.0007949074869901514
0.0004992477690913848
0.0023683489553331725
-0.00032200037505129543
-0.0014702732916493492
-0.0007501924976554602
0.0015974448520906038
-0.0018797945661375279
-3.278554307227082e-05
0.002101655224309214
0.0024681484591471234
0.00018501206438907355
-0.000621314407684614
-0.0004298543118010182
-0.0017910669191499814
0.003740940087078213
0.0013263044790003786
0.0017536291658893602
-0.001639210529500197
-0.0011663546435203437
-0.0015327357402284004
-0.0015848897720834442
-0.0008976830466355689
-0.000979176878835386
-0.000494366225544954
0.0010688905819797804
0.0016882634913042611
0.00014175830067264788
-0.0005745503803439558
-0.0007596165058340485
-9.120238339834599e-05
0.0015570604801861917
-0.00019379417514600768
0.0017673474759891106
0.001002565027888451
-0.0008658795787016555
-0.0003269269185262436
-0.0006120236979091525
-0.0023283486137806956
-0.0002604271232442717
-0.0006656225932866252
0.0003263918240739665
0.000607158903593305
0.00015684468681227603
-0.0008701962994355012
-3.501163599467776e-05
0.0007408622374815279
-0.00046200177090908675
0.0015026290760978484
0.00030565890259690894
-0.00041826833349972595
0.00026863534739222396
-0.00046040158978991004
-0.0006029064297492751
-0.00013334520213898303
-0.0006778038089997569
0.000939589107294912
0.0019391514167731482
5.993558365320591e-05
0.00018410244435468554
-0.0006129544600589114
-0.0003424187790432981
-0.0014896015039739866
-0.0006986963225707212
-0.0001101875252505711
0.0004355789730705755
-0.0005333339136811841
-0.00032311300871581765
-5.457597696393055e-05
-0.00022998184988983514
0.0015143096240014839
0.0013561193651969654
-0.0002435337368837696
-7.934695768554108e-05
0.0006238179663491577
4.5561790753866676e-05
-0.00015851850884227026
-0.0002947894935855949
-0.001249310425302813
-1.9675337559059603e-05
-4.727424681907206e-05
4.076882761936463e-05
0.00014762893717815972
1.708838832704214e-05
-4.865995834075528e-05
3.1211256916584236e-05
-0.00012108786732226383
0.0008431301466106032
0.0012647055862658933
0.0008681882922640114
-0.000382823862246479
0.0005455289648929327
-0.0006874146181923313
-0.0009296756721919572
-0.0015216388374026744
0.0011250156886431707
0.0018059468375724655
0.0002487170535021782
-9.06453425480784e-05
-5.7220109688423984e-05
-0.00048625004759340613
-0.0007379280551570536
-0.00180763602473085
-0.00044801491568448657
0.0004506203420219941
0.0021322861292596682
0.00023618333304117927
0.0007033295756697982
-0.0002952589717673555
-0.0007191153907745951
-0.0020600301017662053
0.0020406581100482625
0.0029763502761869197
0.00038986855162309814
0.00145632383872402
-0.0010785878076545615
-0.0016648645624812164
-0.0012282704427111543
-0.0028914779637353697
-0.0008561003393930156
-0.001044365152487428
-0.0009724343783305029
-0.000593180523146285
-0.0005838862563214317
-0.0005077843005290061
-9.6090760271508e-05
0.004653841710479176
-0.0019279342618342312
-0.002826509418994657
-0.0021187247134126287
-0.001078326359321903
-0.0007815340406874162
-0.0003766213127914405
0.0009747601787321209
0.008134889928310159
-0.000404613218457528
-0.00043468559322895096
0.0002092723146622253
0.00036956476612786163
-0.00012989515558299865
0.0004337209233273291
-0.00033465222722183684
0.0002912881903738986
0.00038391349120210736
0.0013896889696282653
0.0022409064454075194
-0.0005768823057087315
-0.0007134925501310907
-0.0008955299615317373
-0.0006155209590427205
-0.0012130831298236104
-0.00030021626182534045
0.0014560978652815356
0.0007571239005792173
0.0007263444838306324
-6.770875130320927e-05
-0.0004385705506961367
-0.0008574944260654955
-0.0012755762598012045
-0.000546759022698075
-0.0006233825460761137
-6.852723332284289e-05
0.00045354407606731717
-5.080506531378556e-05
-0.00043440715099494993
-6.384000943307147e-05
0.001334176951771521
-0.0012885671578260248
-0.0031772339025612725
-0.0012528000667150398
0.005896953774937934
0.0017828949037831936
-0.001154614275976311
-0.0013532781583657555
0.0005466448827232711
0.00047821677307583247
0.002023218367411011
0.0015961040965243739
-6.187399754949324e-05
-0.001052274951740989
-0.0013211711840817955
-0.00045801652531704415
-0.0012042025783218949
-0.00017190156976384897
0.0009137181827518878
0.000777797637223805
0.0007583506786855411
-0.00022275557961127363
-0.00029337290160197756
-0.0011999301230251607
-0.0005619063246589714
0.00019159472913857375
0.0003850200572307251
-8.209302413440231e-05
0.00010881185620209682
-0.0001225674265859098
5.768824289195995e-05
-0.00015314983910070726
-0.00038530459564233596
-0.0010039869126951715
0.0024760802438130915
-0.0005873947694984908
0.00021336761715963943
-0.000777340007882426
-0.0009109353574399123
-0.0007657426319818064
0.001355951818525077
-0.001158377354728703
-0.0019356059014850344
-0.0015679122348197779
-0.0002347978172393823
-0.0003219009204035581
-0.00028025676560091285
-7.809345685061592e-06
0.005506660339962432
-0.00024427663664486685
-0.0003345487884565459
-0.0002058570521561061
-0.0002045063508746277
-1.6245727274276725e-05
-7.289747789635906e-05
-6.582385683461995e-05
0.0011441558901374024
-0.0016222823262538094
-0.0036517532975095875
-0.0011470215923216045
-0.0019157094100714354
-0.00034527433097435926
-0.0010366901830832051
-0.0007129958712076404
0.010431727011421645
-4.8413011325695306e-06
-0.0003901970917434538
0.00020488769107009737
0.00017428707813004746
-0.000243030079165
0.00013277402992034187
0.0001694643438130434
-4.3344670892506775e-05
0.0001503145507695031
-2.5931124198758286e-05
-4.6692646200353826e-05
-0.00016796043724106625
0.00018839630274530746
0.00014016902472783506
-7.016808733706733e-05
-0.00016812758326540002
-0.0015962997630142627
-0.0017957566181901028
-0.0011350009986206744
0.0011639691907969552
-0.0002992756894581698
-0.0003569349779277845
-0.0005888482875338505
0.004608147143947893
0.0031920917613285893
-0.0010957975365731918
-0.0022887370365009996
-0.0009853212321475104
-0.0010738791162563104
-0.0009463945524294089
-0.001141947747422335
0.004339985460001171
-0.002619098770129613
0.003981243626966697
0.0015349710521464395
-0.00038843357986116395
-0.0005465159046957042
-0.0008389742200407178
-0.0007222223575868105
-0.0004009698467991256
0.010409469960337899
-0.001187085727460264
-0.004392418059303867
-0.002124038250093578
0.00046888709315258897
-0.002006141584515846
-0.0024812162129207926
0.001312542780803863
0.010217285656683478
0.00036571976925446457
0.0012267109470851013
-0.0023765399406432855
-0.002072925529784446
-0.002326778283153875
-0.002942455008551807
-0.00209101761088964
-0.0006721470807408249
-0.0008889649225806334
-0.0009281672041491909
-0.0004601693232165615
-0.0005853411314003778
-0.00042080473172523356
-0.0003726445210580984
0.00432823891487092
-0.0010879692995404576
-0.00013451271464006556
0.0012071256017726958
0.0007433670290150667
-0.00047156505891718874
-0.0002455944737687977
-0.00033853392751385377
0.00032768284359260163
0.0007512712692380215
0.004988522624563194
0.0032556408355390327
0.00028750270807339416
-0.0012229771566130325
-0.0028891167297788243
-0.0019532598988456626
-0.0032175836521761226
0.00015532048510129618
0.0007086692908289258
0.0009484892957165685
-0.0006660532544317873
-0.00040282915193131806
-0.0007387481050567459
-0.0005496544806774224
0.0005448059204504837
-0.00111838901671613
-0.0020886816165413867
-0.0008041673304343968
0.0009705350632753433
-0.00019792876365491645
-0.0002923572682752449
-0.00039204113857455736
0.003923030070921285
-0.0011984506151942642
0.0016275131752339867
0.0027103156705003753
-0.000399889895488703
-0.0008900565557438962
-0.0002922170693589183
-0.000800451656820151
-0.0007567630531284291
-0.0005597197121955335
-0.0014976647971393904
0.0010119639040880707
0.00013550009201352398
0.00031005098051385574
7.287149052609416e-05
-8.081849821691878e-05
0.0006078165404102961
-0.002059987661246234
-0.0020528784474580113
-0.0007816436436121426
-7.735946993924158e-05
0.0009747601743752852
0.00046679496443477936
-9.348192211802522e-05
0.003623796005563591
0.0014217990160908306
-0.0016744054254241385
-0.002524999965905339
-0.0015457551935864327
-0.0010112613033041462
-0.0004022644244521704
-0.0008435108442350323
0.006580398140816426
-0.0004863721234990834
0.003369742970953425
0.0029904101260258757
-0.0006227394532815188
-0.0020399455698482897
-0.0011772605101629
-0.0020882527230075233
5.4417282820017884e-05
-0.004828186090652011
0.013920783286135318
0.005422307403624282
-0.0012880431191994565
-0.0028560931383228728
-0.0038956050258736447
-0.004047380872782321
-0.002427782442929296
0.0009917172062857398
0.002421064729908318
0.003080906788464888
-0.0013857546084980082
-0.001030846273949676
-0.002598649860679253
-0.0013740368174124723
-0.00010440116411953398
-0.0012886142866389574
-0.0017574444992394603
-0.0011576751383622658
0.0010696473325058778
-0.0006912730069000208
-0.0009509232185009825
-5.115594777520725e-05
0.004827438764911017
-0.0009318971607256959
-0.0009526223694641733
-0.0010675810358596475
-0.00011207976792813365
-0.0005028910620663359
-2.1596352358457107e-05
7.038224611204596e-05
0.0035182855022903975
0.0049452035520788865
0.0012513229989128693
0.0001272978900175432
-0.0011353935520193345
-0.0010427708430165556
-0.001124427858537057
-0.0008087664771003143
-0.002212465710336037
0.0005007855718164387
-2.8854628134707864e-05
0.0007026185620273332
-0.0003215266639974847
-0.0004280721217212662
-0.0010113337061580093
-0.001170520159099981
0.0017569031452676755
-0.0018650976440693586
-0.001043093469544147
0.0004920067132794513
0.0008021254300797161
0.0005272601792281427
-0.00030465072226685776
0.0002596138452998963
0.0011318356679931572
-0.001000369554183765
0.004283168577343132
0.0028918988067404153
0.0004090923641279268
-0.0015252687192711853
-0.0005812873644687618
-0.0016634853935065122
-0.002813748716781252
0.0037306589222724524
-0.002933295997897381
-0.004272877080852063
-0.0011712808207515926
-0.0016497314142388663
-0.001324637480175367
-0.002036369660719965
0.009657533532362775
-0.00040362327384729324
0.004148913032226034
0.0019974083064038463
-0.0007722617749226819
-0.0011394560843061017
-0.0016242738150301715
-0.0021860545952323137
-2.065179529131479e-05
0.0054797775012922255
-0.0001929878504357877
-0.0007857932437126719
-6.775588926741615e-05
-0.0014578671657800024
-0.0011743226575919323
-0.0016901489687042796
-0.00011090172580013182
0.0005960342638866909
0.0017216486660615595
-0.0009843389180351854
-0.0003639034890055277
-0.00042334288882160085
-0.0008796220521755936
-0.0006794182151588074
0.0010129426332484664
-0.0007071765897740075
0.0027684203369680773
0.004521755482855818
0.0015929758987953918
-0.0008100011110015829
-0.0016598181063795102
-0.0012220611451551257
-0.004484094766309062
0.010407803750277897
0.002475625004907713
4.79091633178695e-05
-0.00023969060780900257
-0.002364867780128099
-0.002537708664154691
-0.0028858856575816935
-0.004903185208829997
-0.001259586312210611
-0.002518824232257007
-0.0006970299815489976
0.00063389155848216
0.0005758547002008351
0.00031249334873153476
-0.001308936941901958
0.004262137860504046
0.0020015184077875597
-0.0026162007165297135
-0.0011522839689214225
-0.0006026902550600987
-0.00023882876419809907
0.00040773862657767515
-0.0002995385457337232
0.002500285216077824
0.0019396220567138168
0.008353895489360186
-0.00017787102028484094
-0.004121448907599902
-0.0019096342272511405
-0.004562124969638079
-0.004408319225495513
0.004885880804195472
0.003953705885847122
-4.7623866860145814e-05
-0.0028262419129887638
0.0023576781320756744
-0.0018470963151880075
-0.0021924186879721595
-0.002443616640389212
0.0030456134054754895
0.0002831386750274927
-6.149276623466301e-05
-2.926890404040264e-05
-6.329561511262717e-05
-4.618892048749041e-05
3.567230878742954e-05
-3.655649355929287e-05
-8.200828438044623e-05
-0.0018308466215226267
0.0019819583828634487
-0.0001275060838438487
0.001951325101923508
0.0007049906094178564
-0.001070189118220643
-0.00178687854936017
0.0001771462787424721
0.0004435423784627216
-0.0006648268373018603
0.00012923965255998466
-0.0012331809586032367
-0.0015238074389444536
-0.0033965930059279763
-0.0035627888273373994
0.00980841503709222
0.0007644478535178012
0.002468181141765817
0.0031327367232411433
-0.0010151613031382537
-0.0010835374134091828
-0.0016016352249658386
-0.0026554128906075207
-9.618886403964402e-06
-0.00046327965837278975
-0.0009457314138418951
-0.001020199816245391
-0.0001982386318987127
-0.00017286854168144065
-0.000346781469021939
0.00013238354104184804
0.0030147159900203208
-0.0002636659463105039
-0.00011261321577582837
-0.00015269887087069375
6.64915772754473e-05
-9.115497335951942e-05
-6.447106529487756e-05
2.2540513980369402e-05
0.0005955719803556063
-7.682544005806303e-05
-9.448003850878679e-05
-8.498108427448633e-05
-6.619078376442443e-05
-5.476293161749502e-05
-4.931744128405197e-05
2.8994718728027005e-05
0.00039756300077928053
-0.0006731419160790659
-0.0011336008552756311
0.00022575353481742296
-0.00017594774587588577
-0.0018494907079389632
-0.0015442314322031633
-0.0008309066361935991
0.005981565758748885
-0.0027856961746239844
0.0007974503242078225
0.0025464907881050155
-0.00032054079844863183
0.0008394040041977428
-0.0002148189266744236
-0.001187640541745962
0.00032535132498241905
0.0038031251099657835
0.00017258172266680348
0.0013936621599325333
-0.001986770338444205
-0.0016795420848634286
-0.001849667078861146
-0.0015559935167839866
0.0017026040263876426
0.0010598127974713342
0.0028088902157481902
0.001119692871376306
-0.0019168144723969644
-0.0004413746742806274
-0.0016660767253033617
-0.0018419095456551886
0.0008777795330403196
0.0007612815128305915
0.0016329172666561757
0.0011582935382879122
-0.0007622586352153807
-0.0012050008324093915
-0.0005252098699461667
-0.000882453157155634
-0.00017756982304810833
-0.0015471712548230073
-0.0015977747533025342
0.0013807162814407487
0.0007754512132045136
0.0001432289572393803
-0.0005011089367772659
-0.00011580696531086019
0.001462465458329024
-0.0060360255497146215
0.004973219626236075
0.005573159058834614
-0.0006384874947075942
-0.001746261908620951
-0.0015485855981446316
-0.0013017780001129127
0.0007247598662300253
0.0006990701934780024
1.637261296746692e-05
0.0027710196678730546
0.0008147098270783502
-0.0001974595181822214
-0.0013591494445956364
-0.0011330133530908983
-0.0016115499855281193
-0.0007723698318213796
0.0007148025368305979
-0.00036358049269581607
0.0007448655130732179
0.00024291089123601014
0.0005231287332178951
-0.00019962493280777655
-0.0008901324170327501
-0.0019824845883777745
0.00015465277400495412
0.00026709415900391073
0.00013811548854013544
-0.00011240814834494004
-0.00019202607435588173
-0.0008131133013756667
0.002540169690905263
0.0012035290854821756
-0.0019248175703572288
4.657782413536766e-05
0.001669872635934173
-0.000254139471809438
-0.0008349876831555603
-0.00042980545783849185
0.0005237706376090023
-0.0019964253970049667
0.001075190582290148
0.004411978989571615
-0.000606410226444029
-0.0012712180034447859
-0.00017028260345737764
-0.0009177746924935819
-0.0005250586490170234
0.003955568617635778
0.0015952124463716895
-0.0020682221160704503
-0.00044161254862764334
-0.0009075001222253518
-0.0018099553582474294
-0.0008757528152109399
0.0005522618963743418
0.0018106741958066684
0.0021056694767080182
0.001055494849249024
-0.00012261413372495098
-0.000671925365030465
-0.0006061799692815331
-0.001550852552359848
-0.0020202665013669113
0.0003309358757095215
0.0035177592380300302
0.006335147222666187
-1.564776021141246e-05
-0.002229165752072127
-0.00134401381373454
-0.002517064192426912
-0.004077950817960747
0.004753160092434441
0.0069400122697095635
0.00044147730146441145
-0.0023376148733428186
-0.002346525375548819
-0.0027793515149249284
-0.0027573107028308606
-0.0019138471969609903
-0.0013676923565654588
0.0022680801358655293
0.002309795790525223
0.00010637611943361304
-0.0009857870557538684
-0.0012828953966616792
-0.0007033138204830569
-0.00034456341636030175
-0.00030605779976796625
-0.0006416568782063012
-0.00037836650063323315
-0.0002674612448093846
-0.00011514582154985165
-0.00015876810422668977
-7.148075193221066e-05
0.0019389371011256365
0.0007262469005380166
0.0017761619946273775
0.0002720830161513603
-0.00045979167134016345
-0.0005663299868203013
-0.000496838719865276
-0.0004703356588730912
-0.0007811958744179221
-0.00024404613608617422
-0.00041455843421205323
-0.00022455499250610765
-0.0001624234176612518
-0.00017421126327905244
-0.00014710670952083725
-6.145237503883749e-05
0.0014283533283043141
0.0010301083274182779
-6.958844626973608e-06
-0.0027218249973391733
-0.0008282297534999927
-0.0002296481458565394
-0.001816807941372482
-0.0010574240944430547
0.005630785449719941
-9.054327063313064e-05
0.00015137280659159626
5.180609406135731e-06
0.00048362817159314307
6.221045502962718e-05
0.00022444413579412732
-0.0003277981320866653
-0.0005084947756948336
0.0003761784095898726
0.0010156744079152617
-0.00025677093913393
0.00011788303148351733
-0.00023898276304300248
-0.00016589401260347166
-5.513873555499187e-05
-0.0007929493986532566
0.0007108981753895561
0.0015710025568283904
-7.847162284481208e-05
0.0004040984855888367
-0.00026572548185000507
-0.0009704509663107551
-0.0008310722415542654
-0.0005402789052469472
-5.090916904835764e-05
0.0010661838905807327
-0.0003937229823851361
1.4726793245312346e-05
-0.0001808757663467874
7.314356573974599e-05
0.0002387161277309643
-0.0007672624595164738
-0.00013032226868649673
0.0004517635900967021
0.00030726881655899953
-0.00023378304554957897
0.00017032208239919853
-4.90103451844184e-05
-0.00015716410557493869
-0.00035907472405946806
0.0037306589222724524
-0.002933295997897381
-0.004272877080852063
-0.0011712808207515926
-0.0016497314142388663
-0.001324637480175367
-0.002036369660719965
0.009657533532362775
0.000193837134689271
7.55411805550107e-05
0.00027734347047973383
0.00011919775120937799
0.00012827324181397638
-0.00020719609763667954
-3.583987741183225e-05
-0.0005511568036988584
-0.00024427663664486685
-0.0003345487884565459
-0.0002058570521561061
-0.0002045063508746277
-1.6245727274276725e-05
-7.289747789635906e-05
-6.582385683461995e-05
0.0011441558901374024
-0.00020970430987669953
-0.0006991371234809907
-6.078544356581211e-05
0.0004951496684188557
0.00022162054804853476
0.0001732013215928999
-4.1111488263255267e-05
0.00012076682712646744
0.0007512712692380215
0.004988522624563194
0.0032556408355390327
0.00028750270807339416
-0.0012229771566130325
-0.0028891167297788243
-0.0019532598988456626
-0.0032175836521761226
-0.0015962997630142627
-0.0017957566181901028
-0.0011350009986206744
0.0011639691907969552
-0.0002992756894581698
-0.0003569349779277845
-0.0005888482875338505
0.004608147143947893
-0.00111838901671613
-0.0020886816165413867
-0.0008041673304343968
0.0009705350632753433
-0.00019792876365491645
-0.0002923572682752449
-0.00039204113857455736
0.003923030070921285
-0.000596122965729833
-0.0008789173134658986
-0.0006370196520837912
-0.0003727016880607458
-0.00010226133725803869
-0.0002158606484646976
4.829321690071917e-05
0.002754590388162287
-0.0011984506151942642
0.0016275131752339867
0.0027103156705003753
-0.000399889895488703
-0.0008900565557438962
-0.0002922170693589183
-0.000800451656820151
-0.0007567630531284291
-0.00025886098679050497
0.0016421853336343985
0.00019064415948461457
-0.00015247527680334514
-0.00027366202592859015
-0.00012154094272547149
-0.00038167287629455076
-0.0006446173845765507
0.0039087163577751485
0.00045972216952145246
-0.0015423976945124357
-0.0004311656006818298
-0.000933257132205534
-0.0015195602419451459
-0.0011881272786877781
0.001246069420736123
-0.0006721470807408249
-0.0008889649225806334
-0.0009281672041491909
-0.0004601693232165615
-0.0005853411314003778
-0.00042080473172523356
-0.0003726445210580984
0.00432823891487092
-0.0001870880432314441
0.0013421861777836968
0.0017297126359722926
0.0008062631692357199
-0.0011395009265013935
-0.0005647542842930666
-0.0012154347878026253
-0.0007713839411631791
-0.00010040733671971586
0.0007964593385664878
-0.00016438691128954478
0.0001552564605087376
0.0002524752061433066
-0.0002318418111964675
-0.00021203116088185705
-0.0004955237851309478
-0.00046200177090908675
0.0015026290760978484
0.00030565890259690894
-0.00041826833349972595
0.00026863534739222396
-0.00046040158978991004
-0.0006029064297492751
-0.00013334520213898303
-0.0006778038089997569
0.000939589107294912
0.0019391514167731482
5.993558365320591e-05
0.00018410244435468554
-0.0006129544600589114
-0.0003424187790432981
-0.0014896015039739866
-2.7284223806459844e-05
0.0004602981744949249
0.00034764318958536685
0.00018963397143443515
-0.00013478635481974823
-0.00015641872481585015
-0.00020466918793941028
-0.0004744168441332588
-0.00033786870948066965
3.9640025403270565e-05
0.00024039072466041248
0.00014852662289750276
0.0003658140859903187
-3.259252102837559e-05
-0.0003417795352371292
-8.213069320533001e-05
0.0002660261124907114
-0.0005301910587323006
-9.487688854890233e-05
-0.00021028197989860178
0.00022561762852826357
-5.480507137510579e-05
-0.00023266189177914977
0.0006311731493150853
-3.0345300888911624e-05
-4.0741743402562756e-05
3.930215794694865e-05
4.963004948362662e-05
-1.960325117262626e-05
-1.685514738638572e-05
-1.5342869509986906e-05
3.395610492989798e-05
-0.00014187577741417697
0.00027193125883093964
0.0002110262319264286
-0.00012189731851900923
0.00013081956519434996
-8.064620072689322e-05
-7.320038603412099e-05
-0.0001961573732575177
0.00016459146028584824
-0.000681520125152428
0.0002634245187408803
0.00045802015661304036
0.0004911543527051792
-0.0001870717246013172
-0.0007486105396630746
0.00024001190107187124
0.0013527117013450308
-5.568532427954731e-05
-0.00026182755301864635
-0.00021146360672978553
-2.1166349961262985e-05
-4.7247079433692104e-05
-0.0001739543434583845
-0.0005813674444637118
-0.002059987661246234
-0.0020528784474580113
-0.0007816436436121426
-7.735946993924158e-05
0.0009747601743752852
0.00046679496443477936
-9.348192211802522e-05
0.003623796005563591
0.0005451572980846885
0.0011780415617753763
0.0012226704331571776
-0.0008011832409605406
-0.000676639920752277
0.00011130818150394115
-0.00046668374479082376
-0.0011126705680175437
0.000613181831858552
0.0007105904616749068
4.403487231644635e-05
-0.00016554894490654053
-0.00014225283429102848
-0.00029802990725578276
4.964873352487495e-07
-0.0007624719667318013
-0.0005228342877262315
0.0038808732888924095
0.003208736735506967
-4.261105637029849e-05
-0.0015552603737266444
-0.0011891106471324092
-0.00243091433399943
-0.001348879325444366
-0.00030605779976796625
-0.0006416568782063012
-0.00037836650063323315
-0.0002674612448093846
-0.00011514582154985165
-0.00015876810422668977
-7.148075193221066e-05
0.0019389371011256365
0.0
0.0
0.0
0.0
0.0
0.0
0.0
0.0
0.0007862166617059846
-3.911212494697035e-05
0.00021827745713018615
3.474354669930267e-05
-0.00026888549353543833
-0.0002022497298931303
-9.328384847919589e-05
-0.00043570646868073827
1.184794080027891e-05
-4.286960836379918e-05
-9.191462041326315e-06
-3.3645365400349695e-05
6.791481209702129e-05
-7.000859671508418e-05
1.116525092565711e-05
6.478702869760218e-05
-0.00034901653522214986
-2.157728938083421e-05
-0.0002984480840744681
0.00017009507361008593
-4.505927408398929e-05
-2.4627433460546776e-05
-0.00027922172490040523
0.0008478552675123079
-0.00037278238204101275
-0.001170222764151188
-2.9681518025595916e-05
-7.443675281666868e-05
-3.648308202029972e-05
0.000744961131071542
-6.221767317129887e-05
0.0010008630411545215
-1.9675337559059603e-05
-4.727424681907206e-05
4.076882761936463e-05
0.00014762893717815972
1.708838832704214e-05
-4.865995834075528e-05
3.1211256916584236e-05
-0.00012108786732226383
0.00013651478478728584
0.0008758357620572248
0.00024424471776297597
-0.0006817965522047391
-0.00033777205515688125
-0.001348561822584169
-0.0009136193381940691
0.0020251545035323694
-0.0004053049449801888
0.0027769316330571317
0.0011295974791386708
0.00044736335141340976
-0.0007865393874974156
-0.0009355594690241762
-0.0008008830560203058
-0.0014256056060871264
-0.0006731419160790659
-0.0011336008552756311
0.00022575353481742296
-0.00017594774587588577
-0.0018494907079389632
-0.0015442314322031633
-0.0008309066361935991
0.005981565758748885
-0.001426275166101319
-0.0024342891238560665
-0.0003974830549153502
0.000306230882218534
0.0006613787253414474
-0.0011257682272685025
-0.00021591203890997652
0.004632118003491232
0.0003242143837974118
0.0018857711968753455
0.0006381487175498212
-0.00042118441492602487
-0.0005210591289211001
-0.0005258630700351743
-0.0005651830398346328
-0.0008148446445056479
-0.0012825805848263527
0.00445231466437007
0.0009841725042794044
-0.0011028942258341952
-0.0007840209976053155
-0.0013130639762935878
-0.001247297783972011
0.0002933703998819861
-0.0027856961746239844
0.0007974503242078225
0.0025464907881050155
-0.00032054079844863183
0.0008394040041977428
-0.0002148189266744236
-0.001187640541745962
0.00032535132498241905
9.292367461809753e-05
0.00014171660606660942
0.00016092434379396878
0.0002945922660549889
3.223592779307078e-05
-0.00026078064641993506
-3.085112515893711e-05
-0.00043076104674786355
0.00035927449357953133
-0.0005707906461352779
7.709102560752215e-05
-0.00030159974734392036
-0.000544870938307172
-0.0004279066438803424
-0.0005467245733149871
0.0019555270297946454
0.0008431301466106032
0.0012647055862658933
0.0008681882922640114
-0.000382823862246479
0.0005455289648929327
-0.0006874146181923313
-0.0009296756721919572
-0.0015216388374026744
-0.000979176878835386
-0.000494366225544954
0.0010688905819797804
0.0016882634913042611
0.00014175830067264788
-0.0005745503803439558
-0.0007596165058340485
-9.120238339834599e-05
-0.0007537724856545347
0.0045198260074282275
0.0009099223291250792
0.00039305471313800345
-0.0005919354930360906
-0.0009272364860454334
-0.0007719249190147253
-0.002777933665940528
1.4730354315765573e-05
-0.00018089900596398356
5.993855374399116e-05
0.00011490313097718772
0.0003037623154205836
2.355888012769359e-05
-4.002781467700721e-05
-0.00029596641394423077
0.0054797775012922255
-0.0001929878504357877
-0.0007857932437126719
-6.775588926741615e-05
-0.0014578671657800024
-0.0011743226575919323
-0.0016901489687042796
-0.00011090172580013182
0.0013561193651969654
-0.0002435337368837696
-7.934695768554108e-05
0.0006238179663491577
4.5561790753866676e-05
-0.00015851850884227026
-0.0002947894935855949
-0.001249310425302813
-0.0006986963225707212
-0.0001101875252505711
0.0004355789730705755
-0.0005333339136811841
-0.00032311300871581765
-5.457597696393055e-05
-0.00022998184988983514
0.0015143096240014839
-0.0007269717890666475
-0.000950486576391646
-0.0008670311208690423
-0.0005263848281532226
-0.00039776038597913216
3.648933426961792e-05
6.523159308531369e-05
0.00336691377310476
-7.682544005806303e-05
-9.448003850878679e-05
-8.498108427448633e-05
-6.619078376442443e-05
-5.476293161749502e-05
-4.931744128405197e-05
2.8994718728027005e-05
0.00039756300077928053
0.0018089446187035153
0.007728532441466466
0.0003177754563315803
-0.00030100569863139836
-0.001693046169460667
-0.0018808397598419455
-0.0020608352305622147
-0.003919525658005331
-0.0007071765897740075
0.0027684203369680773
0.004521755482855818
0.0015929758987953918
-0.0008100011110015829
-0.0016598181063795102
-0.0012220611451551257
-0.004484094766309062
-0.0018797945661375279
-3.278554307227082e-05
0.002101655224309214
0.0024681484591471234
0.00018501206438907355
-0.000621314407684614
-0.0004298543118010182
-0.0017910669191499814
-0.0012886142866389574
-0.0017574444992394603
-0.0011576751383622658
0.0010696473325058778
-0.0006912730069000208
-0.0009509232185009825
-5.115594777520725e-05
0.004827438764911017
5.0092866401439186e-05
-5.822464262104665e-05
3.9552625765974774e-05
0.00015057186913650176
-5.417923665031099e-05
-4.521696060450219e-05
-4.04614611926439e-05
-4.213506023541214e-05
0.0031920917613285893
-0.0010957975365731918
-0.0022887370365009996
-0.0009853212321475104
-0.0010738791162563104
-0.0009463945524294089
-0.001141947747422335
0.004339985460001171
0.0038031251099657835
0.00017258172266680348
0.0013936621599325333
-0.001986770338444205
-0.0016795420848634286
-0.001849667078861146
-0.0015559935167839866
0.0017026040263876426
-0.0004867284830425055
-0.00039843491972590717
-0.0001642098698015213
0.0001891149485494193
-0.0002867413729196428
-0.000338215407206088
-7.54598998267594e-06
0.0014927610941289219
-5.5617714443337423e-05
-8.359816366900854e-05
0.0032971274404749763
-0.00014184120118347317
-0.0009862383860007244
-0.0005028056090603099
-0.0007034573246334826
-0.0008235690414846405
0.0014217990160908306
-0.0016744054254241385
-0.002524999965905339
-0.0015457551935864327
-0.0010112613033041462
-0.0004022644244521704
-0.0008435108442350323
0.006580398140816426
-0.0009318971607256959
-0.0009526223694641733
-0.0010675810358596475
-0.00011207976792813365
-0.0005028910620663359
-2.1596352358457107e-05
7.038224611204596e-05
0.0035182855022903975
0.010407803750277897
0.002475625004907713
4.79091633178695e-05
-0.00023969060780900257
-0.002364867780128099
-0.002537708664154691
-0.0028858856575816935
-0.004903185208829997
0.0004632602613276275
0.0004491702344616661
0.00032317819573563525
-0.00017112698616586364
-0.0002793958732419167
-7.905345296789798e-05
-0.00020429137670939529
-0.0005017410024398553
0.010217285656683478
0.00036571976925446457
0.0012267109470851013
-0.0023765399406432855
-0.002072925529784446
-0.002326778283153875
-0.002942455008551807
-0.00209101761088964
-7.911307403608018e-05
-0.0001810376826128934
9.047295568541759e-05
0.0004928146972319915
2.6574835848259845e-05
-9.533656399064367e-05
-5.557961191866595e-06
-0.00024881720693418504
0.0006990701934780024
1.637261296746692e-05
0.0027710196678730546
0.0008147098270783502
-0.0001974595181822214
-0.0013591494445956364
-0.0011330133530908983
-0.0016115499855281193
0.0010598127974713342
0.0028088902157481902
0.001119692871376306
-0.0019168144723969644
-0.0004413746742806274
-0.0016660767253033617
-0.0018419095456551886
0.0008777795330403196
0.004753160092434441
0.0069400122697095635
0.00044147730146441145
-0.0023376148733428186
-0.002346525375548819
-0.0027793515149249284
-0.0027573107028308606
-0.0019138471969609903
-0.0005157268646605158
1.600908565721734e-06
0.001177509045185334
0.00012822397292834513
-5.1065315629204305e-05
6.256234675069682e-05
-0.0006161039517033143
-0.00018700014143706233
-0.004828186090652011
0.013920783286135318
0.005422307403624282
-0.0012880431191994565
-0.0028560931383228728
-0.0038956050258736447
-0.004047380872782321
-0.002427782442929296
-2.8345770488346753e-05
8.686945035118112e-05
-4.724540742038182e-05
6.388488510792086e-05
0.00015879272845404185
-5.684599811231674e-05
-5.1740989834719726e-05
-0.0001253688980573788
0.0011807324371017247
0.001347611523040726
-0.00035480208677526686
-0.0007927007993880922
-0.0001662751265865716
-0.0005301314889464944
-0.0007945574570992441
0.00011012299865321772
7.518759670005276e-05
0.0004332908832684391
0.00021647678199947112
-3.7177071813415295e-05
-6.620433854971442e-06
-7.688890565124067e-05
-3.389071121338569e-05
-0.0005703781394349499
0.00013351935828694015
-6.151175162524848e-05
-5.201266907006523e-07
4.756835842715672e-05
3.615754119823806e-05
6.517737614456557e-05
-6.934719347722977e-05
-0.00015104356226372157
0.000364409846035726
0.0006230900300667495
0.00040013935651532425
0.00046997014351033865
-0.0002978026652792399
-0.00043221695678162287
-0.0003116367159590172
-0.0008159530381082589
-0.001259586312210611
-0.002518824232257007
-0.0006970299815489976
0.00063389155848216
0.0005758547002008351
0.00031249334873153476
-0.001308936941901958
0.004262137860504046
0.00041313456089400296
0.0026221212441095484
0.0020115526406960555
0.00017522821116383434
-0.0005142993232113014
-0.001201196254705068
-0.0016197804600690125
-0.0018867606188780594
-0.0003627326082880007
-0.0010106092209054864
-0.0005325357286748018
3.28068412458319e-05
-0.0005957670795174299
-0.0010636877498649722
0.0002021589719644918
0.0033303665740403677
0.0020015184077875597
-0.0026162007165297135
-0.0011522839689214225
-0.0006026902550600987
-0.00023882876419809907
0.00040773862657767515
-0.0002995385457337232
0.002500285216077824
-0.0007843668462650143
-0.0011719916768612897
0.0005659410591770609
8.621715478360395e-05
0.00021270526383344082
-0.00023456731015598323
-0.0004988589349838882
0.0018249212904720702
0.0003309358757095215
0.0035177592380300302
0.006335147222666187
-1.564776021141246e-05
-0.002229165752072127
-0.00134401381373454
-0.002517064192426912
-0.004077950817960747
0.0
0.0
0.0
0.0
0.0
0.0
0.0
0.0
0.0018106741958066684
0.0021056694767080182
0.001055494849249024
-0.00012261413372495098
-0.000671925365030465
-0.0006061799692815331
-0.001550852552359848
-0.0020202665013669113
0.010409469960337899
-0.001187085727460264
-0.004392418059303867
-0.002124038250093578
0.00046888709315258897
-0.002006141584515846
-0.0024812162129207926
0.001312542780803863
-0.002619098770129613
0.003981243626966697
0.0015349710521464395
-0.00038843357986116395
-0.0005465159046957042
-0.0008389742200407178
-0.0007222223575868105
-0.0004009698467991256
-0.000404613218457528
-0.00043468559322895096
0.0002092723146622253
0.00036956476612786163
-0.00012989515558299865
0.0004337209233273291
-0.00033465222722183684
0.0002912881903738986
0.00038391349120210736
0.0013896889696282653
0.0022409064454075194
-0.0005768823057087315
-0.0007134925501310907
-0.0008955299615317373
-0.0006155209590427205
-0.0012130831298236104
5.629863049022642e-05
5.16712086994835e-05
-2.2453350789294903e-05
-1.7080412487066153e-05
-1.3513294548268924e-05
-1.1551843585011638e-05
-1.0472539787058334e-05
-3.289839799301003e-05
-0.00040362327384729324
0.004148913032226034
0.0019974083064038463
-0.0007722617749226819
-0.0011394560843061017
-0.0016242738150301715
-0.0021860545952323137
-2.065179529131479e-05
-0.0018650976440693586
-0.001043093469544147
0.0004920067132794513
0.0008021254300797161
0.0005272601792281427
-0.00030465072226685776
0.0002596138452998963
0.0011318356679931572
0.0019396220567138168
0.008353895489360186
-0.00017787102028484094
-0.004121448907599902
-0.0019096342272511405
-0.004562124969638079
-0.004408319225495513
0.004885880804195472
-0.0007723698318213796
0.0007148025368305979
-0.00036358049269581607
0.0007448655130732179
0.00024291089123601014
0.0005231287332178951
-0.00019962493280777655
-0.0008901324170327501
-0.00046327965837278975
-0.0009457314138418951
-0.001020199816245391
-0.0001982386318987127
-0.00017286854168144065
-0.000346781469021939
0.00013238354104184804
0.0030147159900203208
0.0007644478535178012
0.002468181141765817
0.0031327367232411433
-0.0010151613031382537
-0.0010835374134091828
-0.0016016352249658386
-0.0026554128906075207
-9.618886403964402e-06
-0.00021472742290602872
0.0005262025088559331
0.00010686979598841488
-0.00013367200288093146
-0.0003278111000340442
-0.00018996480350556472
-0.0004562484591978865
0.0006893514836801072
0.0005960342638866909
0.0017216486660615595
-0.0009843389180351854
-0.0003639034890055277
-0.00042334288882160085
-0.0008796220521755936
-0.0006794182151588074
0.0010129426332484664
-0.0018308466215226267
0.0019819583828634487
-0.0001275060838438487
0.001951325101923508
0.0007049906094178564
-0.001070189118220643
-0.00178687854936017
0.0001771462787424721
-0.0004863721234990834
0.003369742970953425
0.0029904101260258757
-0.0006227394532815188
-0.0020399455698482897
-0.0011772605101629
-0.0020882527230075233
5.4417282820017884e-05
0.0021593298282368326
0.0008707551648872952
-0.0011742249115131384
-0.0005997422857760016
-0.0004933422815550189
-0.0012830238445870998
-0.002210094520581202
0.002730342850888333
0.00040309847252319745
0.0008018709475430916
0.000734888104061478
-0.00032493759524149826
-0.0002584378074844204
-0.00023442733205584086
-0.0004110044660155557
-0.0007110503233304512
-0.0005597197121955335
-0.0014976647971393904
0.0010119639040880707
0.00013550009201352398
0.00031005098051385574
7.287149052609416e-05
-8.081849821691878e-05
0.0006078165404102961
0.0002831386750274927
-6.149276623466301e-05
-2.926890404040264e-05
-6.329561511262717e-05
-4.618892048749041e-05
3.567230878742954e-05
-3.655649355929287e-05
-8.200828438044623e-05
0.001194008005156877
0.001991878522957045
0.0024745871815305557
-0.0009128109275847322
-0.0010600001207893843
-0.002336864411738662
-0.001149899365725422
-0.00020089888380627667
-0.0013676923565654588
0.0022680801358655293
0.002309795790525223
0.00010637611943361304
-0.0009857870557538684
-0.0012828953966616792
-0.0007033138204830569
-0.00034456341636030175
