0.5577790837158025
0.32077604463200704
0.08172935953141088
-0.09557092985385925
-0.2627761988689631
-0.327977927405216
-0.33685206306484455
0.06289263131366331
-0.738837071139521
-0.6268574091114345
-0.4221713138884663
-0.20388097687455228
-0.08375822820597893
-0.01955329154789706
0.02625868152284717
2.068799609245003
0.0840861519439725
0.11451592078150889
0.03669890955794056
0.03459027247483716
-0.032245176232058574
-0.04735102705306764
-0.07053739719618325
-0.11975765427694963
0.20099282143080624
0.09334343995011171
-0.02031583872781196
-0.037309330905225827
-0.07747008941066491
-0.03682895916631618
-0.07462851194811594
-0.04778353122278295
-0.026844397143137622
-0.015855108457642986
0.07062494759585779
-0.019317634245038434
-0.04368096928311647
-0.03792123145283302
0.004374268696433258
0.06862012428947778
0.03783296679190387
-0.049926416511101995
0.02795927185516313
0.031825240147672025
-0.07773999171657148
-0.024842459393027767
-0.0018986850241412892
0.056790073850103345
0.0705354662361226
-0.058905635192312664
0.008433085963679558
-0.058575372212402554
-0.0768286311166485
-0.026689914014871294
0.02565888527237414
0.11637211506405871
0.050010191924649554
0.028516883579959407
0.03623672339960855
0.014565328509468432
-0.05576747822658836
0.016354875023231526
-0.03630141438491938
-0.053615109825409665
0.0707340372877457
0.04223421490828165
0.05372228070432891
0.038456811443009824
-0.022779691885368887
-0.0016413158546948923
-0.08742819794943578
-0.0932981386538664
0.039512979298079065
0.002147885266496785
-0.007961578118520263
0.04612641753439212
-0.01639049929234472
-0.02807935101466305
-0.008849854342545852
-0.026505999330894106
0.06960057222879779
0.014628655621046292
-0.02872014471755212
-0.07509886956613714
-0.0370387649616179
-0.010156947330575008
-0.030703396108809698
0.09748889483484766
0.04411398664611015
0.014697377981294226
0.025437599035746213
-0.00544162547103704
-0.049127553054458976
0.02561021707786358
-0.024125636495862288
-0.03116436571965584
-0.03824504946549692
0.05130372461811476
0.005403723547066959
-0.008654711547933767
0.005333088360771828
0.02573033046102541
0.011296947382065782
-0.05216805335561398
0.009678713691454994
0.02664849295946413
-0.028174681418599197
-0.007209074403502038
-0.017120329622837476
0.014506710492833832
0.042947118761034
-0.04127695045984829
-0.05785642223344894
0.006867913414691801
-0.04771968304265222
0.027553161868186064
0.059515861823226254
0.07911384087576981
-0.01468569911870807
-0.05278897358706479
-0.053209910359016205
-0.07098324659345272
-0.062225532544720435
0.03774052003063068
0.0006842407822551343
0.048221487713592456
-0.003235872579842409
0.10300831355055345
0.005896205278539353
0.013819505598665169
0.010799124363862345
0.020006953980505483
-0.006639925172129387
-0.009255342054632056
-0.012175777889057092
-0.02245074410575381
-0.0064009489623839495
-0.013720673149308285
0.006382848112671031
-0.03649679236217906
0.044097400729134144
-0.0250001764038635
0.031089979686875255
4.836234905441963e-05
0.019353267060685613
-0.058045492447081265
-0.003254880770793985
0.02749476632038319
0.036215802418771335
-0.006101505147168247
-0.05086772237176653
0.03520576493696987
0.07858082289739307
-0.005259653269498059
-0.010859911915511111
-0.019049095817205812
-0.005471097655080759
-0.017673398749711564
0.021428625431181104
-0.04169629092156683
-0.014824479301935143
0.008787223676821186
-0.0007236200810533138
0.002888952921576075
0.02178731896798154
-0.016134278210595418
0.005157058783889451
-0.006938176756684343
0.09604381657648495
0.05310209942829137
0.04187795635965176
-0.0006409059486300607
-0.005438958647381551
-0.002796352410215579
-0.0864680962513163
-0.09567955910688432
0.06564059593373012
0.02434378480115509
0.13347184897838424
0.009196272248101515
-0.01076477635674181
-0.12701191328360167
-0.06057357517261369
-0.03430223714841337
0.006082653373023053
0.002567368167159727
0.03899673483618595
-0.013465156303374005
-0.010275978316753384
-0.007220733019678142
-0.005976130985337447
-0.010708757751225728
0.0361689415555657
0.041565074832159536
-0.004279568766269167
0.022319347336735264
-0.023050293405664328
-0.011694400956520195
0.006533834205052676
-0.0675629348010596
0.057731173796617664
0.03153899114244461
0.025414578390978534
-0.032976248454857957
-0.020937999481724315
-0.007948776722514013
-0.024706120504051847
-0.028115598166892734
0.0748865238452462
0.009039100168863168
-0.003972718920732852
-0.016605766518048272
0.0060815779620375454
-0.010458303139066746
-0.050409253599186715
-0.008561159799112365
-0.013950865796295406
-0.021829544069950156
0.005722440951019087
0.051018431121361826
0.0022960360275002096
-0.00900585070284564
0.0025206866697767287
-0.01677133420056669
0.011802378868804489
-0.01087924735421391
-0.07762681572676877
0.0197954077965237
0.006373823445793209
-0.00624032816138963
-0.010346375941064308
0.06712115707231528
-0.13933325740998898
-0.11801009283917684
0.03043895043579207
-0.024103196867138618
0.019951211034286213
-0.0027015483784783
0.08831339150398756
0.14544454252071728
0.05062652420746511
-0.008693212293714869
0.017448932481457048
-0.016596885121048364
-0.02159075222006139
0.0028760147792177815
-0.008049372181147872
-0.016021249652167394
-0.007686315139970715
-0.021010662432646158
-0.011141643326535184
0.04503470059416504
0.0047106136689988596
-0.006855995156085568
0.013263226411136737
-0.016313924619063027
0.06982914369809266
0.010402182914460004
0.005051063586537286
-0.004661752114907214
0.007907056475676506
-0.007900045089028846
-0.005120500344812833
-0.07550714912601764
0.21572883707906462
0.06404568195584513
-0.044833297341325365
0.03063538858094621
-0.005428553894422267
-0.024348147579450488
-0.11975163047973027
-0.11604827832092796
0.10458614127808774
0.021978667960422162
-0.02186081552821453
-0.039178007058801
-0.04517150558191404
-0.025242620044055437
-0.013129395725844517
0.018017534700319474
0.027004304835595856
0.009897314112211826
0.00022700284559804148
0.01342747219757077
0.03927246209338242
0.00795025879418705
-0.030336119350893025
-0.06744269552765299
-0.01011745158319714
-0.019006555093046124
-0.012329863163858415
-0.005785807576286245
-0.035027737969384194
0.016461413409467256
-0.010839193151045836
0.07664519512735074
-0.011743710779763739
0.006588266787850345
-0.028003191844136827
-0.04015702858192838
-0.04931777595255309
0.027965125055328513
0.006666172005867636
0.08800214330933562
0.016119036173691637
0.02530019426422263
-0.031897270984495935
-0.0442486845385294
-0.021791682545469444
-0.0005459333706864746
-0.014534077852973604
0.07159841885424072
-0.08695379046753034
-0.016748421909109194
0.011006084771833475
-0.021338226441700404
-0.015225874063118483
-0.006164947985236345
-0.022827105952480296
0.1582522820473418
0.0384805307621806
0.022275320110955277
0.028320525056520007
-0.01718109863426794
-0.010740364940363512
-0.047952071332806996
-0.02184558548716703
0.008642744464949557
-0.023701395511458747
-0.033779671691259464
0.07499027308538068
-0.036048124654529015
-0.019983596641201612
0.06107035013686194
0.0022983299479201265
-0.024846164671713782
0.005670467290372837
-0.007649863354858424
-0.005613638671422587
0.0008772832250932834
0.003266646503224649
0.008964313691247592
-0.0031481324780255485
-0.0023670762056317903
-0.024439724788874236
0.09111070856185927
-0.016200022054481712
0.006719338763122949
-0.007897738434901307
0.002952920373822949
-0.01590841424700358
-0.03633706817354429
0.03582399435819093
0.04358111569628774
-0.015199885145990357
-0.06571268818369606
0.016369226757203023
-0.0031317633100045447
-0.020023000861844133
0.008293000689853456
0.07099209112152227
-0.01178974217481529
0.10211746990268737
0.016864998604864997
-0.027652254513361393
-0.028842415706773008
-0.03147875111384821
-0.0902113961202766
-0.06983603849544132
-0.026080005774934682
0.014380684057091076
-0.026803361609657513
0.003652388634846432
0.01911547162671044
0.0463762228367446
0.03919463872464102
0.04240602631338799
0.09606390895109103
0.0039535716785186375
-0.04130438726575312
-0.04050445458615694
-0.021450016355893855
-0.01982897233644435
-0.019335676398749346
-0.005624647166309622
0.006510125844907252
0.03716689352967394
0.03679466724958438
-0.05796491192974107
-0.008598742353077948
0.041424297520182236
-0.04970768269521921
-0.07166771247622257
0.016233209222708087
-0.025181261846068913
-0.009947602175782536
-0.024962594867153774
-0.013313926343205534
0.06765934410804729
0.06118054437767797
-0.013772755650169692
0.027697089075326257
0.00726179115545381
0.028476591732014785
-0.00016075803262485998
-0.015545597838228
-0.042850875598778794
0.008894515157006509
-0.0691067328759405
-0.06120758706040189
-0.05685976154877239
0.01471657951350752
0.01028655033506729
-0.04231020854852108
0.005300457974478774
0.19918070221058265
-0.015179660578530665
0.03055565598514814
0.01960705250333268
-0.016148552920820652
0.01430107505533467
-0.009540392753548642
-0.007040704206693946
-0.016554473084221567
-0.0145869913684434
0.017576731938764998
0.015476383974957339
0.008591127747668632
-0.004242889879537743
-0.009903377952246264
0.0017324234633044108
-0.014643407924467989
0.014890046608270983
0.03039871300288977
0.09569883120032331
0.058941329060827344
-0.0021041241230486695
-0.0037780952942834695
-0.07869595643890899
-0.11535074401607029
0.04275568006779803
0.07536314959758239
0.045415954822139566
-0.06265504298584
-0.05397108108962314
0.01039213713132578
-0.011685040182551613
-0.045615757360830844
0.04795041837510102
-0.030919861418055705
0.040289135019021635
0.037611047723958284
-0.04271225374718719
-0.04130387280249505
0.008940508126904579
-0.0198551212772474
0.00048493603789713567
0.0778782397882686
-0.006859089538534394
-0.03220149810675546
0.033708853829262524
-0.023733885948536183
-0.03453515537240126
-0.01474240068920099
-0.04209613314850037
-0.005934292024900765
0.06653025866662717
0.011219484169894612
0.042379506483489135
-0.01637807334576021
0.01804797490021626
-0.07376872570106591
0.05096691648278222
0.03667469552297694
0.043189984372389974
-0.000820912506106655
-0.03128099341428827
0.007296342599154215
-0.001901057961903725
-0.10412497509500461
0.0784200857060895
0.042825634843341495
0.01696734050957722
-0.029903254491345323
0.017840993031640977
-0.028705402017292585
-0.031543332259477995
-0.06590206532253344
0.09034099019743087
0.05126033681030364
-0.011666266910600223
0.00626953636124288
0.008792052066721815
-0.023065442336312428
-0.03452958266067215
-0.08740162352811429
-0.14996304937414284
-0.15417393855381312
-0.1595103847396488
0.04347641054190032
0.03192857497100758
-0.0376013437801189
0.08879965533993538
0.33704407559488003
-0.007131346600972923
-0.050406596794031804
0.008117518776342564
0.020121183215147328
-0.02050381493298948
0.022134641499265372
0.03227519737371069
-0.004606782536471675
0.0003126959927394311
-0.0031168574418179817
-0.0026344442713585815
-0.01593106696002426
0.022468845562797844
0.017576922810272264
-0.00519868518647953
-0.013477410506129169
0.005126318365213538
0.024512545454913923
-0.0026787543779944927
0.034188680146508776
-0.002795551389322766
0.021804385464749877
-0.03128350464193431
-0.04887411902213457
-0.01136070240264685
0.015834025577880544
-0.026774908640926135
0.021910061303099446
-0.017905115476429624
-0.017999077138686648
0.00227386490916102
0.03402185186854822
0.0
0.0
0.0
0.0
0.0
0.0
0.0
0.0
0.039512979298079065
0.002147885266496785
-0.007961578118520263
0.04612641753439212
-0.01639049929234472
-0.02807935101466305
-0.008849854342545852
-0.026505999330894106
0.027355089888660315
0.03592444568132585
0.08197194953227492
0.012122023712341352
-0.050875160438005225
0.02924639053233161
-0.06554453421754297
-0.0702002046913859
0.01675889675744982
-0.02122706770003163
-0.05653435049652876
-0.01756364918337837
0.001747607383546187
-0.003636173454467999
0.04141889772168073
0.03903583897172998
-0.03824504946549692
0.05130372461811476
0.005403723547066959
-0.008654711547933767
0.005333088360771828
0.02573033046102541
0.011296947382065782
-0.05216805335561398
-0.02178696409513085
-0.02968217101856993
-0.001925810085171597
0.04178769128879412
0.03338883428336119
-0.010250798564572486
-0.0010086651594163932
-0.010522116649294021
0.009678713691454994
0.02664849295946413
-0.028174681418599197
-0.007209074403502038
-0.017120329622837476
0.014506710492833832
0.042947118761034
-0.04127695045984829
0.007975752573006901
0.094621831932417
-0.03138887912198211
-0.015795397732320294
-0.017858961707886797
0.0019744649974106168
-0.01774273906938628
-0.02178607187125905
-0.05165467147780671
-0.05560890940466062
-0.012372098920822356
0.0027889229896332864
0.04470095464516532
0.08797060045529596
0.004325068389031597
-0.02014986667583647
0.007609460766481734
-0.0024628380944946805
-0.0020328949146760774
-0.0012280546779210365
-0.0007149653974133528
-0.000580426012364327
-0.00025936327893700194
-0.00033091839067525406
-0.0119401995152262
-0.011657360427767901
-0.04566977747117409
0.03577769336433928
0.02492076143421534
-0.03570124998134283
-0.0014546424114337618
0.045724775008390235
-0.04126971084379004
-0.059325886165684696
-0.01655575507354626
0.001962826666291459
-0.02423652065196023
0.08392273769493525
-0.0017812301684086505
0.057283538542163205
0.005896205278539353
0.013819505598665169
0.010799124363862345
0.020006953980505483
-0.006639925172129387
-0.009255342054632056
-0.012175777889057092
-0.02245074410575381
-0.0064009489623839495
-0.013720673149308285
0.006382848112671031
-0.03649679236217906
0.044097400729134144
-0.0250001764038635
0.031089979686875255
4.836234905441963e-05
0.019353267060685613
-0.058045492447081265
-0.003254880770793985
0.02749476632038319
0.036215802418771335
-0.006101505147168247
-0.05086772237176653
0.03520576493696987
0.07858082289739307
-0.005259653269498059
-0.010859911915511111
-0.019049095817205812
-0.005471097655080759
-0.017673398749711564
0.021428625431181104
-0.04169629092156683
-0.00967404657732829
0.0056285139442393125
-0.006874610692224887
0.007107159093587513
0.01939973256882821
-0.004885137760322184
-0.0037993077425831265
-0.006902302834196551
0.0010487116465271876
-0.0005519600496389876
-4.370899061812013e-05
-0.006231486458822918
0.006510414671246515
-0.00797614137674604
0.002700437139892201
0.004543733418160155
-0.0061991443711340395
0.0037106697822208634
0.0061946996017896916
0.00201328028681147
-0.004122828272093202
-0.003272999073527219
0.006255929386580371
-0.004579607340647937
0.003989779713057861
0.05011924295812865
0.04120247340166023
0.017986886710375894
0.01120653437964973
0.014762052802681147
-0.04126479807351442
-0.09800217189203893
0.13331649048875807
0.03566876725446444
-0.04484316727628779
-0.01810290521268608
-0.03289130445642481
-0.013179551504166668
-0.02803253543842458
-0.031935793855232715
-0.10794576446419715
-0.05736164943319296
-0.009256463759160132
-0.013655778044209609
0.04884837828040442
-0.01540902483577953
0.06736497838284251
0.08741532387329243
0.035015388533620226
0.022727683254565582
-0.007338951268307145
-0.0032321935293526897
0.018777892297543976
0.0045855525855884
-0.020950068162438506
-0.049585303711219955
-0.06455364220045531
-0.04564418452300531
-0.015261135588655078
0.05636478612819545
0.06171226418501771
-0.03953812469681815
-0.018251329374515082
0.06517136607023585
-0.05321791295475269
-0.02937257985973321
0.0037934498494353805
0.032191570365998484
-0.009903168253725973
0.0030834907541020594
0.00788694715347815
0.0455382029451978
0.29673364412215864
0.08930145309516974
0.015317288890394801
-0.0546046092874116
-0.10382544793827435
-0.05894626873852513
-0.06369413586033314
-0.12028192428317899
0.018517887493718868
0.0393639793928855
0.13839404399616734
-0.017870424881053715
-0.06667413877419996
-0.015686671298226897
-0.031920531544535474
-0.0641241443847556
0.01413192165996634
0.002232664640884736
0.01854616259097203
0.008897293791853335
0.012660078564565072
-0.022290499585254354
0.0006125369111997568
-0.034790158574186915
-0.0006826224300626767
-0.004314789714853721
0.041728602284041065
-0.011291776425264544
-0.008102379704722338
-0.005572543590378425
-0.004589772466466678
-0.007174717952292718
0.006765275803085736
0.006882157882013441
-0.002731867447855184
-0.002173379878109474
-0.002173598612031035
-0.0016481894292997262
-0.001386358518870762
-0.0035340397989329997
-0.022112432478951647
-0.032174719821986816
0.03670028643883299
0.015046482555781704
0.005152452917887817
0.00019761415756292441
0.001537894800278743
-0.004347578569405708
0.058281374034517414
0.07373979465414633
-0.04097985520510219
0.007272864780953553
-0.028202746323552113
-0.011892015114083129
0.0049959394047739275
-0.06321535623165389
0.057731173796617664
0.03153899114244461
0.025414578390978534
-0.032976248454857957
-0.020937999481724315
-0.007948776722514013
-0.024706120504051847
-0.028115598166892734
0.0748865238452462
0.009039100168863168
-0.003972718920732852
-0.016605766518048272
0.0060815779620375454
-0.010458303139066746
-0.050409253599186715
-0.008561159799112365
-0.013950865796295406
-0.021829544069950156
0.005722440951019087
0.051018431121361826
0.0022960360275002096
-0.00900585070284564
0.0025206866697767287
-0.01677133420056669
0.023925439056991238
-0.07443581108363885
-0.038566314015184594
0.008742981157454813
-0.02763550886940626
0.01116391665806238
0.0018351622410293152
0.09497013485469195
-0.004813579951698663
0.01227720961477988
-0.0034154636351664412
-0.0019160342065557125
-0.0008183007630865372
-0.0005278109835997249
-0.000330395619097863
-0.0004556244555749417
-0.007309480236488094
0.05127935411464506
-0.035645038076417786
0.012968460845624622
0.03482763307828601
-0.01687643383585229
-0.011851142562995782
-0.0273933533268017
0.05062652420746511
-0.008693212293714869
0.017448932481457048
-0.016596885121048364
-0.02159075222006139
0.0028760147792177815
-0.008049372181147872
-0.016021249652167394
-0.007686315139970715
-0.021010662432646158
-0.011141643326535184
0.04503470059416504
0.0047106136689988596
-0.006855995156085568
0.013263226411136737
-0.016313924619063027
-0.046067617285062534
0.04714261590020002
0.05101681514603587
0.011758842126207618
-0.001020108847922804
-0.014912567880215465
0.000445504978481269
-0.04836348413772397
0.11589676098315516
-0.03674043298574
-0.0459657515594986
-0.016420594241114812
0.008927165323599301
0.00701252279118659
-0.005566005323294088
-0.027143664988293566
0.05185084921238126
0.0691050467929297
-0.019805973672114428
0.04098028376084443
-0.014454304192992797
-0.022099176179975633
-0.0276788237341184
-0.07789790198695408
0.12269030471671188
0.05607141894908044
0.00878580723700953
-0.042244705166988916
-0.055067432490210635
-0.01722007010664655
-0.004196497947549487
-0.06881882519140628
-0.04883084565530236
-0.0876478339587415
-0.008209917020446501
-0.023325567295023282
-0.019676857176979357
0.031090868954485953
0.028908278965099617
0.1276918731869077
0.0
0.0
0.0
0.0
0.0
0.0
0.0
0.0
-0.021124166995702954
-0.015549963822846237
-0.0026307320726631053
-0.014588018357633313
0.04402708827826863
-0.01701424271191917
-0.010162353009276169
0.03704238869177224
0.027004304835595856
0.009897314112211826
0.00022700284559804148
0.01342747219757077
0.03927246209338242
0.00795025879418705
-0.030336119350893025
-0.06744269552765299
0.04642318182800199
0.0015665429295790474
0.024493255571893916
-0.014391478796155148
-0.038204187397707555
-0.02789436869579
-0.03361183087213366
0.04161888543231137
0.005343698084448129
0.009467665944817101
-0.04015099327940823
0.03161348387632382
-0.018322111361328993
0.010789272970464765
-0.03925103421858343
0.040510017983266915
-0.000551780072582878
-0.08188519017049388
-0.07711064694255589
0.01649667764162899
0.0036239915806422058
-0.03333460655939317
0.08940110845705272
0.08336044606570187
-0.03418918611902367
-0.008050883495365905
0.012181213180324729
-0.0047984924259506356
-0.020526476933819253
0.010687434036549277
0.03105893735168386
0.013637454405601622
0.01770547864313405
0.018825917238926983
-0.042303171592137756
-0.012321450181131247
0.034676737908752336
0.004661906311029313
-0.06352293546660852
0.04227751713803496
-0.014397419928684043
-0.04730107415906217
0.040674912772041626
-0.011904637601346617
0.05094215192106858
0.02875109329798354
0.005788380743271449
-0.05255340704527221
0.025848724672441703
0.041764712707036286
-0.00192856959178028
-0.017289355941778908
-0.015506463840816815
0.028464595902949568
-0.014790137088444674
-0.046563506819606956
-0.043494008765429526
0.03201728389580352
0.023657520151857125
0.005539809401149293
-0.010308111037369245
0.011100981427126753
-0.0008081339233191486
-0.01770534114981872
0.04026322556562669
-0.005394881370544447
-0.02632382005630249
0.00010182021321506279
-0.022933550038324778
-0.03783767495652788
0.03137104638111854
0.020753834261739303
-0.03651262738422276
-0.1076374159188023
-0.036524811105415646
-0.02583937695372638
-0.0035523571713474596
0.08693962184190004
0.022427825630977262
0.10069914106063726
-0.036094374489873265
0.1073633238102149
0.014226565324090773
0.01034003648626887
0.007660697602020024
-0.040983136471667916
-0.005533094892486377
-0.05698001736856686
-0.012177635161996605
0.009958777130018902
-0.01642749179527494
-0.023552060410388945
-0.0257867511012984
-0.0008017277835918227
-0.011850531410935212
0.08063742053346708
0.035419175223078296
0.0187412613804294
-0.015106805379096916
0.01625437727960304
-0.029780944941166215
-0.027164016767737286
-0.03549945310625917
0.037136406311148805
0.017316222395137925
-0.07487910325213674
-0.06479236145465493
-0.02399150249509416
0.015332280744218715
0.06342021375673994
0.03785558382047346
0.029738666485315788
-0.0366163614445246
0.08143803613593006
0.048001895849255925
-0.03651155932303836
-0.007343018348521921
-0.036802130359689066
-0.016890208567187905
0.004723346057776014
-0.09031243782767051
-0.03190832107445015
0.009751822566885386
0.03277299968464354
0.020249939355055386
0.01540789035630922
0.04539840618105661
-0.0013602992418295821
-0.025861882298092012
0.05116354175236593
0.007724277552578309
-0.027711140788309264
0.0004731996271143174
-0.03021008141005358
-0.02084439315381718
0.04526647871821341
0.029220529658232144
-0.03600364258702501
-0.006470015347630225
-0.026400085338034725
-0.035949013045288185
0.00863724306850802
-0.047381118979719736
0.11434610257095769
-0.004039300404179198
0.00517404867198498
0.01181992346252379
0.02627361911924422
-0.0032498003295146887
-0.019761922952318746
0.012608812703313467
-0.028825380271053885
0.009269419774168503
-0.028045551499278582
0.006763968226908964
-0.021716765085950294
0.02207875823955199
-0.0034767246303073953
-0.01728840468198366
0.03241529965689047
0.03325041139219131
0.045146822938248905
0.009736633367087267
-0.021737952667561854
-0.029569322850400866
-0.02471342375018088
-0.01716599350849685
0.005052825079112947
0.09269679921104561
0.006288272497845461
-0.014977585744484366
-0.07242117810775368
-0.016138168003118975
-0.011625166262652885
0.0002750810726047593
0.015901945336514095
-0.07861578165176594
-0.014360534633077671
-0.022468679734845242
-0.010590954686479281
-7.015269057171467e-05
0.07676096407369903
0.014247931561440774
0.03509720776159994
-0.02936693271112316
-0.004689843395402322
0.12117776517839124
0.013768182175403768
-0.006566201693375622
-0.023686604380739395
-0.021941886783470844
-0.048694478389683646
-0.008415480359615342
-0.02101756616062494
-0.008741226613681062
0.033195825964300166
0.0027909257458647125
0.01962115670655521
0.009717204097345439
-0.0271508393801442
0.005670467290372837
-0.007649863354858424
-0.005613638671422587
0.0008772832250932834
0.003266646503224649
0.008964313691247592
-0.0031481324780255485
-0.0023670762056317903
-0.024439724788874236
0.09111070856185927
-0.016200022054481712
0.006719338763122949
-0.007897738434901307
0.002952920373822949
-0.01590841424700358
-0.03633706817354429
-0.022859440699327962
0.017768529415347532
0.01548677322639613
-0.028051643903406878
0.016378465056126022
-0.000515413132085685
-0.0042966631560707605
0.006089393193021574
0.05868343505751888
0.025812586280940204
-0.030686658372386495
-0.037661044280289276
-9.238298922991898e-06
-0.002616350177918856
-0.01572633770577338
0.002203607496831891
0.07099209112152227
-0.01178974217481529
0.10211746990268737
0.016864998604864997
-0.027652254513361393
-0.028842415706773008
-0.03147875111384821
-0.0902113961202766
-0.07319376789342592
0.0313509315443816
0.07517860594199571
0.014169409159181526
0.018074067301405587
-0.013719844230219233
-0.013241545913867116
-0.038617855909452214
-0.001966412533964094
0.05701090949908019
-0.0224740799526878
-0.031560578525916504
-0.040457025087100015
0.002218061180749643
0.0013083111114971975
0.035920814308341306
0.11756620674077795
0.007702067907629185
-0.048750954310789255
-0.023913217899018138
-0.018121496800462527
-0.009948233306424232
-0.00789573753407444
-0.016638634797638475
-0.08229346048644454
-0.08457572317141283
-0.08094690229531473
-0.04533996073590908
-0.027981990652190654
0.024672178014929498
0.023671014439297467
0.27279484488704514
-0.04120125028798427
0.07130949016076965
0.08374283646105406
0.004921296430253659
-0.006719862127068322
-0.05507660293245516
0.01608500441676431
-0.073060912121334
0.051826998298206195
0.02949944223335132
-0.027977196011808342
0.030471062129872904
0.009739257912105203
0.017090498574320104
0.02790332525198548
-0.13855338838803302
-0.010542692063657978
0.009729603107671776
0.020015291941174473
0.007690422684594154
0.044000436751746745
-0.00031635339143898784
-0.02348872630501778
-0.047087982725072274
0.011778448071585594
0.008428945302573182
-0.0070696042868292645
-0.01312066724707922
0.005569810708339378
0.001159365368785512
0.013145831461185014
-0.019892129378560223
0.0018818475767519397
-0.024600637729056088
0.0036132929353075095
0.00897072093367763
0.03351521356326872
0.0026256254255073333
-0.002222137759093224
-0.023783924946363787
0.016884487467381123
0.04198306364108842
0.07458714836743391
0.04988034588296319
-0.08273198164358295
-0.005448226406066541
-0.06477113772002148
-0.03038369958919557
-0.005112044443789712
-0.00514226131938748
0.004552702243236703
0.005520506806671608
-0.002457603502820537
-0.0017985062910707784
-0.0013597861159614735
0.005796992623121663
-0.013772755650169692
0.027697089075326257
0.00726179115545381
0.028476591732014785
-0.00016075803262485998
-0.015545597838228
-0.042850875598778794
0.008894515157006509
-0.012595033331186396
0.017700893230276845
0.011480195854894421
0.047039191011629275
0.01843640319977265
-0.06150900937243367
-0.014711380035028929
-0.005841260557924157
-0.056511699544754095
-0.07890848029067861
-0.06833995740366683
-0.03232261149812171
-0.008149852864705338
0.019198800823912534
0.02001183800950767
0.20502196276850654
-0.015179660578530665
0.03055565598514814
0.01960705250333268
-0.016148552920820652
0.01430107505533467
-0.009540392753548642
-0.007040704206693946
-0.016554473084221567
-0.0145869913684434
0.017576731938764998
0.015476383974957339
0.008591127747668632
-0.004242889879537743
-0.009903377952246264
0.0017324234633044108
-0.014643407924467989
0.05378115363865596
0.0319612887204729
0.04115424209548804
-0.059596939785855944
-0.05112059909646774
0.03265723868534597
-0.013997737577559814
-0.03483864668007948
-0.014234259410167927
0.052565216605219595
0.0008677461545403602
-0.02093057153393985
0.0031876263654781072
-0.017541235982154853
0.005661131305979749
-0.009575653504955204
0.003208785839309887
-0.009163355728110166
0.0033939665721111484
0.017872468333955744
-0.006038108358633502
-0.004723865571865334
-0.0033484339109715387
-0.0012014571757962582
-0.026860341173127255
0.02827410885246055
-0.002554412602870013
-0.05007826840148637
-0.001878568937458583
-0.014103432104238527
0.009700363581636008
0.05750055078508426
0.11141900351543862
0.045075239198565334
0.048225300883933224
-0.03464689493761744
-0.03937200198067809
-0.026072799252611047
-0.026124564844926326
-0.07850328258210425
-0.029727365208442283
0.05548521248558068
-0.018468193670074438
-0.011247381543656692
-0.013319137614843362
0.0037836712153388953
-0.0209383831538085
0.0344315774899057
-0.06238484242853356
0.002426577304805316
0.02195762381774641
-0.006309979735466211
-0.002276761434821286
-0.013895107817694093
0.01227979705351151
0.048202693240451906
-0.06123159401072313
-0.06976190835428801
-0.0252135642645587
0.11570630131539944
0.016263189849712693
-0.0542064864003688
0.016036125117316908
0.062407936747509475
0.06111672111005782
0.032540156770161865
0.005530965611842796
-0.0023965065587009627
-0.025160827413323747
0.05338111011952442
-0.06755735650256071
-0.057454263137001346
-0.06835357182259846
-0.0246115078032137
0.0380941762822641
0.08264502159630717
0.027398026086218143
-0.0013693321986307477
0.01923665445548944
-0.07303946659583599
0.10556772904120053
-0.014579357437624568
-0.01550971830380885
-0.10021970371383114
-0.004342568493121755
-0.001163124512455539
-0.0013959671316162799
0.03164271055125745
-0.08424915336650682
-0.05941345631218045
-0.025368530387408175
-0.006668159393831335
0.02817693331492296
0.04806505124103992
0.044787738081315066
0.05466957682264876
0.10505355620887336
-0.013954857988935098
0.010537171833659452
0.04939848084553191
-0.04377855741142819
0.01298028561931057
-0.0021252272809308926
-0.11811085182608107
-0.0023997234905380046
-0.012400068133387744
0.0030583158182958337
0.0014281382513097213
0.015578020287633942
-0.0487037087117099
0.025041328751478346
0.018397697226917843
0.00048493603789713567
0.0778782397882686
-0.006859089538534394
-0.03220149810675546
0.033708853829262524
-0.023733885948536183
-0.03453515537240126
-0.01474240068920099
-0.04209613314850037
-0.005934292024900765
0.06653025866662717
0.011219484169894612
0.042379506483489135
-0.01637807334576021
0.01804797490021626
-0.07376872570106591
-0.04206267621738179
0.07828574426999785
0.07507229592164512
-0.047125091253871695
-0.024963210764071934
0.014791707076848563
-0.005771483249989816
-0.04822728578317631
0.09626997252697299
-0.03537918991753796
-0.03438390277774824
0.030890053891129046
-0.007349909477832539
-0.0020407102195477453
-0.0010873185348311387
-0.04691899549060456
-0.0032403798268091236
-0.0062318588294829795
0.002501591228493054
0.015414124856635958
0.0010321268276161683
-0.005454654258146599
0.0049577438229172315
-0.008978693821223719
0.0784200857060895
0.042825634843341495
0.01696734050957722
-0.029903254491345323
0.017840993031640977
-0.028705402017292585
-0.031543332259477995
-0.06590206532253344
0.09034099019743087
0.05126033681030364
-0.011666266910600223
0.00626953636124288
0.008792052066721815
-0.023065442336312428
-0.03452958266067215
-0.08740162352811429
0.025928442047581997
0.03227852448436673
0.10593096991690157
0.004463783425603714
0.05722807504882725
-0.001175496078599651
-0.038827263508005354
-0.18582703533667613
0.13660047128094727
0.05992274705350545
-0.02863089158991795
0.026789355617997286
-0.016625189332831983
-0.03162656367849783
-0.01018312771556922
-0.1362468016356331
-0.07222379713169179
-0.06053423471576265
-0.069376212433383
-0.04398030181856288
-0.04347867555884802
-0.031232437439798116
0.01177044428770643
0.30905521481033976
-0.05772112576402709
-0.037242772982546295
0.028069426225529992
0.028910355096042045
-0.005591580925477392
0.06436895347959662
-0.01985319061692656
-0.0009400645121913485
0.059757527209050615
0.033278365854389286
0.10336479071735596
-0.039091923325984206
-0.011043435547604768
-0.021349230569965568
0.0016406362261746855
-0.12655673056341613
-0.019019715128147367
-0.015999360193277936
-0.06804295370032039
0.20727290675583215
0.115542623302237
-0.01013027313869702
-0.07170706773324385
-0.13791616016438255
-0.13723431066768238
-0.13286788223153378
-0.09063584602318409
0.025881329864449396
0.007117059350075556
-0.02049695006543153
0.04244455414437201
0.3057920456289348
0.08016717888649251
0.05636909323270031
0.0420426460921801
-0.014607966086641767
-0.05373876195374955
-0.05622368170713962
0.023720586206093
-0.07772909466993504
0.008838029343953812
-0.030641329111730748
-0.024606795799612582
0.0006706751980896527
0.017519364908972983
0.0505931793767649
-0.028875821421841967
0.006502697505403919
-0.000654722363777625
0.1046746140648617
-0.05963806299343908
0.00707069822973878
-0.02948224918388916
-0.02065219833705958
-0.008943529472635395
0.007625450056200363
-0.03127554871599688
-0.018758049587004215
-0.007626707017375312
-0.014932747483641363
0.0056615627382504965
0.0007994246490229629
-0.0009134977557000296
0.06704556317244431
-0.10457250370905337
-0.10121641224379736
0.02854324271252022
-0.08333035442856265
0.04348135045102439
0.03898065765338069
0.04335544272989823
0.13475857683458986
-0.007131346600972923
-0.050406596794031804
0.008117518776342564
0.020121183215147328
-0.02050381493298948
0.022134641499265372
0.03227519737371069
-0.004606782536471675
0.0003126959927394311
-0.0031168574418179817
-0.0026344442713585815
-0.01593106696002426
0.022468845562797844
0.017576922810272264
-0.00519868518647953
-0.013477410506129169
-0.07901669687668589
0.07071388064897131
0.05537168515262363
0.11703600148415706
-0.00808349697122058
-0.07183955209678922
-0.02255152369905997
-0.06163029764199623
0.09198698332215717
-0.036175986592033374
-0.08960335973420362
-0.036059256987013934
-0.004328375035584587
0.03597342966162475
0.02207547849460146
0.01613108687045216
0.028399223467914306
0.042782898778803355
-0.06545262849700671
-0.054698016919835155
0.04844441357128167
0.06325142158218751
0.04093115262339716
-0.10365846460674193
0.211636909007944
-0.010290020123629087
0.0441796542450766
-0.07909012402319589
-0.04078788527259056
-0.03765126694367835
-0.09358018687589985
0.0055829199859729
-0.10599935271088423
-0.0406230571017204
-0.06004114455960311
-0.023527247268297545
-0.04530272021870749
-0.02965132958636568
-0.02614162576045514
0.33128647720603344
-0.08433781160513876
-0.006595369827349911
0.05578690210540908
0.03344285616692612
-0.002524862139266966
0.039403970054861924
0.04050909774927145
-0.07568478250471293
0.006931317623491208
-0.005183690161995474
0.031038746570152008
-0.032203082018877706
0.015544161104470749
-0.009643620002416073
0.008054211359335128
-0.014538044474159836
-0.019983340890709377
-0.026794659609016322
-0.027796646982039864
0.056817463155666416
0.0053160323403800384
0.0010092679646377617
0.014599271549230188
-0.003167387528148906
-0.012311601921928842
0.02374383669067831
0.03975977380563417
-0.03380874662317537
-0.016762718609883695
0.0510646121276009
0.019583925853550416
-0.07126908132247606
-0.0745596570578795
-0.09064414138204374
0.0717604853668672
0.0017249136503601531
0.027000453307606836
0.015019219811989835
0.009951281658238552
0.03974744464486061
-0.14409261902308376
-0.09662126852468952
-0.0631916939388397
-0.02117089968353883
0.08391999156686962
0.06689684481645591
0.04724511253008619
0.12701453225674011
0.06905244913162326
-0.036736757548606995
-0.08951802380147153
-0.05640500835474598
-0.013899070861999971
0.03442242895580682
0.02792362478876246
0.06516035769063187
0.019477938493066886
0.1145264965337984
0.058578477591408766
0.02256868891488638
-0.00044840216226860793
-0.051365130663110665
-0.06619016025699567
-0.09714790845078536
0.07948352830625979
-0.017097189259877466
0.006987506384846237
-0.025669936653096533
0.03735449404494857
-0.04163641453209078
0.03203192222867445
-0.07145391051966432
-0.065311492169572
-0.08010065069255606
0.06232676474798742
0.06157443370934564
0.02817595227015955
-0.015062857609201839
0.015322068489878535
-0.006924218746041136
-0.03787883953336211
0.008497229346547387
-0.026210384742059677
0.009603524058530393
-0.021471914720530432
0.017360446089001717
0.02909103797020356
0.021008901531669143
0.18275344370852858
0.005360060807497044
-0.029822623501329186
-0.07143638849569696
-0.02926256162140507
-0.021720525652899763
0.009786062978482233
-0.04565746822317679
-0.0024776535975907913
-0.012926677334550461
-0.0028675322340489915
-0.02428890209598542
0.0077589980879015285
-0.028025847335881992
-0.026416597354343832
0.08924421186449998
-0.07369239570142254
0.007674616736515725
-0.005475046379596347
0.012005414264285674
0.025267285832141682
0.03399799780067183
-0.011242262512428608
0.011464389959832481
-0.0573910360342362
0.0007016021224432741
-0.003940095528517771
0.07171177311118031
-0.034838317717133895
-0.050043471326154054
0.035055177960041824
0.03874436741237638
0.015762113237465382
-0.03038090228194206
-0.05030409869318938
-0.03113972560929671
-0.024816133672942657
0.010122471373835793
-0.005516520261023099
0.1162727959070927
-0.05888611260550213
0.04055205100301919
0.07147684796459015
0.006260545842563365
0.006572301069078048
-0.029944911450827942
0.014180628370967532
-0.05021135019388824
0.15512510105254318
0.011094043874142347
-0.010091496786865578
0.005971408481510265
-0.067093978470347
-0.03075896647687776
-0.06198030390429541
-0.00226580776981022
-0.05312926570179891
0.026015053781030705
0.04656800106185522
0.14311934021375067
0.006944535384167847
-0.053180602304122665
-0.005760947582551107
-0.11057611485233185
0.10204322237502003
0.008114010157033938
-0.009884704031218114
0.011785716378132501
-0.03533356332648985
-0.028350144108948695
-0.015255104099027729
-0.03311943334450195
-0.04892213462499778
0.03668688437350231
0.04845659429061382
0.023410122556539213
0.0034618229501308315
0.00017070302551683002
-0.0506010885322803
-0.012662904039024953
0.06058383567627371
-0.11121213156736168
-0.05520304984406059
-0.043539878680097566
0.019660623956346067
0.08990097004861929
0.04825661752854144
-0.008446987118260654
-0.026371865633569292
0.11445391865621962
-0.015250278791759695
-0.028562882604095282
0.02779490400317988
0.0055864343817066675
-0.023005356567564677
-0.0546448734441172
0.017701664287916766
-0.004959619957471402
-0.00014057462906899465
-0.005961884484508145
-0.0036513505604267617
0.00613911762599196
-0.0021545341912221766
-0.006972818091211243
0.0377684707771509
0.011359672663845423
0.022672029935495323
-0.05620977120922852
-0.0036511872540246413
-0.0015128924254866618
-0.0011124249668149667
-0.009313897520936825
-0.011058866669429276
-0.0041137480794077915
-0.004155945822363645
-0.0039955693029965
-0.003465154067876653
-0.00374054677162296
0.005521934107025138
0.0250078966066717
-0.09917449104776181
-0.007394061654833255
-0.07939616199255634
0.03728796524963967
0.03880438050365255
0.035373062780171736
-0.008161551645176868
0.08266085780686448
-0.08366435659380828
-0.020598704636944926
-0.023046293841412963
-0.0066855423736631656
-0.06105973509098873
-0.009391920650114235
0.07918865962663875
0.12525789356029352
0.011477032311128739
-0.08711360349096689
-0.06664941834084902
0.009252280414487944
-0.04832345698254705
-0.013668314429433002
0.0455241192718244
0.14950136124635466
-0.13064954578351104
-0.05741176114010344
-0.004428890904832838
-0.023222114496438635
0.09774262264603535
0.07772702946344988
0.00834666084864019
0.03189599936676063
0.11393606034867887
0.00587925511174851
0.03719531459164007
-0.059447719952407795
-0.05019950837245135
-0.05393290899891327
-0.01340983801251082
0.01997934528421569
0.037045667542901124
0.05606424039135513
0.04322290764944396
-0.019842735295892894
0.0478640098214181
-0.030452465515854232
-0.043328781104165416
-0.09057284348920576
0.07931376036318248
0.019532487467475386
0.008787790370030675
-0.04731795255943981
-0.0496715281117449
0.020005916817163037
-0.000944548452616846
-0.02970592589404997
-0.1082942656261944
0.05766619920922434
0.05066190018680894
0.004344426866554958
-0.018400256073311284
0.007294370880352009
0.01993603025838635
-0.013208405701820901
0.06331165092194115
-0.019287755697418738
-0.03704541430549554
0.05580582644700852
-0.02220317947397231
-0.06956543641907634
0.025983364562459126
0.00300094396455411
-0.06893629808825082
0.02579788154232601
0.07421230783516962
-0.01901115919742425
-0.03576173245576872
0.06096669406599842
0.015440932957723105
-0.05270862665977331
0.005126318365213538
0.024512545454913923
-0.0026787543779944927
0.034188680146508776
-0.002795551389322766
0.021804385464749877
-0.03128350464193431
-0.04887411902213457
0.015917413015713627
0.04187798429995869
-0.010860911748083922
0.04683860486252572
0.004193974970494175
-0.00757541928957644
0.00117409437164748
-0.0915657404826792
-0.006919826499140135
0.028695828746473837
0.0041382402820096306
-0.004272887303065966
0.002147000351077862
-0.005150203368046263
-0.011665347996901021
-0.0069728042124079645
0.0
0.0
0.0
0.0
0.0
0.0
0.0
0.0
0.039512979298079065
0.002147885266496785
-0.007961578118520263
0.04612641753439212
-0.01639049929234472
-0.02807935101466305
-0.008849854342545852
-0.026505999330894106
-0.0313705226898173
-0.06781623393128289
-0.043583204237791724
-0.04182030672666493
0.05732705523658255
0.044670429343825035
0.04106573759112224
0.041527045414026915
0.027355089888660315
0.03592444568132585
0.08197194953227492
0.012122023712341352
-0.050875160438005225
0.02924639053233161
-0.06554453421754297
-0.0702002046913859
0.048129419447267126
0.0465891662312513
-0.012951146258737011
0.024256657543286535
-0.055579447853036354
-0.04830660279829306
0.0003531601305584085
-0.0024912064422968868
-0.03824504946549692
0.05130372461811476
0.005403723547066959
-0.008654711547933767
0.005333088360771828
0.02573033046102541
0.011296947382065782
-0.05216805335561398
0.009678713691454994
0.02664849295946413
-0.028174681418599197
-0.007209074403502038
-0.017120329622837476
0.014506710492833832
0.042947118761034
-0.04127695045984829
0.007975752573006901
0.094621831932417
-0.03138887912198211
-0.015795397732320294
-0.017858961707886797
0.0019744649974106168
-0.01774273906938628
-0.02178607187125905
-0.021258112526287502
-0.015257950543015738
0.013167438676560847
-0.0031185336151577482
0.018887763978613695
0.05464841790756191
0.010026179934977963
-0.05709520381325341
-0.030396558951519225
-0.04035095886164486
-0.025539537597383238
0.005907456604791038
0.025813190666551567
0.03332218254773408
-0.005701111545946356
0.03694533713741697
0.007609460766481734
-0.0024628380944946805
-0.0020328949146760774
-0.0012280546779210365
-0.0007149653974133528
-0.000580426012364327
-0.00025936327893700194
-0.00033091839067525406
-0.02178696409513085
-0.02968217101856993
-0.001925810085171597
0.04178769128879412
0.03338883428336119
-0.010250798564572486
-0.0010086651594163932
-0.010522116649294021
-0.0119401995152262
-0.011657360427767901
-0.04566977747117409
0.03577769336433928
0.02492076143421534
-0.03570124998134283
-0.0014546424114337618
0.045724775008390235
-0.04126971084379004
-0.059325886165684696
-0.01655575507354626
0.001962826666291459
-0.02423652065196023
0.08392273769493525
-0.0017812301684086505
0.057283538542163205
0.005896205278539353
0.013819505598665169
0.010799124363862345
0.020006953980505483
-0.006639925172129387
-0.009255342054632056
-0.012175777889057092
-0.02245074410575381
-0.0064009489623839495
-0.013720673149308285
0.006382848112671031
-0.03649679236217906
0.044097400729134144
-0.0250001764038635
0.031089979686875255
4.836234905441963e-05
0.019353267060685613
-0.058045492447081265
-0.003254880770793985
0.02749476632038319
0.036215802418771335
-0.006101505147168247
-0.05086772237176653
0.03520576493696987
0.07858082289739307
-0.005259653269498059
-0.010859911915511111
-0.019049095817205812
-0.005471097655080759
-0.017673398749711564
0.021428625431181104
-0.04169629092156683
-0.0061991443711340395
0.0037106697822208634
0.0061946996017896916
0.00201328028681147
-0.004122828272093202
-0.003272999073527219
0.006255929386580371
-0.004579607340647937
-0.00967404657732829
0.0056285139442393125
-0.006874610692224887
0.007107159093587513
0.01939973256882821
-0.004885137760322184
-0.0037993077425831265
-0.006902302834196551
0.0010487116465271876
-0.0005519600496389876
-4.370899061812013e-05
-0.006231486458822918
0.006510414671246515
-0.00797614137674604
0.002700437139892201
0.004543733418160155
-0.04126245362533103
-0.03268591078430184
0.045518650234279284
-0.0005248874463199099
0.016245811429393506
-0.004378853708730064
-0.01717076273937719
0.03425840664038732
0.003989779713057861
0.05011924295812865
0.04120247340166023
0.017986886710375894
0.01120653437964973
0.014762052802681147
-0.04126479807351442
-0.09800217189203893
0.13331649048875807
0.03566876725446444
-0.04484316727628779
-0.01810290521268608
-0.03289130445642481
-0.013179551504166668
-0.02803253543842458
-0.031935793855232715
0.04714203899368153
0.04890078889999293
-0.09254004040316896
-0.020976209822603693
-0.012488502459908367
-0.008670122818624821
0.018715595052942773
0.019916452557688563
0.08961438151792733
-0.014261326863689826
-0.026299486920272893
-0.05723763162559949
0.03105234672881441
-0.04397376608845319
0.008082969600007827
0.013022513651265865
-0.10794576446419715
-0.05736164943319296
-0.009256463759160132
-0.013655778044209609
0.04884837828040442
-0.01540902483577953
0.06736497838284251
0.08741532387329243
0.035015388533620226
0.022727683254565582
-0.007338951268307145
-0.0032321935293526897
0.018777892297543976
0.0045855525855884
-0.020950068162438506
-0.049585303711219955
-0.06455364220045531
-0.04564418452300531
-0.015261135588655078
0.05636478612819545
0.06171226418501771
-0.03953812469681815
-0.018251329374515082
0.06517136607023585
-0.01211373225292516
0.07924332641552502
-0.046482686995635555
0.06401023850861101
-0.06501276278971688
-0.02641879240806774
0.011625934351924
-0.004851524829714709
0.06111672111005782
0.032540156770161865
0.005530965611842796
-0.0023965065587009627
-0.025160827413323747
0.05338111011952442
-0.06755735650256071
-0.057454263137001346
0.018517887493718868
0.0393639793928855
0.13839404399616734
-0.017870424881053715
-0.06667413877419996
-0.015686671298226897
-0.031920531544535474
-0.0641241443847556
0.01413192165996634
0.002232664640884736
0.01854616259097203
0.008897293791853335
0.012660078564565072
-0.022290499585254354
0.0006125369111997568
-0.034790158574186915
-0.0411041807018275
-0.10861590627525815
0.050276136845070915
-0.03181866814261256
0.05510959453599083
0.029502283162169827
-0.0037389871984458436
0.05038972777491253
-0.0006826224300626767
-0.004314789714853721
0.041728602284041065
-0.011291776425264544
-0.008102379704722338
-0.005572543590378425
-0.004589772466466678
-0.007174717952292718
0.006765275803085736
0.006882157882013441
-0.002731867447855184
-0.002173379878109474
-0.002173598612031035
-0.0016481894292997262
-0.001386358518870762
-0.0035340397989329997
-0.022112432478951647
-0.032174719821986816
0.03670028643883299
0.015046482555781704
0.005152452917887817
0.00019761415756292441
0.001537894800278743
-0.004347578569405708
0.058281374034517414
0.07373979465414633
-0.04097985520510219
0.007272864780953553
-0.028202746323552113
-0.011892015114083129
0.0049959394047739275
-0.06321535623165389
0.057731173796617664
0.03153899114244461
0.025414578390978534
-0.032976248454857957
-0.020937999481724315
-0.007948776722514013
-0.024706120504051847
-0.028115598166892734
0.08313331251190373
0.03679819796788115
0.015730000021817837
0.009107569748589246
0.021843710322154736
-0.011915851026891614
-0.054561345831301115
-0.10013559371415393
-0.008246788666657531
-0.027759097799017945
-0.01970271894255069
-0.02571333626663751
-0.015762132360117177
0.0014575478878248599
0.004152092232114394
0.09157443391504157
-0.013950865796295406
-0.021829544069950156
0.005722440951019087
0.051018431121361826
0.0022960360275002096
-0.00900585070284564
0.0025206866697767287
-0.01677133420056669
0.023925439056991238
-0.07443581108363885
-0.038566314015184594
0.008742981157454813
-0.02763550886940626
0.01116391665806238
0.0018351622410293152
0.09497013485469195
-0.004813579951698663
0.01227720961477988
-0.0034154636351664412
-0.0019160342065557125
-0.0008183007630865372
-0.0005278109835997249
-0.000330395619097863
-0.0004556244555749417
-0.007309480236488094
0.05127935411464506
-0.035645038076417786
0.012968460845624622
0.03482763307828601
-0.01687643383585229
-0.011851142562995782
-0.0273933533268017
0.05062652420746511
-0.008693212293714869
0.017448932481457048
-0.016596885121048364
-0.02159075222006139
0.0028760147792177815
-0.008049372181147872
-0.016021249652167394
-0.007686315139970715
-0.021010662432646158
-0.011141643326535184
0.04503470059416504
0.0047106136689988596
-0.006855995156085568
0.013263226411136737
-0.016313924619063027
-0.046067617285062534
0.04714261590020002
0.05101681514603587
0.011758842126207618
-0.001020108847922804
-0.014912567880215465
0.000445504978481269
-0.04836348413772397
0.11589676098315516
-0.03674043298574
-0.0459657515594986
-0.016420594241114812
0.008927165323599301
0.00701252279118659
-0.005566005323294088
-0.027143664988293566
0.05185084921238126
0.0691050467929297
-0.019805973672114428
0.04098028376084443
-0.014454304192992797
-0.022099176179975633
-0.0276788237341184
-0.07789790198695408
0.12269030471671188
0.05607141894908044
0.00878580723700953
-0.042244705166988916
-0.055067432490210635
-0.01722007010664655
-0.004196497947549487
-0.06881882519140628
-0.02710585416673393
-0.026081508374307404
0.007071324367502024
0.01013276908708237
0.006013977408305118
0.007063686075365441
-0.0011961875665219793
0.024101793169308324
-0.04883084565530236
-0.0876478339587415
-0.008209917020446501
-0.023325567295023282
-0.019676857176979357
0.031090868954485953
0.028908278965099617
0.1276918731869077
0.0
0.0
0.0
0.0
0.0
0.0
0.0
0.0
0.005981687171030987
0.010531544551461186
-0.009702056440165148
-0.024720787444715696
0.03801311086996349
-0.02407792878728462
-0.008966165442754205
0.012940595522463912
-0.0036702034327099134
-0.004040246128609185
-0.004032422672956579
-0.00344577500319574
-0.003437303010138854
-0.0022377540016173744
0.006629996362516211
0.014233707886711432
0.030674508268305794
0.013937560240820998
0.004259425518554618
0.016873247200766505
0.04270976510352124
0.010188012795804441
-0.03696611571340917
-0.08167640341436436
0.04642318182800199
0.0015665429295790474
0.024493255571893916
-0.014391478796155148
-0.038204187397707555
-0.02789436869579
-0.03361183087213366
0.04161888543231137
0.005343698084448129
0.009467665944817101
-0.04015099327940823
0.03161348387632382
-0.018322111361328993
0.010789272970464765
-0.03925103421858343
0.040510017983266915
-0.000551780072582878
-0.08188519017049388
-0.07711064694255589
0.01649667764162899
0.0036239915806422058
-0.03333460655939317
0.08940110845705272
0.08336044606570187
-0.053069365491129394
0.01998335138625739
0.07448043662220893
0.0011678162377591656
0.0015302812295194161
0.021072779675075082
-0.016474594515083037
-0.048690705144607466
-0.03418918611902367
-0.008050883495365905
0.012181213180324729
-0.0047984924259506356
-0.020526476933819253
0.010687434036549277
0.03105893735168386
0.013637454405601622
0.01770547864313405
0.018825917238926983
-0.042303171592137756
-0.012321450181131247
0.034676737908752336
0.004661906311029313
-0.06352293546660852
0.04227751713803496
-0.03427431937608576
0.00040547834781650387
-0.04790072997774061
0.02988888134792381
0.041187002820778425
0.040947593450523054
-0.04867656165687204
0.018422655043656536
0.01987689944740166
-0.04770655250687874
0.0885756427497822
-0.04179351894927038
0.009755149100290105
-0.012196500152539537
0.05446494240014345
-0.0709760620889288
-0.043494008765429526
0.03201728389580352
0.023657520151857125
0.005539809401149293
-0.010308111037369245
0.011100981427126753
-0.0008081339233191486
-0.01770534114981872
0.025848724672441703
0.041764712707036286
-0.00192856959178028
-0.017289355941778908
-0.015506463840816815
0.028464595902949568
-0.014790137088444674
-0.046563506819606956
0.04026322556562669
-0.005394881370544447
-0.02632382005630249
0.00010182021321506279
-0.022933550038324778
-0.03783767495652788
0.03137104638111854
0.020753834261739303
-0.03651262738422276
-0.1076374159188023
-0.036524811105415646
-0.02583937695372638
-0.0035523571713474596
0.08693962184190004
0.022427825630977262
0.10069914106063726
-0.036094374489873265
0.1073633238102149
0.014226565324090773
0.01034003648626887
0.007660697602020024
-0.040983136471667916
-0.005533094892486377
-0.05698001736856686
0.07304092625632898
-0.0030964182335809247
0.010722545732463017
-0.001105627704081935
-0.02763936528192727
-0.01718963253131186
0.0016219726783119291
-0.03635440091620185
-0.012177635161996605
0.009958777130018902
-0.01642749179527494
-0.023552060410388945
-0.0257867511012984
-0.0008017277835918227
-0.011850531410935212
0.08063742053346708
0.035419175223078296
0.0187412613804294
-0.015106805379096916
0.01625437727960304
-0.029780944941166215
-0.027164016767737286
-0.03549945310625917
0.037136406311148805
0.017316222395137925
-0.07487910325213674
-0.06479236145465493
-0.02399150249509416
0.015332280744218715
0.06342021375673994
0.03785558382047346
0.029738666485315788
-0.0366163614445246
0.08143803613593006
0.048001895849255925
-0.03651155932303836
-0.007343018348521921
-0.036802130359689066
-0.016890208567187905
0.004723346057776014
-0.03444980945097791
0.12723239544493645
0.003600110259243201
-0.02104788523687634
0.003990844302473074
-0.02384614371817526
-0.05104360026838799
-0.00443591133223502
-0.09031243782767051
-0.03190832107445015
0.009751822566885386
0.03277299968464354
0.020249939355055386
0.01540789035630922
0.04539840618105661
-0.0013602992418295821
0.008587927152885932
-0.0760688536925703
0.004124167293335111
-0.0066632555514328645
-0.0035176446753587554
-0.006363937691878306
0.030199207114570803
0.04970239005044842
0.05028012885643762
-0.0011274471449171436
0.01990957801723853
0.01009590825801526
-0.01959451698297925
0.01980305224240834
-0.04860965396824024
-0.0307570492779631
-0.004039300404179198
0.00517404867198498
0.01181992346252379
0.02627361911924422
-0.0032498003295146887
-0.019761922952318746
0.012608812703313467
-0.028825380271053885
0.009269419774168503
-0.028045551499278582
0.006763968226908964
-0.021716765085950294
0.02207875823955199
-0.0034767246303073953
-0.01728840468198366
0.03241529965689047
0.03325041139219131
0.045146822938248905
0.009736633367087267
-0.021737952667561854
-0.029569322850400866
-0.02471342375018088
-0.01716599350849685
0.005052825079112947
0.09269679921104561
0.006288272497845461
-0.014977585744484366
-0.07242117810775368
-0.016138168003118975
-0.011625166262652885
0.0002750810726047593
0.015901945336514095
-0.07861578165176594
-0.014360534633077671
-0.022468679734845242
-0.010590954686479281
-7.015269057171467e-05
0.07676096407369903
0.014247931561440774
0.03509720776159994
-0.02936693271112316
-0.004689843395402322
0.12117776517839124
0.013768182175403768
-0.006566201693375622
-0.023686604380739395
-0.021941886783470844
-0.048694478389683646
-0.008415480359615342
-0.02101756616062494
-0.008741226613681062
0.033195825964300166
0.0027909257458647125
0.01962115670655521
0.009717204097345439
-0.0271508393801442
0.005670467290372837
-0.007649863354858424
-0.005613638671422587
0.0008772832250932834
0.003266646503224649
0.008964313691247592
-0.0031481324780255485
-0.0023670762056317903
-0.01751989828973406
0.0624148798153853
-0.020338262336491365
0.010992226066188902
-0.010044738785979163
0.008103123741869205
-0.004243066250102544
-0.029364263961136308
-0.022859440699327962
0.017768529415347532
0.01548677322639613
-0.028051643903406878
0.016378465056126022
-0.000515413132085685
-0.0042966631560707605
0.006089393193021574
0.05868343505751888
0.025812586280940204
-0.030686658372386495
-0.037661044280289276
-9.238298922991898e-06
-0.002616350177918856
-0.01572633770577338
0.002203607496831891
0.07099209112152227
-0.01178974217481529
0.10211746990268737
0.016864998604864997
-0.027652254513361393
-0.028842415706773008
-0.03147875111384821
-0.0902113961202766
-0.001966412533964094
0.05701090949908019
-0.0224740799526878
-0.031560578525916504
-0.040457025087100015
0.002218061180749643
0.0013083111114971975
0.035920814308341306
-0.07319376789342592
0.0313509315443816
0.07517860594199571
0.014169409159181526
0.018074067301405587
-0.013719844230219233
-0.013241545913867116
-0.038617855909452214
-0.08229346048644454
-0.08457572317141283
-0.08094690229531473
-0.04533996073590908
-0.027981990652190654
0.024672178014929498
0.023671014439297467
0.27279484488704514
-0.04120125028798427
0.07130949016076965
0.08374283646105406
0.004921296430253659
-0.006719862127068322
-0.05507660293245516
0.01608500441676431
-0.073060912121334
0.051826998298206195
0.02949944223335132
-0.027977196011808342
0.030471062129872904
0.009739257912105203
0.017090498574320104
0.02790332525198548
-0.13855338838803302
-0.010542692063657978
0.009729603107671776
0.020015291941174473
0.007690422684594154
0.044000436751746745
-0.00031635339143898784
-0.02348872630501778
-0.047087982725072274
0.011778448071585594
0.008428945302573182
-0.0070696042868292645
-0.01312066724707922
0.005569810708339378
0.001159365368785512
0.013145831461185014
-0.019892129378560223
0.0018818475767519397
-0.024600637729056088
0.0036132929353075095
0.00897072093367763
0.03351521356326872
0.0026256254255073333
-0.002222137759093224
-0.023783924946363787
0.016884487467381123
0.04198306364108842
0.07458714836743391
0.04988034588296319
-0.08273198164358295
-0.005448226406066541
-0.06477113772002148
-0.03038369958919557
-0.005112044443789712
-0.00514226131938748
0.004552702243236703
0.005520506806671608
-0.002457603502820537
-0.0017985062910707784
-0.0013597861159614735
0.005796992623121663
-0.013772755650169692
0.027697089075326257
0.00726179115545381
0.028476591732014785
-0.00016075803262485998
-0.015545597838228
-0.042850875598778794
0.008894515157006509
-0.07103741659849608
0.036714083740613745
0.062371667000035144
-0.02041088213964589
0.028381240435462092
-0.04189029018142249
-0.008504881496215427
0.014376479239668923
-0.056511699544754095
-0.07890848029067861
-0.06833995740366683
-0.03232261149812171
-0.008149852864705338
0.019198800823912534
0.02001183800950767
0.20502196276850654
0.058442383267309744
-0.01901319051033691
-0.05089147114514072
0.06745007315127509
-0.009944837235689447
-0.019618719191011182
-0.0062064985388135
-0.020217739797593077
-0.015179660578530665
0.03055565598514814
0.01960705250333268
-0.016148552920820652
0.01430107505533467
-0.009540392753548642
-0.007040704206693946
-0.016554473084221567
-0.0145869913684434
0.017576731938764998
0.015476383974957339
0.008591127747668632
-0.004242889879537743
-0.009903377952246264
0.0017324234633044108
-0.014643407924467989
0.05378115363865596
0.0319612887204729
0.04115424209548804
-0.059596939785855944
-0.05112059909646774
0.03265723868534597
-0.013997737577559814
-0.03483864668007948
-0.014234259410167927
0.052565216605219595
0.0008677461545403602
-0.02093057153393985
0.0031876263654781072
-0.017541235982154853
0.005661131305979749
-0.009575653504955204
0.003208785839309887
-0.009163355728110166
0.0033939665721111484
0.017872468333955744
-0.006038108358633502
-0.004723865571865334
-0.0033484339109715387
-0.0012014571757962582
-0.026860341173127255
0.02827410885246055
-0.002554412602870013
-0.05007826840148637
-0.001878568937458583
-0.014103432104238527
0.009700363581636008
0.05750055078508426
0.11141900351543862
0.045075239198565334
0.048225300883933224
-0.03464689493761744
-0.03937200198067809
-0.026072799252611047
-0.026124564844926326
-0.07850328258210425
-0.029727365208442283
0.05548521248558068
-0.018468193670074438
-0.011247381543656692
-0.013319137614843362
0.0037836712153388953
-0.0209383831538085
0.0344315774899057
-0.06238484242853356
0.002426577304805316
0.02195762381774641
-0.006309979735466211
-0.002276761434821286
-0.013895107817694093
0.01227979705351151
0.048202693240451906
-0.06123159401072313
-0.06976190835428801
-0.0252135642645587
0.11570630131539944
0.016263189849712693
-0.0542064864003688
0.016036125117316908
0.062407936747509475
-0.06835357182259846
-0.0246115078032137
0.0380941762822641
0.08264502159630717
0.027398026086218143
-0.0013693321986307477
0.01923665445548944
-0.07303946659583599
0.10556772904120053
-0.014579357437624568
-0.01550971830380885
-0.10021970371383114
-0.004342568493121755
-0.001163124512455539
-0.0013959671316162799
0.03164271055125745
-0.08424915336650682
-0.05941345631218045
-0.025368530387408175
-0.006668159393831335
0.02817693331492296
0.04806505124103992
0.044787738081315066
0.05466957682264876
0.10505355620887336
-0.013954857988935098
0.010537171833659452
0.04939848084553191
-0.04377855741142819
0.01298028561931057
-0.0021252272809308926
-0.11811085182608107
-0.0023997234905380046
-0.012400068133387744
0.0030583158182958337
0.0014281382513097213
0.015578020287633942
-0.0487037087117099
0.025041328751478346
0.018397697226917843
0.00048493603789713567
0.0778782397882686
-0.006859089538534394
-0.03220149810675546
0.033708853829262524
-0.023733885948536183
-0.03453515537240126
-0.01474240068920099
-0.04209613314850037
-0.005934292024900765
0.06653025866662717
0.011219484169894612
0.042379506483489135
-0.01637807334576021
0.01804797490021626
-0.07376872570106591
-0.04206267621738179
0.07828574426999785
0.07507229592164512
-0.047125091253871695
-0.024963210764071934
0.014791707076848563
-0.005771483249989816
-0.04822728578317631
0.09626997252697299
-0.03537918991753796
-0.03438390277774824
0.030890053891129046
-0.007349909477832539
-0.0020407102195477453
-0.0010873185348311387
-0.04691899549060456
-0.0032403798268091236
-0.0062318588294829795
0.002501591228493054
0.015414124856635958
0.0010321268276161683
-0.005454654258146599
0.0049577438229172315
-0.008978693821223719
0.0784200857060895
0.042825634843341495
0.01696734050957722
-0.029903254491345323
0.017840993031640977
-0.028705402017292585
-0.031543332259477995
-0.06590206532253344
0.09034099019743087
0.05126033681030364
-0.011666266910600223
0.00626953636124288
0.008792052066721815
-0.023065442336312428
-0.03452958266067215
-0.08740162352811429
0.025928442047581997
0.03227852448436673
0.10593096991690157
0.004463783425603714
0.05722807504882725
-0.001175496078599651
-0.038827263508005354
-0.18582703533667613
0.13660047128094727
0.05992274705350545
-0.02863089158991795
0.026789355617997286
-0.016625189332831983
-0.03162656367849783
-0.01018312771556922
-0.1362468016356331
-0.07222379713169179
-0.06053423471576265
-0.069376212433383
-0.04398030181856288
-0.04347867555884802
-0.031232437439798116
0.01177044428770643
0.30905521481033976
-0.07981542828712376
-0.07612315296228568
-0.07338534061262494
-0.06216428794877985
-0.03841575689658563
-0.003835581632425236
0.12800072723023612
0.20573882110958872
-0.05772112576402709
-0.037242772982546295
0.028069426225529992
0.028910355096042045
-0.005591580925477392
0.06436895347959662
-0.01985319061692656
-0.0009400645121913485
0.059757527209050615
0.033278365854389286
0.10336479071735596
-0.039091923325984206
-0.011043435547604768
-0.021349230569965568
0.0016406362261746855
-0.12655673056341613
0.04351675422119023
0.05407003823741454
-0.002620299900669683
-0.023280974992320954
0.010279679330119598
0.02058669800536089
-0.00804812530001903
-0.09450376960107577
-0.04314068335903315
-0.022599826066817107
0.013815836425478045
0.03768340241656252
0.011303437300361076
-0.025724422474936535
0.015832063279615543
0.012830192478769624
-0.0763333010449742
-0.10528560310699332
-0.05161319982829495
0.22697048441153825
0.1183331572404783
-0.04385483627672754
-0.0531772464913278
-0.015039454903698847
0.08016717888649251
0.05636909323270031
0.0420426460921801
-0.014607966086641767
-0.05373876195374955
-0.05622368170713962
0.023720586206093
-0.07772909466993504
0.008838029343953812
-0.030641329111730748
-0.024606795799612582
0.0006706751980896527
0.017519364908972983
0.0505931793767649
-0.028875821421841967
0.006502697505403919
0.01379683169563655
0.03521620467630076
-0.0138094539713557
0.003583397336614858
-0.013070213268360978
0.013137865132669657
-0.010481695941897018
-0.028372935659608158
-0.000654722363777625
0.1046746140648617
-0.05963806299343908
0.00707069822973878
-0.02948224918388916
-0.02065219833705958
-0.008943529472635395
0.007625450056200363
-0.09409362730864913
-0.11026805616471665
-0.1044516824486621
-0.011802072552113112
-0.004186377950285515
0.005227472409505035
0.026612490864756467
0.2929618531501653
-0.03127554871599688
-0.018758049587004215
-0.007626707017375312
-0.014932747483641363
0.0056615627382504965
0.0007994246490229629
-0.0009134977557000296
0.06704556317244431
-0.06331005008372229
-0.06853050145949553
-0.016975407521759054
-0.08280546698224275
0.02723553902163087
0.04335951136211079
0.06052620546927544
0.10050017019420258
-0.007131346600972923
-0.050406596794031804
0.008117518776342564
0.020121183215147328
-0.02050381493298948
0.022134641499265372
0.03227519737371069
-0.004606782536471675
0.0003126959927394311
-0.0031168574418179817
-0.0026344442713585815
-0.01593106696002426
0.022468845562797844
0.017576922810272264
-0.00519868518647953
-0.013477410506129169
-0.06858991239856724
0.00613754786292757
-0.010204259460677058
0.12588998572617613
-0.0077682298860865156
-0.0028471763059392226
-0.03399254311358697
-0.008625412424246772
0.09198698332215717
-0.036175986592033374
-0.08960335973420362
-0.036059256987013934
-0.004328375035584587
0.03597342966162475
0.02207547849460146
0.01613108687045216
-0.12657111358836481
0.07745528589688169
-0.006160429299882219
-0.004167492591081902
0.016346591340815207
0.02999094611972919
0.0480065071485026
-0.03490029502659961
0.07162931555519676
-0.02619636760546373
-0.04265737137635991
-0.04318082979814189
0.04796157548841246
-0.018267112434710298
-0.018590586062966645
0.029301376234033272
0.211636909007944
-0.010290020123629087
0.0441796542450766
-0.07909012402319589
-0.04078788527259056
-0.03765126694367835
-0.09358018687589985
0.0055829199859729
-0.10599935271088423
-0.0406230571017204
-0.06004114455960311
-0.023527247268297545
-0.04530272021870749
-0.02965132958636568
-0.02614162576045514
0.33128647720603344
-0.08433781160513876
-0.006595369827349911
0.05578690210540908
0.03344285616692612
-0.002524862139266966
0.039403970054861924
0.04050909774927145
-0.07568478250471293
-0.010426784478118763
0.06457633278604372
0.06557594461330066
-0.008853984242019091
-0.0003152670851340576
-0.06899237579084995
0.011441019414527012
-0.05300488521774942
0.006931317623491208
-0.005183690161995474
0.031038746570152008
-0.032203082018877706
0.015544161104470749
-0.009643620002416073
0.008054211359335128
-0.014538044474159836
-0.019983340890709377
-0.026794659609016322
-0.027796646982039864
0.056817463155666416
0.0053160323403800384
0.0010092679646377617
0.014599271549230188
-0.003167387528148906
-0.012311601921928842
0.02374383669067831
0.03975977380563417
-0.03380874662317537
-0.016762718609883695
0.0510646121276009
0.019583925853550416
-0.07126908132247606
-0.0745596570578795
-0.09064414138204374
0.0717604853668672
0.0017249136503601531
0.027000453307606836
0.015019219811989835
0.009951281658238552
0.03974744464486061
-0.14409261902308376
-0.09662126852468952
-0.0631916939388397
-0.02117089968353883
0.08391999156686962
0.06689684481645591
0.04724511253008619
0.12701453225674011
0.06905244913162326
-0.036736757548606995
-0.08951802380147153
-0.05640500835474598
-0.013899070861999971
0.03442242895580682
0.02792362478876246
0.06516035769063187
0.046722872324380174
0.04638128065771728
0.08715276629554836
-0.01617082647554441
-0.08410156455539458
0.0011908774093321638
-0.06618007748372469
-0.014995328172314288
0.019477938493066886
0.1145264965337984
0.058578477591408766
0.02256868891488638
-0.00044840216226860793
-0.051365130663110665
-0.06619016025699567
-0.09714790845078536
0.07948352830625979
-0.017097189259877466
0.006987506384846237
-0.025669936653096533
0.03735449404494857
-0.04163641453209078
0.03203192222867445
-0.07145391051966432
-0.0573910360342362
0.0007016021224432741
-0.003940095528517771
0.07171177311118031
-0.034838317717133895
-0.050043471326154054
0.035055177960041824
0.03874436741237638
-0.03787883953336211
0.008497229346547387
-0.026210384742059677
0.009603524058530393
-0.021471914720530432
0.017360446089001717
0.02909103797020356
0.021008901531669143
0.18275344370852858
0.005360060807497044
-0.029822623501329186
-0.07143638849569696
-0.02926256162140507
-0.021720525652899763
0.009786062978482233
-0.04565746822317679
-0.0024776535975907913
-0.012926677334550461
-0.0028675322340489915
-0.02428890209598542
0.0077589980879015285
-0.028025847335881992
-0.026416597354343832
0.08924421186449998
-0.11443634561363455
-0.04407452207559018
0.01502198809939045
0.050415734359735474
0.03411850610305408
-0.030871853843837987
0.03307507159421043
0.05675142137667219
0.027046355787882278
0.06888457609915145
0.06289325032854745
0.021564546148656587
-0.061465302496467276
0.04171813302316092
-0.05957465645312546
-0.10106690243780579
0.015762113237465382
-0.03038090228194206
-0.05030409869318938
-0.03113972560929671
-0.024816133672942657
0.010122471373835793
-0.005516520261023099
0.1162727959070927
0.05555023300813249
0.08462657307860912
0.0564548598651996
-0.04415518851717213
-0.027546205033975996
0.0009269423930100174
-0.018894443223242907
-0.10696277157056053
0.15512510105254318
0.011094043874142347
-0.010091496786865578
0.005971408481510265
-0.067093978470347
-0.03075896647687776
-0.06198030390429541
-0.00226580776981022
0.05549747338288066
0.06556655456764379
-0.13115558926908713
-0.02011266599114586
-0.004362380800441246
-0.03427426672612331
-0.0077415101212117855
0.07658238495748476
-0.05312926570179891
0.026015053781030705
0.04656800106185522
0.14311934021375067
0.006944535384167847
-0.053180602304122665
-0.005760947582551107
-0.11057611485233185
0.10204322237502003
0.008114010157033938
-0.009884704031218114
0.011785716378132501
-0.03533356332648985
-0.028350144108948695
-0.015255104099027729
-0.03311943334450195
-0.04892213462499778
0.03668688437350231
0.04845659429061382
0.023410122556539213
0.0034618229501308315
0.00017070302551683002
-0.0506010885322803
-0.012662904039024953
0.06058383567627371
-0.11121213156736168
-0.05520304984406059
-0.043539878680097566
0.019660623956346067
0.08990097004861929
0.04825661752854144
-0.008446987118260654
0.03405075533961501
0.035066739901073875
0.027004968829169577
-0.07758671854598766
0.02980006933637248
-0.042691046312516134
-0.021461273589789776
0.01581650504206266
0.06493025393583429
-0.030825673418621947
-0.08534531351697089
0.07067815351498691
-0.0030716823028718683
-0.011096472782293516
0.0034283966602826565
-0.008697662090345469
0.017701664287916766
-0.004959619957471402
-0.00014057462906899465
-0.005961884484508145
-0.0036513505604267617
0.00613911762599196
-0.0021545341912221766
-0.006972818091211243
-0.20139483675502245
-0.11934189688019432
-0.035393339019017464
0.07357145771632992
0.1272683258594882
0.06845645209696292
0.06576003595975967
0.021073801021693872
-0.054280614835202703
-0.025788005949795755
0.006379560313562442
-0.020529027991973585
0.06578779751429377
-0.0007259029071592423
-0.015763788126328213
0.04491998198260324
0.08643988711060899
0.008635408137680526
0.021635521440838787
-0.06493903145623003
-0.0032398676129950926
0.01295829698334153
-0.05301665431722166
-0.008473560286023144
-0.048671416333458124
0.0027242645261648926
0.001036508494656507
0.0087292602470015
-0.00041131964102954417
-0.014471189408828203
0.05190422935040663
-0.0008403372349136762
-0.0081282413818736
0.027806725692967518
0.007704869264696926
0.018573070440999536
-0.0039409368706494865
-0.007638639066090873
0.000440668416998761
-0.03481751649704882
-0.011058866669429276
-0.0041137480794077915
-0.004155945822363645
-0.0039955693029965
-0.003465154067876653
-0.00374054677162296
0.005521934107025138
0.0250078966066717
0.011477032311128739
-0.08711360349096689
-0.06664941834084902
0.009252280414487944
-0.04832345698254705
-0.013668314429433002
0.0455241192718244
0.14950136124635466
-0.13064954578351104
-0.05741176114010344
-0.004428890904832838
-0.023222114496438635
0.09774262264603535
0.07772702946344988
0.00834666084864019
0.03189599936676063
0.11393606034867887
0.00587925511174851
0.03719531459164007
-0.059447719952407795
-0.05019950837245135
-0.05393290899891327
-0.01340983801251082
0.01997934528421569
-0.03359692539525651
-0.00037787075026194907
-0.08147783224852113
-0.049339485842033085
0.06823820720181482
0.05437941909000096
0.052023711207482004
-0.009849223263225033
0.07931376036318248
0.019532487467475386
0.008787790370030675
-0.04731795255943981
-0.0496715281117449
0.020005916817163037
-0.000944548452616846
-0.02970592589404997
-0.065311492169572
-0.08010065069255606
0.06232676474798742
0.06157443370934564
0.02817595227015955
-0.015062857609201839
0.015322068489878535
-0.006924218746041136
-0.1082942656261944
0.05766619920922434
0.05066190018680894
0.004344426866554958
-0.018400256073311284
0.007294370880352009
0.01993603025838635
-0.013208405701820901
0.026280399224127202
-0.05410206198780389
0.06328185509542489
0.07459278606861842
0.007511388633058895
-0.053977396187147794
-0.018912374537573585
-0.04467459630870412
-0.060422620973184314
0.07938717875514589
-0.04225524762092934
0.049023835941892295
-0.002005165333192574
0.048277480694222864
-0.0015440829777749229
-0.07046137848617995
-0.07369239570142254
0.007674616736515725
-0.005475046379596347
0.012005414264285674
0.025267285832141682
0.03399799780067183
-0.011242262512428608
0.011464389959832481
0.0004537785754776567
-0.024436797176720298
0.054745166673456955
0.07595136436268794
-0.03581514768114053
-0.04857936093873163
-0.0052274102987289826
-0.017091593516301042
-0.06080805670637716
-0.0020088441506415275
0.06650743857047255
-0.03758422963842378
-0.03182079558511922
0.06860533313208932
0.015000264540724345
-0.0178911101627245
0.06285787234646353
0.00514904147930152
-0.09179058097895246
-0.020145537915679346
0.013611968207168186
-0.02098607548034473
0.031210774861188062
0.020092537480855186
0.0833410215010822
-0.008476019512614522
-0.01663482782076463
-0.00734969453061129
-0.015863753257946027
0.051527587897168596
0.011515231537861246
-0.09805954581417575
0.08693629735422106
0.05775840929244748
0.12343427048137379
0.02471485986487349
-0.09474992692525308
0.010887252699864755
-0.09211467319159561
-0.11686648957593151
0.09743155920515968
0.0905608217431635
-0.013061551819668607
-0.046263851760237465
-0.02941586724297498
-0.051927268093782356
-0.0599655232589908
0.012641681227330953
-0.041544923195198265
0.043253551594607
0.06641154964607299
-0.016234926096553127
-0.02389479090935762
-0.03545209635139714
0.02309798031557362
-0.0156363450037475
-0.021059599198205468
-0.03487619544210781
-0.02637959336486879
-0.03649599359604997
-0.016354496062308963
-0.011165809173900322
0.00122853498852054
0.14510315184892078
0.11756620674077795
0.007702067907629185
-0.048750954310789255
-0.023913217899018138
-0.018121496800462527
-0.009948233306424232
-0.00789573753407444
-0.016638634797638475
-0.02727811541836049
-0.026043958722078077
-0.015913996892842203
-0.024928543559426232
-0.022099090446923788
-0.010423657849110222
0.001099770537513541
0.12558759235122757
-0.10703964034902386
-0.07559944928479148
-0.14066956151787163
-0.029221616555549473
0.039195150302214946
0.013969788669940949
0.11801027702690889
0.18135505170817146
0.005126318365213538
0.024512545454913923
-0.0026787543779944927
0.034188680146508776
-0.002795551389322766
0.021804385464749877
-0.03128350464193431
-0.04887411902213457
0.058281374034517414
0.07373979465414633
-0.04097985520510219
0.007272864780953553
-0.028202746323552113
-0.011892015114083129
0.0049959394047739275
-0.06321535623165389
-0.0119401995152262
-0.011657360427767901
-0.04566977747117409
0.03577769336433928
0.02492076143421534
-0.03570124998134283
-0.0014546424114337618
0.045724775008390235
0.009678713691454994
0.02664849295946413
-0.028174681418599197
-0.007209074403502038
-0.017120329622837476
0.014506710492833832
0.042947118761034
-0.04127695045984829
-0.022859440699327962
0.017768529415347532
0.01548677322639613
-0.028051643903406878
0.016378465056126022
-0.000515413132085685
-0.0042966631560707605
0.006089393193021574
0.015762113237465382
-0.03038090228194206
-0.05030409869318938
-0.03113972560929671
-0.024816133672942657
0.010122471373835793
-0.005516520261023099
0.1162727959070927
0.01413192165996634
0.002232664640884736
0.01854616259097203
0.008897293791853335
0.012660078564565072
-0.022290499585254354
0.0006125369111997568
-0.034790158574186915
-0.03127554871599688
-0.018758049587004215
-0.007626707017375312
-0.014932747483641363
0.0056615627382504965
0.0007994246490229629
-0.0009134977557000296
0.06704556317244431
-0.008415480359615342
-0.02101756616062494
-0.008741226613681062
0.033195825964300166
0.0027909257458647125
0.01962115670655521
0.009717204097345439
-0.0271508393801442
-0.010426784478118763
0.06457633278604372
0.06557594461330066
-0.008853984242019091
-0.0003152670851340576
-0.06899237579084995
0.011441019414527012
-0.05300488521774942
-0.06858991239856724
0.00613754786292757
-0.010204259460677058
0.12588998572617613
-0.0077682298860865156
-0.0028471763059392226
-0.03399254311358697
-0.008625412424246772
-0.019983340890709377
-0.026794659609016322
-0.027796646982039864
0.056817463155666416
0.0053160323403800384
0.0010092679646377617
0.014599271549230188
-0.003167387528148906
-0.026860341173127255
0.02827410885246055
-0.002554412602870013
-0.05007826840148637
-0.001878568937458583
-0.014103432104238527
0.009700363581636008
0.05750055078508426
-0.012311601921928842
0.02374383669067831
0.03975977380563417
-0.03380874662317537
-0.016762718609883695
0.0510646121276009
0.019583925853550416
-0.07126908132247606
0.007975752573006901
0.094621831932417
-0.03138887912198211
-0.015795397732320294
-0.017858961707886797
0.0019744649974106168
-0.01774273906938628
-0.02178607187125905
0.04714203899368153
0.04890078889999293
-0.09254004040316896
-0.020976209822603693
-0.012488502459908367
-0.008670122818624821
0.018715595052942773
0.019916452557688563
-0.10599935271088423
-0.0406230571017204
-0.06004114455960311
-0.023527247268297545
-0.04530272021870749
-0.02965132958636568
-0.02614162576045514
0.33128647720603344
0.016884487467381123
0.04198306364108842
0.07458714836743391
0.04988034588296319
-0.08273198164358295
-0.005448226406066541
-0.06477113772002148
-0.03038369958919557
-0.007309480236488094
0.05127935411464506
-0.035645038076417786
0.012968460845624622
0.03482763307828601
-0.01687643383585229
-0.011851142562995782
-0.0273933533268017
0.00048493603789713567
0.0778782397882686
-0.006859089538534394
-0.03220149810675546
0.033708853829262524
-0.023733885948536183
-0.03453515537240126
-0.01474240068920099
-0.04209613314850037
-0.005934292024900765
0.06653025866662717
0.011219484169894612
0.042379506483489135
-0.01637807334576021
0.01804797490021626
-0.07376872570106591
0.005896205278539353
0.013819505598665169
0.010799124363862345
0.020006953980505483
-0.006639925172129387
-0.009255342054632056
-0.012175777889057092
-0.02245074410575381
-0.010542692063657978
0.009729603107671776
0.020015291941174473
0.007690422684594154
0.044000436751746745
-0.00031635339143898784
-0.02348872630501778
-0.047087982725072274
0.009269419774168503
-0.028045551499278582
0.006763968226908964
-0.021716765085950294
0.02207875823955199
-0.0034767246303073953
-0.01728840468198366
0.03241529965689047
-0.005112044443789712
-0.00514226131938748
0.004552702243236703
0.005520506806671608
-0.002457603502820537
-0.0017985062910707784
-0.0013597861159614735
0.005796992623121663
-0.015179660578530665
0.03055565598514814
0.01960705250333268
-0.016148552920820652
0.01430107505533467
-0.009540392753548642
-0.007040704206693946
-0.016554473084221567
0.019353267060685613
-0.058045492447081265
-0.003254880770793985
0.02749476632038319
0.036215802418771335
-0.006101505147168247
-0.05086772237176653
0.03520576493696987
0.11589676098315516
-0.03674043298574
-0.0459657515594986
-0.016420594241114812
0.008927165323599301
0.00701252279118659
-0.005566005323294088
-0.027143664988293566
-0.14409261902308376
-0.09662126852468952
-0.0631916939388397
-0.02117089968353883
0.08391999156686962
0.06689684481645591
0.04724511253008619
0.12701453225674011
0.05378115363865596
0.0319612887204729
0.04115424209548804
-0.059596939785855944
-0.05112059909646774
0.03265723868534597
-0.013997737577559814
-0.03483864668007948
0.07858082289739307
-0.005259653269498059
-0.010859911915511111
-0.019049095817205812
-0.005471097655080759
-0.017673398749711564
0.021428625431181104
-0.04169629092156683
0.05028012885643762
-0.0011274471449171436
0.01990957801723853
0.01009590825801526
-0.01959451698297925
0.01980305224240834
-0.04860965396824024
-0.0307570492779631
-0.021059599198205468
-0.03487619544210781
-0.02637959336486879
-0.03649599359604997
-0.016354496062308963
-0.011165809173900322
0.00122853498852054
0.14510315184892078
0.0
0.0
0.0
0.0
0.0
0.0
0.0
0.0
0.07304092625632898
-0.0030964182335809247
0.010722545732463017
-0.001105627704081935
-0.02763936528192727
-0.01718963253131186
0.0016219726783119291
-0.03635440091620185
0.0010487116465271876
-0.0005519600496389876
-4.370899061812013e-05
-0.006231486458822918
0.006510414671246515
-0.00797614137674604
0.002700437139892201
0.004543733418160155
-0.029727365208442283
0.05548521248558068
-0.018468193670074438
-0.011247381543656692
-0.013319137614843362
0.0037836712153388953
-0.0209383831538085
0.0344315774899057
-0.03651262738422276
-0.1076374159188023
-0.036524811105415646
-0.02583937695372638
-0.0035523571713474596
0.08693962184190004
0.022427825630977262
0.10069914106063726
-0.0032403798268091236
-0.0062318588294829795
0.002501591228493054
0.015414124856635958
0.0010321268276161683
-0.005454654258146599
0.0049577438229172315
-0.008978693821223719
-0.07103741659849608
0.036714083740613745
0.062371667000035144
-0.02041088213964589
0.028381240435462092
-0.04189029018142249
-0.008504881496215427
0.014376479239668923
0.058442383267309744
-0.01901319051033691
-0.05089147114514072
0.06745007315127509
-0.009944837235689447
-0.019618719191011182
-0.0062064985388135
-0.020217739797593077
0.011477032311128739
-0.08711360349096689
-0.06664941834084902
0.009252280414487944
-0.04832345698254705
-0.013668314429433002
0.0455241192718244
0.14950136124635466
-0.10794576446419715
-0.05736164943319296
-0.009256463759160132
-0.013655778044209609
0.04884837828040442
-0.01540902483577953
0.06736497838284251
0.08741532387329243
0.03325041139219131
0.045146822938248905
0.009736633367087267
-0.021737952667561854
-0.029569322850400866
-0.02471342375018088
-0.01716599350849685
0.005052825079112947
-0.0366163614445246
0.08143803613593006
0.048001895849255925
-0.03651155932303836
-0.007343018348521921
-0.036802130359689066
-0.016890208567187905
0.004723346057776014
-0.13064954578351104
-0.05741176114010344
-0.004428890904832838
-0.023222114496438635
0.09774262264603535
0.07772702946344988
0.00834666084864019
0.03189599936676063
-0.004039300404179198
0.00517404867198498
0.01181992346252379
0.02627361911924422
-0.0032498003295146887
-0.019761922952318746
0.012608812703313467
-0.028825380271053885
0.04642318182800199
0.0015665429295790474
0.024493255571893916
-0.014391478796155148
-0.038204187397707555
-0.02789436869579
-0.03361183087213366
0.04161888543231137
0.0784200857060895
0.042825634843341495
0.01696734050957722
-0.029903254491345323
0.017840993031640977
-0.028705402017292585
-0.031543332259477995
-0.06590206532253344
-0.08424915336650682
-0.05941345631218045
-0.025368530387408175
-0.006668159393831335
0.02817693331492296
0.04806505124103992
0.044787738081315066
0.05466957682264876
0.051826998298206195
0.02949944223335132
-0.027977196011808342
0.030471062129872904
0.009739257912105203
0.017090498574320104
0.02790332525198548
-0.13855338838803302
0.0018818475767519397
-0.024600637729056088
0.0036132929353075095
0.00897072093367763
0.03351521356326872
0.0026256254255073333
-0.002222137759093224
-0.023783924946363787
0.15512510105254318
0.011094043874142347
-0.010091496786865578
0.005971408481510265
-0.067093978470347
-0.03075896647687776
-0.06198030390429541
-0.00226580776981022
0.09626997252697299
-0.03537918991753796
-0.03438390277774824
0.030890053891129046
-0.007349909477832539
-0.0020407102195477453
-0.0010873185348311387
-0.04691899549060456
-0.04206267621738179
0.07828574426999785
0.07507229592164512
-0.047125091253871695
-0.024963210764071934
0.014791707076848563
-0.005771483249989816
-0.04822728578317631
-0.08229346048644454
-0.08457572317141283
-0.08094690229531473
-0.04533996073590908
-0.027981990652190654
0.024672178014929498
0.023671014439297467
0.27279484488704514
-0.011058866669429276
-0.0041137480794077915
-0.004155945822363645
-0.0039955693029965
-0.003465154067876653
-0.00374054677162296
0.005521934107025138
0.0250078966066717
0.05185084921238126
0.0691050467929297
-0.019805973672114428
0.04098028376084443
-0.014454304192992797
-0.022099176179975633
-0.0276788237341184
-0.07789790198695408
-0.05312926570179891
0.026015053781030705
0.04656800106185522
0.14311934021375067
0.006944535384167847
-0.053180602304122665
-0.005760947582551107
-0.11057611485233185
-0.06835357182259846
-0.0246115078032137
0.0380941762822641
0.08264502159630717
0.027398026086218143
-0.0013693321986307477
0.01923665445548944
-0.07303946659583599
-0.0573910360342362
0.0007016021224432741
-0.003940095528517771
0.07171177311118031
-0.034838317717133895
-0.050043471326154054
0.035055177960041824
0.03874436741237638
0.003208785839309887
-0.009163355728110166
0.0033939665721111484
0.017872468333955744
-0.006038108358633502
-0.004723865571865334
-0.0033484339109715387
-0.0012014571757962582
0.09198698332215717
-0.036175986592033374
-0.08960335973420362
-0.036059256987013934
-0.004328375035584587
0.03597342966162475
0.02207547849460146
0.01613108687045216
0.11393606034867887
0.00587925511174851
0.03719531459164007
-0.059447719952407795
-0.05019950837245135
-0.05393290899891327
-0.01340983801251082
0.01997934528421569
-0.06238484242853356
0.002426577304805316
0.02195762381774641
-0.006309979735466211
-0.002276761434821286
-0.013895107817694093
0.01227979705351151
0.048202693240451906
0.018517887493718868
0.0393639793928855
0.13839404399616734
-0.017870424881053715
-0.06667413877419996
-0.015686671298226897
-0.031920531544535474
-0.0641241443847556
0.06905244913162326
-0.036736757548606995
-0.08951802380147153
-0.05640500835474598
-0.013899070861999971
0.03442242895580682
0.02792362478876246
0.06516035769063187
-0.03787883953336211
0.008497229346547387
-0.026210384742059677
0.009603524058530393
-0.021471914720530432
0.017360446089001717
0.02909103797020356
0.021008901531669143
0.10204322237502003
0.008114010157033938
-0.009884704031218114
0.011785716378132501
-0.03533356332648985
-0.028350144108948695
-0.015255104099027729
-0.03311943334450195
0.05062652420746511
-0.008693212293714869
0.017448932481457048
-0.016596885121048364
-0.02159075222006139
0.0028760147792177815
-0.008049372181147872
-0.016021249652167394
0.211636909007944
-0.010290020123629087
0.0441796542450766
-0.07909012402319589
-0.04078788527259056
-0.03765126694367835
-0.09358018687589985
0.0055829199859729
-0.013950865796295406
-0.021829544069950156
0.005722440951019087
0.051018431121361826
0.0022960360275002096
-0.00900585070284564
0.0025206866697767287
-0.01677133420056669
0.026280399224127202
-0.05410206198780389
0.06328185509542489
0.07459278606861842
0.007511388633058895
-0.053977396187147794
-0.018912374537573585
-0.04467459630870412
-0.03359692539525651
-0.00037787075026194907
-0.08147783224852113
-0.049339485842033085
0.06823820720181482
0.05437941909000096
0.052023711207482004
-0.009849223263225033
0.09743155920515968
0.0905608217431635
-0.013061551819668607
-0.046263851760237465
-0.02941586724297498
-0.051927268093782356
-0.0599655232589908
0.012641681227330953
-0.053069365491129394
0.01998335138625739
0.07448043662220893
0.0011678162377591656
0.0015302812295194161
0.021072779675075082
-0.016474594515083037
-0.048690705144607466
0.019477938493066886
0.1145264965337984
0.058578477591408766
0.02256868891488638
-0.00044840216226860793
-0.051365130663110665
-0.06619016025699567
-0.09714790845078536
-0.00967404657732829
0.0056285139442393125
-0.006874610692224887
0.007107159093587513
0.01939973256882821
-0.004885137760322184
-0.0037993077425831265
-0.006902302834196551
0.05868343505751888
0.025812586280940204
-0.030686658372386495
-0.037661044280289276
-9.238298922991898e-06
-0.002616350177918856
-0.01572633770577338
0.002203607496831891
0.011778448071585594
0.008428945302573182
-0.0070696042868292645
-0.01312066724707922
0.005569810708339378
0.001159365368785512
0.013145831461185014
-0.019892129378560223
0.005670467290372837
-0.007649863354858424
-0.005613638671422587
0.0008772832250932834
0.003266646503224649
0.008964313691247592
-0.0031481324780255485
-0.0023670762056317903
0.039512979298079065
0.002147885266496785
-0.007961578118520263
0.04612641753439212
-0.01639049929234472
-0.02807935101466305
-0.008849854342545852
-0.026505999330894106
-0.04892213462499778
0.03668688437350231
0.04845659429061382
0.023410122556539213
0.0034618229501308315
0.00017070302551683002
-0.0506010885322803
-0.012662904039024953
0.035015388533620226
0.022727683254565582
-0.007338951268307145
-0.0032321935293526897
0.018777892297543976
0.0045855525855884
-0.020950068162438506
-0.049585303711219955
-0.000551780072582878
-0.08188519017049388
-0.07711064694255589
0.01649667764162899
0.0036239915806422058
-0.03333460655939317
0.08940110845705272
0.08336044606570187
0.06058383567627371
-0.11121213156736168
-0.05520304984406059
-0.043539878680097566
0.019660623956346067
0.08990097004861929
0.04825661752854144
-0.008446987118260654
-0.04126245362533103
-0.03268591078430184
0.045518650234279284
-0.0005248874463199099
0.016245811429393506
-0.004378853708730064
-0.01717076273937719
0.03425840664038732
0.08693629735422106
0.05775840929244748
0.12343427048137379
0.02471485986487349
-0.09474992692525308
0.010887252699864755
-0.09211467319159561
-0.11686648957593151
0.0
0.0
0.0
0.0
0.0
0.0
0.0
0.0
0.0833410215010822
-0.008476019512614522
-0.01663482782076463
-0.00734969453061129
-0.015863753257946027
0.051527587897168596
0.011515231537861246
-0.09805954581417575
0.07162931555519676
-0.02619636760546373
-0.04265737137635991
-0.04318082979814189
0.04796157548841246
-0.018267112434710298
-0.018590586062966645
0.029301376234033272
-0.12657111358836481
0.07745528589688169
-0.006160429299882219
-0.004167492591081902
0.016346591340815207
0.02999094611972919
0.0480065071485026
-0.03490029502659961
-0.05772112576402709
-0.037242772982546295
0.028069426225529992
0.028910355096042045
-0.005591580925477392
0.06436895347959662
-0.01985319061692656
-0.0009400645121913485
0.059757527209050615
0.033278365854389286
0.10336479071735596
-0.039091923325984206
-0.011043435547604768
-0.021349230569965568
0.0016406362261746855
-0.12655673056341613
0.006765275803085736
0.006882157882013441
-0.002731867447855184
-0.002173379878109474
-0.002173598612031035
-0.0016481894292997262
-0.001386358518870762
-0.0035340397989329997
0.05555023300813249
0.08462657307860912
0.0564548598651996
-0.04415518851717213
-0.027546205033975996
0.0009269423930100174
-0.018894443223242907
-0.10696277157056053
-0.11443634561363455
-0.04407452207559018
0.01502198809939045
0.050415734359735474
0.03411850610305408
-0.030871853843837987
0.03307507159421043
0.05675142137667219
0.03405075533961501
0.035066739901073875
0.027004968829169577
-0.07758671854598766
0.02980006933637248
-0.042691046312516134
-0.021461273589789776
0.01581650504206266
-0.060422620973184314
0.07938717875514589
-0.04225524762092934
0.049023835941892295
-0.002005165333192574
0.048277480694222864
-0.0015440829777749229
-0.07046137848617995
-0.048671416333458124
0.0027242645261648926
0.001036508494656507
0.0087292602470015
-0.00041131964102954417
-0.014471189408828203
0.05190422935040663
-0.0008403372349136762
0.08643988711060899
0.008635408137680526
0.021635521440838787
-0.06493903145623003
-0.0032398676129950926
0.01295829698334153
-0.05301665431722166
-0.008473560286023144
-0.012177635161996605
0.009958777130018902
-0.01642749179527494
-0.023552060410388945
-0.0257867511012984
-0.0008017277835918227
-0.011850531410935212
0.08063742053346708
0.05549747338288066
0.06556655456764379
-0.13115558926908713
-0.02011266599114586
-0.004362380800441246
-0.03427426672612331
-0.0077415101212117855
0.07658238495748476
-0.20139483675502245
-0.11934189688019432
-0.035393339019017464
0.07357145771632992
0.1272683258594882
0.06845645209696292
0.06576003595975967
0.021073801021693872
0.046722872324380174
0.04638128065771728
0.08715276629554836
-0.01617082647554441
-0.08410156455539458
0.0011908774093321638
-0.06618007748372469
-0.014995328172314288
0.01770547864313405
0.018825917238926983
-0.042303171592137756
-0.012321450181131247
0.034676737908752336
0.004661906311029313
-0.06352293546660852
0.04227751713803496
0.057731173796617664
0.03153899114244461
0.025414578390978534
-0.032976248454857957
-0.020937999481724315
-0.007948776722514013
-0.024706120504051847
-0.028115598166892734
-0.0745596570578795
-0.09064414138204374
0.0717604853668672
0.0017249136503601531
0.027000453307606836
0.015019219811989835
0.009951281658238552
0.03974744464486061
0.017701664287916766
-0.004959619957471402
-0.00014057462906899465
-0.005961884484508145
-0.0036513505604267617
0.00613911762599196
-0.0021545341912221766
-0.006972818091211243
0.09524789572660344
-0.026733298217044236
-0.02898846184177423
0.01762595236705007
0.017883162578354338
-0.030457714857435467
0.04053346241085487
-0.08511099816660889
-0.041544923195198265
0.043253551594607
0.06641154964607299
-0.016234926096553127
-0.02389479090935762
-0.03545209635139714
0.02309798031557362
-0.0156363450037475
-0.054280614835202703
-0.025788005949795755
0.006379560313562442
-0.020529027991973585
0.06578779751429377
-0.0007259029071592423
-0.015763788126328213
0.04491998198260324
0.06493025393583429
-0.030825673418621947
-0.08534531351697089
0.07067815351498691
-0.0030716823028718683
-0.011096472782293516
0.0034283966602826565
-0.008697662090345469
-0.07981542828712376
-0.07612315296228568
-0.07338534061262494
-0.06216428794877985
-0.03841575689658563
-0.003835581632425236
0.12800072723023612
0.20573882110958872
0.027046355787882278
0.06888457609915145
0.06289325032854745
0.021564546148656587
-0.061465302496467276
0.04171813302316092
-0.05957465645312546
-0.10106690243780579
-0.015764367420343754
0.00963610895716678
0.03597596822662046
-0.0432958890201466
0.019471331466594275
-0.01117869967465537
-0.008501540182180406
0.013657087646944602
-0.01039889723757975
-0.03259539733057958
0.05889214903695721
0.009267929297459553
-0.032292536619891864
0.0003742386090291901
-0.0106019044122219
0.017354418656827197
0.025928442047581997
0.03227852448436673
0.10593096991690157
0.004463783425603714
0.05722807504882725
-0.001175496078599651
-0.038827263508005354
-0.18582703533667613
0.019236926581533524
0.001954068218848837
-0.08349894483656976
-0.008597254099369888
0.04981190152886497
0.05021894076773572
-0.01827391700962007
-0.010851721151423278
-0.1082942656261944
0.05766619920922434
0.05066190018680894
0.004344426866554958
-0.018400256073311284
0.007294370880352009
0.01993603025838635
-0.013208405701820901
0.09034099019743087
0.05126033681030364
-0.011666266910600223
0.00626953636124288
0.008792052066721815
-0.023065442336312428
-0.03452958266067215
-0.08740162352811429
-0.036094374489873265
0.1073633238102149
0.014226565324090773
0.01034003648626887
0.007660697602020024
-0.040983136471667916
-0.005533094892486377
-0.05698001736856686
-0.007686315139970715
-0.021010662432646158
-0.011141643326535184
0.04503470059416504
0.0047106136689988596
-0.006855995156085568
0.013263226411136737
-0.016313924619063027
0.006931317623491208
-0.005183690161995474
0.031038746570152008
-0.032203082018877706
0.015544161104470749
-0.009643620002416073
0.008054211359335128
-0.014538044474159836
-0.03427431937608576
0.00040547834781650387
-0.04790072997774061
0.02988888134792381
0.041187002820778425
0.040947593450523054
-0.04867656165687204
0.018422655043656536
0.13331649048875807
0.03566876725446444
-0.04484316727628779
-0.01810290521268608
-0.03289130445642481
-0.013179551504166668
-0.02803253543842458
-0.031935793855232715
0.08016717888649251
0.05636909323270031
0.0420426460921801
-0.014607966086641767
-0.05373876195374955
-0.05622368170713962
0.023720586206093
-0.07772909466993504
-0.04120125028798427
0.07130949016076965
0.08374283646105406
0.004921296430253659
-0.006719862127068322
-0.05507660293245516
0.01608500441676431
-0.073060912121334
-0.0061991443711340395
0.0037106697822208634
0.0061946996017896916
0.00201328028681147
-0.004122828272093202
-0.003272999073527219
0.006255929386580371
-0.004579607340647937
-0.03824504946549692
0.05130372461811476
0.005403723547066959
-0.008654711547933767
0.005333088360771828
0.02573033046102541
0.011296947382065782
-0.05216805335561398
-0.046067617285062534
0.04714261590020002
0.05101681514603587
0.011758842126207618
-0.001020108847922804
-0.014912567880215465
0.000445504978481269
-0.04836348413772397
-0.07861578165176594
-0.014360534633077671
-0.022468679734845242
-0.010590954686479281
-7.015269057171467e-05
0.07676096407369903
0.014247931561440774
0.03509720776159994
-0.01751989828973406
0.0624148798153853
-0.020338262336491365
0.010992226066188902
-0.010044738785979163
0.008103123741869205
-0.004243066250102544
-0.029364263961136308
-0.006919826499140135
0.028695828746473837
0.0041382402820096306
-0.004272887303065966
0.002147000351077862
-0.005150203368046263
-0.011665347996901021
-0.0069728042124079645
0.027355089888660315
0.03592444568132585
0.08197194953227492
0.012122023712341352
-0.050875160438005225
0.02924639053233161
-0.06554453421754297
-0.0702002046913859
0.10505355620887336
-0.013954857988935098
0.010537171833659452
0.04939848084553191
-0.04377855741142819
0.01298028561931057
-0.0021252272809308926
-0.11811085182608107
-0.000654722363777625
0.1046746140648617
-0.05963806299343908
0.00707069822973878
-0.02948224918388916
-0.02065219833705958
-0.008943529472635395
0.007625450056200363
0.025848724672441703
0.041764712707036286
-0.00192856959178028
-0.017289355941778908
-0.015506463840816815
0.028464595902949568
-0.014790137088444674
-0.046563506819606956
0.07099209112152227
-0.01178974217481529
0.10211746990268737
0.016864998604864997
-0.027652254513361393
-0.028842415706773008
-0.03147875111384821
-0.0902113961202766
0.07931376036318248
0.019532487467475386
0.008787790370030675
-0.04731795255943981
-0.0496715281117449
0.020005916817163037
-0.000944548452616846
-0.02970592589404997
-0.0081282413818736
0.027806725692967518
0.007704869264696926
0.018573070440999536
-0.0039409368706494865
-0.007638639066090873
0.000440668416998761
-0.03481751649704882
-0.06080805670637716
-0.0020088441506415275
0.06650743857047255
-0.03758422963842378
-0.03182079558511922
0.06860533313208932
0.015000264540724345
-0.0178911101627245
-0.004813579951698663
0.01227720961477988
-0.0034154636351664412
-0.0019160342065557125
-0.0008183007630865372
-0.0005278109835997249
-0.000330395619097863
-0.0004556244555749417
0.12269030471671188
0.05607141894908044
0.00878580723700953
-0.042244705166988916
-0.055067432490210635
-0.01722007010664655
-0.004196497947549487
-0.06881882519140628
0.035419175223078296
0.0187412613804294
-0.015106805379096916
0.01625437727960304
-0.029780944941166215
-0.027164016767737286
-0.03549945310625917
0.037136406311148805
-0.06455364220045531
-0.04564418452300531
-0.015261135588655078
0.05636478612819545
0.06171226418501771
-0.03953812469681815
-0.018251329374515082
0.06517136607023585
-0.08433781160513876
-0.006595369827349911
0.05578690210540908
0.03344285616692612
-0.002524862139266966
0.039403970054861924
0.04050909774927145
-0.07568478250471293
0.01379683169563655
0.03521620467630076
-0.0138094539713557
0.003583397336614858
-0.013070213268360978
0.013137865132669657
-0.010481695941897018
-0.028372935659608158
-0.0763333010449742
-0.10528560310699332
-0.05161319982829495
0.22697048441153825
0.1183331572404783
-0.04385483627672754
-0.0531772464913278
-0.015039454903698847
0.04351675422119023
0.05407003823741454
-0.002620299900669683
-0.023280974992320954
0.010279679330119598
0.02058669800536089
-0.00804812530001903
-0.09450376960107577
-0.07319376789342592
0.0313509315443816
0.07517860594199571
0.014169409159181526
0.018074067301405587
