5.577790837158024262e-01
3.207760446320068182e-01
8.172935953141081955e-02
-9.557092985385934325e-02
-2.627761988689630845e-01
-3.279779274052159743e-01
-3.368520630648447201e-01
6.289263131366337745e-02
-7.388370711395212398e-01
-6.268574091114345048e-01
-4.221713138884666261e-01
-2.038809768745522555e-01
-8.375822820597890461e-02
-1.955329154789704760e-02
2.625868152284717080e-02
2.068799609245003168e+00
8.408615194397260628e-02
1.145159207815089480e-01
3.669890955794054277e-02
3.459027247483716788e-02
-3.224517623205853945e-02
-4.735102705306762361e-02
-7.053739719618325188e-02
-1.197576542769495933e-01
2.009928214308062677e-01
9.334343995011162853e-02
-2.031583872781196620e-02
-3.730933090522579876e-02
-7.747008941066489685e-02
-3.682895916631617750e-02
-7.462851194811595534e-02
-4.778353122278292814e-02
-2.684439714313756678e-02
-1.585510845764302734e-02
7.062494759585773163e-02
-1.931763424503843071e-02
-4.368096928311648169e-02
-3.792123145283304159e-02
4.374268696433265824e-03
6.862012428947772413e-02
3.783296679190392697e-02
-4.992641651110194673e-02
2.795927185516312863e-02
3.182524014767198345e-02
-7.773999171657144935e-02
-2.484245939302775694e-02
-1.898685024141278386e-03
5.679007385010331754e-02
7.053546623612270972e-02
-5.890563519231271222e-02
8.433085963679580466e-03
-5.857537221240252667e-02
-7.682863111664854638e-02
-2.668991401487129725e-02
2.565888527237416075e-02
1.163721150640587149e-01
5.001019192464955382e-02
2.851688357995937201e-02
3.623672339960855998e-02
1.456532850946842990e-02
-5.576747822658835452e-02
1.635487502323152570e-02
-3.630141438491937822e-02
-5.361510982540968612e-02
7.073403728774581289e-02
4.223421490828160180e-02
5.372228070432893271e-02
3.845681144300980292e-02
-2.277969188536892176e-02
-1.641315854694900319e-03
-8.742819794943582079e-02
-9.329813865386646365e-02
3.951297929807906506e-02
2.147885266496783394e-03
-7.961578118520266922e-03
4.612641753439211678e-02
-1.639049929234472763e-02
-2.807935101466304748e-02
-8.849854342545851807e-03
-2.650599933089410956e-02
6.960057222879768857e-02
1.462865562104630028e-02
-2.872014471755215612e-02
-7.509886956613714970e-02
-3.703876496161789822e-02
-1.015694733057503560e-02
-3.070339610880972944e-02
9.748889483484765583e-02
4.411398664611020787e-02
1.469737798129422922e-02
2.543759903574621672e-02
-5.441625471037029108e-03
-4.912755305445896253e-02
2.561021707786357432e-02
-2.412563649586229458e-02
-3.116436571965584129e-02
-3.824504946549692891e-02
5.130372461811476270e-02
5.403723547066955138e-03
-8.654711547933765028e-03
5.333088360771828795e-03
2.573033046102540800e-02
1.129694738206578342e-02
-5.216805335561398166e-02
9.678713691454987264e-03
2.664849295946411512e-02
-2.817468141859918312e-02
-7.209074403502035815e-03
-1.712032962283747614e-02
1.450671049283383529e-02
4.294711876103399911e-02
-4.127695045984828420e-02
-5.785642223344893142e-02
6.867913414691802394e-03
-4.771968304265220007e-02
2.755316186818606433e-02
5.951586182322627511e-02
7.911384087576979474e-02
-1.468569911870806592e-02
-5.278897358706479553e-02
-5.320991035901619093e-02
-7.098324659345264798e-02
-6.222553254472039386e-02
3.774052003063067123e-02
6.842407822551305934e-04
4.822148771359246328e-02
-3.235872579842408777e-03
1.030083135505534542e-01
5.896205278539353757e-03
1.381950559866516881e-02
1.079912436386233805e-02
2.000695398050548676e-02
-6.639925172129385045e-03
-9.255342054632055560e-03
-1.217577788905709751e-02
-2.245074410575381013e-02
-6.400948962383944292e-03
-1.372067314930829410e-02
6.382848112671023547e-03
-3.649679236217906464e-02
4.409740072913412995e-02
-2.500017640386349368e-02
3.108997968687525135e-02
4.836234905441741839e-05
1.935326706068560970e-02
-5.804549244708123723e-02
-3.254880770793988892e-03
2.749476632038318213e-02
3.621580241877134232e-02
-6.101505147168247330e-03
-5.086772237176653833e-02
3.520576493696986331e-02
7.858082289739307114e-02
-5.259653269498062306e-03
-1.085991191551111991e-02
-1.904909581720581196e-02
-5.471097655080759022e-03
-1.767339874971156355e-02
2.142862543118110447e-02
-4.169629092156681982e-02
-1.482447930193514334e-02
8.787223676821186158e-03
-7.236200810533140312e-04
2.888952921576075621e-03
2.178731896798153864e-02
-1.613427821059541800e-02
5.157058783889450701e-03
-6.938176756684343548e-03
9.604381657648491943e-02
5.310209942829133278e-02
4.187795635965179536e-02
-6.409059486300583940e-04
-5.438958647381559632e-03
-2.796352410215584804e-03
-8.646809625131630928e-02
-9.567955910688430432e-02
6.564059593373000601e-02
2.434378480115506962e-02
1.334718489783839890e-01
9.196272248101476990e-03
-1.076477635674185848e-02
-1.270119132836017017e-01
-6.057357517261371255e-02
-3.430223714841338506e-02
6.082653373023053783e-03
2.567368167159722690e-03
3.899673483618595199e-02
-1.346515630337400543e-02
-1.027597831675338379e-02
-7.220733019678143676e-03
-5.976130985337446688e-03
-1.070875775122572850e-02
3.616894155556572843e-02
4.156507483215952231e-02
-4.279568766269172334e-03
2.231934733673527488e-02
-2.305029340566433146e-02
-1.169440095652019701e-02
6.533834205052675877e-03
-6.756293480105961258e-02
5.773117379661767828e-02
3.153899114244460011e-02
2.541457839097854138e-02
-3.297624845485795653e-02
-2.093799948172431549e-02
-7.948776722514011572e-03
-2.470612050405184348e-02
-2.811559816689273433e-02
7.488652384524621675e-02
9.039100168863167806e-03
-3.972718920732852890e-03
-1.660576651804827886e-02
6.081577962037546317e-03
-1.045830313906674809e-02
-5.040925359918671522e-02
-8.561159799112358360e-03
-1.395086579629540441e-02
-2.182954406995015612e-02
5.722440951019087778e-03
5.101843112136182634e-02
2.296036027500209572e-03
-9.005850702845638600e-03
2.520686669776727416e-03
-1.677133420056669058e-02
1.180237886880449935e-02
-1.087924735421391849e-02
-7.762681572676875807e-02
1.979540779652371948e-02
6.373823445793206852e-03
-6.240328161389628939e-03
-1.034637594106430775e-02
6.712115707231527950e-02
-1.393332574099891696e-01
-1.180100928391768916e-01
3.043895043579205456e-02
-2.410319686713864942e-02
1.995121103428619536e-02
-2.701548378478295376e-03
8.831339150398756499e-02
1.454445425207172848e-01
5.062652420746509979e-02
-8.693212293714872377e-03
1.744893248145704470e-02
-1.659688512104836450e-02
-2.159075222006139397e-02
2.876014779217780232e-03
-8.049372181147873562e-03
-1.602124965216739430e-02
-7.686315139970713826e-03
-2.101066243264616135e-02
-1.114164332653518746e-02
4.503470059416504051e-02
4.710613668998857827e-03
-6.855995156085568226e-03
1.326322641113673699e-02
-1.631392461906302702e-02
6.982914369809266331e-02
1.040218291446001579e-02
5.051063586537287223e-03
-4.661752114907208658e-03
7.907056475676505977e-03
-7.900045089028844697e-03
-5.120500344812827648e-03
-7.550714912601763640e-02
2.157288370790648169e-01
6.404568195584518786e-02
-4.483329734132533717e-02
3.063538858094625936e-02
-5.428553894422224677e-03
-2.434814757945044650e-02
-1.197516304797302672e-01
-1.160482783209278862e-01
1.045861412780878380e-01
2.197866796042221779e-02
-2.186081552821449864e-02
-3.917800705880100653e-02
-4.517150558191403154e-02
-2.524262004405541937e-02
-1.312939572584447684e-02
1.801753470031949855e-02
2.700430483559586661e-02
9.897314112211825707e-03
2.270028455980376556e-04
1.342747219757076636e-02
3.927246209338242089e-02
7.950258794187049435e-03
-3.033611935089302464e-02
-6.744269552765297382e-02
-1.011745158319710472e-02
-1.900655509304615895e-02
-1.232986316385843197e-02
-5.785807576286219715e-03
-3.502773796938423584e-02
1.646141340946727025e-02
-1.083919315104583080e-02
7.664519512735072648e-02
-1.174371077976374411e-02
6.588266787850360212e-03
-2.800319184413681967e-02
-4.015702858192839175e-02
-4.931777595255308622e-02
2.796512505532851647e-02
6.666172005867633359e-03
8.800214330933561757e-02
1.611903617369158520e-02
2.530019426422266265e-02
-3.189727098449592763e-02
-4.424868453852942585e-02
-2.179168254546946099e-02
-5.459333706864802826e-04
-1.453407785297361129e-02
7.159841885424073071e-02
-8.695379046753037855e-02
-1.674842190910919015e-02
1.100608477183348186e-02
-2.133822644170041069e-02
-1.522587406311850730e-02
-6.164947985236343513e-03
-2.282710595248029287e-02
1.582522820473417635e-01
3.848053076218060919e-02
2.227532011095529479e-02
2.832052505652002394e-02
-1.718109863426794601e-02
-1.074036494036351846e-02
-4.795207133280698225e-02
-2.184558548716703311e-02
8.642744464949557101e-03
-2.370139551145877821e-02
-3.377967169125947050e-02
7.499027308538055991e-02
-3.604812465452901515e-02
-1.998359664120161888e-02
6.107035013686194086e-02
2.298329947920124336e-03
-2.484616467171376492e-02
5.670467290372836235e-03
-7.649863354858421095e-03
-5.613638671422585720e-03
8.772832250932842586e-04
3.266646503224650104e-03
8.964313691247591948e-03
-3.148132478025548932e-03
-2.367076205631789450e-03
-2.443972478887423277e-02
9.111070856185927991e-02
-1.620002205448171570e-02
6.719338763122952030e-03
-7.897738434901305574e-03
2.952920373822949095e-03
-1.590841424700357651e-02
-3.633706817354429019e-02
3.582399435819096090e-02
4.358111569628775328e-02
-1.519988514599033246e-02
-6.571268818369607745e-02
1.636922675720302311e-02
-3.131763310004543818e-03
-2.002300086184414032e-02
8.293000689853466043e-03
7.099209112152227164e-02
-1.178974217481528093e-02
1.021174699026873856e-01
1.686499860486499747e-02
-2.765225451336139964e-02
-2.884241570677301830e-02
-3.147875111384820790e-02
-9.021139612027657961e-02
-6.983603849544142705e-02
-2.608000577493463715e-02
1.438068405709103104e-02
-2.680336160965752015e-02
3.652388634846449184e-03
1.911547162671043201e-02
4.637622283674457807e-02
3.919463872464103160e-02
4.240602631338799555e-02
9.606390895109097328e-02
3.953571678518639186e-03
-4.130438726575311886e-02
-4.050445458615694466e-02
-2.145001635589385489e-02
-1.982897233644435181e-02
-1.933567639874934213e-02
-5.624647166309618834e-03
6.510125844907255557e-03
3.716689352967394305e-02
3.679466724958438406e-02
-5.796491192974102813e-02
-8.598742353077941381e-03
4.142429752018222250e-02
-4.970768269521921856e-02
-7.166771247622256980e-02
1.623320922270810041e-02
-2.518126184606892318e-02
-9.947602175782544603e-03
-2.496259486715377354e-02
-1.331392634320553367e-02
6.765934410804727572e-02
6.118054437767795478e-02
-1.377275565016968309e-02
2.769708907532622902e-02
7.261791155453805290e-03
2.847659173201478461e-02
-1.607580326248618996e-04
-1.554559783822800217e-02
-4.285087559877880092e-02
8.894515157006505426e-03
-6.910673287594049086e-02
-6.120758706040178854e-02
-5.685976154877243199e-02
1.471657951350751302e-02
1.028655033506728836e-02
-4.231020854852107771e-02
5.300457974478766515e-03
1.991807022105826219e-01
-1.517966057853066368e-02
3.055565598514813769e-02
1.960705250333268090e-02
-1.614855292082065241e-02
1.430107505533467077e-02
-9.540392753548640123e-03
-7.040704206693947607e-03
-1.655447308422157079e-02
-1.458699136844339959e-02
1.757673193876500145e-02
1.547638397495733689e-02
8.591127747668630618e-03
-4.242889879537741805e-03
-9.903377952246264146e-03
1.732423463304410324e-03
-1.464340792446798892e-02
1.489004660827098446e-02
3.039871300288974482e-02
9.569883120032326995e-02
5.894132906082734380e-02
-2.104124123048669096e-03
-3.778095294283469532e-03
-7.869595643890898995e-02
-1.153507440160703029e-01
4.275568006779804919e-02
7.536314959758241838e-02
4.541595482213958007e-02
-6.265504298583998710e-02
-5.397108108962313938e-02
1.039213713132578279e-02
-1.168504018255160648e-02
-4.561575736083083726e-02
4.795041837510100741e-02
-3.091986141805576349e-02
4.028913501902159355e-02
3.761104772395829771e-02
-4.271225374718720658e-02
-4.130387280249502718e-02
8.940508126904585587e-03
-1.985512127724737425e-02
4.849360378971319320e-04
7.787823978826861893e-02
-6.859089538534385994e-03
-3.220149810675546065e-02
3.370885382926253060e-02
-2.373388594853618680e-02
-3.453515537240126054e-02
-1.474240068920098200e-02
-4.209613314850035870e-02
-5.934292024900774884e-03
6.653025866662719279e-02
1.121948416989461232e-02
4.237950648348912802e-02
-1.637807334576021553e-02
1.804797490021625705e-02
-7.376872570106590699e-02
5.096691648278221798e-02
3.667469552297695362e-02
4.318998437238996679e-02
-8.209125061066549879e-04
-3.128099341428826341e-02
7.296342599154217491e-03
-1.901057961903723824e-03
-1.041249750950045960e-01
7.842008570608950679e-02
4.282563484334149517e-02
1.696734050957721118e-02
-2.990325449134532271e-02
1.784099303164096359e-02
-2.870540201729258889e-02
-3.154333225947800190e-02
-6.590206532253344018e-02
9.034099019743087322e-02
5.126033681030364025e-02
-1.166626691060022696e-02
6.269536361242876790e-03
8.792052066721817161e-03
-2.306544233631242780e-02
-3.452958266067215204e-02
-8.740162352811431390e-02
-1.499630493741427872e-01
-1.541739385538130613e-01
-1.595103847396486252e-01
4.347641054190035798e-02
3.192857497100760888e-02
-3.760134378011888157e-02
8.879965533993540439e-02
3.370440755948801437e-01
-7.131346600972921813e-03
-5.040659679403181048e-02
8.117518776342556863e-03
2.012118321514733132e-02
-2.050381493298947949e-02
2.213464149926537214e-02
3.227519737371069286e-02
-4.606782536471672879e-03
3.126959927394339393e-04
-3.116857441817978691e-03
-2.634444271358583715e-03
-1.593106696002426215e-02
2.246884556279784076e-02
1.757692281027226425e-02
-5.198685186479530367e-03
-1.347741050612917199e-02
5.126318365213541201e-03
2.451254545491391920e-02
-2.678754377994489646e-03
3.418868014650877640e-02
-2.795551389322769621e-03
2.180438546474987652e-02
-3.128350464193430797e-02
-4.887411902213456560e-02
-1.136070240264682764e-02
1.583402557788053666e-02
-2.677490864092613859e-02
2.191006130309944289e-02
-1.790511547642964496e-02
-1.799907713868664771e-02
2.273864909161015576e-03
3.402185186854822518e-02
0.000000000000000000e+00
0.000000000000000000e+00
0.000000000000000000e+00
0.000000000000000000e+00
0.000000000000000000e+00
0.000000000000000000e+00
0.000000000000000000e+00
0.000000000000000000e+00
3.951297929807906506e-02
2.147885266496783394e-03
-7.961578118520266922e-03
4.612641753439211678e-02
-1.639049929234472763e-02
-2.807935101466304748e-02
-8.849854342545851807e-03
-2.650599933089410956e-02
2.735508988866032845e-02
3.592444568132587696e-02
8.197194953227486536e-02
1.212202371234135344e-02
-5.087516043800523191e-02
2.924639053233161340e-02
-6.554453421754297127e-02
-7.020020469138588126e-02
1.675889675744984125e-02
-2.122706770003160090e-02
-5.653435049652874578e-02
-1.756364918337837214e-02
1.747607383546183942e-03
-3.636173454468000915e-03
4.141889772168073913e-02
3.903583897172998446e-02
-3.824504946549692891e-02
5.130372461811476270e-02
5.403723547066955138e-03
-8.654711547933765028e-03
5.333088360771828795e-03
2.573033046102540800e-02
1.129694738206578342e-02
-5.216805335561398166e-02
-2.178696409513085352e-02
-2.968217101856992710e-02
-1.925810085171597661e-03
4.178769128879412237e-02
3.338883428336118786e-02
-1.025079856457248619e-02
-1.008665159416393666e-03
-1.052211664929401588e-02
9.678713691454987264e-03
2.664849295946411512e-02
-2.817468141859918312e-02
-7.209074403502035815e-03
-1.712032962283747614e-02
1.450671049283383529e-02
4.294711876103399911e-02
-4.127695045984828420e-02
7.975752573006899757e-03
9.462183193241695267e-02
-3.138887912198212726e-02
-1.579539773232028696e-02
-1.785896170788679738e-02
1.974464997410617633e-03
-1.774273906938627493e-02
-2.178607187125905509e-02
-5.165467147780671703e-02
-5.560890940466060167e-02
-1.237209892082236605e-02
2.788922989633285578e-03
4.470095464516530420e-02
8.797060045529596362e-02
4.325068389031596489e-03
-2.014986667583647251e-02
7.609460766481732433e-03
-2.462838094494680056e-03
-2.032894914676077001e-03
-1.228054677921036272e-03
-7.149653974133529004e-04
-5.804260123643271074e-04
-2.593632789370019448e-04
-3.309183906752540612e-04
-1.194019951522618840e-02
-1.165736042776789778e-02
-4.566977747117414305e-02
3.577769336433927333e-02
2.492076143421533690e-02
-3.570124998134283079e-02
-1.454642411433761323e-03
4.572477500839024211e-02
-4.126971084379005283e-02
-5.932588616568467560e-02
-1.655575507354625428e-02
1.962826666291458619e-03
-2.423652065196022637e-02
8.392273769493521773e-02
-1.781230168408651140e-03
5.728353854216321206e-02
5.896205278539353757e-03
1.381950559866516881e-02
1.079912436386233805e-02
2.000695398050548676e-02
-6.639925172129385045e-03
-9.255342054632055560e-03
-1.217577788905709751e-02
-2.245074410575381013e-02
-6.400948962383944292e-03
-1.372067314930829410e-02
6.382848112671023547e-03
-3.649679236217906464e-02
4.409740072913412995e-02
-2.500017640386349368e-02
3.108997968687525135e-02
4.836234905441741839e-05
1.935326706068560970e-02
-5.804549244708123723e-02
-3.254880770793988892e-03
2.749476632038318213e-02
3.621580241877134232e-02
-6.101505147168247330e-03
-5.086772237176653833e-02
3.520576493696986331e-02
7.858082289739307114e-02
-5.259653269498062306e-03
-1.085991191551111991e-02
-1.904909581720581196e-02
-5.471097655080759022e-03
-1.767339874971156355e-02
2.142862543118110447e-02
-4.169629092156681982e-02
-9.674046577328289723e-03
5.628513944239313394e-03
-6.874610692224886535e-03
7.107159093587512785e-03
1.939973256882820962e-02
-4.885137760322184018e-03
-3.799307742583126531e-03
-6.902302834196551162e-03
1.048711646527188471e-03
-5.519600496389874674e-04
-4.370899061812086051e-05
-6.231486458822918517e-03
6.510414671246514060e-03
-7.976141376746037973e-03
2.700437139892201098e-03
4.543733418160155260e-03
-6.199144371134039481e-03
3.710669782220862075e-03
6.194699601789692422e-03
2.013280286811470511e-03
-4.122828272093202392e-03
-3.272999073527218129e-03
6.255929386580371364e-03
-4.579607340647937237e-03
3.989779713057863345e-03
5.011924295812869579e-02
4.120247340166025701e-02
1.798688671037589754e-02
1.120653437964973416e-02
1.476205280268115018e-02
-4.126479807351442208e-02
-9.800217189203892787e-02
1.333164904887580438e-01
3.566876725446443269e-02
-4.484316727628781529e-02
-1.810290521268607608e-02
-3.289130445642481776e-02
-1.317955150416666790e-02
-2.803253543842457868e-02
-3.193579385523270808e-02
-1.079457644641971248e-01
-5.736164943319295439e-02
-9.256463759160117946e-03
-1.365577804420960682e-02
4.884837828040441976e-02
-1.540902483577952752e-02
6.736497838284251360e-02
8.741532387329242759e-02
3.501538853362023973e-02
2.272768325456558242e-02
-7.338951268307128059e-03
-3.232193529352697919e-03
1.877789229754398687e-02
4.585552585588398636e-03
-2.095006816243849893e-02
-4.958530371121995517e-02
-6.455364220045529955e-02
-4.564418452300531698e-02
-1.526113558865507987e-02
5.636478612819545431e-02
6.171226418501771921e-02
-3.953812469681815267e-02
-1.825132937451508924e-02
6.517136607023585326e-02
-5.321791295475268579e-02
-2.937257985973319718e-02
3.793449849435391770e-03
3.219157036599846339e-02
-9.903168253725972911e-03
3.083490754102055902e-03
7.886947153478148648e-03
4.553820294519780182e-02
2.967336441221588572e-01
8.930145309516963892e-02
1.531728889039487423e-02
-5.460460928741159986e-02
-1.038254479382743484e-01
-5.894626873852512605e-02
-6.369413586033313701e-02
-1.202819242831789925e-01
1.851788749371887158e-02
3.936397939288553000e-02
1.383940439961673652e-01
-1.787042488105371890e-02
-6.667413877419996193e-02
-1.568667129822689729e-02
-3.192053154453547426e-02
-6.412414438475559642e-02
1.413192165996634587e-02
2.232664640884732092e-03
1.854616259097203665e-02
8.897293791853333467e-03
1.266007856456507000e-02
-2.229049958525435374e-02
6.125369111997567119e-04
-3.479015857418691487e-02
-6.826224300626763594e-04
-4.314789714853720787e-03
4.172860228404106503e-02
-1.129177642526454396e-02
-8.102379704722337608e-03
-5.572543590378425081e-03
-4.589772466466678427e-03
-7.174717952292718366e-03
6.765275803085736214e-03
6.882157882013441308e-03
-2.731867447855184598e-03
-2.173379878109474046e-03
-2.173598612031035337e-03
-1.648189429299726401e-03
-1.386358518870761973e-03
-3.534039798932998855e-03
-2.211243247895164354e-02
-3.217471982198680247e-02
3.670028643883299635e-02
1.504648255578170182e-02
5.152452917887814440e-03
1.976141575629248746e-04
1.537894800278742733e-03
-4.347578569405707860e-03
5.828137403451740667e-02
7.373979465414634560e-02
-4.097985520510217389e-02
7.272864780953551371e-03
-2.820274632355211294e-02
-1.189201511408312546e-02
4.995939404773928373e-03
-6.321535623165387696e-02
5.773117379661767828e-02
3.153899114244460011e-02
2.541457839097854138e-02
-3.297624845485795653e-02
-2.093799948172431549e-02
-7.948776722514011572e-03
-2.470612050405184348e-02
-2.811559816689273433e-02
7.488652384524621675e-02
9.039100168863167806e-03
-3.972718920732852890e-03
-1.660576651804827886e-02
6.081577962037546317e-03
-1.045830313906674809e-02
-5.040925359918671522e-02
-8.561159799112358360e-03
-1.395086579629540441e-02
-2.182954406995015612e-02
5.722440951019087778e-03
5.101843112136182634e-02
2.296036027500209572e-03
-9.005850702845638600e-03
2.520686669776727416e-03
-1.677133420056669058e-02
2.392543905699124826e-02
-7.443581108363883647e-02
-3.856631401518460095e-02
8.742981157454822114e-03
-2.763550886940625492e-02
1.116391665806238352e-02
1.835162241029316505e-03
9.497013485469195382e-02
-4.813579951698663574e-03
1.227720961477987878e-02
-3.415463635166441237e-03
-1.916034206555713125e-03
-8.183007630865369881e-04
-5.278109835997248653e-04
-3.303956190978629649e-04
-4.556244555749417173e-04
-7.309480236488092274e-03
5.127935411464504267e-02
-3.564503807641779265e-02
1.296846084562462177e-02
3.482763307828600635e-02
-1.687643383585229334e-02
-1.185114256299578221e-02
-2.739335332680169904e-02
5.062652420746509979e-02
-8.693212293714872377e-03
1.744893248145704470e-02
-1.659688512104836450e-02
-2.159075222006139397e-02
2.876014779217780232e-03
-8.049372181147873562e-03
-1.602124965216739430e-02
-7.686315139970713826e-03
-2.101066243264616135e-02
-1.114164332653518746e-02
4.503470059416504051e-02
4.710613668998857827e-03
-6.855995156085568226e-03
1.326322641113673699e-02
-1.631392461906302702e-02
-4.606761728506254122e-02
4.714261590020003140e-02
5.101681514603589179e-02
1.175884212620761753e-02
-1.020108847922803624e-03
-1.491256788021546459e-02
4.455049784812695830e-04
-4.836348413772396937e-02
1.158967609831551837e-01
-3.674043298573999999e-02
-4.596575155949860630e-02
-1.642059424111480884e-02
8.927165323599302663e-03
7.012522791186591269e-03
-5.566005323294090021e-03
-2.714366498829356641e-02
5.185084921238127670e-02
6.910504679292966967e-02
-1.980597367211442070e-02
4.098028376084444230e-02
-1.445430419299279477e-02
-2.209917617997562977e-02
-2.767882373411839625e-02
-7.789790198695409340e-02
1.226903047167118982e-01
5.607141894908047181e-02
8.785807237009527967e-03
-4.224470516698890926e-02
-5.506743249021063547e-02
-1.722007010664654975e-02
-4.196497947549488079e-03
-6.881882519140629373e-02
-4.883084565530233789e-02
-8.764783395874155281e-02
-8.209917020446492325e-03
-2.332556729502327161e-02
-1.967685717697936765e-02
3.109086895448595275e-02
2.890827896509961387e-02
1.276918731869076951e-01
0.000000000000000000e+00
0.000000000000000000e+00
0.000000000000000000e+00
0.000000000000000000e+00
0.000000000000000000e+00
0.000000000000000000e+00
0.000000000000000000e+00
0.000000000000000000e+00
-2.112416699570295736e-02
-1.554996382284622690e-02
-2.630732072663115317e-03
-1.458801835763330092e-02
4.402708827826862931e-02
-1.701424271191916138e-02
-1.016235300927616908e-02
3.704238869177222532e-02
2.700430483559586661e-02
9.897314112211825707e-03
2.270028455980376556e-04
1.342747219757076636e-02
3.927246209338242089e-02
7.950258794187049435e-03
-3.033611935089302464e-02
-6.744269552765297382e-02
4.642318182800197340e-02
1.566542929579045878e-03
2.449325557189394043e-02
-1.439147879615514970e-02
-3.820418739770755495e-02
-2.789436869579000125e-02
-3.361183087213365922e-02
4.161888543231136856e-02
5.343698084448126467e-03
9.467665944817092727e-03
-4.015099327940822860e-02
3.161348387632381685e-02
-1.832211136132900348e-02
1.078927297046476663e-02
-3.925103421858344710e-02
4.051001798326692854e-02
-5.517800725828792474e-04
-8.188519017049385174e-02
-7.711064694255589935e-02
1.649667764162899425e-02
3.623991580642200137e-03
-3.333460655939316647e-02
8.940110845705272202e-02
8.336044606570187920e-02
-3.418918611902365540e-02
-8.050883495365911482e-03
1.218121318032472020e-02
-4.798492425950633827e-03
-2.052647693381925986e-02
1.068743403654927836e-02
3.105893735168385045e-02
1.363745440560162718e-02
1.770547864313404621e-02
1.882591723892695565e-02
-4.230317159213776296e-02
-1.232145018113123790e-02
3.467673790875230866e-02
4.661906311029312931e-03
-6.352293546660853218e-02
4.227751713803495903e-02
-1.439741992868405311e-02
-4.730107415906219942e-02
4.067491277204158401e-02
-1.190463760134662270e-02
5.094215192106856666e-02
2.875109329798353208e-02
5.788380743271447082e-03
-5.255340704527221990e-02
2.584872467244171690e-02
4.176471270703629307e-02
-1.928569591780285569e-03
-1.728935594177891111e-02
-1.550646384081681706e-02
2.846459590294956113e-02
-1.479013708844467180e-02
-4.656350681960694932e-02
-4.349400876542951211e-02
3.201728389580352219e-02
2.365752015185713236e-02
5.539809401149294911e-03
-1.030811103736923792e-02
1.110098142712676213e-02
-8.081339233191486187e-04
-1.770534114981872631e-02
4.026322556562669103e-02
-5.394881370544444762e-03
-2.632382005630248129e-02
1.018202132150680217e-04
-2.293355003832478131e-02
-3.783767495652786556e-02
3.137104638111853222e-02
2.075383426173932344e-02
-3.651262738422274973e-02
-1.076374159188023122e-01
-3.652481110541568043e-02
-2.583937695372637636e-02
-3.552357171347460436e-03
8.693962184190003051e-02
2.242782563097725848e-02
1.006991410606372650e-01
-3.609437448987327240e-02
1.073633238102148779e-01
1.422656532409075081e-02
1.034003648626887102e-02
7.660697602020021674e-03
-4.098313647166792334e-02
-5.533094892486378757e-03
-5.698001736856685151e-02
-1.217763516199659932e-02
9.958777130018902149e-03
-1.642749179527494552e-02
-2.355206041038894471e-02
-2.578675110129839687e-02
-8.017277835918216545e-04
-1.185053141093520522e-02
8.063742053346709127e-02
3.541917522307828914e-02
1.874126138042939496e-02
-1.510680537909690063e-02
1.625437727960303558e-02
-2.978094494116620763e-02
-2.716401676773728263e-02
-3.549945310625916839e-02
3.713640631114880492e-02
1.731622239513794237e-02
-7.487910325213677221e-02
-6.479236145465491759e-02
-2.399150249509415800e-02
1.533228074421871291e-02
6.342021375673993766e-02
3.785558382047346515e-02
2.973866648531579143e-02
-3.661636144452461161e-02
8.143803613592995316e-02
4.800189584925591141e-02
-3.651155932303836588e-02
-7.343018348521932435e-03
-3.680213035968905866e-02
-1.689020856718790806e-02
4.723346057776003394e-03
-9.031243782767049699e-02
-3.190832107445014387e-02
9.751822566885405205e-03
3.277299968464355423e-02
2.024993935505539980e-02
1.540789035630922045e-02
4.539840618105662334e-02
-1.360299241829576690e-03
-2.586188229809200170e-02
5.116354175236598190e-02
7.724277552578322388e-03
-2.771114078830925684e-02
4.731996271143095313e-04
-3.021008141005358458e-02
-2.084439315381718394e-02
4.526647871821340430e-02
2.922052965823217219e-02
-3.600364258702502124e-02
-6.470015347630233594e-03
-2.640008533803471502e-02
-3.594901304528818481e-02
8.637243068508014543e-03
-4.738111897971973574e-02
1.143461025709576889e-01
-4.039300404179194462e-03
5.174048671984988156e-03
1.181992346252378444e-02
2.627361911924421672e-02
-3.249800329514691312e-03
-1.976192295231874244e-02
1.260881270331346699e-02
-2.882538027105388881e-02
9.269419774168499368e-03
-2.804555149927858912e-02
6.763968226908957312e-03
-2.171676508595029101e-02
2.207875823955198630e-02
-3.476724630307394433e-03
-1.728840468198366426e-02
3.241529965689047416e-02
3.325041139219132857e-02
4.514682293824891918e-02
9.736633367087264845e-03
-2.173795266756184744e-02
-2.956932285040085942e-02
-2.471342375018088441e-02
-1.716599350849684971e-02
5.052825079112947468e-03
9.269679921104559406e-02
6.288272497845465506e-03
-1.497758574448435770e-02
-7.242117810775369757e-02
-1.613816800311897517e-02
-1.162516626265288483e-02
2.750810726047540683e-04
1.590194533651408809e-02
-7.861578165176594246e-02
-1.436053463307767307e-02
-2.246867973484521080e-02
-1.059095468647928799e-02
-7.015269057172041490e-05
7.676096407369903396e-02
1.424793156144077075e-02
3.509720776159994116e-02
-2.936693271112315179e-02
-4.689843395402323693e-03
1.211777651783912668e-01
1.376818217540376477e-02
-6.566201693375621484e-03
-2.368660438073939833e-02
-2.194188678347084448e-02
-4.869447838968363890e-02
-8.415480359615342201e-03
-2.101756616062494532e-02
-8.741226613681062074e-03
3.319582596430016574e-02
2.790925745864707326e-03
1.962115670655520741e-02
9.717204097345437386e-03
-2.715083938014420384e-02
5.670467290372836235e-03
-7.649863354858421095e-03
-5.613638671422585720e-03
8.772832250932842586e-04
3.266646503224650104e-03
8.964313691247591948e-03
-3.148132478025548932e-03
-2.367076205631789450e-03
-2.443972478887423277e-02
9.111070856185927991e-02
-1.620002205448171570e-02
6.719338763122952030e-03
-7.897738434901305574e-03
2.952920373822949095e-03
-1.590841424700357651e-02
-3.633706817354429019e-02
-2.285944069932795836e-02
1.776852941534752539e-02
1.548677322639612462e-02
-2.805164390340687819e-02
1.637846505612602227e-02
-5.154131320856845597e-04
-4.296663156070760527e-03
6.089393193021576389e-03
5.868343505751888456e-02
2.581258628094019666e-02
-3.068665837238650912e-02
-3.766104428028927559e-02
-9.238298922997545865e-06
-2.616350177918855789e-03
-1.572633770577337720e-02
2.203607496831892689e-03
7.099209112152227164e-02
-1.178974217481528093e-02
1.021174699026873856e-01
1.686499860486499747e-02
-2.765225451336139964e-02
-2.884241570677301830e-02
-3.147875111384820790e-02
-9.021139612027657961e-02
-7.319376789342592338e-02
3.135093154438160085e-02
7.517860594199571311e-02
1.416940915918152993e-02
1.807406730140558027e-02
-1.371984423021923444e-02
-1.324154591386711433e-02
-3.861785590945221447e-02
-1.966412533964091106e-03
5.701090949908019928e-02
-2.247407995268779768e-02
-3.156057852591651058e-02
-4.045702508710001533e-02
2.218061180749642588e-03
1.308311111497197912e-03
3.592081430834130618e-02
1.175662067407779454e-01
7.702067907629188762e-03
-4.875095431078927538e-02
-2.391321789901813474e-02
-1.812149680046252695e-02
-9.948233306424230510e-03
-7.895737534074440817e-03
-1.663863479763847547e-02
-8.229346048644453626e-02
-8.457572317141284768e-02
-8.094690229531471826e-02
-4.533996073590908227e-02
-2.798199065219065737e-02
2.467217801492949461e-02
2.367101443929746710e-02
2.727948448870451403e-01
-4.120125028798429789e-02
7.130949016076960911e-02
8.374283646105405710e-02
4.921296430253655103e-03
-6.719862127068329007e-03
-5.507660293245516397e-02
1.608500441676430706e-02
-7.306091212133401791e-02
5.182699829820619497e-02
2.949944223335132509e-02
-2.797719601180835222e-02
3.047106212987290078e-02
9.739257912105196355e-03
1.709049857432010447e-02
2.790332525198548422e-02
-1.385533883880330497e-01
-1.054269206365797407e-02
9.729603107671767198e-03
2.001529194117447619e-02
7.690422684594152777e-03
4.400043675174673818e-02
-3.163533914389899575e-04
-2.348872630501777983e-02
-4.708798272507228044e-02
1.177844807158559721e-02
8.428945302573178505e-03
-7.069604286829262764e-03
-1.312066724707922072e-02
5.569810708339376429e-03
1.159365368785511769e-03
1.314583146118501744e-02
-1.989212937856022628e-02
1.881847576751939904e-03
-2.460063772905608792e-02
3.613292935307509113e-03
8.970720933677629738e-03
3.351521356326871842e-02
2.625625425507332415e-03
-2.222137759093224373e-03
-2.378392494636378737e-02
1.688448746738112696e-02
4.198306364108837785e-02
7.458714836743390864e-02
4.988034588296318128e-02
-8.273198164358294693e-02
-5.448226406066540226e-03
-6.477113772002146552e-02
-3.038369958919556746e-02
-5.112044443789712060e-03
-5.142261319387480406e-03
4.552702243236703833e-03
5.520506806671609396e-03
-2.457603502820536988e-03
-1.798506291070778437e-03
-1.359786115961473477e-03
5.796992623121662719e-03
-1.377275565016968309e-02
2.769708907532622902e-02
7.261791155453805290e-03
2.847659173201478461e-02
-1.607580326248618996e-04
-1.554559783822800217e-02
-4.285087559877880092e-02
8.894515157006505426e-03
-1.259503333118638241e-02
1.770089323027680336e-02
1.148019585489444896e-02
4.703919101162926802e-02
1.843640319977265032e-02
-6.150900937243368449e-02
-1.471138003502892901e-02
-5.841260557924154821e-03
-5.651169954475411539e-02
-7.890848029067862313e-02
-6.833995740366681504e-02
-3.232261149812171164e-02
-8.149852864705341149e-03
1.919880082391253046e-02
2.001183800950766950e-02
2.050219627685065105e-01
-1.517966057853066368e-02
3.055565598514813769e-02
1.960705250333268090e-02
-1.614855292082065241e-02
1.430107505533467077e-02
-9.540392753548640123e-03
-7.040704206693947607e-03
-1.655447308422157079e-02
-1.458699136844339959e-02
1.757673193876500145e-02
1.547638397495733689e-02
8.591127747668630618e-03
-4.242889879537741805e-03
-9.903377952246264146e-03
1.732423463304410324e-03
-1.464340792446798892e-02
5.378115363865597354e-02
3.196128872047290098e-02
4.115424209548804169e-02
-5.959693978585593743e-02
-5.112059909646774619e-02
3.265723868534596563e-02
-1.399773757755981216e-02
-3.483864668007949361e-02
-1.423425941016792998e-02
5.256521660521958073e-02
8.677461545403582352e-04
-2.093057153393985265e-02
3.187626365478108108e-03
-1.754123598215485275e-02
5.661131305979750020e-03
-9.575653504955206063e-03
3.208785839309886805e-03
-9.163355728110160470e-03
3.393966572111150118e-03
1.787246833395574400e-02
-6.038108358633500865e-03
-4.723865571865333568e-03
-3.348433910971539574e-03
-1.201457175796258369e-03
-2.686034117312724456e-02
2.827410885246053884e-02
-2.554412602870017625e-03
-5.007826840148636022e-02
-1.878568937458584666e-03
-1.410343210423852314e-02
9.700363581636001556e-03
5.750055078508426593e-02
1.114190035154386249e-01
4.507523919856531308e-02
4.822530088393324477e-02
-3.464689493761744649e-02
-3.937200198067808410e-02
-2.607279925261105427e-02
-2.612456484492632278e-02
-7.850328258210424737e-02
-2.972736520844227598e-02
5.548521248558068580e-02
-1.846819367007444465e-02
-1.124738154365669332e-02
-1.331913761484336371e-02
3.783671215338893154e-03
-2.093838315380849510e-02
3.443157748990569728e-02
-6.238484242853354483e-02
2.426577304805318212e-03
2.195762381774639393e-02
-6.309979735466207315e-03
-2.276761434821289627e-03
-1.389510781769410022e-02
1.227979705351150627e-02
4.820269324045191317e-02
-6.123159401072313102e-02
-6.976190835428802695e-02
-2.521356426455871602e-02
1.157063013153994124e-01
1.626318984971268644e-02
-5.420648640036879878e-02
1.603612511731690449e-02
6.240793674750946124e-02
6.111672111005783670e-02
3.254015677016183078e-02
5.530965611842784437e-03
-2.396506558700966204e-03
-2.516082741332376083e-02
5.338111011952442059e-02
-6.755735650256071423e-02
-5.745426313700133930e-02
-6.835357182259840791e-02
-2.461150780321367040e-02
3.809417628226409447e-02
8.264502159630716938e-02
2.739802608621814614e-02
-1.369332198630743378e-03
1.923665445548943670e-02
-7.303946659583598899e-02
1.055677290412005559e-01
-1.457935743762455230e-02
-1.550971830380885527e-02
-1.002197037138311403e-01
-4.342568493121759347e-03
-1.163124512455540214e-03
-1.395967131616281153e-03
3.164271055125745385e-02
-8.424915336650677655e-02
-5.941345631218042378e-02
-2.536853038740818911e-02
-6.668159393831330287e-03
2.817693331492296394e-02
4.806505124103991472e-02
4.478773808131505940e-02
5.466957682264876606e-02
1.050535562088733832e-01
-1.395485798893508420e-02
1.053717183365946580e-02
4.939848084553190993e-02
-4.377855741142819279e-02
1.298028561931056403e-02
-2.125227280930896967e-03
-1.181108518260810536e-01
-2.399723490538000284e-03
-1.240006813338775070e-02
3.058315818295821980e-03
1.428138251309721968e-03
1.557802028763394415e-02
-4.870370871170989074e-02
2.504132875147834988e-02
1.839769722691785014e-02
4.849360378971319320e-04
7.787823978826861893e-02
-6.859089538534385994e-03
-3.220149810675546065e-02
3.370885382926253060e-02
-2.373388594853618680e-02
-3.453515537240126054e-02
-1.474240068920098200e-02
-4.209613314850035870e-02
-5.934292024900774884e-03
6.653025866662719279e-02
1.121948416989461232e-02
4.237950648348912802e-02
-1.637807334576021553e-02
1.804797490021625705e-02
-7.376872570106590699e-02
-4.206267621738179335e-02
7.828574426999784786e-02
7.507229592164513243e-02
-4.712509125387168846e-02
-2.496321076407194070e-02
1.479170707684856340e-02
-5.771483249989816169e-03
-4.822728578317631715e-02
9.626997252697301610e-02
-3.537918991753794679e-02
-3.438390277774823478e-02
3.089005389112905314e-02
-7.349909477832537383e-03
-2.040710219547741365e-03
-1.087318534831137589e-03
-4.691899549060456198e-02
-3.240379826809122732e-03
-6.231858829482979541e-03
2.501591228493052661e-03
1.541412485663595615e-02
1.032126827616168269e-03
-5.454654258146599335e-03
4.957743822917231452e-03
-8.978693821223718632e-03
7.842008570608950679e-02
4.282563484334149517e-02
1.696734050957721118e-02
-2.990325449134532271e-02
1.784099303164096359e-02
-2.870540201729258889e-02
-3.154333225947800190e-02
-6.590206532253344018e-02
9.034099019743087322e-02
5.126033681030364025e-02
-1.166626691060022696e-02
6.269536361242876790e-03
8.792052066721817161e-03
-2.306544233631242780e-02
-3.452958266067215204e-02
-8.740162352811431390e-02
2.592844204758199683e-02
3.227852448436673710e-02
1.059309699169015545e-01
4.463783425603712676e-03
5.722807504882725799e-02
-1.175496078599650059e-03
-3.882726350800535381e-02
-1.858270353366761329e-01
1.366004712809473221e-01
5.992274705350545544e-02
-2.863089158991791866e-02
2.678935561799729997e-02
-1.662518933283197928e-02
-3.162656367849781686e-02
-1.018312771556921688e-02
-1.362468016356331024e-01
-7.222379713169178872e-02
-6.053423471576267062e-02
-6.937621243338301658e-02
-4.398030181856287663e-02
-4.347867555884801782e-02
-3.123243743979811637e-02
1.177044428770642956e-02
3.090552148103397623e-01
-5.772112576402708972e-02
-3.724277298254629470e-02
2.806942622552998853e-02
2.891035509604204801e-02
-5.591580925477393146e-03
6.436895347959663283e-02
-1.985319061692655818e-02
-9.400645121913480404e-04
5.975752720905059406e-02
3.327836585438927186e-02
1.033647907173559782e-01
-3.909192332598421249e-02
-1.104343554760476610e-02
-2.134923056996556115e-02
1.640636226174684020e-03
-1.265567305634161255e-01
-1.901971512814735685e-02
-1.599936019327793599e-02
-6.804295370032034662e-02
2.072729067558321814e-01
1.155426233022369964e-01
-1.013027313869701782e-02
-7.170706773324386774e-02
-1.379161601643825452e-01
-1.372343106676823798e-01
-1.328678822315338126e-01
-9.063584602318407180e-02
2.588132986444939554e-02
7.117059350075558184e-03
-2.049695006543153161e-02
4.244455414437200980e-02
3.057920456289348610e-01
8.016717888649252388e-02
5.636909323270030553e-02
4.204264609218010679e-02
-1.460796608664176321e-02
-5.373876195374954756e-02
-5.622368170713961527e-02
2.372058620609300214e-02
-7.772909466993502270e-02
8.838029343953807127e-03
-3.064132911173075499e-02
-2.460679579961257829e-02
6.706751980896609108e-04
1.751936490897297929e-02
5.059317937676489907e-02
-2.887582142184196010e-02
6.502697505403916625e-03
-6.547223637776153956e-04
1.046746140648617263e-01
-5.963806299343906575e-02
7.070698229738784681e-03
-2.948224918388916288e-02
-2.065219833705957825e-02
-8.943529472635394773e-03
7.625450056200360968e-03
-3.127554871599688008e-02
-1.875804958700421840e-02
-7.626707017375312925e-03
-1.493274748364136102e-02
5.661562738250496517e-03
7.994246490229625114e-04
-9.134977557000305325e-04
6.704556317244431130e-02
-1.045725037090533410e-01
-1.012164122437973490e-01
2.854324271252022677e-02
-8.333035442856262520e-02
4.348135045102437951e-02
3.898065765338069172e-02
4.335544272989820536e-02
1.347585768345897772e-01
-7.131346600972921813e-03
-5.040659679403181048e-02
8.117518776342556863e-03
2.012118321514733132e-02
-2.050381493298947949e-02
2.213464149926537214e-02
3.227519737371069286e-02
-4.606782536471672879e-03
3.126959927394339393e-04
-3.116857441817978691e-03
-2.634444271358583715e-03
-1.593106696002426215e-02
2.246884556279784076e-02
1.757692281027226425e-02
-5.198685186479530367e-03
-1.347741050612917199e-02
-7.901669687668590181e-02
7.071388064897123071e-02
5.537168515262359120e-02
1.170360014841570900e-01
-8.083496971220570024e-03
-7.183955209678921650e-02
-2.255152369905997350e-02
-6.163029764199623450e-02
9.198698332215718421e-02
-3.617598659203342254e-02
-8.960335973420364974e-02
-3.605925698701394067e-02
-4.328375035584588852e-03
3.597342966162474925e-02
2.207547849460145609e-02
1.613108687045216108e-02
2.839922346791426064e-02
4.278289877880334102e-02
-6.545262849700678176e-02
-5.469801691983515457e-02
4.844441357128165954e-02
6.325142158218752253e-02
4.093115262339717259e-02
-1.036584646067418986e-01
2.116369090079439352e-01
-1.029002012362907961e-02
4.417965424507659666e-02
-7.909012402319588741e-02
-4.078788527259056412e-02
-3.765126694367835342e-02
-9.358018687589986229e-02
5.582919985972895766e-03
-1.059993527108842315e-01
-4.062305710172040007e-02
-6.004114455960311847e-02
-2.352724726829754157e-02
-4.530272021870748733e-02
-2.965132958636567534e-02
-2.614162576045514497e-02
3.312864772060334362e-01
-8.433781160513875719e-02
-6.595369827349915372e-03
5.578690210540904193e-02
3.344285616692612567e-02
-2.524862139266964393e-03
3.940397005486192400e-02
4.050909774927145823e-02
-7.568478250471294411e-02
6.931317623491208522e-03
-5.183690161995473805e-03
3.103874657015200447e-02
-3.220308201887769894e-02
1.554416110447075228e-02
-9.643620002416072867e-03
8.054211359335127982e-03
-1.453804447415983983e-02
-1.998334089070937652e-02
-2.679465960901629418e-02
-2.779664698203987080e-02
5.681746315566641586e-02
5.316032340380045379e-03
1.009267964637764955e-03
1.459927154923018958e-02
-3.167387528148909830e-03
-1.231160192192883897e-02
2.374383669067833130e-02
3.975977380563416180e-02
-3.380874662317537999e-02
-1.676271860988368806e-02
5.106461212760089741e-02
1.958392585355041293e-02
-7.126908132247605776e-02
-7.455965705787948039e-02
-9.064414138204372751e-02
7.176048536686720214e-02
1.724913650360156364e-03
2.700045330760683301e-02
1.501921981198984200e-02
9.951281658238549793e-03
3.974744464486060919e-02
-1.440926190230837622e-01
-9.662126852468945482e-02
-6.319169393883970753e-02
-2.117089968353881926e-02
8.391999156686962003e-02
6.689684481645591374e-02
4.724511253008618905e-02
1.270145322567401147e-01
6.905244913162324194e-02
-3.673675754860699499e-02
-8.951802380147154403e-02
-5.640500835474598906e-02
-1.389907086199998129e-02
3.442242895580682055e-02
2.792362478876245224e-02
6.516035769063185934e-02
1.947793849306691041e-02
1.145264965337984969e-01
5.857847759140879379e-02
2.256868891488640269e-02
-4.484021622685963266e-04
-5.136513066311065162e-02
-6.619016025699565875e-02
-9.714790845078535853e-02
7.948352830625973753e-02
-1.709718925987743429e-02
6.987506384846220095e-03
-2.566993665309651521e-02
3.735449404494857462e-02
-4.163641453209077081e-02
3.203192222867443789e-02
-7.145391051966430707e-02
-6.531149216957198023e-02
-8.010065069255606351e-02
6.232676474798747729e-02
6.157443370934564258e-02
2.817595227015955162e-02
-1.506285760920184069e-02
1.532206848987853649e-02
-6.924218746041130128e-03
-3.787883953336209503e-02
8.497229346547400392e-03
-2.621038474205968083e-02
9.603524058530391039e-03
-2.147191472053042519e-02
1.736044608900171732e-02
2.909103797020356000e-02
2.100890153166914270e-02
1.827534437085285846e-01
5.360060807497058627e-03
-2.982262350132920681e-02
-7.143638849569695914e-02
-2.926256162140506920e-02
-2.172052565289976644e-02
9.786062978482230890e-03
-4.565746822317679615e-02
-2.477653597590789587e-03
-1.292667733455044911e-02
-2.867532234048997090e-03
-2.428890209598541863e-02
7.758998087901526793e-03
-2.802584733588199886e-02
-2.641659735434381817e-02
8.924421186449998933e-02
-7.369239570142252505e-02
7.674616736515734242e-03
-5.475046379596349919e-03
1.200541426428567565e-02
2.526728583214168586e-02
3.399799780067183641e-02
-1.124226251242861109e-02
1.146438995983247756e-02
-5.739103603423621747e-02
7.016021224432896202e-04
-3.940095528517770576e-03
7.171177311118030751e-02
-3.483831771713390146e-02
-5.004347132615404731e-02
3.505517796004182368e-02
3.874436741237638482e-02
1.576211323746535067e-02
-3.038090228194205780e-02
-5.030409869318938632e-02
-3.113972560929671382e-02
-2.481613367294265016e-02
1.012247137383578792e-02
-5.516520261023093348e-03
1.162727959070926909e-01
-5.888611260550211807e-02
4.055205100301919469e-02
7.147684796459018164e-02
6.260545842563386421e-03
6.572301069078059256e-03
-2.994491145082792474e-02
1.418062837096753688e-02
-5.021135019388823367e-02
1.551251010525431795e-01
1.109404387414234840e-02
-1.009149678686557805e-02
5.971408481510270989e-03
-6.709397847034698215e-02
-3.075896647687775473e-02
-6.198030390429540293e-02
-2.265807769810212861e-03
-5.312926570179891950e-02
2.601505378103071905e-02
4.656800106185523397e-02
1.431193402137506954e-01
6.944535384167855457e-03
-5.318060230412265804e-02
-5.760947582551098275e-03
-1.105761148523318610e-01
1.020432223750199902e-01
8.114010157033944501e-03
-9.884704031218117734e-03
1.178571637813249744e-02
-3.533356332648984743e-02
-2.835014410894870149e-02
-1.525510409902771855e-02
-3.311943334450195148e-02
-4.892213462499779564e-02
3.668688437350232229e-02
4.845659429061386497e-02
2.341012255653921251e-02
3.461822950130843610e-03
1.707030255168378783e-04
-5.060108853228028475e-02
-1.266290403902494213e-02
6.058383567627370625e-02
-1.112121315673616495e-01
-5.520304984406058935e-02
-4.353987868009756568e-02
1.966062395634608079e-02
8.990097004861929975e-02
4.825661752854144143e-02
-8.446987118260657762e-03
-2.637186563356925043e-02
1.144539186562196359e-01
-1.525027879175969853e-02
-2.856288260409529933e-02
2.779490400317986137e-02
5.586434381706654496e-03
-2.300535656756467692e-02
-5.464487344411723957e-02
1.770166428791676572e-02
-4.959619957471401823e-03
-1.405746290689944319e-04
-5.961884484508144302e-03
-3.651350560426761243e-03
6.139117625991960016e-03
-2.154534191222176164e-03
-6.972818091211242970e-03
3.776847077715087680e-02
1.135967266384543470e-02
2.267202993549527479e-02
-5.620977120922852899e-02
-3.651187254024635710e-03
-1.512892425486663537e-03
-1.112424966814959783e-03
-9.313897520936816055e-03
-1.105886666942927643e-02
-4.113748079407792378e-03
-4.155945822363644494e-03
-3.995569302996499449e-03
-3.465154067876652453e-03
-3.740546771622959513e-03
5.521934107025137928e-03
2.500789660667170067e-02
-9.917449104776186741e-02
-7.394061654833268722e-03
-7.939616199255630780e-02
3.728796524963967629e-02
3.880438050365252189e-02
3.537306278017174344e-02
-8.161551645176866321e-03
8.266085780686442674e-02
-8.366435659380823398e-02
-2.059870463694486731e-02
-2.304629384141295215e-02
-6.685542373663175102e-03
-6.105973509098869961e-02
-9.391920650114227859e-03
7.918865962663876323e-02
1.252578935602935428e-01
1.147703231112875283e-02
-8.711360349096687605e-02
-6.664941834084904537e-02
9.252280414487942112e-03
-4.832345698254705835e-02
-1.366831442943299869e-02
4.552411927182439810e-02
1.495013612463546582e-01
-1.306495457835110396e-01
-5.741176114010340670e-02
-4.428890904832837559e-03
-2.322211449643863876e-02
9.774262264603533756e-02
7.772702946344987873e-02
8.346660848640191643e-03
3.189599936676063008e-02
1.139360603486788970e-01
5.879255111748520057e-03
3.719531459164009818e-02
-5.944771995240778761e-02
-5.019950837245134440e-02
-5.393290899891325929e-02
-1.340983801251081214e-02
1.997934528421569864e-02
3.704566754290108954e-02
5.606424039135512322e-02
4.322290764944396180e-02
-1.984273529589290416e-02
4.786400982141809923e-02
-3.045246551585422887e-02
-4.332878110416542305e-02
-9.057284348920574546e-02
7.931376036318246725e-02
1.953248746747538941e-02
8.787790370030674689e-03
-4.731795255943981038e-02
-4.967152811174489063e-02
2.000591681716304068e-02
-9.445484526168463702e-04
-2.970592589404996708e-02
-1.082942656261944026e-01
5.766619920922431280e-02
5.066190018680893220e-02
4.344426866554946913e-03
-1.840025607331130519e-02
7.294370880352005378e-03
1.993603025838633705e-02
-1.320840570182090813e-02
6.331165092194113164e-02
-1.928775569741872364e-02
-3.704541430549550957e-02
5.580582644700853717e-02
-2.220317947397230929e-02
-6.956543641907633746e-02
2.598336456245912626e-02
3.000943964554106998e-03
-6.893629808825081640e-02
2.579788154232599828e-02
7.421230783516954976e-02
-1.901115919742425026e-02
-3.576173245576871884e-02
6.096669406599841690e-02
1.544093295772310664e-02
-5.270862665977330691e-02
5.126318365213541201e-03
2.451254545491391920e-02
-2.678754377994489646e-03
3.418868014650877640e-02
-2.795551389322769621e-03
2.180438546474987652e-02
-3.128350464193430797e-02
-4.887411902213456560e-02
1.591741301571363704e-02
4.187798429995866906e-02
-1.086091174808393595e-02
4.683860486252570954e-02
4.193974970494169889e-03
-7.575419289576442589e-03
1.174094371647475257e-03
-9.156574048267922261e-02
-6.919826499140135055e-03
2.869582874647384416e-02
4.138240282009629685e-03
-4.272887303065965071e-03
2.147000351077862131e-03
-5.150203368046262636e-03
-1.166534799690102132e-02
-6.972804212407964462e-03
0.000000000000000000e+00
0.000000000000000000e+00
0.000000000000000000e+00
0.000000000000000000e+00
0.000000000000000000e+00
0.000000000000000000e+00
0.000000000000000000e+00
0.000000000000000000e+00
3.951297929807906506e-02
2.147885266496783394e-03
-7.961578118520266922e-03
4.612641753439211678e-02
-1.639049929234472763e-02
-2.807935101466304748e-02
-8.849854342545851807e-03
-2.650599933089410956e-02
-3.137052268981727760e-02
-6.781623393128287380e-02
-4.358320423779171726e-02
-4.182030672666492421e-02
5.732705523658254698e-02
4.467042934382503550e-02
4.106573759112223942e-02
4.152704541402693628e-02
2.735508988866032845e-02
3.592444568132587696e-02
8.197194953227486536e-02
1.212202371234135344e-02
-5.087516043800523191e-02
2.924639053233161340e-02
-6.554453421754297127e-02
-7.020020469138588126e-02
4.812941944726711885e-02
4.658916623125128331e-02
-1.295114625873701984e-02
2.425665754328652432e-02
-5.557944785303635393e-02
-4.830660279829306070e-02
3.531601305584085803e-04
-2.491206442296883729e-03
-3.824504946549692891e-02
5.130372461811476270e-02
5.403723547066955138e-03
-8.654711547933765028e-03
5.333088360771828795e-03
2.573033046102540800e-02
1.129694738206578342e-02
-5.216805335561398166e-02
9.678713691454987264e-03
2.664849295946411512e-02
-2.817468141859918312e-02
-7.209074403502035815e-03
-1.712032962283747614e-02
1.450671049283383529e-02
4.294711876103399911e-02
-4.127695045984828420e-02
7.975752573006899757e-03
9.462183193241695267e-02
-3.138887912198212726e-02
-1.579539773232028696e-02
-1.785896170788679738e-02
1.974464997410617633e-03
-1.774273906938627493e-02
-2.178607187125905509e-02
-2.125811252628749537e-02
-1.525795054301574104e-02
1.316743867656084907e-02
-3.118533615157747380e-03
1.888776397861369541e-02
5.464841790756191919e-02
1.002617993497796275e-02
-5.709520381325341315e-02
-3.039655895151922860e-02
-4.035095886164486584e-02
-2.553953759738325502e-02
5.907456604791033392e-03
2.581319066655156022e-02
3.332218254773408606e-02
-5.701111545946355857e-03
3.694533713741698228e-02
7.609460766481732433e-03
-2.462838094494680056e-03
-2.032894914676077001e-03
-1.228054677921036272e-03
-7.149653974133529004e-04
-5.804260123643271074e-04
-2.593632789370019448e-04
-3.309183906752540612e-04
-2.178696409513085352e-02
-2.968217101856992710e-02
-1.925810085171597661e-03
4.178769128879412237e-02
3.338883428336118786e-02
-1.025079856457248619e-02
-1.008665159416393666e-03
-1.052211664929401588e-02
-1.194019951522618840e-02
-1.165736042776789778e-02
-4.566977747117414305e-02
3.577769336433927333e-02
2.492076143421533690e-02
-3.570124998134283079e-02
-1.454642411433761323e-03
4.572477500839024211e-02
-4.126971084379005283e-02
-5.932588616568467560e-02
-1.655575507354625428e-02
1.962826666291458619e-03
-2.423652065196022637e-02
8.392273769493521773e-02
-1.781230168408651140e-03
5.728353854216321206e-02
5.896205278539353757e-03
1.381950559866516881e-02
1.079912436386233805e-02
2.000695398050548676e-02
-6.639925172129385045e-03
-9.255342054632055560e-03
-1.217577788905709751e-02
-2.245074410575381013e-02
-6.400948962383944292e-03
-1.372067314930829410e-02
6.382848112671023547e-03
-3.649679236217906464e-02
4.409740072913412995e-02
-2.500017640386349368e-02
3.108997968687525135e-02
4.836234905441741839e-05
1.935326706068560970e-02
-5.804549244708123723e-02
-3.254880770793988892e-03
2.749476632038318213e-02
3.621580241877134232e-02
-6.101505147168247330e-03
-5.086772237176653833e-02
3.520576493696986331e-02
7.858082289739307114e-02
-5.259653269498062306e-03
-1.085991191551111991e-02
-1.904909581720581196e-02
-5.471097655080759022e-03
-1.767339874971156355e-02
2.142862543118110447e-02
-4.169629092156681982e-02
-6.199144371134039481e-03
3.710669782220862075e-03
6.194699601789692422e-03
2.013280286811470511e-03
-4.122828272093202392e-03
-3.272999073527218129e-03
6.255929386580371364e-03
-4.579607340647937237e-03
-9.674046577328289723e-03
5.628513944239313394e-03
-6.874610692224886535e-03
7.107159093587512785e-03
1.939973256882820962e-02
-4.885137760322184018e-03
-3.799307742583126531e-03
-6.902302834196551162e-03
1.048711646527188471e-03
-5.519600496389874674e-04
-4.370899061812086051e-05
-6.231486458822918517e-03
6.510414671246514060e-03
-7.976141376746037973e-03
2.700437139892201098e-03
4.543733418160155260e-03
-4.126245362533103450e-02
-3.268591078430185121e-02
4.551865023427927731e-02
-5.248874463199158444e-04
1.624581142939349535e-02
-4.378853708730067948e-03
-1.717076273937719055e-02
3.425840664038733857e-02
3.989779713057863345e-03
5.011924295812869579e-02
4.120247340166025701e-02
1.798688671037589754e-02
1.120653437964973416e-02
1.476205280268115018e-02
-4.126479807351442208e-02
-9.800217189203892787e-02
1.333164904887580438e-01
3.566876725446443269e-02
-4.484316727628781529e-02
-1.810290521268607608e-02
-3.289130445642481776e-02
-1.317955150416666790e-02
-2.803253543842457868e-02
-3.193579385523270808e-02
4.714203899368150236e-02
4.890078889999294881e-02
-9.254004040316897439e-02
-2.097620982260370651e-02
-1.248850245990837382e-02
-8.670122818624823036e-03
1.871559505294276976e-02
1.991645255768857009e-02
8.961438151792731899e-02
-1.426132686368982404e-02
-2.629948692027288953e-02
-5.723763162559949991e-02
3.105234672881440963e-02
-4.397376608845319362e-02
8.082969600007823552e-03
1.302251365126587228e-02
-1.079457644641971248e-01
-5.736164943319295439e-02
-9.256463759160117946e-03
-1.365577804420960682e-02
4.884837828040441976e-02
-1.540902483577952752e-02
6.736497838284251360e-02
8.741532387329242759e-02
3.501538853362023973e-02
2.272768325456558242e-02
-7.338951268307128059e-03
-3.232193529352697919e-03
1.877789229754398687e-02
4.585552585588398636e-03
-2.095006816243849893e-02
-4.958530371121995517e-02
-6.455364220045529955e-02
-4.564418452300531698e-02
-1.526113558865507987e-02
5.636478612819545431e-02
6.171226418501771921e-02
-3.953812469681815267e-02
-1.825132937451508924e-02
6.517136607023585326e-02
-1.211373225292515163e-02
7.924332641552503387e-02
-4.648268699563553458e-02
6.401023850861101150e-02
-6.501276278971687694e-02
-2.641879240806774623e-02
1.162593435192399265e-02
-4.851524829714706083e-03
6.111672111005783670e-02
3.254015677016183078e-02
5.530965611842784437e-03
-2.396506558700966204e-03
-2.516082741332376083e-02
5.338111011952442059e-02
-6.755735650256071423e-02
-5.745426313700133930e-02
1.851788749371887158e-02
3.936397939288553000e-02
1.383940439961673652e-01
-1.787042488105371890e-02
-6.667413877419996193e-02
-1.568667129822689729e-02
-3.192053154453547426e-02
-6.412414438475559642e-02
1.413192165996634587e-02
2.232664640884732092e-03
1.854616259097203665e-02
8.897293791853333467e-03
1.266007856456507000e-02
-2.229049958525435374e-02
6.125369111997567119e-04
-3.479015857418691487e-02
-4.110418070182749600e-02
-1.086159062752581200e-01
5.027613684507088732e-02
-3.181866814261256199e-02
5.510959453599083291e-02
2.950228316216982685e-02
-3.738987198445843999e-03
5.038972777491252525e-02
-6.826224300626763594e-04
-4.314789714853720787e-03
4.172860228404106503e-02
-1.129177642526454396e-02
-8.102379704722337608e-03
-5.572543590378425081e-03
-4.589772466466678427e-03
-7.174717952292718366e-03
6.765275803085736214e-03
6.882157882013441308e-03
-2.731867447855184598e-03
-2.173379878109474046e-03
-2.173598612031035337e-03
-1.648189429299726401e-03
-1.386358518870761973e-03
-3.534039798932998855e-03
-2.211243247895164354e-02
-3.217471982198680247e-02
3.670028643883299635e-02
1.504648255578170182e-02
5.152452917887814440e-03
1.976141575629248746e-04
1.537894800278742733e-03
-4.347578569405707860e-03
5.828137403451740667e-02
7.373979465414634560e-02
-4.097985520510217389e-02
7.272864780953551371e-03
-2.820274632355211294e-02
-1.189201511408312546e-02
4.995939404773928373e-03
-6.321535623165387696e-02
5.773117379661767828e-02
3.153899114244460011e-02
2.541457839097854138e-02
-3.297624845485795653e-02
-2.093799948172431549e-02
-7.948776722514011572e-03
-2.470612050405184348e-02
-2.811559816689273433e-02
8.313331251190371474e-02
3.679819796788113412e-02
1.573000002181782278e-02
9.107569748589245534e-03
2.184371032215473574e-02
-1.191585102689161381e-02
-5.456134583130112237e-02
-1.001355937141539254e-01
-8.246788666657529215e-03
-2.775909779901794897e-02
-1.970271894255069128e-02
-2.571333626663751398e-02
-1.576213236011717728e-02
1.457547887824860297e-03
4.152092232114394134e-03
9.157443391504155317e-02
-1.395086579629540441e-02
-2.182954406995015612e-02
5.722440951019087778e-03
5.101843112136182634e-02
2.296036027500209572e-03
-9.005850702845638600e-03
2.520686669776727416e-03
-1.677133420056669058e-02
2.392543905699124826e-02
-7.443581108363883647e-02
-3.856631401518460095e-02
8.742981157454822114e-03
-2.763550886940625492e-02
1.116391665806238352e-02
1.835162241029316505e-03
9.497013485469195382e-02
-4.813579951698663574e-03
1.227720961477987878e-02
-3.415463635166441237e-03
-1.916034206555713125e-03
-8.183007630865369881e-04
-5.278109835997248653e-04
-3.303956190978629649e-04
-4.556244555749417173e-04
-7.309480236488092274e-03
5.127935411464504267e-02
-3.564503807641779265e-02
1.296846084562462177e-02
3.482763307828600635e-02
-1.687643383585229334e-02
-1.185114256299578221e-02
-2.739335332680169904e-02
5.062652420746509979e-02
-8.693212293714872377e-03
1.744893248145704470e-02
-1.659688512104836450e-02
-2.159075222006139397e-02
2.876014779217780232e-03
-8.049372181147873562e-03
-1.602124965216739430e-02
-7.686315139970713826e-03
-2.101066243264616135e-02
-1.114164332653518746e-02
4.503470059416504051e-02
4.710613668998857827e-03
-6.855995156085568226e-03
1.326322641113673699e-02
-1.631392461906302702e-02
-4.606761728506254122e-02
4.714261590020003140e-02
5.101681514603589179e-02
1.175884212620761753e-02
-1.020108847922803624e-03
-1.491256788021546459e-02
4.455049784812695830e-04
-4.836348413772396937e-02
1.158967609831551837e-01
-3.674043298573999999e-02
-4.596575155949860630e-02
-1.642059424111480884e-02
8.927165323599302663e-03
7.012522791186591269e-03
-5.566005323294090021e-03
-2.714366498829356641e-02
5.185084921238127670e-02
6.910504679292966967e-02
-1.980597367211442070e-02
4.098028376084444230e-02
-1.445430419299279477e-02
-2.209917617997562977e-02
-2.767882373411839625e-02
-7.789790198695409340e-02
1.226903047167118982e-01
5.607141894908047181e-02
8.785807237009527967e-03
-4.224470516698890926e-02
-5.506743249021063547e-02
-1.722007010664654975e-02
-4.196497947549488079e-03
-6.881882519140629373e-02
-2.710585416673393089e-02
-2.608150837430739388e-02
7.071324367502023964e-03
1.013276908708237237e-02
6.013977408305118226e-03
7.063686075365440895e-03
-1.196187566521979533e-03
2.410179316930832066e-02
-4.883084565530233789e-02
-8.764783395874155281e-02
-8.209917020446492325e-03
-2.332556729502327161e-02
-1.967685717697936765e-02
3.109086895448595275e-02
2.890827896509961387e-02
1.276918731869076951e-01
0.000000000000000000e+00
0.000000000000000000e+00
0.000000000000000000e+00
0.000000000000000000e+00
0.000000000000000000e+00
0.000000000000000000e+00
0.000000000000000000e+00
0.000000000000000000e+00
5.981687171030986537e-03
1.053154455146117566e-02
-9.702056440165146220e-03
-2.472078744471569930e-02
3.801311086996350674e-02
-2.407792878728462482e-02
-8.966165442754201256e-03
1.294059552246390292e-02
-3.670203432709912960e-03
-4.040246128609184008e-03
-4.032422672956579267e-03
-3.445775003195739993e-03
-3.437303010138853792e-03
-2.237754001617373988e-03
6.629996362516210606e-03
1.423370788671143167e-02
3.067450826830579735e-02
1.393756024082100364e-02
4.259425518554620961e-03
1.687324720076650506e-02
4.270976510352123695e-02
1.018801279580443774e-02
-3.696611571340918667e-02
-8.167640341436435691e-02
4.642318182800197340e-02
1.566542929579045878e-03
2.449325557189394043e-02
-1.439147879615514970e-02
-3.820418739770755495e-02
-2.789436869579000125e-02
-3.361183087213365922e-02
4.161888543231136856e-02
5.343698084448126467e-03
9.467665944817092727e-03
-4.015099327940822860e-02
3.161348387632381685e-02
-1.832211136132900348e-02
1.078927297046476663e-02
-3.925103421858344710e-02
4.051001798326692854e-02
-5.517800725828792474e-04
-8.188519017049385174e-02
-7.711064694255589935e-02
1.649667764162899425e-02
3.623991580642200137e-03
-3.333460655939316647e-02
8.940110845705272202e-02
8.336044606570187920e-02
-5.306936549112940826e-02
1.998335138625740096e-02
7.448043662220897587e-02
1.167816237759169680e-03
1.530281229519413764e-03
2.107277967507507899e-02
-1.647459451508303391e-02
-4.869070514460747262e-02
-3.418918611902365540e-02
-8.050883495365911482e-03
1.218121318032472020e-02
-4.798492425950633827e-03
-2.052647693381925986e-02
1.068743403654927836e-02
3.105893735168385045e-02
1.363745440560162718e-02
1.770547864313404621e-02
1.882591723892695565e-02
-4.230317159213776296e-02
-1.232145018113123790e-02
3.467673790875230866e-02
4.661906311029312931e-03
-6.352293546660853218e-02
4.227751713803495903e-02
-3.427431937608575035e-02
4.054783478164976319e-04
-4.790072997774059288e-02
2.988888134792382079e-02
4.118700282077842473e-02
4.094759345052305377e-02
-4.867656165687204994e-02
1.842265504365655018e-02
1.987689944740166081e-02
-4.770655250687872578e-02
8.857564274978219077e-02
-4.179351894927037930e-02
9.755149100290105499e-03
-1.219650015253953557e-02
5.446494240014344151e-02
-7.097606208892880131e-02
-4.349400876542951211e-02
3.201728389580352219e-02
2.365752015185713236e-02
5.539809401149294911e-03
-1.030811103736923792e-02
1.110098142712676213e-02
-8.081339233191486187e-04
-1.770534114981872631e-02
2.584872467244171690e-02
4.176471270703629307e-02
-1.928569591780285569e-03
-1.728935594177891111e-02
-1.550646384081681706e-02
2.846459590294956113e-02
-1.479013708844467180e-02
-4.656350681960694932e-02
4.026322556562669103e-02
-5.394881370544444762e-03
-2.632382005630248129e-02
1.018202132150680217e-04
-2.293355003832478131e-02
-3.783767495652786556e-02
3.137104638111853222e-02
2.075383426173932344e-02
-3.651262738422274973e-02
-1.076374159188023122e-01
-3.652481110541568043e-02
-2.583937695372637636e-02
-3.552357171347460436e-03
8.693962184190003051e-02
2.242782563097725848e-02
1.006991410606372650e-01
-3.609437448987327240e-02
1.073633238102148779e-01
1.422656532409075081e-02
1.034003648626887102e-02
7.660697602020021674e-03
-4.098313647166792334e-02
-5.533094892486378757e-03
-5.698001736856685151e-02
7.304092625632896407e-02
-3.096418233580927690e-03
1.072254573246301558e-02
-1.105627704081932816e-03
-2.763936528192726880e-02
-1.718963253131185892e-02
1.621972678311929582e-03
-3.635440091620185249e-02
-1.217763516199659932e-02
9.958777130018902149e-03
-1.642749179527494552e-02
-2.355206041038894471e-02
-2.578675110129839687e-02
-8.017277835918216545e-04
-1.185053141093520522e-02
8.063742053346709127e-02
3.541917522307828914e-02
1.874126138042939496e-02
-1.510680537909690063e-02
1.625437727960303558e-02
-2.978094494116620763e-02
-2.716401676773728263e-02
-3.549945310625916839e-02
3.713640631114880492e-02
1.731622239513794237e-02
-7.487910325213677221e-02
-6.479236145465491759e-02
-2.399150249509415800e-02
1.533228074421871291e-02
6.342021375673993766e-02
3.785558382047346515e-02
2.973866648531579143e-02
-3.661636144452461161e-02
8.143803613592995316e-02
4.800189584925591141e-02
-3.651155932303836588e-02
-7.343018348521932435e-03
-3.680213035968905866e-02
-1.689020856718790806e-02
4.723346057776003394e-03
-3.444980945097791264e-02
1.272323954449363637e-01
3.600110259243199939e-03
-2.104788523687635415e-02
3.990844302473071231e-03
-2.384614371817526252e-02
-5.104360026838800080e-02
-4.435911332235022327e-03
-9.031243782767049699e-02
-3.190832107445014387e-02
9.751822566885405205e-03
3.277299968464355423e-02
2.024993935505539980e-02
1.540789035630922045e-02
4.539840618105662334e-02
-1.360299241829576690e-03
8.587927152885931753e-03
-7.606885369257038176e-02
4.124167293335121581e-03
-6.663255551432861051e-03
-3.517644675358750587e-03
-6.363937691878310786e-03
3.019920711457080298e-02
4.970239005044841535e-02
5.028012885643761559e-02
-1.127447144917150500e-03
1.990957801723855503e-02
1.009590825801525392e-02
-1.959451698297924940e-02
1.980305224240834147e-02
-4.860965396824024065e-02
-3.075704927796311244e-02
-4.039300404179194462e-03
5.174048671984988156e-03
1.181992346252378444e-02
2.627361911924421672e-02
-3.249800329514691312e-03
-1.976192295231874244e-02
1.260881270331346699e-02
-2.882538027105388881e-02
9.269419774168499368e-03
-2.804555149927858912e-02
6.763968226908957312e-03
-2.171676508595029101e-02
2.207875823955198630e-02
-3.476724630307394433e-03
-1.728840468198366426e-02
3.241529965689047416e-02
3.325041139219132857e-02
4.514682293824891918e-02
9.736633367087264845e-03
-2.173795266756184744e-02
-2.956932285040085942e-02
-2.471342375018088441e-02
-1.716599350849684971e-02
5.052825079112947468e-03
9.269679921104559406e-02
6.288272497845465506e-03
-1.497758574448435770e-02
-7.242117810775369757e-02
-1.613816800311897517e-02
-1.162516626265288483e-02
2.750810726047540683e-04
1.590194533651408809e-02
-7.861578165176594246e-02
-1.436053463307767307e-02
-2.246867973484521080e-02
-1.059095468647928799e-02
-7.015269057172041490e-05
7.676096407369903396e-02
1.424793156144077075e-02
3.509720776159994116e-02
-2.936693271112315179e-02
-4.689843395402323693e-03
1.211777651783912668e-01
1.376818217540376477e-02
-6.566201693375621484e-03
-2.368660438073939833e-02
-2.194188678347084448e-02
-4.869447838968363890e-02
-8.415480359615342201e-03
-2.101756616062494532e-02
-8.741226613681062074e-03
3.319582596430016574e-02
2.790925745864707326e-03
1.962115670655520741e-02
9.717204097345437386e-03
-2.715083938014420384e-02
5.670467290372836235e-03
-7.649863354858421095e-03
-5.613638671422585720e-03
8.772832250932842586e-04
3.266646503224650104e-03
8.964313691247591948e-03
-3.148132478025548932e-03
-2.367076205631789450e-03
-1.751989828973405869e-02
6.241487981538530044e-02
-2.033826233649136533e-02
1.099222606618890236e-02
-1.004473878597916814e-02
8.103123741869201757e-03
-4.243066250102543908e-03
-2.936426396113630058e-02
-2.285944069932795836e-02
1.776852941534752539e-02
1.548677322639612462e-02
-2.805164390340687819e-02
1.637846505612602227e-02
-5.154131320856845597e-04
-4.296663156070760527e-03
6.089393193021576389e-03
5.868343505751888456e-02
2.581258628094019666e-02
-3.068665837238650912e-02
-3.766104428028927559e-02
-9.238298922997545865e-06
-2.616350177918855789e-03
-1.572633770577337720e-02
2.203607496831892689e-03
7.099209112152227164e-02
-1.178974217481528093e-02
1.021174699026873856e-01
1.686499860486499747e-02
-2.765225451336139964e-02
-2.884241570677301830e-02
-3.147875111384820790e-02
-9.021139612027657961e-02
-1.966412533964091106e-03
5.701090949908019928e-02
-2.247407995268779768e-02
-3.156057852591651058e-02
-4.045702508710001533e-02
2.218061180749642588e-03
1.308311111497197912e-03
3.592081430834130618e-02
-7.319376789342592338e-02
3.135093154438160085e-02
7.517860594199571311e-02
1.416940915918152993e-02
1.807406730140558027e-02
-1.371984423021923444e-02
-1.324154591386711433e-02
-3.861785590945221447e-02
-8.229346048644453626e-02
-8.457572317141284768e-02
-8.094690229531471826e-02
-4.533996073590908227e-02
-2.798199065219065737e-02
2.467217801492949461e-02
2.367101443929746710e-02
2.727948448870451403e-01
-4.120125028798429789e-02
7.130949016076960911e-02
8.374283646105405710e-02
4.921296430253655103e-03
-6.719862127068329007e-03
-5.507660293245516397e-02
1.608500441676430706e-02
-7.306091212133401791e-02
5.182699829820619497e-02
2.949944223335132509e-02
-2.797719601180835222e-02
3.047106212987290078e-02
9.739257912105196355e-03
1.709049857432010447e-02
2.790332525198548422e-02
-1.385533883880330497e-01
-1.054269206365797407e-02
9.729603107671767198e-03
2.001529194117447619e-02
7.690422684594152777e-03
4.400043675174673818e-02
-3.163533914389899575e-04
-2.348872630501777983e-02
-4.708798272507228044e-02
1.177844807158559721e-02
8.428945302573178505e-03
-7.069604286829262764e-03
-1.312066724707922072e-02
5.569810708339376429e-03
1.159365368785511769e-03
1.314583146118501744e-02
-1.989212937856022628e-02
1.881847576751939904e-03
-2.460063772905608792e-02
3.613292935307509113e-03
8.970720933677629738e-03
3.351521356326871842e-02
2.625625425507332415e-03
-2.222137759093224373e-03
-2.378392494636378737e-02
1.688448746738112696e-02
4.198306364108837785e-02
7.458714836743390864e-02
4.988034588296318128e-02
-8.273198164358294693e-02
-5.448226406066540226e-03
-6.477113772002146552e-02
-3.038369958919556746e-02
-5.112044443789712060e-03
-5.142261319387480406e-03
4.552702243236703833e-03
5.520506806671609396e-03
-2.457603502820536988e-03
-1.798506291070778437e-03
-1.359786115961473477e-03
5.796992623121662719e-03
-1.377275565016968309e-02
2.769708907532622902e-02
7.261791155453805290e-03
2.847659173201478461e-02
-1.607580326248618996e-04
-1.554559783822800217e-02
-4.285087559877880092e-02
8.894515157006505426e-03
-7.103741659849609202e-02
3.671408374061373159e-02
6.237166700003512337e-02
-2.041088213964587991e-02
2.838124043546208161e-02
-4.189029018142249178e-02
-8.504881496215432185e-03
1.437647923966891249e-02
-5.651169954475411539e-02
-7.890848029067862313e-02
-6.833995740366681504e-02
-3.232261149812171164e-02
-8.149852864705341149e-03
1.919880082391253046e-02
2.001183800950766950e-02
2.050219627685065105e-01
5.844238326730974431e-02
-1.901319051033691435e-02
-5.089147114514069870e-02
6.745007315127508896e-02
-9.944837235689445165e-03
-1.961871919101118925e-02
-6.206498538813500290e-03
-2.021773979759306991e-02
-1.517966057853066368e-02
3.055565598514813769e-02
1.960705250333268090e-02
-1.614855292082065241e-02
1.430107505533467077e-02
-9.540392753548640123e-03
-7.040704206693947607e-03
-1.655447308422157079e-02
-1.458699136844339959e-02
1.757673193876500145e-02
1.547638397495733689e-02
8.591127747668630618e-03
-4.242889879537741805e-03
-9.903377952246264146e-03
1.732423463304410324e-03
-1.464340792446798892e-02
5.378115363865597354e-02
3.196128872047290098e-02
4.115424209548804169e-02
-5.959693978585593743e-02
-5.112059909646774619e-02
3.265723868534596563e-02
-1.399773757755981216e-02
-3.483864668007949361e-02
-1.423425941016792998e-02
5.256521660521958073e-02
8.677461545403582352e-04
-2.093057153393985265e-02
3.187626365478108108e-03
-1.754123598215485275e-02
5.661131305979750020e-03
-9.575653504955206063e-03
3.208785839309886805e-03
-9.163355728110160470e-03
3.393966572111150118e-03
1.787246833395574400e-02
-6.038108358633500865e-03
-4.723865571865333568e-03
-3.348433910971539574e-03
-1.201457175796258369e-03
-2.686034117312724456e-02
2.827410885246053884e-02
-2.554412602870017625e-03
-5.007826840148636022e-02
-1.878568937458584666e-03
-1.410343210423852314e-02
9.700363581636001556e-03
5.750055078508426593e-02
1.114190035154386249e-01
4.507523919856531308e-02
4.822530088393324477e-02
-3.464689493761744649e-02
-3.937200198067808410e-02
-2.607279925261105427e-02
-2.612456484492632278e-02
-7.850328258210424737e-02
-2.972736520844227598e-02
5.548521248558068580e-02
-1.846819367007444465e-02
-1.124738154365669332e-02
-1.331913761484336371e-02
3.783671215338893154e-03
-2.093838315380849510e-02
3.443157748990569728e-02
-6.238484242853354483e-02
2.426577304805318212e-03
2.195762381774639393e-02
-6.309979735466207315e-03
-2.276761434821289627e-03
-1.389510781769410022e-02
1.227979705351150627e-02
4.820269324045191317e-02
-6.123159401072313102e-02
-6.976190835428802695e-02
-2.521356426455871602e-02
1.157063013153994124e-01
1.626318984971268644e-02
-5.420648640036879878e-02
1.603612511731690449e-02
6.240793674750946124e-02
-6.835357182259840791e-02
-2.461150780321367040e-02
3.809417628226409447e-02
8.264502159630716938e-02
2.739802608621814614e-02
-1.369332198630743378e-03
1.923665445548943670e-02
-7.303946659583598899e-02
1.055677290412005559e-01
-1.457935743762455230e-02
-1.550971830380885527e-02
-1.002197037138311403e-01
-4.342568493121759347e-03
-1.163124512455540214e-03
-1.395967131616281153e-03
3.164271055125745385e-02
-8.424915336650677655e-02
-5.941345631218042378e-02
-2.536853038740818911e-02
-6.668159393831330287e-03
2.817693331492296394e-02
4.806505124103991472e-02
4.478773808131505940e-02
5.466957682264876606e-02
1.050535562088733832e-01
-1.395485798893508420e-02
1.053717183365946580e-02
4.939848084553190993e-02
-4.377855741142819279e-02
1.298028561931056403e-02
-2.125227280930896967e-03
-1.181108518260810536e-01
-2.399723490538000284e-03
-1.240006813338775070e-02
3.058315818295821980e-03
1.428138251309721968e-03
1.557802028763394415e-02
-4.870370871170989074e-02
2.504132875147834988e-02
1.839769722691785014e-02
4.849360378971319320e-04
7.787823978826861893e-02
-6.859089538534385994e-03
-3.220149810675546065e-02
3.370885382926253060e-02
-2.373388594853618680e-02
-3.453515537240126054e-02
-1.474240068920098200e-02
-4.209613314850035870e-02
-5.934292024900774884e-03
6.653025866662719279e-02
1.121948416989461232e-02
4.237950648348912802e-02
-1.637807334576021553e-02
1.804797490021625705e-02
-7.376872570106590699e-02
-4.206267621738179335e-02
7.828574426999784786e-02
7.507229592164513243e-02
-4.712509125387168846e-02
-2.496321076407194070e-02
1.479170707684856340e-02
-5.771483249989816169e-03
-4.822728578317631715e-02
9.626997252697301610e-02
-3.537918991753794679e-02
-3.438390277774823478e-02
3.089005389112905314e-02
-7.349909477832537383e-03
-2.040710219547741365e-03
-1.087318534831137589e-03
-4.691899549060456198e-02
-3.240379826809122732e-03
-6.231858829482979541e-03
2.501591228493052661e-03
1.541412485663595615e-02
1.032126827616168269e-03
-5.454654258146599335e-03
4.957743822917231452e-03
-8.978693821223718632e-03
7.842008570608950679e-02
4.282563484334149517e-02
1.696734050957721118e-02
-2.990325449134532271e-02
1.784099303164096359e-02
-2.870540201729258889e-02
-3.154333225947800190e-02
-6.590206532253344018e-02
9.034099019743087322e-02
5.126033681030364025e-02
-1.166626691060022696e-02
6.269536361242876790e-03
8.792052066721817161e-03
-2.306544233631242780e-02
-3.452958266067215204e-02
-8.740162352811431390e-02
2.592844204758199683e-02
3.227852448436673710e-02
1.059309699169015545e-01
4.463783425603712676e-03
5.722807504882725799e-02
-1.175496078599650059e-03
-3.882726350800535381e-02
-1.858270353366761329e-01
1.366004712809473221e-01
5.992274705350545544e-02
-2.863089158991791866e-02
2.678935561799729997e-02
-1.662518933283197928e-02
-3.162656367849781686e-02
-1.018312771556921688e-02
-1.362468016356331024e-01
-7.222379713169178872e-02
-6.053423471576267062e-02
-6.937621243338301658e-02
-4.398030181856287663e-02
-4.347867555884801782e-02
-3.123243743979811637e-02
1.177044428770642956e-02
3.090552148103397623e-01
-7.981542828712376303e-02
-7.612315296228568118e-02
-7.338534061262494412e-02
-6.216428794877985192e-02
-3.841575689658564136e-02
-3.835581632425236111e-03
1.280007272302361165e-01
2.057388211095887431e-01
-5.772112576402708972e-02
-3.724277298254629470e-02
2.806942622552998853e-02
2.891035509604204801e-02
-5.591580925477393146e-03
6.436895347959663283e-02
-1.985319061692655818e-02
-9.400645121913480404e-04
5.975752720905059406e-02
3.327836585438927186e-02
1.033647907173559782e-01
-3.909192332598421249e-02
-1.104343554760476610e-02
-2.134923056996556115e-02
1.640636226174684020e-03
-1.265567305634161255e-01
4.351675422119024444e-02
5.407003823741458187e-02
-2.620299900669674237e-03
-2.328097499232095052e-02
1.027967933011959996e-02
2.058669800536089625e-02
-8.048125300019023237e-03
-9.450376960107575997e-02
-4.314068335903316342e-02
-2.259982606681710735e-02
1.381583642547803796e-02
3.768340241656251838e-02
1.130343730036107754e-02
-2.572442247493652787e-02
1.583206327961554291e-02
1.283019247876962012e-02
-7.633330104497416946e-02
-1.052856031069933224e-01
-5.161319982829494502e-02
2.269704844115382758e-01
1.183331572404782983e-01
-4.385483627672754486e-02
-5.317724649132780229e-02
-1.503945490369883349e-02
8.016717888649252388e-02
5.636909323270030553e-02
4.204264609218010679e-02
-1.460796608664176321e-02
-5.373876195374954756e-02
-5.622368170713961527e-02
2.372058620609300214e-02
-7.772909466993502270e-02
8.838029343953807127e-03
-3.064132911173075499e-02
-2.460679579961257829e-02
6.706751980896609108e-04
1.751936490897297929e-02
5.059317937676489907e-02
-2.887582142184196010e-02
6.502697505403916625e-03
1.379683169563655255e-02
3.521620467630075246e-02
-1.380945397135569484e-02
3.583397336614857400e-03
-1.307021326836097647e-02
1.313786513266965855e-02
-1.048169594189701792e-02
-2.837293565960816166e-02
-6.547223637776153956e-04
1.046746140648617263e-01
-5.963806299343906575e-02
7.070698229738784681e-03
-2.948224918388916288e-02
-2.065219833705957825e-02
-8.943529472635394773e-03
7.625450056200360968e-03
-9.409362730864913316e-02
-1.102680561647166463e-01
-1.044516824486621115e-01
-1.180207255211310549e-02
-4.186377950285516750e-03
5.227472409505034417e-03
2.661249086475645995e-02
2.929618531501652634e-01
-3.127554871599688008e-02
-1.875804958700421840e-02
-7.626707017375312925e-03
-1.493274748364136102e-02
5.661562738250496517e-03
7.994246490229625114e-04
-9.134977557000305325e-04
6.704556317244431130e-02
-6.331005008372227183e-02
-6.853050145949560190e-02
-1.697540752175905054e-02
-8.280546698224275359e-02
2.723553902163088417e-02
4.335951136211079610e-02
6.052620546927544448e-02
1.005001701942026399e-01
-7.131346600972921813e-03
-5.040659679403181048e-02
8.117518776342556863e-03
2.012118321514733132e-02
-2.050381493298947949e-02
2.213464149926537214e-02
3.227519737371069286e-02
-4.606782536471672879e-03
3.126959927394339393e-04
-3.116857441817978691e-03
-2.634444271358583715e-03
-1.593106696002426215e-02
2.246884556279784076e-02
1.757692281027226425e-02
-5.198685186479530367e-03
-1.347741050612917199e-02
-6.858991239856722377e-02
6.137547862927570687e-03
-1.020425946067705751e-02
1.258899857261761290e-01
-7.768229886086516420e-03
-2.847176305939222614e-03
-3.399254311358697322e-02
-8.625412424246772097e-03
9.198698332215718421e-02
-3.617598659203342254e-02
-8.960335973420364974e-02
-3.605925698701394067e-02
-4.328375035584588852e-03
3.597342966162474925e-02
2.207547849460145609e-02
1.613108687045216108e-02
-1.265711135883648142e-01
7.745528589688162324e-02
-6.160429299882224340e-03
-4.167492591081910051e-03
1.634659134081519957e-02
2.999094611972919280e-02
4.800650714850260986e-02
-3.490029502659960925e-02
7.162931555519676252e-02
-2.619636760546373289e-02
-4.265737137635990106e-02
-4.318082979814188982e-02
4.796157548841245566e-02
-1.826711243471030796e-02
-1.859058606296665542e-02
2.930137623403326549e-02
2.116369090079439352e-01
-1.029002012362907961e-02
4.417965424507659666e-02
-7.909012402319588741e-02
-4.078788527259056412e-02
-3.765126694367835342e-02
-9.358018687589986229e-02
5.582919985972895766e-03
-1.059993527108842315e-01
-4.062305710172040007e-02
-6.004114455960311847e-02
-2.352724726829754157e-02
-4.530272021870748733e-02
-2.965132958636567534e-02
-2.614162576045514497e-02
3.312864772060334362e-01
-8.433781160513875719e-02
-6.595369827349915372e-03
5.578690210540904193e-02
3.344285616692612567e-02
-2.524862139266964393e-03
3.940397005486192400e-02
4.050909774927145823e-02
-7.568478250471294411e-02
-1.042678447811876651e-02
6.457633278604371641e-02
6.557594461330069902e-02
-8.853984242019097978e-03
-3.152670851340587540e-04
-6.899237579084996352e-02
1.144101941452700839e-02
-5.300488521774940343e-02
6.931317623491208522e-03
-5.183690161995473805e-03
3.103874657015200447e-02
-3.220308201887769894e-02
1.554416110447075228e-02
-9.643620002416072867e-03
8.054211359335127982e-03
-1.453804447415983983e-02
-1.998334089070937652e-02
-2.679465960901629418e-02
-2.779664698203987080e-02
5.681746315566641586e-02
5.316032340380045379e-03
1.009267964637764955e-03
1.459927154923018958e-02
-3.167387528148909830e-03
-1.231160192192883897e-02
2.374383669067833130e-02
3.975977380563416180e-02
-3.380874662317537999e-02
-1.676271860988368806e-02
5.106461212760089741e-02
1.958392585355041293e-02
-7.126908132247605776e-02
-7.455965705787948039e-02
-9.064414138204372751e-02
7.176048536686720214e-02
1.724913650360156364e-03
2.700045330760683301e-02
1.501921981198984200e-02
9.951281658238549793e-03
3.974744464486060919e-02
-1.440926190230837622e-01
-9.662126852468945482e-02
-6.319169393883970753e-02
-2.117089968353881926e-02
8.391999156686962003e-02
6.689684481645591374e-02
4.724511253008618905e-02
1.270145322567401147e-01
6.905244913162324194e-02
-3.673675754860699499e-02
-8.951802380147154403e-02
-5.640500835474598906e-02
-1.389907086199998129e-02
3.442242895580682055e-02
2.792362478876245224e-02
6.516035769063185934e-02
4.672287232438016719e-02
4.638128065771728731e-02
8.715276629554828680e-02
-1.617082647554441560e-02
-8.410156455539456732e-02
1.190877409332159005e-03
-6.618007748372468912e-02
-1.499532817231428658e-02
1.947793849306691041e-02
1.145264965337984969e-01
5.857847759140879379e-02
2.256868891488640269e-02
-4.484021622685963266e-04
-5.136513066311065162e-02
-6.619016025699565875e-02
-9.714790845078535853e-02
7.948352830625973753e-02
-1.709718925987743429e-02
6.987506384846220095e-03
-2.566993665309651521e-02
3.735449404494857462e-02
-4.163641453209077081e-02
3.203192222867443789e-02
-7.145391051966430707e-02
-5.739103603423621747e-02
7.016021224432896202e-04
-3.940095528517770576e-03
7.171177311118030751e-02
-3.483831771713390146e-02
-5.004347132615404731e-02
3.505517796004182368e-02
3.874436741237638482e-02
-3.787883953336209503e-02
8.497229346547400392e-03
-2.621038474205968083e-02
9.603524058530391039e-03
-2.147191472053042519e-02
1.736044608900171732e-02
2.909103797020356000e-02
2.100890153166914270e-02
1.827534437085285846e-01
5.360060807497058627e-03
-2.982262350132920681e-02
-7.143638849569695914e-02
-2.926256162140506920e-02
-2.172052565289976644e-02
9.786062978482230890e-03
-4.565746822317679615e-02
-2.477653597590789587e-03
-1.292667733455044911e-02
-2.867532234048997090e-03
-2.428890209598541863e-02
7.758998087901526793e-03
-2.802584733588199886e-02
-2.641659735434381817e-02
8.924421186449998933e-02
-1.144363456136345408e-01
-4.407452207559015706e-02
1.502198809939044900e-02
5.041573435973547429e-02
3.411850610305408593e-02
-3.087185384383799025e-02
3.307507159421043536e-02
5.675142137667219672e-02
2.704635578788227093e-02
6.888457609915148161e-02
6.289325032854747866e-02
2.156454614865659092e-02
-6.146530249646726951e-02
4.171813302316092903e-02
-5.957465645312545743e-02
-1.010669024378058195e-01
1.576211323746535067e-02
-3.038090228194205780e-02
-5.030409869318938632e-02
-3.113972560929671382e-02
-2.481613367294265016e-02
1.012247137383578792e-02
-5.516520261023093348e-03
1.162727959070926909e-01
5.555023300813246440e-02
8.462657307860918521e-02
5.645485986519960253e-02
-4.415518851717212950e-02
-2.754620503397598938e-02
9.269423930100193203e-04
-1.889444322324289327e-02
-1.069627715705605137e-01
1.551251010525431795e-01
1.109404387414234840e-02
-1.009149678686557805e-02
5.971408481510270989e-03
-6.709397847034698215e-02
-3.075896647687775473e-02
-6.198030390429540293e-02
-2.265807769810212861e-03
5.549747338288063547e-02
6.556655456764376444e-02
-1.311555892690871861e-01
-2.011266599114586162e-02
-4.362380800441242705e-03
-3.427426672612331193e-02
-7.741510121211784591e-03
7.658238495748476149e-02
-5.312926570179891950e-02
2.601505378103071905e-02
4.656800106185523397e-02
1.431193402137506954e-01
6.944535384167855457e-03
-5.318060230412265804e-02
-5.760947582551098275e-03
-1.105761148523318610e-01
1.020432223750199902e-01
8.114010157033944501e-03
-9.884704031218117734e-03
1.178571637813249744e-02
-3.533356332648984743e-02
-2.835014410894870149e-02
-1.525510409902771855e-02
-3.311943334450195148e-02
-4.892213462499779564e-02
3.668688437350232229e-02
4.845659429061386497e-02
2.341012255653921251e-02
3.461822950130843610e-03
1.707030255168378783e-04
-5.060108853228028475e-02
-1.266290403902494213e-02
6.058383567627370625e-02
-1.112121315673616495e-01
-5.520304984406058935e-02
-4.353987868009756568e-02
1.966062395634608079e-02
8.990097004861929975e-02
4.825661752854144143e-02
-8.446987118260657762e-03
3.405075533961498396e-02
3.506673990107391642e-02
2.700496882916960176e-02
-7.758671854598764295e-02
2.980006933637249084e-02
-4.269104631251612741e-02
-2.146127358978976510e-02
1.581650504206267779e-02
6.493025393583419513e-02
-3.082567341862194402e-02
-8.534531351697088875e-02
7.067815351498690779e-02
-3.071682302871874340e-03
-1.109647278229352121e-02
3.428396660282657330e-03
-8.697662090345477728e-03
1.770166428791676572e-02
-4.959619957471401823e-03
-1.405746290689944319e-04
-5.961884484508144302e-03
-3.651350560426761243e-03
6.139117625991960016e-03
-2.154534191222176164e-03
-6.972818091211242970e-03
-2.013948367550225382e-01
-1.193418968801942953e-01
-3.539333901901748486e-02
7.357145771632989106e-02
1.272683258594881905e-01
6.845645209696291089e-02
6.576003595975965510e-02
2.107380102169385469e-02
-5.428061483520273123e-02
-2.578800594979576560e-02
6.379560313562445371e-03
-2.052902799197357797e-02
6.578779751429375544e-02
-7.259029071592468674e-04
-1.576378812632821952e-02
4.491998198260323261e-02
8.643988711060901498e-02
8.635408137680532573e-03
2.163552144083879386e-02
-6.493903145623003414e-02
-3.239867612995092194e-03
1.295829698334153603e-02
-5.301665431722166200e-02
-8.473560286023154586e-03
-4.867141633345815205e-02
2.724264526164899090e-03
1.036508494656511502e-03
8.729260247001499953e-03
-4.113196410295449803e-04
-1.447118940882820455e-02
5.190422935040662350e-02
-8.403372349136807671e-04
-8.128241381873598306e-03
2.780672569296751759e-02
7.704869264696923709e-03
1.857307044099953605e-02
-3.940936870649486452e-03
-7.638639066090873245e-03
4.406684169987608963e-04
-3.481751649704882545e-02
-1.105886666942927643e-02
-4.113748079407792378e-03
-4.155945822363644494e-03
-3.995569302996499449e-03
-3.465154067876652453e-03
-3.740546771622959513e-03
5.521934107025137928e-03
2.500789660667170067e-02
1.147703231112875283e-02
-8.711360349096687605e-02
-6.664941834084904537e-02
9.252280414487942112e-03
-4.832345698254705835e-02
-1.366831442943299869e-02
4.552411927182439810e-02
1.495013612463546582e-01
-1.306495457835110396e-01
-5.741176114010340670e-02
-4.428890904832837559e-03
-2.322211449643863876e-02
9.774262264603533756e-02
7.772702946344987873e-02
8.346660848640191643e-03
3.189599936676063008e-02
1.139360603486788970e-01
5.879255111748520057e-03
3.719531459164009818e-02
-5.944771995240778761e-02
-5.019950837245134440e-02
-5.393290899891325929e-02
-1.340983801251081214e-02
1.997934528421569864e-02
-3.359692539525648697e-02
-3.778707502619514007e-04
-8.147783224852117590e-02
-4.933948584203307758e-02
6.823820720181481003e-02
5.437941909000095636e-02
5.202371120748199712e-02
-9.849223263225032748e-03
7.931376036318246725e-02
1.953248746747538941e-02
8.787790370030674689e-03
-4.731795255943981038e-02
-4.967152811174489063e-02
2.000591681716304068e-02
-9.445484526168463702e-04
-2.970592589404996708e-02
-6.531149216957198023e-02
-8.010065069255606351e-02
6.232676474798747729e-02
6.157443370934564258e-02
2.817595227015955162e-02
-1.506285760920184069e-02
1.532206848987853649e-02
-6.924218746041130128e-03
-1.082942656261944026e-01
5.766619920922431280e-02
5.066190018680893220e-02
4.344426866554946913e-03
-1.840025607331130519e-02
7.294370880352005378e-03
1.993603025838633705e-02
-1.320840570182090813e-02
2.628039922412722315e-02
-5.410206198780385944e-02
6.328185509542488818e-02
7.459278606861843852e-02
7.511388633058900359e-03
-5.397739618714780113e-02
-1.891237453757358203e-02
-4.467459630870414256e-02
-6.042262097318432806e-02
7.938717875514593458e-02
-4.225524762092933151e-02
4.902383594189229504e-02
-2.005165333192576553e-03
4.827748069422287819e-02
-1.544082977774925486e-03
-7.046137848617994859e-02
-7.369239570142252505e-02
7.674616736515734242e-03
-5.475046379596349919e-03
1.200541426428567565e-02
2.526728583214168586e-02
3.399799780067183641e-02
-1.124226251242861109e-02
1.146438995983247756e-02
4.537785754776489373e-04
-2.443679717672028739e-02
5.474516667345695475e-02
7.595136436268792868e-02
-3.581514768114053837e-02
-4.857936093873163608e-02
-5.227410298728981698e-03
-1.709159351630104573e-02
-6.080805670637718513e-02
-2.008844150641518871e-03
6.650743857047258789e-02
-3.758422963842378978e-02
-3.182079558511922285e-02
6.860533313208933004e-02
1.500026454072434304e-02
-1.789111016272449187e-02
6.285787234646350585e-02
5.149041479301516046e-03
-9.179058097895252677e-02
-2.014553791567935681e-02
1.361196820716818918e-02
-2.098607548034472567e-02
3.121077486118806893e-02
2.009253748085520347e-02
8.334102150108217699e-02
-8.476019512614523313e-03
-1.663482782076462080e-02
-7.349694530611300923e-03
-1.586375325794602345e-02
5.152758789716858218e-02
1.151523153786125110e-02
-9.805954581417576643e-02
8.693629735422107874e-02
5.775840929244751426e-02
1.234342704813737868e-01
2.471485986487349101e-02
-9.474992692525305293e-02
1.088725269986475126e-02
-9.211467319159558076e-02
-1.168664895759315148e-01
9.743155920515969570e-02
9.056082174316343325e-02
-1.306155181966862922e-02
-4.626385176023747187e-02
-2.941586724297497527e-02
-5.192726809378236247e-02
-5.996552325899079383e-02
1.264168122733095798e-02
-4.154492319519829252e-02
4.325355159460700372e-02
6.641154964607300093e-02
-1.623492609655312335e-02
-2.389479090935762648e-02
-3.545209635139714988e-02
2.309798031557361991e-02
-1.563634500374750866e-02
-2.105959919820547116e-02
-3.487619544210780742e-02
-2.637959336486879122e-02
-3.649599359604997068e-02
-1.635449606230896316e-02
-1.116580917390032693e-02
1.228534988520540473e-03
1.451031518489207806e-01
1.175662067407779454e-01
7.702067907629188762e-03
-4.875095431078927538e-02
-2.391321789901813474e-02
-1.812149680046252695e-02
-9.948233306424230510e-03
-7.895737534074440817e-03
-1.663863479763847547e-02
-2.727811541836049070e-02
-2.604395872207807688e-02
-1.591399689284220612e-02
-2.492854355942623890e-02
-2.209909044692379143e-02
-1.042365784911022247e-02
1.099770537513540970e-03
1.255875923512275727e-01
-1.070396403490237597e-01
-7.559944928479150894e-02
-1.406695615178715775e-01
-2.922161655554945947e-02
3.919515030221493168e-02
1.396978866994095028e-02
1.180102770269088885e-01
1.813550517081714275e-01
5.126318365213541201e-03
2.451254545491391920e-02
-2.678754377994489646e-03
3.418868014650877640e-02
-2.795551389322769621e-03
2.180438546474987652e-02
-3.128350464193430797e-02
-4.887411902213456560e-02
5.828137403451740667e-02
7.373979465414634560e-02
-4.097985520510217389e-02
7.272864780953551371e-03
-2.820274632355211294e-02
-1.189201511408312546e-02
4.995939404773928373e-03
-6.321535623165387696e-02
-1.194019951522618840e-02
-1.165736042776789778e-02
-4.566977747117414305e-02
3.577769336433927333e-02
2.492076143421533690e-02
-3.570124998134283079e-02
-1.454642411433761323e-03
4.572477500839024211e-02
9.678713691454987264e-03
2.664849295946411512e-02
-2.817468141859918312e-02
-7.209074403502035815e-03
-1.712032962283747614e-02
1.450671049283383529e-02
4.294711876103399911e-02
-4.127695045984828420e-02
-2.285944069932795836e-02
1.776852941534752539e-02
1.548677322639612462e-02
-2.805164390340687819e-02
1.637846505612602227e-02
-5.154131320856845597e-04
-4.296663156070760527e-03
6.089393193021576389e-03
1.576211323746535067e-02
-3.038090228194205780e-02
-5.030409869318938632e-02
-3.113972560929671382e-02
-2.481613367294265016e-02
1.012247137383578792e-02
-5.516520261023093348e-03
1.162727959070926909e-01
1.413192165996634587e-02
2.232664640884732092e-03
1.854616259097203665e-02
8.897293791853333467e-03
1.266007856456507000e-02
-2.229049958525435374e-02
6.125369111997567119e-04
-3.479015857418691487e-02
-3.127554871599688008e-02
-1.875804958700421840e-02
-7.626707017375312925e-03
-1.493274748364136102e-02
5.661562738250496517e-03
7.994246490229625114e-04
-9.134977557000305325e-04
6.704556317244431130e-02
-8.415480359615342201e-03
-2.101756616062494532e-02
-8.741226613681062074e-03
3.319582596430016574e-02
2.790925745864707326e-03
1.962115670655520741e-02
9.717204097345437386e-03
-2.715083938014420384e-02
-1.042678447811876651e-02
6.457633278604371641e-02
6.557594461330069902e-02
-8.853984242019097978e-03
-3.152670851340587540e-04
-6.899237579084996352e-02
1.144101941452700839e-02
-5.300488521774940343e-02
-6.858991239856722377e-02
6.137547862927570687e-03
-1.020425946067705751e-02
1.258899857261761290e-01
-7.768229886086516420e-03
-2.847176305939222614e-03
-3.399254311358697322e-02
-8.625412424246772097e-03
-1.998334089070937652e-02
-2.679465960901629418e-02
-2.779664698203987080e-02
5.681746315566641586e-02
5.316032340380045379e-03
1.009267964637764955e-03
1.459927154923018958e-02
-3.167387528148909830e-03
-2.686034117312724456e-02
2.827410885246053884e-02
-2.554412602870017625e-03
-5.007826840148636022e-02
-1.878568937458584666e-03
-1.410343210423852314e-02
9.700363581636001556e-03
5.750055078508426593e-02
-1.231160192192883897e-02
2.374383669067833130e-02
3.975977380563416180e-02
-3.380874662317537999e-02
-1.676271860988368806e-02
5.106461212760089741e-02
1.958392585355041293e-02
-7.126908132247605776e-02
7.975752573006899757e-03
9.462183193241695267e-02
-3.138887912198212726e-02
-1.579539773232028696e-02
-1.785896170788679738e-02
1.974464997410617633e-03
-1.774273906938627493e-02
-2.178607187125905509e-02
4.714203899368150236e-02
4.890078889999294881e-02
-9.254004040316897439e-02
-2.097620982260370651e-02
-1.248850245990837382e-02
-8.670122818624823036e-03
1.871559505294276976e-02
1.991645255768857009e-02
-1.059993527108842315e-01
-4.062305710172040007e-02
-6.004114455960311847e-02
-2.352724726829754157e-02
-4.530272021870748733e-02
-2.965132958636567534e-02
-2.614162576045514497e-02
3.312864772060334362e-01
1.688448746738112696e-02
4.198306364108837785e-02
7.458714836743390864e-02
4.988034588296318128e-02
-8.273198164358294693e-02
-5.448226406066540226e-03
-6.477113772002146552e-02
-3.038369958919556746e-02
-7.309480236488092274e-03
5.127935411464504267e-02
-3.564503807641779265e-02
1.296846084562462177e-02
3.482763307828600635e-02
-1.687643383585229334e-02
-1.185114256299578221e-02
-2.739335332680169904e-02
4.849360378971319320e-04
7.787823978826861893e-02
-6.859089538534385994e-03
-3.220149810675546065e-02
3.370885382926253060e-02
-2.373388594853618680e-02
-3.453515537240126054e-02
-1.474240068920098200e-02
-4.209613314850035870e-02
-5.934292024900774884e-03
6.653025866662719279e-02
1.121948416989461232e-02
4.237950648348912802e-02
-1.637807334576021553e-02
1.804797490021625705e-02
-7.376872570106590699e-02
5.896205278539353757e-03
1.381950559866516881e-02
1.079912436386233805e-02
2.000695398050548676e-02
-6.639925172129385045e-03
-9.255342054632055560e-03
-1.217577788905709751e-02
-2.245074410575381013e-02
-1.054269206365797407e-02
9.729603107671767198e-03
2.001529194117447619e-02
7.690422684594152777e-03
4.400043675174673818e-02
-3.163533914389899575e-04
-2.348872630501777983e-02
-4.708798272507228044e-02
9.269419774168499368e-03
-2.804555149927858912e-02
6.763968226908957312e-03
-2.171676508595029101e-02
2.207875823955198630e-02
-3.476724630307394433e-03
-1.728840468198366426e-02
3.241529965689047416e-02
-5.112044443789712060e-03
-5.142261319387480406e-03
4.552702243236703833e-03
5.520506806671609396e-03
-2.457603502820536988e-03
-1.798506291070778437e-03
-1.359786115961473477e-03
5.796992623121662719e-03
-1.517966057853066368e-02
3.055565598514813769e-02
1.960705250333268090e-02
-1.614855292082065241e-02
1.430107505533467077e-02
-9.540392753548640123e-03
-7.040704206693947607e-03
-1.655447308422157079e-02
1.935326706068560970e-02
-5.804549244708123723e-02
-3.254880770793988892e-03
2.749476632038318213e-02
3.621580241877134232e-02
-6.101505147168247330e-03
-5.086772237176653833e-02
3.520576493696986331e-02
1.158967609831551837e-01
-3.674043298573999999e-02
-4.596575155949860630e-02
-1.642059424111480884e-02
8.927165323599302663e-03
7.012522791186591269e-03
-5.566005323294090021e-03
-2.714366498829356641e-02
-1.440926190230837622e-01
-9.662126852468945482e-02
-6.319169393883970753e-02
-2.117089968353881926e-02
8.391999156686962003e-02
6.689684481645591374e-02
4.724511253008618905e-02
1.270145322567401147e-01
5.378115363865597354e-02
3.196128872047290098e-02
4.115424209548804169e-02
-5.959693978585593743e-02
-5.112059909646774619e-02
3.265723868534596563e-02
-1.399773757755981216e-02
-3.483864668007949361e-02
7.858082289739307114e-02
-5.259653269498062306e-03
-1.085991191551111991e-02
-1.904909581720581196e-02
-5.471097655080759022e-03
-1.767339874971156355e-02
2.142862543118110447e-02
-4.169629092156681982e-02
5.028012885643761559e-02
-1.127447144917150500e-03
1.990957801723855503e-02
1.009590825801525392e-02
-1.959451698297924940e-02
1.980305224240834147e-02
-4.860965396824024065e-02
-3.075704927796311244e-02
-2.105959919820547116e-02
-3.487619544210780742e-02
-2.637959336486879122e-02
-3.649599359604997068e-02
-1.635449606230896316e-02
-1.116580917390032693e-02
1.228534988520540473e-03
1.451031518489207806e-01
0.000000000000000000e+00
0.000000000000000000e+00
0.000000000000000000e+00
0.000000000000000000e+00
0.000000000000000000e+00
0.000000000000000000e+00
0.000000000000000000e+00
0.000000000000000000e+00
7.304092625632896407e-02
-3.096418233580927690e-03
1.072254573246301558e-02
-1.105627704081932816e-03
-2.763936528192726880e-02
-1.718963253131185892e-02
1.621972678311929582e-03
-3.635440091620185249e-02
1.048711646527188471e-03
-5.519600496389874674e-04
-4.370899061812086051e-05
-6.231486458822918517e-03
6.510414671246514060e-03
-7.976141376746037973e-03
2.700437139892201098e-03
4.543733418160155260e-03
-2.972736520844227598e-02
5.548521248558068580e-02
-1.846819367007444465e-02
-1.124738154365669332e-02
-1.331913761484336371e-02
3.783671215338893154e-03
-2.093838315380849510e-02
3.443157748990569728e-02
-3.651262738422274973e-02
-1.076374159188023122e-01
-3.652481110541568043e-02
-2.583937695372637636e-02
-3.552357171347460436e-03
8.693962184190003051e-02
2.242782563097725848e-02
1.006991410606372650e-01
-3.240379826809122732e-03
-6.231858829482979541e-03
2.501591228493052661e-03
1.541412485663595615e-02
1.032126827616168269e-03
-5.454654258146599335e-03
4.957743822917231452e-03
-8.978693821223718632e-03
-7.103741659849609202e-02
3.671408374061373159e-02
6.237166700003512337e-02
-2.041088213964587991e-02
2.838124043546208161e-02
-4.189029018142249178e-02
-8.504881496215432185e-03
1.437647923966891249e-02
5.844238326730974431e-02
-1.901319051033691435e-02
-5.089147114514069870e-02
6.745007315127508896e-02
-9.944837235689445165e-03
-1.961871919101118925e-02
-6.206498538813500290e-03
-2.021773979759306991e-02
1.147703231112875283e-02
-8.711360349096687605e-02
-6.664941834084904537e-02
9.252280414487942112e-03
-4.832345698254705835e-02
-1.366831442943299869e-02
4.552411927182439810e-02
1.495013612463546582e-01
-1.079457644641971248e-01
-5.736164943319295439e-02
-9.256463759160117946e-03
-1.365577804420960682e-02
4.884837828040441976e-02
-1.540902483577952752e-02
6.736497838284251360e-02
8.741532387329242759e-02
3.325041139219132857e-02
4.514682293824891918e-02
9.736633367087264845e-03
