2.3299568583945747
1.2693971985859767
0.3835429058958715
-0.22356052298325485
-0.5076897247876975
-0.8338045235228285
-1.34766535018837
-1.0701768413942718
-17.056073439814764
-13.457351352787684
-7.809229250196566
-2.711933467326855
-0.18272199942198278
1.189169208925938
2.1276897014205445
37.900450599201186
0.23311488671566985
0.17427594125531737
0.1080967332384047
0.13342373872415966
-0.04824280718456833
-0.12995002604616995
-0.13600078180237532
-0.33471768490044235
0.14232883886614617
0.20720142197456923
-0.07823100422910478
0.16160894509933887
-0.06457347528196043
-0.14233654517203434
-0.15945129039089706
-0.06654689086605597
0.0980852354047687
-0.05541245750024615
0.042509550243819236
-0.05066928984940904
-0.10616152908230386
0.15749458757551998
0.02134025668227287
-0.1071863534744216
0.15165742450738096
-0.032365628171665425
0.03866400742182826
0.07543293407781566
-0.08120127424740448
-0.012085850675554897
-0.07310184503298886
-0.06699976787941246
0.13794865397626896
0.009202082605881248
0.045524614556184576
0.027631865052252444
-0.12844500298149236
0.008298007880119515
-0.03419864667109426
-0.06596157441811815
0.07908405513853058
0.08454144032728253
0.08127048317603869
0.03800926761030012
-0.08983755704948812
0.03151541124423962
-0.14329653625265137
-0.08128656419425478
0.1391407956911693
-0.021065915278123855
0.09545384056494188
0.04099506593501209
-0.040988264456518965
-0.03568334092324689
-0.10335949632412204
-0.07449268520910954
0.14367023057265882
0.14091175602781308
0.03802806304892543
0.22918632081937257
-0.07993412634528148
-0.2663296148778399
-0.026188344586386195
-0.17934428465926064
-0.036698898488601764
-0.0979055091536403
-0.06152922473731022
-0.07854093884869826
0.0035167663567988545
0.11929700328884768
-0.025601657021268067
0.17746245860387114
0.0586133851007437
0.009970199641874894
-0.010076853745384012
-0.07105369752778713
-0.1076285141047633
0.06309932178154876
0.04915892552376723
0.007917233329999034
-0.09432117084462345
0.08859772028313287
-0.010580700015435625
-0.002815955358232453
0.007025384870153985
0.05385062216891904
0.033988211332308865
-0.0757441124362231
-0.032745970521488595
-0.016315663957147626
-0.07895888211053609
-0.027980844122326955
-0.05188331905856621
-0.009598628798690358
0.16872580053189393
0.048757508036861956
-0.16783711195558557
-0.11409304556433796
-0.05874878828653493
0.02994712849028095
0.21149482032866307
0.20302077738412966
-0.05423879492570148
-0.04954498547091395
-0.07318312612422105
-0.11899845023784471
-0.10841945514540147
0.015384693186992213
-0.08728030194867312
0.18376127674463663
-0.014391133200338902
0.20312649672485147
0.020470670037786905
0.07457124068540759
0.09134733692142295
0.10906296513808807
0.017790957055275315
-0.03158391053730934
-0.1924554617764182
-0.08920379752425281
0.02559726637426608
-0.08370711633882691
0.02323475992534845
-0.05502715084637279
0.060272023994697235
-0.0231900570368372
0.08904794189933132
-0.036227667971606516
0.06980355021670229
-0.07857261017063707
0.021040404091799823
0.04595502816591764
0.06645985835732433
0.080412011453671
-0.26639837901345625
0.061300136898678664
0.10150557397315732
-0.013467425029822839
-0.00011192622299995405
-0.08936649073291444
-0.016570127821989186
-0.0646538481645478
0.10220539723984162
-0.019541153240724845
-0.11905258933147411
0.07585445551680702
-0.032837249525101635
0.030413524027923525
0.3237319920788619
-0.31374838363087837
0.22920849686606423
-0.1935702460022017
0.29294418307845305
0.15535139385787555
0.1612846240536514
-0.02190681720594408
-0.0612703846107946
-0.013217084472911946
-0.3340193618646887
-0.1791665528356456
0.05882959810957845
0.10482539735994494
0.18033423560626724
-0.05504893937694559
0.10964410238557426
-0.1913229855147137
-0.13675151150240097
-0.07050989706730565
0.2963544521705736
0.1430177721027424
0.383924025434079
-0.24068667059163484
-0.20750423260019119
-0.13856070340302504
-0.09249558825881228
-0.14404905485373154
0.17536332430402352
0.04015398271117397
0.015465709869229866
0.1796315632984303
-0.056064918845728146
-0.06112375089371815
0.1383595930272798
-0.4317855034706946
0.2906105249673815
0.17792346255153604
0.05630143181153143
-0.05217716738641884
-0.10501676407001596
-0.03302629028566435
-0.25225856197599017
-0.08235663561236
0.23595189261006502
-0.028769550448469794
-0.0077156529021614115
-0.1376019964917384
-0.01014498063628965
0.0332469065325682
-0.2685859707053723
0.18361935204139954
-0.17671109636648744
-0.11418797329628433
0.06093970484878236
0.27964495363435826
-0.017124483817662604
-0.10980981640612666
0.055972964924104605
0.021275746479314597
0.09974628590579149
0.22915008018487829
-0.2821360755678755
0.06645466554658835
0.18998009827242218
-0.12313000161903134
-0.050400256940799526
-0.12966479578197393
-0.14224896012359975
-0.19398543907844512
0.08290850303249384
-0.0666750481459848
0.02116007688633114
0.021984545722946225
0.10557186539210565
0.17128445631415368
0.327143384984339
0.1052637374955502
0.11777227013529917
-0.09052722887827211
-0.2627375559941405
0.08848404535556055
-0.1143406294819607
-0.1710580236163755
-0.04872165606535432
-0.10662255099477039
-0.12032804386639716
0.07903127580096994
0.034012347819127264
-0.006234884361640941
0.19181477109796427
-0.022951259429897227
0.1916722411144378
0.04087529323938802
0.012375287398690836
-0.056142429237048215
0.18226774086776018
0.019368433705082646
0.014693442542584471
-0.405110009630897
0.38490408390906833
0.17514347493394344
-0.07760975650004986
0.08045255601360973
-0.0050362498470498665
-0.009057109499739011
-0.17022949987725208
-0.3785674991325322
0.048960594707288696
-0.1307037160922645
-0.10891875968110198
-0.02294540336175356
0.05175400807928169
0.053008156397150265
-0.03422157035005652
0.14306669030145525
0.10142530882659102
0.022614044870053092
0.013911103780660336
-0.018339001371555586
0.022824659783056218
0.009317862730988984
-0.11247031090997923
-0.03928366770981421
-0.015588677757777445
-0.017017505651073107
0.03701768814223009
-0.028418119746269677
-0.01193715681230882
0.040597039807321565
-0.021215176522600975
0.016561908540480536
0.04769290588473874
0.043770358611952734
0.05605027178324913
-0.03748753177413874
-0.2022489851965729
-0.0692625871604185
0.1276542153508869
0.03383135250030379
-0.026025826703810505
-0.04997253410735064
-0.011185099309125911
-0.11338985139296336
0.03907318150438192
-0.015162828402350406
-0.057660163791812734
0.23432312220303247
-0.10597276257449695
-0.09844185245763928
0.05818024749752881
-0.07025578774675509
0.001037149505996155
-0.1018705678524739
0.03269662946781722
0.28462694416002465
0.06273177655780439
-0.003693102978936709
-0.03709049946469257
-0.04502882096561386
0.05240887345711616
-0.10839202725200787
-0.055006811308799225
0.1340706119551294
0.05293705800378836
0.044652290183105306
0.1468917762250326
-0.034336180598910124
0.0078746905271617
0.04709457113702301
-0.06255344360683295
-0.2025607618703686
-0.019604616388639057
-0.12421262688901928
-0.04665943448380187
-0.051972766936411376
0.046901521735994385
0.1100465898058986
0.02091571898927429
0.06458561416670446
-0.049566192132499125
0.28104819959346383
-0.011372097988142794
0.004987845420699853
-0.06274356724428036
-0.026927040463093552
-0.1334601610120683
-0.001966986174080393
0.09092601263577454
0.08266085386156022
-0.0384774446522175
-0.16546064185656975
0.019054368496353623
0.02949925761184843
-0.0492606141995313
0.03105820810278261
0.16845832025828042
-0.01730649979331679
0.1504304197729536
0.018701278030147168
-0.0468399972811607
-0.06453811056238497
-0.07965877453139046
-0.12924663589312815
-0.05224252170073647
-0.030359879619414522
0.02903117636307322
-0.052951924601154915
0.02044076925431301
0.08502845017987652
-0.05198625034213528
0.05304018046617814
0.5134238521175176
0.33249676295601843
0.020031963502254516
-0.049625251333878
-0.32183292940663516
-0.13716610093381898
-0.2466318940194608
-0.11069640288199505
-0.015765049619866613
0.1563094355234372
0.0727239163979779
0.14534722063448227
-0.16852636563188433
-0.20895488181181143
0.10804689517745404
-0.08918117066979055
-0.3748016899244018
-0.14862146239144175
-0.2292312016573108
-0.07693635802964824
-0.1104094498237998
0.3175007022195575
0.34928936640439523
0.27321009320264517
0.03517162551394902
0.0684099095520979
-0.01145683971769568
0.016824568578458026
0.003622689378152132
-0.046823792228942576
-0.07548533877087933
0.009737177694860212
-0.14001795771327388
-0.37449453746735284
-0.377534056086546
0.02784792684627641
0.0426656451740007
0.03352236760005502
0.3247144739916199
0.46329613765522293
-0.22019972303977023
0.40539306934911923
0.31027849871058416
-0.27194347425876103
0.31149297061880565
-0.1601388655554969
-0.1589200758598654
-0.21596239996461636
-0.12681517296355535
0.31363163955306345
0.19476954925952575
0.2040691974745838
-0.10200297890423217
-0.20696722222902056
-0.023936580194108086
-0.25274843199625663
-0.006686124237191961
-0.21123230778662608
0.14406691392577498
0.16271285260351268
-0.02385853614862953
0.2457849972970063
-0.16363747962278696
-0.14715031603106185
0.24150732384203294
0.2273896235172869
0.154070572788681
0.07222610033533476
-0.21745728835712294
-0.24657163027075416
-0.06415898169931238
-0.167005720156145
0.16724610226515724
-0.015348122520592939
0.0016463192795986726
0.10385105382408649
-0.06926411743509488
-0.05268289048287635
-0.05188666851038721
-0.08356167641989172
0.0703463203072972
0.15329688167027172
-0.012464716465855764
-0.01744438627962114
0.10231856106969232
-0.08065750554415815
-0.20994925639732112
-0.005445898360304682
-0.08924462672608174
0.021556387376908924
0.0985263906310073
0.06728605362927899
-0.02568338724985886
-0.03243477069750681
0.00920367434081218
-0.04920972130456057
0.1369180761521797
0.024536771204910518
0.1408903480626441
0.06514205782446422
-0.1350449433810631
-0.056649157538254974
0.10886595934975617
-0.28465911167463515
0.15090308069309602
0.11652454347025164
-0.02248449219509704
-0.040326288106298507
0.0405053582729363
-0.056400546702964044
-0.0839388940686294
-0.1047827613632951
0.1519065955866761
0.08057432417738192
-0.038539122575195366
0.0388903291003815
0.0017804722035234778
-0.03213267837291999
-0.1062245631089787
-0.09625535701086932
-0.24871703247082755
-0.26732183223165246
-0.31529169974729754
0.01611111641010201
0.13720999441766063
0.00796117233664971
0.24936576732835
0.4206825139570132
-0.06524093229702442
-0.13209592465914044
-0.055254154185566014
0.0667888065628263
-0.12372600159876081
0.09106695073821083
0.1998469797232691
0.018614275716185638
-0.11405749667452544
-0.05437634496934931
-0.01377524554452161
-0.1800184264715568
0.20221139236901778
0.22119246417252258
-0.053326421627265225
-0.007849921254322018
0.17942051060092987
0.1567871429607047
0.015788012398609264
0.125064490896265
-0.06461743972131924
0.1489808148287578
-0.38311544457262986
-0.17830808739131745
-0.14965914463051663
-0.11057188995716398
-0.05839566175188001
-0.08208698550838175
-0.18528188942463353
-0.11979052950010392
0.0984820501230258
0.6073040506496633
0.0
0.0
0.0
0.0
0.0
0.0
0.0
0.0
0.14367023057265882
0.14091175602781308
0.03802806304892543
0.22918632081937257
-0.07993412634528148
-0.2663296148778399
-0.026188344586386195
-0.17934428465926064
0.021179548064798992
0.0720002154969861
0.07100526793026135
0.03003758269490166
-0.09601761380254313
0.05203065679245498
-0.13370746867791175
-0.01652818849894828
0.03743383703594596
-0.06203001585511142
-0.08108212167564473
-0.10109128022268919
-0.011610900302219876
0.011068664989094095
0.18286639420167955
0.024445421828946896
-0.09432117084462345
0.08859772028313287
-0.010580700015435625
-0.002815955358232453
0.007025384870153985
0.05385062216891904
0.033988211332308865
-0.0757441124362231
-0.21735572963783717
-0.10672530809780571
0.07833243144732499
0.24152129156676472
0.1767978672517758
-0.14787711760396455
-0.01529829062861197
-0.009395144297646417
-0.032745970521488595
-0.016315663957147626
-0.07895888211053609
-0.027980844122326955
-0.05188331905856621
-0.009598628798690358
0.16872580053189393
0.048757508036861956
0.111748952949457
0.23790948617938396
-0.03472085142716253
-0.12093852219560286
-0.14137399059248565
0.08186481077060737
-0.11233373906927561
-0.0221561466149211
-0.2848076952551676
-0.17698593306977747
-0.040724903230325016
-0.04659095652396975
0.1940863400968208
0.29250796975540616
0.07745481982574157
-0.014939641598731505
0.222577359987962
-0.06829129057613814
-0.061635465076372846
-0.04404468435691134
-0.018015396427449627
-0.02347488553792009
-0.00406158505355535
-0.0030540529596145938
-0.004948922792196539
0.006596038482614763
-0.094597393832193
0.034496293389527484
0.03049541596788661
-0.06746279406384395
0.019178864132951303
0.07624249871525413
-0.06823420333202507
-0.12559448872045959
-0.013822061313208185
-0.01911160020253548
-0.11777571791655918
0.251224070808479
-0.033569997333290046
0.12688399800959768
0.020470670037786905
0.07457124068540759
0.09134733692142295
0.10906296513808807
0.017790957055275315
-0.03158391053730934
-0.1924554617764182
-0.08920379752425281
0.02559726637426608
-0.08370711633882691
0.02323475992534845
-0.05502715084637279
0.060272023994697235
-0.0231900570368372
0.08904794189933132
-0.036227667971606516
0.06980355021670229
-0.07857261017063707
0.021040404091799823
0.04595502816591764
0.06645985835732433
0.080412011453671
-0.26639837901345625
0.061300136898678664
0.10150557397315732
-0.013467425029822839
-0.00011192622299995405
-0.08936649073291444
-0.016570127821989186
-0.0646538481645478
0.10220539723984162
-0.019541153240724845
-0.17757784424588655
0.003620953965755614
-0.12349850922339096
0.1916678229766711
0.3815283636780489
-0.08652907002539113
-0.0833973143873177
-0.10581440273848933
0.036838055489199814
0.02772165706799057
0.06906339875132408
-0.1829708245422177
0.085184507020679
-0.162461323729675
0.12842956847734976
-0.0018050385346500414
0.021687199425212623
0.04451184448306069
0.021597860946965256
0.021716525593470436
-0.14298087861986644
-0.06475798987581231
0.1841762427760319
-0.08595080472906225
0.037436204486889335
0.05781365836884243
0.01700235303796229
-0.030033982352299805
0.007819932742851698
0.02808903984168805
-0.055680738904865974
-0.06244646722106895
0.34123923730462485
0.14051568940671214
0.05167164296405837
-0.040038567897974234
-0.11399223253516809
-0.021827808091796578
-0.17605385296363232
-0.18151410818682276
-0.1292962306813304
-0.05093778985600404
0.021348075600170262
-0.07414665579798309
0.0525751359268234
-0.020825615679318118
0.11960161243140632
0.0816814680562351
0.07267161232890663
0.021646166709492876
-0.010757220989605912
-0.06828904747566322
0.007309085869032695
0.04583647426818624
-0.07898602205354598
0.010568951343197497
-0.11072532897542055
-0.03265220666295101
-0.01651028052980178
0.11607878215812256
0.08513767332102072
-0.1528057980240776
-0.021725006485540488
0.13320216519864717
-0.1364028200427354
-0.08777955939581421
-0.03497659344808886
-0.06161929434874059
-0.005829606859525337
0.1649469623323432
0.014543333195739706
0.14711757856682187
0.5366407715834103
0.2304938499120741
0.10298172599447862
0.0041485488113043156
-0.2666158961268053
-0.12332730745600046
-0.25985130920067495
-0.2244703835177925
0.05132566914171065
0.09656325141969212
0.1439323113223252
-0.05963811256767629
-0.1595139572468426
0.01709244363874482
-0.05499531627597612
-0.03476628943197678
0.16509982190183947
0.04714735123507081
0.14449415494699347
0.17072775616956645
0.13345197182640892
-0.32865148494266105
0.13068216001195493
-0.4629517311491727
0.08397410585293372
0.026703791018529377
0.48341929554142415
-0.18241125420611404
-0.15342926938710497
-0.09980149358419695
-0.06410909760444897
-0.09434607763102239
0.21238034631764002
0.11631398108421298
-0.09949527010734517
-0.0582754163855208
-0.05407496321308632
-0.038759209818828175
-0.028386490654363276
-0.049702977222709215
-0.1826640215176661
-0.24866290279900188
0.10934573047511213
0.09334589576079763
0.09798042532740792
0.015269891328509779
0.07350897634782184
0.04187600507701765
0.35802734582169093
0.2888168855101739
-0.09388002060588198
0.08628566753763245
-0.15404534417313576
-0.07639364222222765
0.06485061667945874
-0.473661508547712
0.2906105249673815
0.17792346255153604
0.05630143181153143
-0.05217716738641884
-0.10501676407001596
-0.03302629028566435
-0.25225856197599017
-0.08235663561236
0.23595189261006502
-0.028769550448469794
-0.0077156529021614115
-0.1376019964917384
-0.01014498063628965
0.0332469065325682
-0.2685859707053723
0.18361935204139954
-0.17671109636648744
-0.11418797329628433
0.06093970484878236
0.27964495363435826
-0.017124483817662604
-0.10980981640612666
0.055972964924104605
0.021275746479314597
0.016539979244830944
-0.22553737319182857
-0.09110800133196414
-0.02644426050689153
-0.17006368080500578
0.1394234567610827
0.1099921190143652
0.24719776081541195
-0.10575044799942507
0.29647403176450376
-0.0829329117766074
-0.0575993439341588
-0.024428970912364827
-0.011448680055668512
-0.00647718474030763
-0.007836492345971615
0.18895675466038542
0.15821342161220225
-0.10809516245930387
0.15049826998763843
0.3844727499897911
-0.25110477832444505
-0.15391519121485672
-0.36902606425141504
0.327143384984339
0.1052637374955502
0.11777227013529917
-0.09052722887827211
-0.2627375559941405
0.08848404535556055
-0.1143406294819607
-0.1710580236163755
-0.04872165606535432
-0.10662255099477039
-0.12032804386639716
0.07903127580096994
0.034012347819127264
-0.006234884361640941
0.19181477109796427
-0.022951259429897227
-0.11405733688725558
0.11802075452196743
0.12771797612201372
0.03815283748273007
-0.008077000869620316
-0.07023497468464049
-0.04777359563897057
-0.04374866004622316
0.30572957800169365
-0.07714546128257958
-0.11534268872332247
-0.09429526671977813
0.19034474173737995
0.08960340838972293
0.06246703818155508
-0.3613613495846731
0.043588038558579005
0.10665443019347165
-0.09414831206575054
0.03476048404722217
0.004039080064134355
-0.04643683516472146
-0.037098526188738205
-0.01135835944419703
0.19231072577386377
0.04676986799196201
-0.046192513455671914
-0.08162820091998425
-0.0340148826493036
-0.03263549684401165
0.0016989628793458236
-0.04630846277620161
0.04111823565003491
-0.0397855867916037
-0.00629856753304203
-0.013796841210118716
-0.049302224486908804
0.02859400775368634
-0.009112308954326015
0.04858328557227758
0.0
0.0
0.0
0.0
0.0
0.0
0.0
0.0
-0.2280564052751878
-0.24434242748609372
0.03772063337336193
0.03771915472112788
0.1310320351513597
0.10348648065219732
0.0102903019136615
0.15215022694957364
0.10142530882659102
0.022614044870053092
0.013911103780660336
-0.018339001371555586
0.022824659783056218
0.009317862730988984
-0.11247031090997923
-0.03928366770981421
0.20498763337305664
0.013106787600417993
0.1210808830582896
0.025888432377430597
-0.09459221862021376
-0.09842410198146147
-0.21977044450131392
0.04772302869379637
-0.021452799511768473
0.028268361505335148
-0.012005226813010715
0.015561984354450734
-0.00025413307046275556
0.002289546243661631
-0.02682875095786407
0.014421018249659991
-0.03851345676729411
-0.1349153920594564
-0.14169706989787004
0.005754312441846505
0.01632352126878543
-0.04700878702875386
0.18332159591388744
0.15673527612885738
-0.09165941946708854
-0.029654140248290356
-0.00122900122620347
-0.021814298873791278
-0.02951772862218714
0.04725932928582842
0.041500873586127716
0.08511438556560395
0.07438310691507062
0.0716288404631547
-0.05811421708735869
0.024068132856365398
0.0739148506750166
0.013090653709433322
-0.14930736548884874
-0.049664002042833486
-0.05624327765661136
-0.10314407092440198
0.1069266271780486
-0.06903222698416575
0.10080733200872971
-0.03176479318956466
0.15174274731368645
-0.09929233774572122
0.05507899213369245
0.05933771714406037
-0.029825462063042332
-0.022295901373527376
-0.018030333329096964
0.06950587024182502
-0.03947156799054078
-0.07429931476337062
-0.0936927333176138
0.04608263854227507
0.0219341484790919
0.02238583857520893
-0.023851387278613554
0.04695657178458018
-0.0026791511948947347
-0.017135925590034663
0.061718504192361884
-0.0023954204933030318
-0.049902505703029225
-0.017839545793932654
-0.04416459473237286
-0.06139331782037439
0.046486140674464375
0.0674907396761861
-0.20113851905182295
-0.3053145854297103
-0.1294318607666324
-0.10803486988689834
0.06883683331803266
0.3439681749419535
0.09817195819014268
0.23294286868493902
-0.06695111552583843
0.2118606304986804
0.06968730501595247
0.052769907296345335
0.04344349718879259
-0.23061676839326034
0.013075515945867975
-0.09326897202653939
-0.0747013566844061
0.017568647541365924
-0.054383109756275534
-0.06453348550946143
-0.051399620027935175
0.023797346638961825
0.03038577808911139
0.17326579970863895
0.09218834311560777
0.002419693783833528
-0.0022347583122969052
0.0023481146452759374
-0.052944456874294755
-0.07998981414867484
-0.14730798322570862
0.18552086101625667
-0.04524284715767718
-0.14218777505605396
-0.08906814872023101
-0.06757277912989983
0.05072517427969737
0.12795349091525407
0.11885956088607448
0.0465333239828351
-0.07297132266174106
0.0897955471648704
0.08011780772340168
-0.048165186908338944
0.041292464098979055
-0.06312650516893058
-0.029211741452180005
0.002268937203939071
-0.11237432609388266
0.00258682577233254
-0.006474315426184074
0.06370450166316641
-0.04012228194763311
0.009164413102789442
0.0985875466170428
-0.015072363687629577
-0.008572240308558247
0.11939946100346643
0.06233925287162388
0.031186100387606684
0.032453159158395396
-0.06029225490200803
-0.06959056869155304
-0.1069229095189729
0.014973803827945956
-0.22042813923343701
0.002315310052088631
-0.1651463897975294
0.008706272295233915
-0.05074272605325434
0.0036996515423275114
0.4066222173666269
0.007366722257708221
-0.006815710499473928
-0.01222247345996892
0.04259920638533404
-0.015837225185709874
-0.06400074902029271
0.09261322949761254
-0.043702999975208566
0.00617184728249421
-0.0592792612104431
0.019056452026110428
-0.040938906800105784
0.13523724738523132
-0.011916174651460396
-0.1266944086891709
0.07836320465734385
0.049193207017601326
0.062401868730980345
-0.043924478030833686
-0.04668912055084218
-0.06699114874240529
-0.03247510358025457
-0.02092563211724025
0.09941040727299456
0.15866521631658004
-0.03337309705332287
-0.01473295351107721
-0.1578265835410556
-0.06011381014385694
0.006422039925689558
-0.005239110238416213
0.10619829824545858
-0.07371556411411984
-0.013624820092435708
-0.06307558518516215
-0.06194356294867927
0.00352011214917336
0.10449523324346022
0.05248335549197814
0.05186083145578569
-0.05897373945773996
0.10671934584253866
0.2953796962424325
0.11568165125286069
0.05578819250566664
-0.1259946329440386
-0.11245247191601351
-0.2761480415257066
0.02696114525906794
-0.015069138513674661
-0.07067938132116208
0.06975231463796326
0.00868019601617891
0.06217193091191353
0.002654783055618768
-0.08447185004590542
-0.019604616388639057
-0.12421262688901928
-0.04665943448380187
-0.051972766936411376
0.046901521735994385
0.1100465898058986
0.02091571898927429
0.06458561416670446
-0.049566192132499125
0.28104819959346383
-0.011372097988142794
0.004987845420699853
-0.06274356724428036
-0.026927040463093552
-0.1334601610120683
-0.001966986174080393
-0.14461798069579151
0.0009226238523542384
-0.01651024580912805
-0.11757739838654749
0.05303596142223231
0.06834978906090611
0.04663056911909739
0.10976668143687635
0.23554399333156611
0.08173823000920581
-0.02196719884308945
-0.04788324347002272
-0.03398159292587852
-0.038850531449057965
-0.09589118331862911
-0.07870847333409317
0.16845832025828042
-0.01730649979331679
0.1504304197729536
0.018701278030147168
-0.0468399972811607
-0.06453811056238497
-0.07965877453139046
-0.12924663589312815
-0.11651002669579526
0.04611038583013037
0.07162252167623817
0.06636254420735421
0.1097746088105698
-0.04556063664651783
-0.10618295429117791
-0.025616442890800926
0.01680535555225497
0.13160634238386953
-0.06188303052884684
-0.06164416458494808
-0.17176442069625775
0.06662644769844092
-0.00946564905724836
0.08971911923273594
0.613128523261057
0.15478003474201701
0.010292472354863616
-0.05434363095628378
-0.2598431175209478
-0.15823191198574152
-0.13098329067103465
-0.17479907922392945
-0.6195668001179756
-0.40835397434407755
-0.5143284459513422
-0.20128294711722086
-0.1380321990210163
0.5881625699140363
0.48182941455697553
0.8115723820806227
0.04553306421148417
0.15978450263427196
0.21839450214941844
0.05713770447594572
0.009494474873148953
-0.21814616661007166
-0.08548197776882767
-0.18671610396536692
0.1992320459820886
0.09994800931836367
0.0667027421446127
0.06720888461162772
0.018128274324068352
-0.05251570108440587
-0.04705807038374995
-0.3516461849126058
-0.018251420518682747
0.053120713798618865
-0.032620355692279696
-0.057863133368007594
0.13262185641636848
0.03137513721501513
-0.01095000348932369
-0.09743279436170865
-0.01926302233259566
-0.032019879634808235
-0.12200222085600275
-0.1154527855269982
-0.012200517178139513
0.022882513455422922
0.2972841066947051
-0.019228194621583712
-0.01888658227047454
-0.339580174246956
0.08290365517288464
0.09287818642520525
0.31962198331095093
0.1250541598036625
0.05868928043629438
-0.32068050863156833
0.2302302899333084
0.22532506069093064
0.18120419131665683
0.14437039516361297
-0.41128839521270105
0.1181820682094799
-0.47464933909811907
-0.013374271003172879
-0.180515389048749
-0.11807802839441105
0.03458164398451694
0.09878018990969901
-0.052613463485109015
-0.05170888138657367
-0.034011524166344495
0.3035654525869713
0.03517162551394902
0.0684099095520979
-0.01145683971769568
0.016824568578458026
0.003622689378152132
-0.046823792228942576
-0.07548533877087933
0.009737177694860212
0.24332019719094505
0.2019485378326783
0.05261602969850496
0.05932551975583961
-0.008958187461718793
-0.327711352550051
-0.0486558223301323
-0.17188492213606907
-0.3833381549042173
-0.5764430753000316
-0.43015008578505304
-0.03147759290956358
0.0516238326357197
0.3612337201501053
0.37337029632174956
0.6351810597912908
-0.22019972303977023
0.40539306934911923
0.31027849871058416
-0.27194347425876103
0.31149297061880565
-0.1601388655554969
-0.1589200758598654
-0.21596239996461636
-0.12681517296355535
0.31363163955306345
0.19476954925952575
0.2040691974745838
-0.10200297890423217
-0.20696722222902056
-0.023936580194108086
-0.25274843199625663
0.17910770806246148
0.08610406635959601
0.036046452332316715
-0.15862163475880575
-0.21149853506093272
0.17157661585617792
-0.09399356798737551
-0.008721104803436809
-0.0069776948307325075
0.34453691855157975
-0.020434566562077806
-0.21263209725078588
0.13410934944334
-0.2768114107384471
0.14143655485135445
-0.10322705346423149
0.06937731061030505
-0.20325136139388955
0.13845868701844163
0.4434798323449263
-0.1400681027395292
-0.14133683538848507
-0.111601968563291
-0.05505756188847821
-0.10079003315070367
-0.02092954222585232
-0.020297098480220224
-0.08134063962971656
0.0030157942382751553
-0.02074876478950175
0.058689985160319834
0.18240029887739898
0.3389136137002714
0.1808989385671885
0.12560152415587228
-0.007699244867822441
-0.14846189856712677
-0.09513082444383311
-0.10280811291984797
-0.2913139956247061
0.032020010550036795
0.21379145224262422
-0.04032441684808241
-0.05189883714108825
-0.08339856401520106
0.005013948078041828
-0.23113567950499964
0.15593208663866978
-0.13046515123915586
-0.05231923489119128
-0.012349585504683635
-0.034005862566439775
0.03645261644080756
0.034496287804185816
0.04566659927041794
0.11252433068606008
-0.068243509991371
-0.051810755808782395
-0.020198643391249094
0.1855024673703584
0.07998295380877285
-0.2006639784007759
0.060085825397392115
0.015345641015654506
0.08561837663818439
0.06519312977476623
0.006557330297924484
0.038560402311225726
-0.020235088897460344
0.06624041734038082
-0.11478362421392199
-0.127150943251101
-0.16965841241929447
-0.07465282845797273
0.06089152453610562
0.10959409348409845
0.033919997308696714
0.044617800275510155
0.019019574694887614
-0.02373174942203086
0.13779950917926206
-0.055265357205159335
-0.04256002743953249
-0.1187933060542651
0.030799504173289305
0.0023187505892483494
0.016498825327922965
0.029202101429233997
-0.15486066361407066
-0.16568730253293637
-0.045167408953933216
0.001649919624911475
0.05269549006051509
0.10914472147957677
0.08062892270501439
0.12159632123092222
0.23259067623094937
0.01708428112030437
0.009700967672966774
0.06171602310766756
-0.09336749374738156
0.08371960710143908
0.05185637649758542
-0.36330043798352957
-0.035678313618952365
-0.07165090310358287
-0.020207846765568194
0.0005660381851567507
0.03933257176171766
-0.08169085551715026
0.06439463907484312
0.104934669983537
0.0703463203072972
0.15329688167027172
-0.012464716465855764
-0.01744438627962114
0.10231856106969232
-0.08065750554415815
-0.20994925639732112
-0.005445898360304682
-0.08924462672608174
0.021556387376908924
0.0985263906310073
0.06728605362927899
-0.02568338724985886
-0.03243477069750681
0.00920367434081218
-0.04920972130456057
-0.03165928223849781
0.26297699326825574
0.260066947576544
-0.1312202383837566
-0.0694916315944137
0.03689426375375684
-0.17734767639870094
-0.15021937598318783
0.18180362633726713
-0.08320850700640785
-0.058884699692581234
-0.051918281767491255
-0.04510194563265838
0.03744661967457529
0.02339442777787962
-0.0035312396905826976
-0.013226267946589758
-0.15523171505693698
-0.060291899821318225
0.24828057797571115
-0.020451366153991152
-0.13099004096658706
0.26281920797057695
-0.13090849600086468
0.15090308069309602
0.11652454347025164
-0.02248449219509704
-0.040326288106298507
0.0405053582729363
-0.056400546702964044
-0.0839388940686294
-0.1047827613632951
0.1519065955866761
0.08057432417738192
-0.038539122575195366
0.0388903291003815
0.0017804722035234778
-0.03213267837291999
-0.1062245631089787
-0.09625535701086932
0.17977793967990663
0.11586216655565361
0.18942702912802395
-0.016331191788836377
0.10866843766873563
-0.03531895660444333
-0.20582336526122483
-0.33626205937781484
0.3222754408479772
0.06464948802018992
-0.05635952587176977
-0.014883891961671962
0.0005545951016443667
-0.04399619190061725
-0.10350956910777072
-0.16873034512798232
-0.6266394422966028
-0.17683339397560832
-0.2776796310981212
-0.012558542358870968
-0.30198908470128166
-0.2488236247697282
0.5966138163502035
1.0479099028500078
-0.11709867330645754
-0.1136562647820668
0.12784469571189774
0.062478812504459656
0.030666382161664237
0.3255625264130952
-0.21083688509492018
-0.10496059360767193
0.1886659846023278
0.1405538889805937
0.279432851243665
-0.06657159943547176
0.017517792875224442
-0.10854154845785205
-0.07596471240075887
-0.37509265740772985
0.30132074166366357
0.20372459562226103
-0.10173870276923176
0.3156394746826817
0.1261007617391948
0.021903280760290744
-0.42777578158124835
-0.4391743701176139
-0.4071118993281166
-0.47314943386878816
-0.4269177173971204
0.09514563115434006
0.16596570521133797
0.017158895599295152
0.4182821855278473
0.6106266331012055
0.22817363657250547
0.13769543467116407
0.12904528801602008
-0.019343567086521032
-0.08347424290655141
-0.1827056058541869
0.026652190601631646
-0.2360431340140624
0.05864167763069232
-0.05212033353529115
0.025728221954846656
0.025896268287187427
-0.07115470773424844
0.05850003616257223
-0.10347367244481015
0.05798250967904966
0.20235751627239723
0.22941837665328696
-0.012583460856837574
0.07237464195499463
-0.04143783101672307
-0.10351646420777298
-0.14917645063377333
-0.19743632816557033
-0.35429979642997034
-0.20928960354965181
-0.016591131119859485
-0.19680707070241849
0.26270788510659876
0.2244607538854881
-0.03967589801560413
0.32949486082541685
-0.012982086843180198
-0.04177693875191475
0.10710357687832149
-0.035623952600211464
0.07694902134717677
0.030832314811573953
-0.052411781502906526
-0.07209015333886074
-0.06524093229702442
-0.13209592465914044
-0.055254154185566014
0.0667888065628263
-0.12372600159876081
0.09106695073821083
0.1998469797232691
0.018614275716185638
-0.11405749667452544
-0.05437634496934931
-0.01377524554452161
-0.1800184264715568
0.20221139236901778
0.22119246417252258
-0.053326421627265225
-0.007849921254322018
-0.09952088256901905
0.13117751823032373
0.12938217405039612
0.21539893110497293
0.008644970486679166
-0.0755958956023715
-0.1534877660017878
-0.15599904969919748
0.19296455287460104
-0.016815080482797805
-0.07758033327125337
-0.0803618452880358
-0.0006486774900040638
0.03461025437818354
0.025194541981076662
-0.07736341270177066
0.1865180933596435
0.06802541468433555
-0.011064989175601146
-0.12330159817466108
0.04155653960632022
0.06529677240958091
0.06517495194617115
-0.2922051846557883
0.30265956947133216
-0.0008403762400873668
0.03710160805243572
-0.09826456780917243
-0.0016379050382579812
-0.025302257616091967
-0.1759432186566248
-0.03777285216353377
-0.6766458717491669
-0.22298114102273997
-0.25129055555669505
0.07634674754459055
-0.10011782959668049
0.1296078764481038
0.12788995914290474
0.9171908147896805
-0.06396293174106678
-0.04455203007537215
0.06790356650479423
0.006399062937950286
0.030600336736587144
0.03405880844338472
0.06326105538208132
-0.09370786818835995
0.12128857186507035
-0.01191981424730036
0.04401930465861297
-0.07475766916434473
0.02511933165215489
-0.043378555171943015
0.022308819184910463
-0.08267998877716118
-0.026247112890289765
-0.025868401374574235
-0.02712093960229219
0.05766167081865829
0.017317353472322286
-0.028199692251893137
0.02437420551931649
0.008082916308751957
0.01327577101165126
0.02658640640733221
0.06403523077697981
-0.028621213150057258
-0.04447863830082527
0.10867961497625221
0.04040272471084569
-0.1798798964321791
-0.15943570664964044
-0.1370574919791723
0.09798526050303927
0.0046305404925480855
0.05427995140118027
0.053834275436156424
-0.05427556586352494
0.14003873665941488
-0.15337882785592424
-0.15573089736253348
-0.11142263192048704
-0.03222502802622443
0.12479588624509161
0.12046265352577908
0.11965165212919499
0.08784719326510373
0.10855604753197262
-0.014337750301755482
-0.1206225005728012
-0.07418133747768889
0.006337475745105344
0.020713926165819557
0.07311496564366239
0.0004191732656848588
0.1232504281841558
0.12653955933535044
0.06689592364945432
0.044618284324026175
-0.021651551054588755
-0.07159216124323044
-0.13812912194035395
-0.1299313612548158
0.13775570696730421
0.043074710300836705
0.02200999998887023
-0.19889492528198205
0.10945071447543454
-0.09704292928951533
-0.04386685180423476
0.0275135746432891
-0.22926722402926877
-0.1103901806552543
0.09001573958704498
0.0929123065890865
0.08852757513720702
0.04634552890230058
-0.0281624399071913
0.05001869437607315
-0.02079790780615107
0.025883231431613404
-0.05869774114327072
-0.009999229273906935
-0.051607241544235745
0.04535540370164897
0.01869977990305298
0.051163704731248774
0.21896750717092495
-0.013682685266774394
-0.024482287925512918
-0.07394698597572123
-0.0415308734958454
0.025136181117448798
-0.04900992351040024
-0.04145093211412144
0.0729828142361535
0.011724456344204569
0.026975792033042355
-0.018769101999329248
0.025194637949516985
-0.03133826377829631
-0.05937259892464213
-0.027397735860650904
-0.0942831710075327
0.05139645916939491
-0.057109770857469974
0.004960162919162897
0.05633396342846079
0.06292580233130284
0.005410800101666213
-0.02963424608498547
-0.2489913779581035
-0.1487479092331083
0.009110407777699713
0.1837988720757018
-0.09803205226199936
-0.2104738675361275
0.30780303244426854
0.2055328946916688
-0.013771145577113985
-0.03810884625578081
-0.00956166313025429
-0.01932046621123397
-0.0066819039053579304
-0.04029126663781658
0.007440005663385068
0.12029528605417028
-0.13743412639842495
0.06765462531761347
0.05623568344254486
0.0019637871225975864
0.010373485270783045
-0.024581816209715685
-0.014221198387075598
0.040009559841676846
0.18113491647080157
0.014872427724980805
-0.011143565984292956
0.01795770803917032
-0.10221878275372286
-0.004599329245799211
-0.10839486383259525
0.01239148958145715
-0.1832943218220225
-0.049753259208671324
-0.020010237575881242
0.20230977462108224
0.05650975870942833
-0.10714020692872064
0.09588254579626852
0.00549594640851794
0.06568060633045002
-0.04137147974353153
-0.04198902565364076
-0.002323603052925082
-0.025658216749143595
-0.00508825961156278
0.03544300900034638
0.015306969480006765
-0.047230569111745294
0.13211202959932664
0.05023341231762923
0.04680148806114723
0.051354280719044604
-0.04979633430971778
-0.09221919402552273
-0.09125511325016133
0.03486219699539114
-0.17096569038313106
-0.09895655198804772
-0.07383748273910394
0.04362789829695931
0.1617288419208318
0.11691239886960754
-0.01337161097250775
-0.06941055132126614
0.16769692956894858
-0.045407749409567474
0.011113489401404372
-0.05523668071056717
0.05910436932732806
-0.035030924638020725
-0.03282888221825923
0.12441851095231643
-0.04389767516322394
0.07287499756429756
-0.11404513268929896
-0.08093730250675117
0.23901381667309857
-0.08013493198416498
-0.11729228284627338
0.07350553968448795
0.08259241185901169
0.059712121509083234
-0.04451782668728943
-0.05497816433573732
-0.029138917147622716
-0.06722882487715476
-0.019946340004778285
-0.13716481453572663
-0.06762214194776159
-0.06871488974195379
-0.05718931149650234
-0.052935059245792754
-0.04639234639936505
0.2251857343696773
0.20483282899742494
0.06498004853101999
0.07725032687326497
-0.08058716845499439
0.0245898642683264
-0.01280973934296415
-0.00010165468987817549
0.03647628806103289
-0.10979796524580854
-0.06312362261084548
-0.006447148131745352
-0.019256390311683493
0.03557750715874221
-0.07026433790724479
0.032387406993915485
0.0993141510806144
-0.008187566271753707
0.017507694553729254
-0.09438853780537768
-0.07268336844485856
-0.017167578921157785
-0.0455389972280844
0.0068670264319229965
0.08674069941383326
0.11866306199999446
-0.20607438180959076
-0.12442046829570959
-0.02947843639304032
-0.03201111719680303
0.14536208788941182
0.13426830819932556
0.04618457603402172
0.06616943157238019
0.12051510893522188
0.03345824514029554
0.052640179256077294
-0.05453094812087198
-0.03451116640541096
-0.10437242590198174
-0.033156303944488076
0.019957311041157076
0.06186118960166498
0.08900554967101708
0.07339603722436437
0.01442929690454993
0.11803626117525523
-0.07254265183700567
-0.14432345598989604
-0.13986222674994936
0.195189845406083
0.04346770545668882
0.03127395456028571
-0.06136733419172272
-0.1350860694184813
0.051396376708793115
-0.029079626314612927
-0.09579485220703407
-0.04185102699556621
0.09956304977428541
0.048637048516960664
-0.005783557559300861
-0.0383152268203377
-0.014518014152314922
-0.011102960606004011
-0.03662931215772303
0.10323916777347134
-0.07764921447905809
-0.05383444584018128
0.057040825641556304
-0.05162413444755829
-0.12918881553633105
0.11225017400483182
0.03976644288327166
-0.11900421739333833
0.23395865000249552
0.1265583622381585
0.0883063949929279
-0.11690223118432604
-0.07976606627547973
-0.0042032788273768055
-0.1289476135530618
0.17942051060092987
0.1567871429607047
0.015788012398609264
0.125064490896265
-0.06461743972131924
0.1489808148287578
-0.38311544457262986
-0.17830808739131745
0.21089325214864385
0.26976699989351305
-0.10545461637708169
0.026657343392189572
0.030224846855360758
0.03303259645907497
-0.07015442369793531
-0.39496599867376914
-0.0036356687106298352
0.3556333412289791
0.040720655830392895
-0.036350192935606734
0.014492455622373107
-0.09428976997648156
-0.31763561993061773
0.041064798871590036
0.0
0.0
0.0
0.0
0.0
0.0
0.0
0.0
0.14367023057265882
0.14091175602781308
0.03802806304892543
0.22918632081937257
-0.07993412634528148
-0.2663296148778399
-0.026188344586386195
-0.17934428465926064
-0.09247286589546302
-0.1711949681110247
-0.10763059593061895
-0.16088090106981368
0.14193643697984007
0.15895935139751768
0.20154213591827486
0.029741406711285927
0.021179548064798992
0.0720002154969861
0.07100526793026135
0.03003758269490166
-0.09601761380254313
0.05203065679245498
-0.13370746867791175
-0.01652818849894828
0.1299067029314103
0.10916495225591115
0.026548474254974155
0.05978962084712349
-0.15354733728206063
-0.14789068640842387
-0.018675741716595827
-0.0052959848823390075
-0.09432117084462345
0.08859772028313287
-0.010580700015435625
-0.002815955358232453
0.007025384870153985
0.05385062216891904
0.033988211332308865
-0.0757441124362231
-0.032745970521488595
-0.016315663957147626
-0.07895888211053609
-0.027980844122326955
-0.05188331905856621
-0.009598628798690358
0.16872580053189393
0.048757508036861956
0.111748952949457
0.23790948617938396
-0.03472085142716253
-0.12093852219560286
-0.14137399059248565
0.08186481077060737
-0.11233373906927561
-0.0221561466149211
-0.22955012131645147
-0.15334256976114893
0.12524064357541967
-0.06518480174913623
0.23448412107254127
0.3500879922861668
0.07119409077477136
-0.33292935488216124
-0.05525757393871447
-0.023643363308628706
-0.16596554680574224
0.018593845225166605
-0.04039778097572002
-0.05758002253076067
0.006260729050970043
0.31798971328343484
0.222577359987962
-0.06829129057613814
-0.061635465076372846
-0.04404468435691134
-0.018015396427449627
-0.02347488553792009
-0.00406158505355535
-0.0030540529596145938
-0.21735572963783717
-0.10672530809780571
0.07833243144732499
0.24152129156676472
0.1767978672517758
-0.14787711760396455
-0.01529829062861197
-0.009395144297646417
-0.004948922792196539
0.006596038482614763
-0.094597393832193
0.034496293389527484
0.03049541596788661
-0.06746279406384395
0.019178864132951303
0.07624249871525413
-0.06823420333202507
-0.12559448872045959
-0.013822061313208185
-0.01911160020253548
-0.11777571791655918
0.251224070808479
-0.033569997333290046
0.12688399800959768
0.020470670037786905
0.07457124068540759
0.09134733692142295
0.10906296513808807
0.017790957055275315
-0.03158391053730934
-0.1924554617764182
-0.08920379752425281
0.02559726637426608
-0.08370711633882691
0.02323475992534845
-0.05502715084637279
0.060272023994697235
-0.0231900570368372
0.08904794189933132
-0.036227667971606516
0.06980355021670229
-0.07857261017063707
0.021040404091799823
0.04595502816591764
0.06645985835732433
0.080412011453671
-0.26639837901345625
0.061300136898678664
0.10150557397315732
-0.013467425029822839
-0.00011192622299995405
-0.08936649073291444
-0.016570127821989186
-0.0646538481645478
0.10220539723984162
-0.019541153240724845
0.021687199425212623
0.04451184448306069
0.021597860946965256
0.021716525593470436
-0.14298087861986644
-0.06475798987581231
0.1841762427760319
-0.08595080472906225
-0.17757784424588655
0.003620953965755614
-0.12349850922339096
0.1916678229766711
0.3815283636780489
-0.08652907002539113
-0.0833973143873177
-0.10581440273848933
0.036838055489199814
0.02772165706799057
0.06906339875132408
-0.1829708245422177
0.085184507020679
-0.162461323729675
0.12842956847734976
-0.0018050385346500414
-0.08573125871306107
-0.042977953917678516
0.09261062805163088
0.048165733044330174
0.044901915181522346
-0.019478316222803615
-0.10228476999618653
0.06479402257224735
0.037436204486889335
0.05781365836884243
0.01700235303796229
-0.030033982352299805
0.007819932742851698
0.02808903984168805
-0.055680738904865974
-0.06244646722106895
0.34123923730462485
0.14051568940671214
0.05167164296405837
-0.040038567897974234
-0.11399223253516809
-0.021827808091796578
-0.17605385296363232
-0.18151410818682276
0.0017517154303614193
0.0472295432227494
-0.16995483574289477
-0.048154210229936927
0.011053410643079329
0.04020424130279348
0.017875230192110788
0.09999490518173794
0.04401516671486632
-0.01505768933012125
-0.06418635309178566
-0.05333679652520835
0.13831571585298078
-0.16475064177967513
0.10197405445715474
0.013026543701787591
-0.1292962306813304
-0.05093778985600404
0.021348075600170262
-0.07414665579798309
0.0525751359268234
-0.020825615679318118
0.11960161243140632
0.0816814680562351
0.07267161232890663
0.021646166709492876
-0.010757220989605912
-0.06828904747566322
0.007309085869032695
0.04583647426818624
-0.07898602205354598
0.010568951343197497
-0.11072532897542055
-0.03265220666295101
-0.01651028052980178
0.11607878215812256
0.08513767332102072
-0.1528057980240776
-0.021725006485540488
0.13320216519864717
0.04334317426506982
0.2618960815356615
-0.06779170220422924
0.10528901180394681
-0.20093172984437782
-0.06446739811249858
-0.023956974793518458
-0.053380462650054986
0.08561837663818439
0.06519312977476623
0.006557330297924484
0.038560402311225726
-0.020235088897460344
0.06624041734038082
-0.11478362421392199
-0.127150943251101
0.05132566914171065
0.09656325141969212
0.1439323113223252
-0.05963811256767629
-0.1595139572468426
0.01709244363874482
-0.05499531627597612
-0.03476628943197678
0.16509982190183947
0.04714735123507081
0.14449415494699347
0.17072775616956645
0.13345197182640892
-0.32865148494266105
0.13068216001195493
-0.4629517311491727
-0.1797459943078049
-0.34967564093147385
0.03281510875614013
-0.1669083061526866
0.1951021229848523
0.22941436044484015
0.0385003079892581
0.2004980412168766
0.08397410585293372
0.026703791018529377
0.48341929554142415
-0.18241125420611404
-0.15342926938710497
-0.09980149358419695
-0.06410909760444897
-0.09434607763102239
0.21238034631764002
0.11631398108421298
-0.09949527010734517
-0.0582754163855208
-0.05407496321308632
-0.038759209818828175
-0.028386490654363276
-0.049702977222709215
-0.1826640215176661
-0.24866290279900188
0.10934573047511213
0.09334589576079763
0.09798042532740792
0.015269891328509779
0.07350897634782184
0.04187600507701765
0.35802734582169093
0.2888168855101739
-0.09388002060588198
0.08628566753763245
-0.15404534417313576
-0.07639364222222765
0.06485061667945874
-0.473661508547712
0.2906105249673815
0.17792346255153604
0.05630143181153143
-0.05217716738641884
-0.10501676407001596
-0.03302629028566435
-0.25225856197599017
-0.08235663561236
0.24963340562470626
0.29864716799527946
0.12898348106377644
0.1453674309978537
0.22653960253090832
-0.04892285212055397
-0.5700021263804066
-0.43024610971156546
-0.013681513014642691
-0.32741671844374814
-0.13669913396593822
-0.2829694274895924
-0.23668458316719787
0.08216975865312172
0.30141615567503216
0.6138654617529663
-0.17671109636648744
-0.11418797329628433
0.06093970484878236
0.27964495363435826
-0.017124483817662604
-0.10980981640612666
0.055972964924104605
0.021275746479314597
0.016539979244830944
-0.22553737319182857
-0.09110800133196414
-0.02644426050689153
-0.17006368080500578
0.1394234567610827
0.1099921190143652
0.24719776081541195
-0.10575044799942507
0.29647403176450376
-0.0829329117766074
-0.0575993439341588
-0.024428970912364827
-0.011448680055668512
-0.00647718474030763
-0.007836492345971615
0.18895675466038542
0.15821342161220225
-0.10809516245930387
0.15049826998763843
0.3844727499897911
-0.25110477832444505
-0.15391519121485672
-0.36902606425141504
0.327143384984339
0.1052637374955502
0.11777227013529917
-0.09052722887827211
-0.2627375559941405
0.08848404535556055
-0.1143406294819607
-0.1710580236163755
-0.04872165606535432
-0.10662255099477039
-0.12032804386639716
0.07903127580096994
0.034012347819127264
-0.006234884361640941
0.19181477109796427
-0.022951259429897227
-0.11405733688725558
0.11802075452196743
0.12771797612201372
0.03815283748273007
-0.008077000869620316
-0.07023497468464049
-0.04777359563897057
-0.04374866004622316
0.30572957800169365
-0.07714546128257958
-0.11534268872332247
-0.09429526671977813
0.19034474173737995
0.08960340838972293
0.06246703818155508
-0.3613613495846731
0.043588038558579005
0.10665443019347165
-0.09414831206575054
0.03476048404722217
0.004039080064134355
-0.04643683516472146
-0.037098526188738205
-0.01135835944419703
0.19231072577386377
0.04676986799196201
-0.046192513455671914
-0.08162820091998425
-0.0340148826493036
-0.03263549684401165
0.0016989628793458236
-0.04630846277620161
-0.4378664461294974
-0.3985676601491064
0.17162925160055356
0.1205968487659377
0.10665734059073831
0.20103482481410032
-0.001249283236033048
0.23776512374330738
0.04111823565003491
-0.0397855867916037
-0.00629856753304203
-0.013796841210118716
-0.049302224486908804
0.02859400775368634
-0.009112308954326015
0.04858328557227758
0.0
0.0
0.0
0.0
0.0
0.0
0.0
0.0
0.20981004085430885
0.1542252326630123
-0.1339086182271917
-0.08287769404480984
0.02437469456062183
-0.09754834416190351
0.011539585149694514
-0.08561489679373259
-0.013600921844180883
-0.010509243893327604
-0.023741780870594753
-0.06098632853867253
-0.06799975048811345
-0.056976424479023166
0.07859566941333475
0.15521878070057754
0.11502623067077175
0.03312328876338056
0.03765288465125505
0.04264732716711721
0.09082441027116944
0.06629428721001197
-0.19106598032331248
-0.1945024484103914
0.20498763337305664
0.013106787600417993
0.1210808830582896
0.025888432377430597
-0.09459221862021376
-0.09842410198146147
-0.21977044450131392
0.04772302869379637
-0.021452799511768473
0.028268361505335148
-0.012005226813010715
0.015561984354450734
-0.00025413307046275556
0.002289546243661631
-0.02682875095786407
0.014421018249659991
-0.03851345676729411
-0.1349153920594564
-0.14169706989787004
0.005754312441846505
0.01632352126878543
-0.04700878702875386
0.18332159591388744
0.15673527612885738
-0.11019522765158413
0.03466717281913707
0.07984951221731514
0.008905152673846149
0.007427534888105548
0.10008606856214827
-0.0062092538773045065
-0.11453095963166456
-0.09165941946708854
-0.029654140248290356
-0.00122900122620347
-0.021814298873791278
-0.02951772862218714
0.04725932928582842
0.041500873586127716
0.08511438556560395
0.07438310691507062
0.0716288404631547
-0.05811421708735869
0.024068132856365398
0.0739148506750166
0.013090653709433322
-0.14930736548884874
-0.049664002042833486
-0.07905427435280948
0.04587600165965344
-0.029051707481535988
0.08484603545705552
0.013470606004207429
0.06688306727119125
-0.14653371307678376
0.04356398451902305
0.02281099669619835
-0.14902007258405506
0.1359783346595858
-0.15387826244122185
0.08733672600452391
-0.09864786046075509
0.29827646039047173
-0.14285632226474612
-0.0936927333176138
0.04608263854227507
0.0219341484790919
0.02238583857520893
-0.023851387278613554
0.04695657178458018
-0.0026791511948947347
-0.017135925590034663
0.05507899213369245
0.05933771714406037
-0.029825462063042332
-0.022295901373527376
-0.018030333329096964
0.06950587024182502
-0.03947156799054078
-0.07429931476337062
0.061718504192361884
-0.0023954204933030318
-0.049902505703029225
-0.017839545793932654
-0.04416459473237286
-0.06139331782037439
0.046486140674464375
0.0674907396761861
-0.20113851905182295
-0.3053145854297103
-0.1294318607666324
-0.10803486988689834
0.06883683331803266
0.3439681749419535
0.09817195819014268
0.23294286868493902
-0.06695111552583843
0.2118606304986804
0.06968730501595247
0.052769907296345335
0.04344349718879259
-0.23061676839326034
0.013075515945867975
-0.09326897202653939
0.3904838971468057
0.11965566600161633
0.17017793729020467
0.08231091632587516
-0.2631296956754617
-0.20641134034807032
-0.013979036874235974
-0.27910834386673317
-0.0747013566844061
0.017568647541365924
-0.054383109756275534
-0.06453348550946143
-0.051399620027935175
0.023797346638961825
0.03038577808911139
0.17326579970863895
0.09218834311560777
0.002419693783833528
-0.0022347583122969052
0.0023481146452759374
-0.052944456874294755
-0.07998981414867484
-0.14730798322570862
0.18552086101625667
-0.04524284715767718
-0.14218777505605396
-0.08906814872023101
-0.06757277912989983
0.05072517427969737
0.12795349091525407
0.11885956088607448
0.0465333239828351
-0.07297132266174106
0.0897955471648704
0.08011780772340168
-0.048165186908338944
0.041292464098979055
-0.06312650516893058
-0.029211741452180005
0.002268937203939071
-0.05683309419085703
0.16043382600185363
0.04960638398668479
0.021886341325513557
0.04602528041968119
-0.030977656328879416
-0.17846451356923657
-0.011676567644759793
-0.11237432609388266
0.00258682577233254
-0.006474315426184074
0.06370450166316641
-0.04012228194763311
0.009164413102789442
0.0985875466170428
-0.015072363687629577
0.048260853882298636
-0.0410343649983879
0.012732868884939588
0.009299759062093533
-0.013572121261285763
-0.029314598573128965
0.10887394487768395
-0.09524634187421253
-0.031749462103373205
0.05909161417030294
0.005221382520886511
0.11585899412345738
-0.04480262233181319
0.1200812313372044
-0.07104937501360349
-0.15265176270306277
0.007366722257708221
-0.006815710499473928
-0.01222247345996892
0.04259920638533404
-0.015837225185709874
-0.06400074902029271
0.09261322949761254
-0.043702999975208566
0.00617184728249421
-0.0592792612104431
0.019056452026110428
-0.040938906800105784
0.13523724738523132
-0.011916174651460396
-0.1266944086891709
0.07836320465734385
0.049193207017601326
0.062401868730980345
-0.043924478030833686
-0.04668912055084218
-0.06699114874240529
-0.03247510358025457
-0.02092563211724025
0.09941040727299456
0.15866521631658004
-0.03337309705332287
-0.01473295351107721
-0.1578265835410556
-0.06011381014385694
0.006422039925689558
-0.005239110238416213
0.10619829824545858
-0.07371556411411984
-0.013624820092435708
-0.06307558518516215
-0.06194356294867927
0.00352011214917336
0.10449523324346022
0.05248335549197814
0.05186083145578569
-0.05897373945773996
0.10671934584253866
0.2953796962424325
0.11568165125286069
0.05578819250566664
-0.1259946329440386
-0.11245247191601351
-0.2761480415257066
0.02696114525906794
-0.015069138513674661
-0.07067938132116208
0.06975231463796326
0.00868019601617891
0.06217193091191353
0.002654783055618768
-0.08447185004590542
-0.019604616388639057
-0.12421262688901928
-0.04665943448380187
-0.051972766936411376
0.046901521735994385
0.1100465898058986
0.02091571898927429
0.06458561416670446
-0.045930523421869034
-0.07458514163551565
-0.05209275381853548
0.04133803835630649
-0.0772360228666536
0.06736272951338801
0.18417545891854945
-0.04303178504567037
-0.14461798069579151
0.0009226238523542384
-0.01651024580912805
-0.11757739838654749
0.05303596142223231
0.06834978906090611
0.04663056911909739
0.10976668143687635
0.23554399333156611
0.08173823000920581
-0.02196719884308945
-0.04788324347002272
-0.03398159292587852
-0.038850531449057965
-0.09589118331862911
-0.07870847333409317
0.16845832025828042
-0.01730649979331679
0.1504304197729536
0.018701278030147168
-0.0468399972811607
-0.06453811056238497
-0.07965877453139046
-0.12924663589312815
0.01680535555225497
0.13160634238386953
-0.06188303052884684
-0.06164416458494808
-0.17176442069625775
0.06662644769844092
-0.00946564905724836
0.08971911923273594
-0.11651002669579526
0.04611038583013037
0.07162252167623817
0.06636254420735421
0.1097746088105698
-0.04556063664651783
-0.10618295429117791
-0.025616442890800926
-0.6195668001179756
-0.40835397434407755
-0.5143284459513422
-0.20128294711722086
-0.1380321990210163
0.5881625699140363
0.48182941455697553
0.8115723820806227
0.04553306421148417
0.15978450263427196
0.21839450214941844
0.05713770447594572
0.009494474873148953
-0.21814616661007166
-0.08548197776882767
-0.18671610396536692
0.1992320459820886
0.09994800931836367
0.0667027421446127
0.06720888461162772
0.018128274324068352
-0.05251570108440587
-0.04705807038374995
-0.3516461849126058
-0.018251420518682747
0.053120713798618865
-0.032620355692279696
-0.057863133368007594
0.13262185641636848
0.03137513721501513
-0.01095000348932369
-0.09743279436170865
-0.01926302233259566
-0.032019879634808235
-0.12200222085600275
-0.1154527855269982
-0.012200517178139513
0.022882513455422922
0.2972841066947051
-0.019228194621583712
-0.01888658227047454
-0.339580174246956
0.08290365517288464
0.09287818642520525
0.31962198331095093
0.1250541598036625
0.05868928043629438
-0.32068050863156833
0.2302302899333084
0.22532506069093064
0.18120419131665683
0.14437039516361297
-0.41128839521270105
0.1181820682094799
-0.47464933909811907
-0.013374271003172879
-0.180515389048749
-0.11807802839441105
0.03458164398451694
0.09878018990969901
-0.052613463485109015
-0.05170888138657367
-0.034011524166344495
0.3035654525869713
0.03517162551394902
0.0684099095520979
-0.01145683971769568
0.016824568578458026
0.003622689378152132
-0.046823792228942576
-0.07548533877087933
0.009737177694860212
-0.10742505992631221
0.14204144009125136
0.1001134293413095
-0.08198668183431478
0.06548627612502754
-0.012610183256301854
-0.09103789663278378
-0.014581323907876783
-0.3833381549042173
-0.5764430753000316
-0.43015008578505304
-0.03147759290956358
0.0516238326357197
0.3612337201501053
0.37337029632174956
0.6351810597912908
0.3507452571172593
0.059907097741426954
-0.0474973996428034
0.1413122015901547
-0.07444446358674658
-0.315101169293747
0.04238207430265123
-0.1573035982281919
-0.22019972303977023
0.40539306934911923
0.31027849871058416
-0.27194347425876103
0.31149297061880565
-0.1601388655554969
-0.1589200758598654
-0.21596239996461636
-0.12681517296355535
0.31363163955306345
0.19476954925952575
0.2040691974745838
-0.10200297890423217
-0.20696722222902056
-0.023936580194108086
-0.25274843199625663
0.17910770806246148
0.08610406635959601
0.036046452332316715
-0.15862163475880575
-0.21149853506093272
0.17157661585617792
-0.09399356798737551
-0.008721104803436809
-0.0069776948307325075
0.34453691855157975
-0.020434566562077806
-0.21263209725078588
0.13410934944334
-0.2768114107384471
0.14143655485135445
-0.10322705346423149
0.06937731061030505
-0.20325136139388955
0.13845868701844163
0.4434798323449263
-0.1400681027395292
-0.14133683538848507
-0.111601968563291
-0.05505756188847821
-0.10079003315070367
-0.02092954222585232
-0.020297098480220224
-0.08134063962971656
0.0030157942382751553
-0.02074876478950175
0.058689985160319834
0.18240029887739898
0.3389136137002714
0.1808989385671885
0.12560152415587228
-0.007699244867822441
-0.14846189856712677
-0.09513082444383311
-0.10280811291984797
-0.2913139956247061
0.032020010550036795
0.21379145224262422
-0.04032441684808241
-0.05189883714108825
-0.08339856401520106
0.005013948078041828
-0.23113567950499964
0.15593208663866978
-0.13046515123915586
-0.05231923489119128
-0.012349585504683635
-0.034005862566439775
0.03645261644080756
0.034496287804185816
0.04566659927041794
0.11252433068606008
-0.068243509991371
-0.051810755808782395
-0.020198643391249094
0.1855024673703584
0.07998295380877285
-0.2006639784007759
0.060085825397392115
0.015345641015654506
-0.16965841241929447
-0.07465282845797273
0.06089152453610562
0.10959409348409845
0.033919997308696714
0.044617800275510155
0.019019574694887614
-0.02373174942203086
0.13779950917926206
-0.055265357205159335
-0.04256002743953249
-0.1187933060542651
0.030799504173289305
0.0023187505892483494
0.016498825327922965
0.029202101429233997
-0.15486066361407066
-0.16568730253293637
-0.045167408953933216
0.001649919624911475
0.05269549006051509
0.10914472147957677
0.08062892270501439
0.12159632123092222
0.23259067623094937
0.01708428112030437
0.009700967672966774
0.06171602310766756
-0.09336749374738156
0.08371960710143908
0.05185637649758542
-0.36330043798352957
-0.035678313618952365
-0.07165090310358287
-0.020207846765568194
0.0005660381851567507
0.03933257176171766
-0.08169085551715026
0.06439463907484312
0.104934669983537
0.0703463203072972
0.15329688167027172
-0.012464716465855764
-0.01744438627962114
0.10231856106969232
-0.08065750554415815
-0.20994925639732112
-0.005445898360304682
-0.08924462672608174
0.021556387376908924
0.0985263906310073
0.06728605362927899
-0.02568338724985886
-0.03243477069750681
0.00920367434081218
-0.04920972130456057
-0.03165928223849781
0.26297699326825574
0.260066947576544
-0.1312202383837566
-0.0694916315944137
0.03689426375375684
-0.17734767639870094
-0.15021937598318783
0.18180362633726713
-0.08320850700640785
-0.058884699692581234
-0.051918281767491255
-0.04510194563265838
0.03744661967457529
0.02339442777787962
-0.0035312396905826976
-0.013226267946589758
-0.15523171505693698
-0.060291899821318225
0.24828057797571115
-0.020451366153991152
-0.13099004096658706
0.26281920797057695
-0.13090849600086468
0.15090308069309602
0.11652454347025164
-0.02248449219509704
-0.040326288106298507
0.0405053582729363
-0.056400546702964044
-0.0839388940686294
-0.1047827613632951
0.1519065955866761
0.08057432417738192
-0.038539122575195366
0.0388903291003815
0.0017804722035234778
-0.03213267837291999
-0.1062245631089787
-0.09625535701086932
0.17977793967990663
0.11586216655565361
0.18942702912802395
-0.016331191788836377
0.10866843766873563
-0.03531895660444333
-0.20582336526122483
-0.33626205937781484
0.3222754408479772
0.06464948802018992
-0.05635952587176977
-0.014883891961671962
0.0005545951016443667
-0.04399619190061725
-0.10350956910777072
-0.16873034512798232
-0.6266394422966028
-0.17683339397560832
-0.2776796310981212
-0.012558542358870968
-0.30198908470128166
-0.2488236247697282
0.5966138163502035
1.0479099028500078
-0.29752933024903144
-0.13537776818916067
-0.18939256551550449
-0.14513816319523096
-0.1089628052535901
0.03296744027613133
0.4741809208955002
0.36925227123088844
-0.11709867330645754
-0.1136562647820668
0.12784469571189774
0.062478812504459656
0.030666382161664237
0.3255625264130952
-0.21083688509492018
-0.10496059360767193
0.1886659846023278
0.1405538889805937
0.279432851243665
-0.06657159943547176
0.017517792875224442
-0.10854154845785205
-0.07596471240075887
-0.37509265740772985
0.14438860256165784
0.03387038492003402
-0.05171914488878701
-0.12461882598910494
0.0014704453049216594
-0.014312308970583032
0.09109456223676242
-0.08017371517490095
-0.055235169221369576
-0.02595241807003612
0.2125086368287667
-0.024309489687973723
0.07468986532736659
-0.2377484721387289
0.10352080462576747
-0.04747375766379138
-0.1975781729021603
-0.2479185982953361
-0.05530126688359746
0.36345215091372357
0.34441813787573483
-0.3108878347200566
-0.30852711918626113
0.412342703197957
0.22817363657250547
0.13769543467116407
0.12904528801602008
-0.019343567086521032
-0.08347424290655141
-0.1827056058541869
0.026652190601631646
-0.2360431340140624
0.05864167763069232
-0.05212033353529115
0.025728221954846656
0.025896268287187427
-0.07115470773424844
0.05850003616257223
-0.10347367244481015
0.05798250967904966
0.35451031200416605
0.41777280899756625
0.005281709003153788
0.07680614975806394
-0.2197878214414584
0.3471034244509291
-0.21034322463174868
-0.7713433581406719
0.20235751627239723
0.22941837665328696
-0.012583460856837574
0.07237464195499463
-0.04143783101672307
-0.10351646420777298
-0.14917645063377333
-0.19743632816557033
-0.35187673010674697
-0.4471970157987512
-0.6394263542258886
0.11945512084231391
0.09127583988397175
0.25490736773802347
0.3147613809020798
0.6581003907649985
-0.35429979642997034
-0.20928960354965181
-0.016591131119859485
-0.19680707070241849
0.26270788510659876
0.2244607538854881
-0.03967589801560413
0.32949486082541685
0.0727491718698831
0.0012010151657637852
0.014492948826690985
-0.08378968564454173
0.032047106165655426
0.050310631034377655
0.04987298849327982
-0.13688417591110857
-0.06524093229702442
-0.13209592465914044
-0.055254154185566014
0.0667888065628263
-0.12372600159876081
0.09106695073821083
0.1998469797232691
0.018614275716185638
-0.11405749667452544
-0.05437634496934931
-0.01377524554452161
-0.1800184264715568
0.20221139236901778
0.22119246417252258
-0.053326421627265225
-0.007849921254322018
-0.21985094416326997
0.06150022908720059
0.049809649601397304
0.34585925398869244
0.04679204479917064
0.02216826133106878
-0.28073593848855066
-0.025542556155713637
0.19296455287460104
-0.016815080482797805
-0.07758033327125337
-0.0803618452880358
-0.0006486774900040638
0.03461025437818354
0.025194541981076662
-0.07736341270177066
-0.09318069970373542
0.14390336111616525
-0.01976589271518913
-0.019881300296549227
-0.014459322253158534
0.07166046767834718
0.1025142399033575
-0.17079085372923883
0.09759956254156876
-0.1088321688291153
0.005460348950649727
-0.051077298764637104
0.08003092330178452
-0.04270726765687406
-0.03375629919506399
0.053282199651688504
0.30265956947133216
-0.0008403762400873668
0.03710160805243572
-0.09826456780917243
-0.0016379050382579812
-0.025302257616091967
-0.1759432186566248
-0.03777285216353377
-0.6766458717491669
-0.22298114102273997
-0.25129055555669505
0.07634674754459055
-0.10011782959668049
0.1296078764481038
0.12788995914290474
0.9171908147896805
-0.06396293174106678
-0.04455203007537215
0.06790356650479423
0.006399062937950286
0.030600336736587144
0.03405880844338472
0.06326105538208132
-0.09370786818835995
0.12033006159425041
0.06967728914312238
0.0795725244489992
-0.13046032288371942
-0.03814707431249142
-0.09776415693343976
0.1272481724867613
-0.1304564935434852
0.12128857186507035
-0.01191981424730036
0.04401930465861297
-0.07475766916434473
0.02511933165215489
-0.043378555171943015
0.022308819184910463
-0.08267998877716118
-0.026247112890289765
-0.025868401374574235
-0.02712093960229219
0.05766167081865829
0.017317353472322286
-0.028199692251893137
0.02437420551931649
0.008082916308751957
0.01327577101165126
0.02658640640733221
0.06403523077697981
-0.028621213150057258
-0.04447863830082527
0.10867961497625221
0.04040272471084569
-0.1798798964321791
-0.15943570664964044
-0.1370574919791723
0.09798526050303927
0.0046305404925480855
0.05427995140118027
0.053834275436156424
-0.05427556586352494
0.14003873665941488
-0.15337882785592424
-0.15573089736253348
-0.11142263192048704
-0.03222502802622443
0.12479588624509161
0.12046265352577908
0.11965165212919499
0.08784719326510373
0.10855604753197262
-0.014337750301755482
-0.1206225005728012
-0.07418133747768889
0.006337475745105344
0.020713926165819557
0.07311496564366239
0.0004191732656848588
0.12974793062372028
0.10543195094572394
0.1797805402903834
-0.01937635000158185
-0.1699370744539681
0.039216119580544356
-0.20547030366083438
-0.05939281332398809
0.1232504281841558
0.12653955933535044
0.06689592364945432
0.044618284324026175
-0.021651551054588755
-0.07159216124323044
-0.13812912194035395
-0.1299313612548158
0.13775570696730421
0.043074710300836705
0.02200999998887023
-0.19889492528198205
0.10945071447543454
-0.09704292928951533
-0.04386685180423476
0.0275135746432891
-0.2489913779581035
-0.1487479092331083
0.009110407777699713
0.1837988720757018
-0.09803205226199936
-0.2104738675361275
0.30780303244426854
0.2055328946916688
-0.02079790780615107
0.025883231431613404
-0.05869774114327072
-0.009999229273906935
-0.051607241544235745
0.04535540370164897
0.01869977990305298
0.051163704731248774
0.21896750717092495
-0.013682685266774394
-0.024482287925512918
-0.07394698597572123
-0.0415308734958454
0.025136181117448798
-0.04900992351040024
-0.04145093211412144
0.0729828142361535
0.011724456344204569
0.026975792033042355
-0.018769101999329248
0.025194637949516985
-0.03133826377829631
-0.05937259892464213
-0.027397735860650904
-0.2436510616818402
-0.08919707749498264
0.015571220034858325
0.0936695924104099
0.05468752528068086
-0.01569251701294281
0.06623907064408795
0.11837324781973019
0.19991211674349957
0.1533915023782566
0.13795063869682098
0.07384951443547491
-0.1399850774715528
0.16271125099736947
-0.38912705751337745
-0.19870288826649676
-0.013771145577113985
-0.03810884625578081
-0.00956166313025429
-0.01932046621123397
-0.0066819039053579304
-0.04029126663781658
0.007440005663385068
0.12029528605417028
0.10621693528341557
0.15685170281259675
0.04066446340768741
-0.09170580528781161
-0.04431404000989814
-0.008889299196772803
-0.08046026903116309
-0.07836368797805038
0.18113491647080157
0.014872427724980805
-0.011143565984292956
0.01795770803917032
-0.10221878275372286
-0.004599329245799211
-0.10839486383259525
0.01239148958145715
0.17324840969651598
0.09009230317335266
-0.22702683052043696
-0.07162011043273897
-0.009060054977934691
-0.12297681238943128
0.07200527759232644
0.09533781785834955
-0.1832943218220225
-0.049753259208671324
-0.020010237575881242
0.20230977462108224
0.05650975870942833
-0.10714020692872064
0.09588254579626852
0.00549594640851794
0.06568060633045002
-0.04137147974353153
-0.04198902565364076
-0.002323603052925082
-0.025658216749143595
-0.00508825961156278
0.03544300900034638
0.015306969480006765
-0.047230569111745294
0.13211202959932664
0.05023341231762923
0.04680148806114723
0.051354280719044604
-0.04979633430971778
-0.09221919402552273
-0.09125511325016133
0.03486219699539114
-0.17096569038313106
-0.09895655198804772
-0.07383748273910394
0.04362789829695931
0.1617288419208318
0.11691239886960754
-0.01337161097250775
0.010908403693329497
0.0996849996551729
0.039512716316879186
-0.00835867116750604
0.015369479476575777
-0.07856600106365574
-0.08973493173291844
0.01118400482212277
0.09912004278733143
-0.01053146744934497
-0.05368569763374334
0.14940052420310765
0.03294561184241442
-0.024891101149049282
-0.04607080480842512
-0.1462871077922876
0.12441851095231643
-0.04389767516322394
0.07287499756429756
-0.11404513268929896
-0.08093730250675117
0.23901381667309857
-0.08013493198416498
-0.11729228284627338
-0.23801629178921674
-0.1182739272458125
-0.033340878224937344
0.1155863247026471
0.16618739008893707
0.08365903811900993
0.16994131412954228
-0.1457429697801685
-0.04262928109862176
-0.030177931899411328
0.01087241094689265
-0.0016350527582999746
0.16425588900023835
0.006036170019228136
-0.04256489794565483
-0.0641573062643718
0.16334504554421575
0.07480793528431551
0.037374447485252295
-0.05659169912681357
-0.05723291727581472
0.005305264758483641
-0.1590411282500335
-0.00796694841960783
-0.08983950585973036
0.007784476574696743
0.022337674023831106
0.012073872439523733
0.0022547529400775293
-0.03444418190610631
0.09181230337287895
-0.011979391585170794
-0.11904427881193111
0.4289888799476438
0.12697163110799242
0.2704174368696885
-0.09477561486805373
-0.32304309725108604
-0.07514423394042631
-0.21437072305382873
-0.13716481453572663
-0.06762214194776159
-0.06871488974195379
-0.05718931149650234
-0.052935059245792754
-0.04639234639936505
0.2251857343696773
0.20483282899742494
0.017507694553729254
-0.09438853780537768
-0.07268336844485856
-0.017167578921157785
-0.0455389972280844
0.0068670264319229965
0.08674069941383326
0.11866306199999446
-0.20607438180959076
-0.12442046829570959
-0.02947843639304032
-0.03201111719680303
0.14536208788941182
0.13426830819932556
0.04618457603402172
0.06616943157238019
0.12051510893522188
0.03345824514029554
0.052640179256077294
-0.05453094812087198
-0.03451116640541096
-0.10437242590198174
-0.033156303944488076
0.019957311041157076
-0.06911051514631612
-0.029494321901333918
-0.08829201674332764
-0.1218854514461755
0.08495607407810947
0.06227160199698291
0.029704360434794505
0.13185026872726754
0.195189845406083
0.04346770545668882
0.03127395456028571
-0.06136733419172272
-0.1350860694184813
0.051396376708793115
-0.029079626314612927
-0.09579485220703407
-0.22926722402926877
-0.1103901806552543
0.09001573958704498
0.0929123065890865
0.08852757513720702
0.04634552890230058
-0.0281624399071913
0.05001869437607315
-0.04185102699556621
0.09956304977428541
0.048637048516960664
-0.005783557559300861
-0.0383152268203377
-0.014518014152314922
-0.011102960606004011
-0.03662931215772303
0.051404212828768774
-0.06312409550972312
0.05306466870082909
0.11934034762230092
0.003781395374583705
-0.09900626560001705
0.04683251288374035
-0.11229277630048182
-0.08031895501459517
0.06801192991377496
-0.08492046572644624
0.019472160568910702
-0.07060616018714262
0.137670370390983
0.05470400709489765
-0.044012887040382066
-0.0942831710075327
0.05139645916939491
-0.057109770857469974
0.004960162919162897
0.05633396342846079
0.06292580233130284
0.005410800101666213
-0.02963424608498547
-0.0035190912500068804
-0.0373062336654503
0.0566433635235328
0.10603207786132905
-0.06856127324084853
-0.09500545857500504
0.04190036806974517
-0.00018375272329665122
4.006141859283811e-05
-0.19503022994514882
-0.00041326886983358347
-0.18211104187676166
-0.022126616316272062
0.2432770309756052
0.07094095511304935
0.08542310950076834
0.10675825902347882
-0.04034298081360842
-0.11047780936371283
-0.04899125221977344
0.016937138793289702
-0.03418335696132603
0.07034980593508675
0.03995019560656812
0.18209923052181112
0.03295422239728564
0.003240554588937979
-0.05234299911347486
-0.024015061442304877
0.03634357238810814
-0.00358298876212354
-0.17469653057823978
0.10038999229137982
0.07866633001783087
0.166944977538956
0.02332863924057448
-0.1528553269474046
0.20763043336895087
-0.36572155697570324
-0.05838348853458299
0.18976271957079605
0.1469567942629364
0.02877387304954902
0.008069248054577014
0.021871256834457585
-0.1358940567961189
-0.21465107543112816
-0.04488875954507114
-0.021997170794022355
0.01624851702791593
0.07499882319385018
-0.040899315526309335
-0.018517956024755075
-0.1444363531497648
0.1028959904525689
0.03170746482051641
0.046723265931319015
-0.27951975340374025
-0.002906072468797956
-0.281005383920988
0.0535088946270476
-0.17082395739045905
0.07474902655593098
0.5592739800696882
0.613128523261057
0.15478003474201701
0.010292472354863616
-0.05434363095628378
-0.2598431175209478
-0.15823191198574152
-0.13098329067103465
-0.17479907922392945
-0.3605523967791604
-0.3803388898506775
0.04705895462520179
-0.10874432890057263
-0.21550673627999578
-0.15282312595917916
0.1686364738209614
1.0022700493234222
0.04852687438887328
-0.07146953259512362
-0.2685354846717999
-0.10005752018612467
0.1014487934103776
0.07717993854042984
0.12156553534540307
0.09134139576796306
0.17942051060092987
0.1567871429607047
0.015788012398609264
0.125064490896265
-0.06461743972131924
0.1489808148287578
-0.38311544457262986
-0.17830808739131745
0.35802734582169093
0.2888168855101739
-0.09388002060588198
0.08628566753763245
-0.15404534417313576
-0.07639364222222765
0.06485061667945874
-0.473661508547712
-0.004948922792196539
0.006596038482614763
-0.094597393832193
0.034496293389527484
0.03049541596788661
-0.06746279406384395
0.019178864132951303
0.07624249871525413
-0.032745970521488595
-0.016315663957147626
-0.07895888211053609
-0.027980844122326955
-0.05188331905856621
-0.009598628798690358
0.16872580053189393
0.048757508036861956
-0.14461798069579151
0.0009226238523542384
-0.01651024580912805
-0.11757739838654749
0.05303596142223231
0.06834978906090611
0.04663056911909739
0.10976668143687635
-0.013771145577113985
-0.03810884625578081
-0.00956166313025429
-0.01932046621123397
-0.0066819039053579304
-0.04029126663781658
0.007440005663385068
0.12029528605417028
0.16509982190183947
0.04714735123507081
0.14449415494699347
0.17072775616956645
0.13345197182640892
-0.32865148494266105
0.13068216001195493
-0.4629517311491727
-0.35429979642997034
-0.20928960354965181
-0.016591131119859485
-0.19680707070241849
0.26270788510659876
0.2244607538854881
-0.03967589801560413
0.32949486082541685
0.02696114525906794
-0.015069138513674661
-0.07067938132116208
0.06975231463796326
0.00868019601617891
0.06217193091191353
0.002654783055618768
-0.08447185004590542
0.12033006159425041
0.06967728914312238
0.0795725244489992
-0.13046032288371942
-0.03814707431249142
-0.09776415693343976
0.1272481724867613
-0.1304564935434852
-0.21985094416326997
0.06150022908720059
0.049809649601397304
0.34585925398869244
0.04679204479917064
0.02216826133106878
-0.28073593848855066
-0.025542556155713637
-0.026247112890289765
-0.025868401374574235
-0.02712093960229219
0.05766167081865829
0.017317353472322286
-0.028199692251893137
0.02437420551931649
0.008082916308751957
-0.10079003315070367
-0.02092954222585232
-0.020297098480220224
-0.08134063962971656
0.0030157942382751553
-0.02074876478950175
0.058689985160319834
0.18240029887739898
0.01327577101165126
0.02658640640733221
0.06403523077697981
-0.028621213150057258
-0.04447863830082527
0.10867961497625221
0.04040272471084569
-0.1798798964321791
0.111748952949457
0.23790948617938396
-0.03472085142716253
-0.12093852219560286
-0.14137399059248565
0.08186481077060737
-0.11233373906927561
-0.0221561466149211
0.0017517154303614193
0.0472295432227494
-0.16995483574289477
-0.048154210229936927
0.011053410643079329
0.04020424130279348
0.017875230192110788
0.09999490518173794
-0.6766458717491669
-0.22298114102273997
-0.25129055555669505
0.07634674754459055
-0.10011782959668049
0.1296078764481038
0.12788995914290474
0.9171908147896805
0.2302302899333084
0.22532506069093064
0.18120419131665683
0.14437039516361297
-0.41128839521270105
0.1181820682094799
-0.47464933909811907
-0.013374271003172879
0.18895675466038542
0.15821342161220225
-0.10809516245930387
0.15049826998763843
0.3844727499897911
-0.25110477832444505
-0.15391519121485672
-0.36902606425141504
0.0703463203072972
0.15329688167027172
-0.012464716465855764
-0.01744438627962114
0.10231856106969232
-0.08065750554415815
-0.20994925639732112
-0.005445898360304682
-0.08924462672608174
0.021556387376908924
0.0985263906310073
0.06728605362927899
-0.02568338724985886
-0.03243477069750681
0.00920367434081218
-0.04920972130456057
0.020470670037786905
0.07457124068540759
0.09134733692142295
0.10906296513808807
0.017790957055275315
-0.03158391053730934
-0.1924554617764182
-0.08920379752425281
-0.018251420518682747
0.053120713798618865
-0.032620355692279696
-0.057863133368007594
0.13262185641636848
0.03137513721501513
-0.01095000348932369
-0.09743279436170865
0.00617184728249421
-0.0592792612104431
0.019056452026110428
-0.040938906800105784
0.13523724738523132
-0.011916174651460396
-0.1266944086891709
0.07836320465734385
-0.180515389048749
-0.11807802839441105
0.03458164398451694
0.09878018990969901
-0.052613463485109015
-0.05170888138657367
-0.034011524166344495
0.3035654525869713
-0.22019972303977023
0.40539306934911923
0.31027849871058416
-0.27194347425876103
0.31149297061880565
-0.1601388655554969
-0.1589200758598654
-0.21596239996461636
0.06980355021670229
-0.07857261017063707
0.021040404091799823
0.04595502816591764
0.06645985835732433
0.080412011453671
-0.26639837901345625
0.061300136898678664
0.30572957800169365
-0.07714546128257958
-0.11534268872332247
-0.09429526671977813
0.19034474173737995
0.08960340838972293
0.06246703818155508
-0.3613613495846731
-0.15337882785592424
-0.15573089736253348
-0.11142263192048704
-0.03222502802622443
0.12479588624509161
0.12046265352577908
0.11965165212919499
0.08784719326510373
0.17910770806246148
0.08610406635959601
0.036046452332316715
-0.15862163475880575
-0.21149853506093272
0.17157661585617792
-0.09399356798737551
-0.008721104803436809
0.10150557397315732
-0.013467425029822839
-0.00011192622299995405
-0.08936649073291444
-0.016570127821989186
-0.0646538481645478
0.10220539723984162
-0.019541153240724845
-0.031749462103373205
0.05909161417030294
0.005221382520886511
0.11585899412345738
-0.04480262233181319
0.1200812313372044
-0.07104937501360349
-0.15265176270306277
0.046723265931319015
-0.27951975340374025
-0.002906072468797956
-0.281005383920988
0.0535088946270476
-0.17082395739045905
0.07474902655593098
0.5592739800696882
0.0
0.0
0.0
0.0
0.0
0.0
0.0
0.0
0.3904838971468057
0.11965566600161633
0.17017793729020467
0.08231091632587516
-0.2631296956754617
-0.20641134034807032
-0.013979036874235974
-0.27910834386673317
0.036838055489199814
0.02772165706799057
0.06906339875132408
-0.1829708245422177
0.085184507020679
-0.162461323729675
0.12842956847734976
-0.0018050385346500414
0.032020010550036795
0.21379145224262422
-0.04032441684808241
-0.05189883714108825
-0.08339856401520106
0.005013948078041828
-0.23113567950499964
0.15593208663866978
-0.20113851905182295
-0.3053145854297103
-0.1294318607666324
-0.10803486988689834
0.06883683331803266
0.3439681749419535
0.09817195819014268
0.23294286868493902
-0.013226267946589758
-0.15523171505693698
-0.060291899821318225
0.24828057797571115
-0.020451366153991152
-0.13099004096658706
0.26281920797057695
-0.13090849600086468
-0.10742505992631221
0.14204144009125136
0.1001134293413095
-0.08198668183431478
0.06548627612502754
-0.012610183256301854
-0.09103789663278378
-0.014581323907876783
0.3507452571172593
0.059907097741426954
-0.0474973996428034
0.1413122015901547
-0.07444446358674658
-0.315101169293747
0.04238207430265123
-0.1573035982281919
0.017507694553729254
-0.09438853780537768
-0.07268336844485856
-0.017167578921157785
-0.0455389972280844
0.0068670264319229965
0.08674069941383326
0.11866306199999446
-0.1292962306813304
-0.05093778985600404
0.021348075600170262
-0.07414665579798309
0.0525751359268234
-0.020825615679318118
0.11960161243140632
0.0816814680562351
0.049193207017601326
0.062401868730980345
-0.043924478030833686
-0.04668912055084218
-0.06699114874240529
-0.03247510358025457
-0.02092563211724025
0.09941040727299456
-0.07297132266174106
0.0897955471648704
0.08011780772340168
-0.048165186908338944
0.041292464098979055
-0.06312650516893058
-0.029211741452180005
0.002268937203939071
-0.20607438180959076
-0.12442046829570959
-0.02947843639304032
-0.03201111719680303
0.14536208788941182
0.13426830819932556
0.04618457603402172
0.06616943157238019
0.007366722257708221
-0.006815710499473928
-0.01222247345996892
0.04259920638533404
-0.015837225185709874
-0.06400074902029271
0.09261322949761254
-0.043702999975208566
0.20498763337305664
0.013106787600417993
0.1210808830582896
0.025888432377430597
-0.09459221862021376
-0.09842410198146147
-0.21977044450131392
0.04772302869379637
0.15090308069309602
0.11652454347025164
-0.02248449219509704
-0.040326288106298507
0.0405053582729363
-0.056400546702964044
-0.0839388940686294
-0.1047827613632951
-0.15486066361407066
-0.16568730253293637
-0.045167408953933216
0.001649919624911475
0.05269549006051509
0.10914472147957677
0.08062892270501439
0.12159632123092222
0.1992320459820886
0.09994800931836367
0.0667027421446127
0.06720888461162772
0.018128274324068352
-0.05251570108440587
-0.04705807038374995
-0.3516461849126058
-0.01888658227047454
-0.339580174246956
0.08290365517288464
0.09287818642520525
0.31962198331095093
0.1250541598036625
0.05868928043629438
-0.32068050863156833
0.18113491647080157
0.014872427724980805
-0.011143565984292956
0.01795770803917032
-0.10221878275372286
-0.004599329245799211
-0.10839486383259525
0.01239148958145715
0.18180362633726713
-0.08320850700640785
-0.058884699692581234
-0.051918281767491255
-0.04510194563265838
0.03744661967457529
0.02339442777787962
-0.0035312396905826976
-0.03165928223849781
0.26297699326825574
0.260066947576544
-0.1312202383837566
-0.0694916315944137
0.03689426375375684
-0.17734767639870094
-0.15021937598318783
-0.6195668001179756
-0.40835397434407755
-0.5143284459513422
-0.20128294711722086
-0.1380321990210163
0.5881625699140363
0.48182941455697553
0.8115723820806227
-0.13716481453572663
-0.06762214194776159
-0.06871488974195379
-0.05718931149650234
-0.052935059245792754
-0.04639234639936505
0.2251857343696773
0.20483282899742494
0.043588038558579005
0.10665443019347165
-0.09414831206575054
0.03476048404722217
0.004039080064134355
-0.04643683516472146
-0.037098526188738205
-0.01135835944419703
-0.1832943218220225
-0.049753259208671324
-0.020010237575881242
0.20230977462108224
0.05650975870942833
-0.10714020692872064
0.09588254579626852
0.00549594640851794
-0.16965841241929447
-0.07465282845797273
0.06089152453610562
0.10959409348409845
0.033919997308696714
0.044617800275510155
0.019019574694887614
-0.02373174942203086
-0.2489913779581035
-0.1487479092331083
0.009110407777699713
0.1837988720757018
-0.09803205226199936
-0.2104738675361275
0.30780303244426854
0.2055328946916688
0.06937731061030505
-0.20325136139388955
0.13845868701844163
0.4434798323449263
-0.1400681027395292
-0.14133683538848507
-0.111601968563291
-0.05505756188847821
0.19296455287460104
-0.016815080482797805
-0.07758033327125337
-0.0803618452880358
-0.0006486774900040638
0.03461025437818354
0.025194541981076662
-0.07736341270177066
0.12051510893522188
0.03345824514029554
0.052640179256077294
-0.05453094812087198
-0.03451116640541096
-0.10437242590198174
-0.033156303944488076
0.019957311041157076
-0.13046515123915586
-0.05231923489119128
-0.012349585504683635
-0.034005862566439775
0.03645261644080756
0.034496287804185816
0.04566659927041794
0.11252433068606008
0.05132566914171065
0.09656325141969212
0.1439323113223252
-0.05963811256767629
-0.1595139572468426
0.01709244363874482
-0.05499531627597612
-0.03476628943197678
0.10855604753197262
-0.014337750301755482
-0.1206225005728012
-0.07418133747768889
0.006337475745105344
0.020713926165819557
0.07311496564366239
0.0004191732656848588
-0.02079790780615107
0.025883231431613404
-0.05869774114327072
-0.009999229273906935
-0.051607241544235745
0.04535540370164897
0.01869977990305298
0.051163704731248774
0.06568060633045002
-0.04137147974353153
-0.04198902565364076
-0.002323603052925082
-0.025658216749143595
-0.00508825961156278
0.03544300900034638
0.015306969480006765
0.327143384984339
0.1052637374955502
0.11777227013529917
-0.09052722887827211
-0.2627375559941405
0.08848404535556055
-0.1143406294819607
-0.1710580236163755
0.30265956947133216
-0.0008403762400873668
0.03710160805243572
-0.09826456780917243
-0.0016379050382579812
-0.025302257616091967
-0.1759432186566248
-0.03777285216353377
-0.17671109636648744
-0.11418797329628433
0.06093970484878236
0.27964495363435826
-0.017124483817662604
-0.10980981640612666
0.055972964924104605
0.021275746479314597
0.051404212828768774
-0.06312409550972312
0.05306466870082909
0.11934034762230092
0.003781395374583705
-0.09900626560001705
0.04683251288374035
-0.11229277630048182
-0.06911051514631612
-0.029494321901333918
-0.08829201674332764
-0.1218854514461755
0.08495607407810947
0.06227160199698291
0.029704360434794505
0.13185026872726754
0.18976271957079605
0.1469567942629364
0.02877387304954902
0.008069248054577014
0.021871256834457585
-0.1358940567961189
-0.21465107543112816
-0.04488875954507114
-0.11019522765158413
0.03466717281913707
0.07984951221731514
0.008905152673846149
0.007427534888105548
0.10008606856214827
-0.0062092538773045065
-0.11453095963166456
0.1232504281841558
0.12653955933535044
0.06689592364945432
0.044618284324026175
-0.021651551054588755
-0.07159216124323044
-0.13812912194035395
-0.1299313612548158
-0.17757784424588655
0.003620953965755614
-0.12349850922339096
0.1916678229766711
0.3815283636780489
-0.08652907002539113
-0.0833973143873177
-0.10581440273848933
0.23554399333156611
0.08173823000920581
-0.02196719884308945
-0.04788324347002272
-0.03398159292587852
-0.038850531449057965
-0.09589118331862911
-0.07870847333409317
-0.01926302233259566
-0.032019879634808235
-0.12200222085600275
-0.1154527855269982
-0.012200517178139513
0.022882513455422922
0.2972841066947051
-0.019228194621583712
-0.019604616388639057
-0.12421262688901928
-0.04665943448380187
-0.051972766936411376
0.046901521735994385
0.1100465898058986
0.02091571898927429
0.06458561416670446
0.14367023057265882
0.14091175602781308
0.03802806304892543
0.22918632081937257
-0.07993412634528148
-0.2663296148778399
-0.026188344586386195
-0.17934428465926064
-0.047230569111745294
0.13211202959932664
0.05023341231762923
0.04680148806114723
0.051354280719044604
-0.04979633430971778
-0.09221919402552273
-0.09125511325016133
0.07267161232890663
0.021646166709492876
-0.010757220989605912
-0.06828904747566322
0.007309085869032695
0.04583647426818624
-0.07898602205354598
0.010568951343197497
-0.03851345676729411
-0.1349153920594564
-0.14169706989787004
0.005754312441846505
0.01632352126878543
-0.04700878702875386
0.18332159591388744
0.15673527612885738
0.03486219699539114
-0.17096569038313106
-0.09895655198804772
-0.07383748273910394
0.04362789829695931
0.1617288419208318
0.11691239886960754
-0.01337161097250775
-0.08573125871306107
-0.042977953917678516
0.09261062805163088
0.048165733044330174
0.044901915181522346
-0.019478316222803615
-0.10228476999618653
0.06479402257224735
0.10038999229137982
0.07866633001783087
0.166944977538956
0.02332863924057448
-0.1528553269474046
0.20763043336895087
-0.36572155697570324
-0.05838348853458299
0.0
0.0
0.0
0.0
0.0
0.0
0.0
0.0
0.18209923052181112
0.03295422239728564
0.003240554588937979
-0.05234299911347486
-0.024015061442304877
0.03634357238810814
-0.00358298876212354
-0.17469653057823978
0.09759956254156876
-0.1088321688291153
0.005460348950649727
-0.051077298764637104
0.08003092330178452
-0.04270726765687406
-0.03375629919506399
0.053282199651688504
-0.09318069970373542
0.14390336111616525
-0.01976589271518913
-0.019881300296549227
-0.014459322253158534
0.07166046767834718
0.1025142399033575
-0.17079085372923883
-0.11709867330645754
-0.1136562647820668
0.12784469571189774
0.062478812504459656
0.030666382161664237
0.3255625264130952
-0.21083688509492018
-0.10496059360767193
0.1886659846023278
0.1405538889805937
0.279432851243665
-0.06657159943547176
0.017517792875224442
-0.10854154845785205
-0.07596471240075887
-0.37509265740772985
0.21238034631764002
0.11631398108421298
-0.09949527010734517
-0.0582754163855208
-0.05407496321308632
-0.038759209818828175
-0.028386490654363276
-0.049702977222709215
0.10621693528341557
0.15685170281259675
0.04066446340768741
-0.09170580528781161
-0.04431404000989814
-0.008889299196772803
-0.08046026903116309
-0.07836368797805038
-0.2436510616818402
-0.08919707749498264
0.015571220034858325
0.0936695924104099
0.05468752528068086
-0.01569251701294281
0.06623907064408795
0.11837324781973019
0.010908403693329497
0.0996849996551729
0.039512716316879186
-0.00835867116750604
0.015369479476575777
-0.07856600106365574
-0.08973493173291844
0.01118400482212277
-0.08031895501459517
0.06801192991377496
-0.08492046572644624
0.019472160568910702
-0.07060616018714262
0.137670370390983
0.05470400709489765
-0.044012887040382066
-0.08983950585973036
0.007784476574696743
0.022337674023831106
0.012073872439523733
0.0022547529400775293
-0.03444418190610631
0.09181230337287895
-0.011979391585170794
0.16334504554421575
0.07480793528431551
0.037374447485252295
-0.05659169912681357
-0.05723291727581472
0.005305264758483641
-0.1590411282500335
-0.00796694841960783
-0.0747013566844061
0.017568647541365924
-0.054383109756275534
-0.06453348550946143
-0.051399620027935175
0.023797346638961825
0.03038577808911139
0.17326579970863895
0.17324840969651598
0.09009230317335266
-0.22702683052043696
-0.07162011043273897
-0.009060054977934691
-0.12297681238943128
0.07200527759232644
0.09533781785834955
-0.23801629178921674
-0.1182739272458125
-0.033340878224937344
0.1155863247026471
0.16618739008893707
0.08365903811900993
0.16994131412954228
-0.1457429697801685
0.12974793062372028
0.10543195094572394
0.1797805402903834
-0.01937635000158185
-0.1699370744539681
0.039216119580544356
-0.20547030366083438
-0.05939281332398809
0.07438310691507062
0.0716288404631547
-0.05811421708735869
0.024068132856365398
0.0739148506750166
0.013090653709433322
-0.14930736548884874
-0.049664002042833486
0.2906105249673815
0.17792346255153604
0.05630143181153143
-0.05217716738641884
-0.10501676407001596
-0.03302629028566435
-0.25225856197599017
-0.08235663561236
-0.15943570664964044
-0.1370574919791723
0.09798526050303927
0.0046305404925480855
0.05427995140118027
0.053834275436156424
-0.05427556586352494
0.14003873665941488
0.12441851095231643
-0.04389767516322394
0.07287499756429756
-0.11404513268929896
-0.08093730250675117
0.23901381667309857
-0.08013493198416498
-0.11729228284627338
0.1261592448629445
-0.09766731410936026
-0.007667831996191426
0.25102193058807204
-0.14275445029504996
0.04012322435023656
0.08616907872719151
-0.2553838821278414
-0.021997170794022355
0.01624851702791593
0.07499882319385018
-0.040899315526309335
-0.018517956024755075
-0.1444363531497648
0.1028959904525689
0.03170746482051641
-0.04262928109862176
-0.030177931899411328
0.01087241094689265
-0.0016350527582999746
0.16425588900023835
0.006036170019228136
-0.04256489794565483
-0.0641573062643718
0.09912004278733143
-0.01053146744934497
-0.05368569763374334
0.14940052420310765
0.03294561184241442
-0.024891101149049282
-0.04607080480842512
-0.1462871077922876
-0.29752933024903144
-0.13537776818916067
-0.18939256551550449
-0.14513816319523096
-0.1089628052535901
0.03296744027613133
0.4741809208955002
0.36925227123088844
0.19991211674349957
0.1533915023782566
0.13795063869682098
0.07384951443547491
-0.1399850774715528
0.16271125099736947
-0.38912705751337745
-0.19870288826649676
0.011596462104359797
0.14074202441019704
0.029677831985061534
-0.44991685587005376
0.25220516477048516
-0.13716615363975257
-0.1300359305314253
0.28289745677112904
-0.10554128627210121
-0.1483271980056357
0.4015439104887544
0.22319116643699044
-0.4303261774210999
-0.0021706887229105513
-0.0967979761487832
0.15842824964478652
0.17977793967990663
0.11586216655565361
0.18942702912802395
-0.016331191788836377
0.10866843766873563
-0.03531895660444333
-0.20582336526122483
-0.33626205937781484
0.16418296390279496
0.0962068644703449
-0.3758156885339066
-0.1972948981498043
0.3591714696868498
0.06067072488548322
-0.006675696296026892
-0.10044573996573741
-0.04185102699556621
0.09956304977428541
0.048637048516960664
-0.005783557559300861
-0.0383152268203377
-0.014518014152314922
-0.011102960606004011
-0.03662931215772303
0.1519065955866761
0.08057432417738192
-0.038539122575195366
0.0388903291003815
0.0017804722035234778
-0.03213267837291999
-0.1062245631089787
-0.09625535701086932
-0.06695111552583843
0.2118606304986804
0.06968730501595247
0.052769907296345335
0.04344349718879259
-0.23061676839326034
0.013075515945867975
-0.09326897202653939
-0.04872165606535432
-0.10662255099477039
-0.12032804386639716
0.07903127580096994
0.034012347819127264
-0.006234884361640941
0.19181477109796427
-0.022951259429897227
0.12128857186507035
-0.01191981424730036
0.04401930465861297
-0.07475766916434473
0.02511933165215489
-0.043378555171943015
0.022308819184910463
-0.08267998877716118
-0.07905427435280948
0.04587600165965344
-0.029051707481535988
0.08484603545705552
0.013470606004207429
0.06688306727119125
-0.14653371307678376
0.04356398451902305
0.34123923730462485
0.14051568940671214
0.05167164296405837
-0.040038567897974234
-0.11399223253516809
-0.021827808091796578
-0.17605385296363232
-0.18151410818682276
0.22817363657250547
0.13769543467116407
0.12904528801602008
-0.019343567086521032
-0.08347424290655141
-0.1827056058541869
0.026652190601631646
-0.2360431340140624
0.04553306421148417
0.15978450263427196
0.21839450214941844
0.05713770447594572
0.009494474873148953
-0.21814616661007166
-0.08548197776882767
-0.18671610396536692
0.021687199425212623
0.04451184448306069
0.021597860946965256
0.021716525593470436
-0.14298087861986644
-0.06475798987581231
0.1841762427760319
-0.08595080472906225
-0.09432117084462345
0.08859772028313287
-0.010580700015435625
-0.002815955358232453
0.007025384870153985
0.05385062216891904
0.033988211332308865
-0.0757441124362231
-0.11405733688725558
0.11802075452196743
0.12771797612201372
0.03815283748273007
-0.008077000869620316
-0.07023497468464049
-0.04777359563897057
-0.04374866004622316
-0.07371556411411984
-0.013624820092435708
-0.06307558518516215
-0.06194356294867927
0.00352011214917336
0.10449523324346022
0.05248335549197814
0.05186083145578569
-0.045930523421869034
-0.07458514163551565
-0.05209275381853548
0.04133803835630649
-0.0772360228666536
0.06736272951338801
0.18417545891854945
-0.04303178504567037
-0.0036356687106298352
0.3556333412289791
0.040720655830392895
-0.036350192935606734
0.014492455622373107
-0.09428976997648156
-0.31763561993061773
0.041064798871590036
0.021179548064798992
0.0720002154969861
0.07100526793026135
0.03003758269490166
-0.09601761380254313
0.05203065679245498
-0.13370746867791175
-0.01652818849894828
0.23259067623094937
0.01708428112030437
0.009700967672966774
0.06171602310766756
-0.09336749374738156
0.08371960710143908
0.05185637649758542
-0.36330043798352957
0.20235751627239723
0.22941837665328696
-0.012583460856837574
0.07237464195499463
-0.04143783101672307
-0.10351646420777298
-0.14917645063377333
-0.19743632816557033
0.05507899213369245
0.05933771714406037
-0.029825462063042332
-0.022295901373527376
-0.018030333329096964
0.06950587024182502
-0.03947156799054078
-0.07429931476337062
0.16845832025828042
-0.01730649979331679
0.1504304197729536
0.018701278030147168
-0.0468399972811607
-0.06453811056238497
-0.07965877453139046
-0.12924663589312815
0.195189845406083
0.04346770545668882
0.03127395456028571
-0.06136733419172272
-0.1350860694184813
0.051396376708793115
-0.029079626314612927
-0.09579485220703407
-0.11904427881193111
0.4289888799476438
0.12697163110799242
0.2704174368696885
-0.09477561486805373
-0.32304309725108604
-0.07514423394042631
-0.21437072305382873
4.006141859283811e-05
-0.19503022994514882
-0.00041326886983358347
-0.18211104187676166
-0.022126616316272062
0.2432770309756052
0.07094095511304935
0.08542310950076834
-0.10575044799942507
0.29647403176450376
-0.0829329117766074
-0.0575993439341588
-0.024428970912364827
-0.011448680055668512
-0.00647718474030763
-0.007836492345971615
0.19231072577386377
0.04676986799196201
-0.046192513455671914
-0.08162820091998425
-0.0340148826493036
-0.03263549684401165
0.0016989628793458236
-0.04630846277620161
0.09218834311560777
0.002419693783833528
-0.0022347583122969052
0.0023481146452759374
-0.052944456874294755
-0.07998981414867484
-0.14730798322570862
0.18552086101625667
-0.11072532897542055
-0.03265220666295101
-0.01651028052980178
0.11607878215812256
0.08513767332102072
-0.1528057980240776
-0.021725006485540488
0.13320216519864717
-0.06396293174106678
-0.04455203007537215
0.06790356650479423
0.006399062937950286
0.030600336736587144
0.03405880844338472
0.06326105538208132
-0.09370786818835995
0.35451031200416605
0.41777280899756625
0.005281709003153788
0.07680614975806394
-0.2197878214414584
0.3471034244509291
-0.21034322463174868
-0.7713433581406719
-0.1975781729021603
-0.2479185982953361
-0.05530126688359746
0.36345215091372357
0.34441813787573483
-0.3108878347200566
-0.30852711918626113
0.412342703197957
0.14438860256165784
0.03387038492003402
-0.05171914488878701
-0.12461882598910494
0.0014704453049216594
-0.014312308970583032
0.09109456223676242
-0.08017371517490095
-0.11651002669579526
0.04611038583013037
0.07162252167623817
0.06636254420735421
0.1097746088105698
-0.04556063664651783
-0.10618295429117791
-0.025616442890800926
0.016539979244830944
-0.22553737319182857
-0.09110800133196414
-0.02644426050689153
-0.17006368080500578
0.1394234567610827
0.1099921190143652
0.24719776081541195
0.03517162551394902
0.0684099095520979
-0.01145683971769568
0.016824568578458026
0.003622689378152132
-0.046823792228942576
-0.07548533877087933
0.009737177694860212
-0.12681517296355535
0.31363163955306345
0.19476954925952575
0.2040691974745838
-0.10200297890423217
-0.20696722222902056
-0.023936580194108086
-0.25274843199625663
0.04334317426506982
0.2618960815356615
-0.06779170220422924
0.10528901180394681
-0.20093172984437782
-0.06446739811249858
-0.023956974793518458
-0.053380462650054986
-0.1797459943078049
-0.34967564093147385
0.03281510875614013
-0.1669083061526866
0.1951021229848523
0.22941436044484015
0.0385003079892581
0.2004980412168766
-0.11405749667452544
-0.05437634496934931
-0.01377524554452161
-0.1800184264715568
0.20221139236901778
0.22119246417252258
-0.053326421627265225
-0.007849921254322018
-0.09165941946708854
-0.029654140248290356
-0.00122900122620347
-0.021814298873791278
-0.02951772862218714
0.04725932928582842
0.041500873586127716
0.08511438556560395
0.3389136137002714
0.1808989385671885
0.12560152415587228
-0.007699244867822441
-0.14846189856712677
-0.09513082444383311
-0.10280811291984797
-0.2913139956247061
0.13779950917926206
-0.055265357205159335
-0.04256002743953249
-0.1187933060542651
0.030799504173289305
0.0023187505892483494
0.016498825327922965
0.029202101429233997
-0.05897373945773996
0.10671934584253866
0.2953796962424325
0.11568165125286069
0.05578819250566664
-0.1259946329440386
-0.11245247191601351
-0.2761480415257066
-0.035678313618952365
-0.07165090310358287
-0.020207846765568194
0.0005660381851567507
0.03933257176171766
-0.08169085551715026
0.06439463907484312
0.104934669983537
-0.068243509991371
-0.051810755808782395
-0.020198643391249094
0.1855024673703584
0.07998295380877285
-0.2006639784007759
0.060085825397392115
0.015345641015654506
-0.04524284715767718
-0.14218777505605396
-0.08906814872023101
-0.06757277912989983
0.05072517427969737
0.12795349091525407
0.11885956088607448
0.0465333239828351
0.061718504192361884
-0.0023954204933030318
-0.049902505703029225
-0.017839545793932654
-0.04416459473237286
-0.06139331782037439
0.046486140674464375
0.0674907396761861
-0.0069776948307325075
0.34453691855157975
-0.020434566562077806
