2.1353488074474694
1.2330673742351945
0.33382949772140647
-0.20778114864511468
-0.5165525839415572
-0.7627334909916038
-1.2553943629516766
-0.959784092874138
-14.03963524425823
-11.108997927068152
-6.553009779471306
-2.482650876688222
-0.28998087028328845
0.7733566314770234
1.5263218394426525
32.17459622684959
0.19843760361793292
0.17952276273804524
0.12446729135956257
0.11944893465457981
-0.022833941806848293
-0.11831507118376165
-0.16401147198814742
-0.3167161073913618
0.1276904610013338
0.16172605070790697
-0.07264225624850014
0.12504742891857668
-0.03634237808068543
-0.11727545530298578
-0.11103980915973384
-0.07716404183591527
0.06945158459679954
-0.07464166370931616
0.0406089328822929
-0.03139780661473009
-0.10304812006146481
0.17554392032270408
-0.004447075620668951
-0.07206977179561479
0.14719807915917593
-0.04759679450301796
0.04287438651317568
0.07195103624579667
-0.08065889341606801
-0.021967738017278367
-0.07212005018715552
-0.03968002579462722
0.12884686433986312
0.004763099520230418
0.032629542919856425
0.02195946363957349
-0.09365220102369566
-0.004757027600318629
-0.029671486045649433
-0.060118255749858046
0.10119081027373819
0.09962813990662714
0.09473634643163084
0.0449220624568195
-0.11364372576821728
-0.0047171641093487985
-0.10757333114432624
-0.1145431380469237
0.1581488590751283
0.005563175609107439
0.06329477235569629
0.023398532877401387
-0.038991309083081925
0.011898670762367504
-0.1141823521761966
-0.10913034942042232
0.1372410525104045
0.13503272390738288
0.04000255421674045
0.19915846528885295
-0.07469785540890377
-0.22976673968340056
-0.03391184423172593
-0.17305835659935107
-0.061274649293471865
-0.07158413782333399
-0.08072882322349373
-0.0822107752447375
0.006997119341041291
0.11769395304808154
-0.011254382539216215
0.18236169573513122
0.056073150822765885
-0.012630249862367713
-0.003203182657132347
-0.04469554797343539
-0.0945176708569952
0.06671519729835855
0.043608047774811615
-0.011349744546005033
-0.09920602150028224
0.08609022725969397
-0.012557933602701146
-0.023076951880583372
-0.0014821337625313042
0.06741171941463862
0.04714728769550488
-0.06432619362373841
-0.03971587390556597
-0.021604877124752595
-0.059891047177408764
-0.02978738306312896
-0.05737895658176038
0.014901979401284165
0.16304873632966713
0.030427422121665073
-0.11008633991686664
-0.0890466814303928
-0.07698804694843384
0.016165659002838707
0.1638340165687284
0.19934544285155872
-0.027181728504912434
-0.0760423216225201
-0.0511856449248091
-0.15861676728186383
-0.0983437238400551
0.05178059899267251
-0.08086728887230266
0.19553269683780247
-0.056938412916827656
0.19863854200538392
0.04511765945097134
0.11225838976899476
0.09793952908876405
0.08961761043025494
-0.019126054911221966
-0.07143236140770641
-0.15118137891913785
-0.1031933935009186
0.029708332725360137
-0.09310584852939867
0.017219138061353147
-0.03944601048116414
0.053839218910098546
-0.03086334516649604
0.09588621073902126
-0.033237696258774346
0.06010896661461328
-0.08126788308281516
0.00777020554414339
0.04889041787436373
0.06133882363610263
0.0682064145322754
-0.23822767506167775
0.07318072994299508
0.10571585874308058
-0.034316420447301654
-0.005110052704186238
-0.05492350700735924
-0.026176748862226158
-0.06618926065548432
0.1261980342877858
-0.045197903354308865
-0.14656230233740658
0.11782769345700314
-0.016262017311674145
0.05234066385767111
0.2695669443469001
-0.27091952174448103
0.18567476450758016
-0.1916662247755921
0.28016175275532523
0.14337801830097888
0.14309811533515424
0.003306527628047607
-0.059825855672489
-0.00766521349286698
-0.3089992986748241
-0.1934540461793209
0.03453950503241036
0.07195298072538922
0.1768763139633573
-0.030439024607495
0.1242317412879255
-0.18989618221253948
-0.1318974331837694
-0.05536790100527875
0.2251728633535761
0.10156074257920723
0.3633481792911777
-0.20253657104273612
-0.17692655552503486
-0.11311405445678963
-0.07898411526525981
-0.118520488934141
0.1915081010029426
-0.010354073424507745
0.0591676978688875
0.1696647844030812
-0.11307258712868552
-0.05839114987303768
0.1282072993126897
-0.36673007216137343
0.28708772569658175
0.19050673343824964
0.06629034010749678
-0.08249538967581557
-0.10392654309880936
-0.029391408101069036
-0.24129668489968534
-0.08677477346695088
0.2263104931912006
-0.017474734525693772
-0.021296435497963735
-0.11720751728191539
-0.0009433201668365687
0.037423721782384296
-0.28985161352529065
0.18303940602411414
-0.14197645656423272
-0.12964031943722587
0.06096007221428574
0.24299384144478328
0.03484359240923394
-0.07943569955093036
0.05191178541555786
-0.03965681593147194
0.03903924321525506
0.21684085500765354
-0.23889672910537663
0.06954613163324902
0.14022917788942893
-0.10475484015399161
-0.032207703222038066
-0.08979613526417926
-0.14417350249869681
-0.19427592265232144
0.07526283411587127
-0.05313500821215839
0.05350371288254053
-0.00044669044621108156
0.11253318059360794
0.15073139621737153
0.32776570102025226
0.08618556269678138
0.12210811980289708
-0.09038171951852743
-0.2511392776159531
0.0434604255022911
-0.09980403308252087
-0.13819477880522124
-0.040743168326628554
-0.09248594840351165
-0.09982789410083728
0.11589537059492644
0.033584526319741695
-0.013698647682272854
0.14085816601210663
-0.04358240441352457
0.1512625365168956
0.05737346726189043
0.013672487335277095
-0.06431322355751873
0.14054624323140052
0.07629834689881883
-0.02113032518119438
-0.35370953250557
0.36885000516278266
0.1585896335736301
-0.07337404148051899
0.07131398913920624
0.0036726179149415778
-0.025368339112150518
-0.1692948806039378
-0.3343889845939534
0.05638258252163654
-0.10864432496745625
-0.07133429348410911
-0.029008898547030888
0.02579773395556039
0.0429279164198941
-0.023164066851308954
0.10704335095281611
0.10060717503270032
0.037082716510130315
-0.0003932484245351064
-0.005826954756266908
0.02312571520394021
0.004552369845502154
-0.09266224461504445
-0.06648552879642719
0.004495038184217264
-0.028175329228579182
0.019812494133447545
-0.014576511076460307
-0.012377695875166926
0.028676720971458892
-0.026280362289007094
0.028425645180089765
0.03370396659397432
0.02025143421082247
0.04001938529793061
-0.05312131671091553
-0.16648663153304336
-0.06205360716221898
0.13982054665838214
0.047866222645067985
-0.01666483089817198
-0.012613762354514828
-0.02621165160264998
-0.11575472455830246
0.016994922339751396
-0.007334830069586456
-0.07731516443333723
0.23890004157680977
-0.13148605845559144
-0.08056142275382246
0.027955064213496278
-0.06952762202138342
-0.008071718580471086
-0.06593145566897664
0.009945149638807048
0.3176780636279463
0.08130076680517095
0.0010442564904206727
0.00041465869181270254
-0.03898248545650716
0.029174275041901086
-0.11650093043805405
-0.04737202550977277
0.09092148437503093
0.03370955287065691
0.03534753314564188
0.14135635451720527
-0.0028447791486708694
-0.022258061152899918
0.06116758984305611
-0.055224977750511446
-0.1912532123244785
-0.00790030211026569
-0.05703136170389396
-0.05565656845514088
-0.03486850084771554
0.049352528351273454
0.09352421978163351
-0.013039569468144916
0.02561955445225398
-0.05715388110986526
0.2585459965367199
0.017662680426187183
0.0020656377393298824
-0.04020606268434774
-0.059525330279530136
-0.12977860176458486
0.008389561136091085
0.059364067399659534
0.07945563174346038
-0.017572084952091328
-0.1543401143901381
0.02382271009154924
-0.006384524249252715
-0.02905074516514751
0.044705059521959314
0.15418721223199985
-0.0049577347697263435
0.15239967642452856
0.012594585602811313
-0.04762085733130689
-0.06310997265315388
-0.07689194833174895
-0.12660096117340192
-0.03108717949937394
-0.024866013606976836
0.025397815138559588
-0.050956925649103584
0.01734282514342269
0.05733192099636438
-0.025464044482291132
0.03230160195939817
0.48591567167714067
0.3544418784921296
-0.0020741804107740932
-0.10010521088903335
-0.29677056073335933
-0.12711558435498757
-0.1922684419521822
-0.1220235718289333
-0.003467809531374485
0.13689954002923016
0.08607175836943895
0.13694818360636832
-0.17516847630564109
-0.15396787208640425
0.0638086409861883
-0.09112396506780837
-0.35210336871120085
-0.1604456467855334
-0.22720380597449158
-0.09793641316839755
-0.0827602433478639
0.2961066994820475
0.34063016950184904
0.2837126090035942
0.04463022912777678
0.06262974114210706
-0.01342682145544333
0.03327137431469952
-0.009529507494089895
-0.01965416284044854
-0.10914322044157851
0.011222367646977253
-0.15305421537236089
-0.3428646777666285
-0.37062353462175895
-0.0022408322705420483
0.06882122387897766
0.04106726691833825
0.2887364841003982
0.4701582851335706
-0.1926991637123173
0.4056588535407387
0.25541362169952636
-0.24755597088493467
0.27317344055532433
-0.1445549575074941
-0.14047653247165462
-0.2089592912191884
-0.16279485417223707
0.2644808404313324
0.1429460654392854
0.14034981261161292
-0.0748533998199258
-0.16859895201618266
0.057683688475903966
-0.19921320094978953
0.03306000452846469
-0.17601670784965237
0.11937639869817732
0.17619098096515548
0.021676546146764054
0.1733672997966275
-0.16793693070752524
-0.17971759157801295
0.20238975296236367
0.24725258669032432
0.11591482654681337
0.00987182454776017
-0.22848142597898047
-0.20828600797503466
-0.04347592767648544
-0.09518562911675943
0.1427030409749577
-0.019421465274438374
0.023061892379728076
0.08652754732225632
-0.06828119754090146
-0.05064445898873763
-0.045839687898147755
-0.06810567097471748
0.07425632494102942
0.13255160977973166
-0.017471988275385465
-0.005582812911067088
0.09285940233459748
-0.05515458745934141
-0.21817043292059646
-0.003287515488968456
-0.07140863947258798
0.015330391202270904
0.09284194925886467
0.053340522598283605
0.005848340501332045
-0.043171706404285116
0.013057580731233932
-0.06583843841511224
0.12836708380528777
0.07195152868102368
0.12007630706611014
0.047465207464979814
-0.10917901170738796
-0.0244248953613376
0.032266381569974835
-0.26652260151864865
0.1601382226359232
0.09905688050394393
-0.0013827491947334656
-0.04143063349648839
0.028567096439939432
-0.04106599427144775
-0.09343401402734337
-0.11044880858979238
0.16470373259645182
0.08093773270710297
-0.028834871718182057
0.041511794193357016
0.03884323080379606
-0.06662191438838817
-0.11253494609047963
-0.11800475810365664
-0.24912697329629688
-0.2924669720614314
-0.27164572621082655
0.011599877917567888
0.12573650681588686
-0.031375700035696986
0.2819430309851917
0.4253359558856079
-0.05645349472544489
-0.14421141283420075
-0.02710449661809297
0.06678771991433444
-0.1327996544196947
0.09591009599031236
0.1947320023837595
0.0031392403090280477
-0.12236270646061251
-0.07224232495844027
-0.03357702378322723
-0.16637058801821472
0.2204599704695262
0.21797038393925353
-0.026096284602870334
-0.017781426585414848
0.17533737906606747
0.15246383965455843
0.029664133236723424
0.11204832355211372
-0.02404273370768271
0.10001633686271429
-0.34625850545721676
-0.19922877320727603
-0.14403299287500618
-0.08398205649775899
-0.10437768514325452
-0.03956552631920594
-0.1699895386214815
-0.11497389228565898
0.06683757479670473
0.5900841169456658
0.0
0.0
0.0
0.0
0.0
0.0
0.0
0.0
0.1372410525104045
0.13503272390738288
0.04000255421674045
0.19915846528885295
-0.07469785540890377
-0.22976673968340056
-0.03391184423172593
-0.17305835659935107
0.025803082391899324
0.060754423478408
0.08688142076336229
0.03426328646211278
-0.09762446434926547
0.054600754652703115
-0.11947745679706208
-0.045201046602158644
0.030270068430867283
-0.07338467334077564
-0.09008460342049486
-0.07895883443554744
0.0031067934922693434
0.0121144426456538
0.16308550457187418
0.03385130205615423
-0.09920602150028224
0.08609022725969397
-0.012557933602701146
-0.023076951880583372
-0.0014821337625313042
0.06741171941463862
0.04714728769550488
-0.06432619362373841
-0.1305347068660501
-0.1396458128704556
0.056302943529140836
0.18476954379763957
0.18072568186265892
-0.13820577193255118
0.02466361331218932
-0.03807549083257134
-0.03971587390556597
-0.021604877124752595
-0.059891047177408764
-0.02978738306312896
-0.05737895658176038
0.014901979401284165
0.16304873632966713
0.030427422121665073
0.12976610860680626
0.2319698586251937
-0.07357399456357201
-0.08595961669734381
-0.14473241708796092
0.08849998097499634
-0.11816334069659386
-0.027806579161524278
-0.30600320600793135
-0.14358966761708486
0.01821420867610187
-0.04531725818463591
0.14543687229524319
0.269034646937093
0.06994924634054135
-0.007724842439323378
0.1966854643503092
-0.03778105956804444
-0.07793120459010439
-0.03732700991282099
-0.017596120501212776
-0.01998341312797622
-0.0036312474610492103
-0.0024354091891012576
0.017726331263139182
0.004887954896753198
-0.08022260614605434
0.03899100850279889
0.0423742094971692
-0.07968244722433376
-0.004398004073059571
0.06032355328358778
-0.06891197618794863
-0.1635047221786172
-0.018121117694000502
0.012789590489873656
-0.12324149836947221
0.2752151440621341
-0.05254040884376794
0.13831498872179668
0.04511765945097134
0.11225838976899476
0.09793952908876405
0.08961761043025494
-0.019126054911221966
-0.07143236140770641
-0.15118137891913785
-0.1031933935009186
0.029708332725360137
-0.09310584852939867
0.017219138061353147
-0.03944601048116414
0.053839218910098546
-0.03086334516649604
0.09588621073902126
-0.033237696258774346
0.06010896661461328
-0.08126788308281516
0.00777020554414339
0.04889041787436373
0.06133882363610263
0.0682064145322754
-0.23822767506167775
0.07318072994299508
0.10571585874308058
-0.034316420447301654
-0.005110052704186238
-0.05492350700735924
-0.026176748862226158
-0.06618926065548432
0.1261980342877858
-0.045197903354308865
-0.12788687098076684
0.03505617892594667
-0.09554657442878449
0.12067420767375808
0.30729523859224683
-0.07447946800773093
-0.06572726646977003
-0.09938544530489944
0.05035006463929535
0.06494264014801014
0.002147441126413376
-0.10822455380215312
0.07474084842861238
-0.1400602763146286
0.07756688412736333
-0.021463048352912857
-0.06902549599593505
0.017828874383046266
0.07713711599069686
0.039891009986066206
-0.11246914267395922
-0.05637977742212181
0.17383514684998663
-0.07081773111778017
0.03687899769538179
0.05701036961907373
0.028578409613276044
-0.010550183282032884
-0.012589201384228994
0.03507554162469947
-0.051182005629731
-0.08322192825643847
0.33910678981864206
0.10810217325344552
0.01806752995076708
-0.03403552544705196
-0.09645453361037441
-0.007421884750907536
-0.16436692090681326
-0.16299762830770834
-0.14729543192183855
-0.06572196902701916
0.0005034705774169456
-0.0565141137579705
0.035131116294502794
-0.002962434127488616
0.13364232595190947
0.10321703601048843
0.06901713413203601
0.03042493752728898
-0.021577756017157192
-0.04239208632432635
-0.002174393225388006
0.03433124169982405
-0.058678074669725404
-0.008951003122553113
-0.10558210976613298
-0.046989707278578006
-0.01012267440210414
0.1205355656646487
0.10978582721421933
-0.13827871484194354
-0.04863642888318648
0.1192882422930786
-0.1209473148142848
-0.11832983683158317
-0.025364796958525185
-0.03645155401660417
-0.002971253874611526
0.1331991260720232
0.030509116330858278
0.14035651409272548
0.5306243049211794
0.22935896997836275
0.07676932653896472
-0.04748830179166122
-0.21753156654729486
-0.14177307132056863
-0.18441182209642912
-0.2455478396825561
0.061920583100635244
0.0942296479592477
0.1520229831414313
-0.056049221646558865
-0.16135769926413132
0.011538966807920088
-0.07090439561702214
-0.03140086448152249
0.1300373509044626
0.060369507293975014
0.1539369998055867
0.12939408961132245
0.13299003243920843
-0.2924337296612532
0.08535138624182838
-0.3996456366351309
0.06434194322888057
-0.016054984848356674
0.4398960191336701
-0.1555522144218103
-0.1267305704255192
-0.07749572057545134
-0.05402936513068772
-0.07437510696072593
0.1608309201246957
0.11761572742756396
-0.07654783984249258
-0.04698435662092589
-0.05019598509951588
-0.03561833388133833
-0.024954750134571983
-0.04414538197341513
-0.16147336410565316
-0.25393917246248027
0.09370291248394363
0.06844752009866081
0.08581221286098006
0.03701080319270818
0.09745836858113259
0.03298071935070799
0.3529814651085957
0.24358509903797215
-0.03453521461505639
0.10121726430441949
-0.198884799989666
-0.09540195306574537
0.030748930731557364
-0.3997107915120802
0.28708772569658175
0.19050673343824964
0.06629034010749678
-0.08249538967581557
-0.10392654309880936
-0.029391408101069036
-0.24129668489968534
-0.08677477346695088
0.2263104931912006
-0.017474734525693772
-0.021296435497963735
-0.11720751728191539
-0.0009433201668365687
0.037423721782384296
-0.28985161352529065
0.18303940602411414
-0.14197645656423272
-0.12964031943722587
0.06096007221428574
0.24299384144478328
0.03484359240923394
-0.07943569955093036
0.05191178541555786
-0.03965681593147194
0.0397402414789456
-0.22015634877399315
-0.07262520599180643
-0.03182492584443839
-0.17119244768249195
0.12445874028695107
0.10658514655981012
0.22501479996702464
-0.08360806155267092
0.2203040355366111
-0.056579512014951316
-0.04228565582408804
-0.018486188541247846
-0.008935508711770247
-0.0047257398969942485
-0.005683368994888468
0.08290706328898054
0.21669316824503526
-0.10969201109861891
0.14365671330177548
0.32990781411316966
-0.22027807172917296
-0.1340671098848537
-0.3091275662363155
0.32776570102025226
0.08618556269678138
0.12210811980289708
-0.09038171951852743
-0.2511392776159531
0.0434604255022911
-0.09980403308252087
-0.13819477880522124
-0.040743168326628554
-0.09248594840351165
-0.09982789410083728
0.11589537059492644
0.033584526319741695
-0.013698647682272854
0.14085816601210663
-0.04358240441352457
-0.15207198390658105
0.11166762716738121
0.13831053888725933
0.05071581305312224
0.0036082272034437856
-0.0827681346102642
-0.016442804307082042
-0.05301928348727775
0.3033345204234782
-0.054294159905490566
-0.12463805155198185
-0.11502903661064137
0.13693801602795602
0.1590664815090835
-0.004687520874112449
-0.30069024901829244
0.04444709770428822
0.09860201123747452
-0.08025287347633298
0.03554013520650121
-0.02085575782041865
-0.0385678027429824
-0.019376776957743345
-0.019536033150787134
0.188064943222036
0.06672449107621953
-0.041682323372644346
-0.07037065019553554
-0.047451602057074285
-0.03092678648795719
-0.002975982772105483
-0.061382089412937074
0.039172761377584873
-0.04842755182074557
-0.01328312299012632
-0.027220755583663866
-0.04057101300467019
0.03763622157792228
-0.0036385453191100574
0.05633200576280954
0.0
0.0
0.0
0.0
0.0
0.0
0.0
0.0
-0.21530221978227204
-0.22554327546040714
0.06388402635499345
0.03304237202566732
0.1346761068377243
0.07478628407291132
0.0028272381976501546
0.13162946775373077
0.10060717503270032
0.037082716510130315
-0.0003932484245351064
-0.005826954756266908
0.02312571520394021
0.004552369845502154
-0.09266224461504445
-0.06648552879642719
0.1950017775609445
0.04792014001977636
0.10194405826465402
0.036658003203865426
-0.10859558176229699
-0.10606259343889286
-0.21524770702055787
0.04838190317250701
-0.009319622422511116
0.02108444644021596
-0.030931673999531423
0.018434141386460226
-0.0016985777466487348
0.016219848991743797
-0.03606942290994506
0.02228086026021623
-0.03921482393190389
-0.15594252982737403
-0.14115521448503102
0.017561249999234096
0.02367338669702611
-0.04709990755334274
0.18342142615120255
0.1587564129501876
-0.0805815813513105
-0.04088559296642319
-0.0024797021652852415
-0.020912110203746552
-0.018320079391702705
0.041921659358009226
0.03742455273962259
0.08383285398083704
0.08241895401244609
0.07176441750601849
-0.03315485149428539
0.009894702558736007
0.06902628464510858
0.004321976183792802
-0.17368174838658665
-0.030589735025228625
-0.03147811681711565
-0.10643862781015209
0.08368530292448123
-0.06743258851103572
0.08915733628284042
0.0014184773430274329
0.14104646151782887
-0.10995824492987567
0.05680202978082866
0.05720366142629899
-0.02855681959423048
-0.02918303746895511
-0.029506919449211456
0.0652891602155542
-0.013952685806903013
-0.07809538910338286
-0.1219834444035508
0.0535634692090424
0.02965386508492311
0.025647659032161485
-0.021017903792850158
0.0335031685883813
0.02235317829703686
-0.02171999201514412
0.05932041820612838
0.009033658108099312
-0.0426793242295394
-0.013033801719822633
-0.03333079880436508
-0.06968420966860206
0.03515531476495104
0.05521874334315066
-0.22427939461776009
-0.3014548246043505
-0.13451528634089283
-0.0881442460696471
0.07336736447408986
0.34029487818138865
0.0990723632373457
0.2356591457398261
-0.046382841520868044
0.20037141620890195
0.07252970057415585
0.04367236981347211
0.04123202455639601
-0.22806158110607322
0.015210416106064793
-0.09857150463205258
-0.07886880879104564
0.009946273709963387
-0.047286267657590066
-0.05012284280108552
-0.05072634231210782
0.03219552892141242
0.0067682268729704325
0.17809423205748207
0.093266203645813
0.02225640982187434
-0.009861968790999421
0.038464530624483254
-0.08075176603618907
-0.06167787794749599
-0.18259002267920646
0.18089449136172053
-0.03788526293102252
-0.12221987006510888
-0.09834957527624458
-0.08230121816506658
0.06308525323906296
0.10825825325860221
0.1247728187886201
0.04463960115115713
-0.07204577161296219
0.08734969788872059
0.08199989246459274
-0.07191803701771872
0.0346614351368778
-0.05391520538069257
-0.019497960542749503
0.013365949063933102
-0.10563807188839645
-0.013729476678110314
-0.001893406502235252
0.05462854819458736
-0.012269991792361117
0.000828918068475379
0.08923116686287358
-0.011157686264833504
-0.019518820487411534
0.11439860941721577
0.05081857622942856
0.02486538717613828
0.0337738220925148
-0.0385934357964983
-0.07980290017826042
-0.08594123845312661
-0.0063291660797837965
-0.18123055549292816
-0.020970105513697133
-0.1490215573921097
-0.02957554888062466
-0.028166937940953568
0.0005168829541935473
0.41477698834590304
-0.0001579948878716094
0.005584595390518001
0.008924032603945456
0.06266528218372104
-0.01044880002589467
-0.0718577733249964
0.06839390471414983
-0.06310324665357125
0.009758946718239202
-0.06293889140220126
0.020867149945045058
-0.058477198007714885
0.10993252948708813
0.006123350114629823
-0.11205122628026172
0.08678533942517624
0.071699814974803
0.05839855250210454
-0.029376523857177726
-0.04317056963251345
-0.07030945441929191
-0.05076650722768824
-0.0037147039436615744
0.06723939160342553
0.1481846823610562
-0.030668270875569517
-0.03929710552242861
-0.15574372496864386
-0.06437108795771995
0.022035997046443996
0.017441796532105407
0.10241771338475583
-0.06876931377210543
-0.020874497552138795
-0.06910333597790493
-0.05467403813475368
0.0018441008079653114
0.11290508667970904
0.05010196545308848
0.04857003249614071
-0.06137854342269727
0.11114996066368273
0.3136269551691163
0.12365274169086453
0.05084106033768488
-0.12140145884894264
-0.16220971128013484
-0.25428100430957185
0.015672727704404893
-0.02425965909033205
-0.0638701591515749
0.08392024226386056
-0.01057213434083061
0.047627964965845676
0.03944097154442948
-0.08795995389580334
-0.00790030211026569
-0.05703136170389396
-0.05565656845514088
-0.03486850084771554
0.049352528351273454
0.09352421978163351
-0.013039569468144916
0.02561955445225398
-0.05715388110986526
0.2585459965367199
0.017662680426187183
0.0020656377393298824
-0.04020606268434774
-0.059525330279530136
-0.12977860176458486
0.008389561136091085
-0.13647957213288464
-0.006680918365415866
0.006603526971796876
-0.12757428613106683
0.042033341604891306
0.032681303606901725
0.056793051476202026
0.13262355296957543
0.19584363953254474
0.08613655010887665
-0.024175611923888285
-0.026765828259071353
-0.01821063151334202
-0.03906582785615405
-0.08584379664134922
-0.08791849344761603
0.15418721223199985
-0.0049577347697263435
0.15239967642452856
0.012594585602811313
-0.04762085733130689
-0.06310997265315388
-0.07689194833174895
-0.12660096117340192
-0.13095484638428137
0.050274297685597165
0.0878744933042433
0.046372366070147136
0.09305648345951767
-0.03173004727336394
-0.07821084478556828
-0.036681902076291815
0.02803118055941171
0.14875517280264222
-0.07437022279706362
-0.06751264026256215
-0.16614099468971488
0.04675812659803067
0.004771856929356296
0.07970752085990042
0.5888393375020091
0.1554124080038912
-0.015578450917953617
-0.07896493669661901
-0.22368604950316148
-0.1421436636796545
-0.11882945409596943
-0.1650491906125423
-0.5824090036073777
-0.4171749164824535
-0.479665216449437
-0.22193993229059594
-0.09422551297145079
0.5397462531487112
0.4502359363514066
0.8054323923011958
0.045671795558503314
0.16054741480624268
0.19228900895382312
0.047316610103260305
0.0009724433523450268
-0.1951181528568033
-0.06384520405808493
-0.1878339158592832
0.1846338393376735
0.09618185489067793
0.06017240152112244
0.07668690901893792
0.010492826271242067
-0.04852140080986073
-0.0457605627914736
-0.33388586743831666
-0.007036647745493442
0.05045666222548065
-0.01935538766492745
-0.03617636109423592
0.12641436143147153
0.016006985631414297
-0.0534487060847458
-0.07686090669896446
0.006285961267255774
-0.052880115226933526
-0.1068027045199351
-0.10829763712023499
-0.016232825332552707
-0.008454869062527473
0.29745941829285105
-0.011077228297922768
-0.005141120384680921
-0.2995773940202345
-0.0008979336498449564
0.0633236977346614
0.3111861362795868
0.12059431543748159
0.07222409781101495
-0.26171179920798443
0.21550679144251253
0.2121758122433456
0.19563005625368984
0.14536508821873886
-0.3544384425517163
0.08171875869283986
-0.46276881871244285
-0.03318924558696214
-0.17655498005112827
-0.08619167307130957
0.05080236827919506
0.11197619322622672
-0.045252683680024
-0.03649789090258052
-0.02140292201420001
0.2031215882138205
0.04463022912777678
0.06262974114210706
-0.01342682145544333
0.03327137431469952
-0.009529507494089895
-0.01965416284044854
-0.10914322044157851
0.011222367646977253
0.22017036829129652
0.1825152628921846
0.047229415958923965
0.10046159821809487
-0.014583966417228504
-0.31206104318351846
-0.053315699152140704
-0.17041593660761614
-0.3732245836636564
-0.5253799406588121
-0.4178529505806809
-0.1027024304886376
0.08340519029620592
0.3531283101018544
0.34205218325254005
0.6405742217411923
-0.1926991637123173
0.4056588535407387
0.25541362169952636
-0.24755597088493467
0.27317344055532433
-0.1445549575074941
-0.14047653247165462
-0.2089592912191884
-0.16279485417223707
0.2644808404313324
0.1429460654392854
0.14034981261161292
-0.0748533998199258
-0.16859895201618266
0.057683688475903966
-0.19921320094978953
0.19587873082179932
0.07139257385950233
0.05382132751467851
-0.13765154911492397
-0.20622306568036514
0.15698744605637052
-0.09575918484368988
-0.038446278613369564
-0.06292209774232069
0.31131591631440014
0.009383850185392947
-0.1924149244906362
0.09830541874314742
-0.2524116150311373
0.1409120761504653
-0.05216862412931127
0.06943311988288478
-0.1354559034835775
0.0527096488467419
0.33993829815332055
-0.1205637790417623
-0.11286183900026786
-0.08862881898326036
-0.004570726374079339
-0.098127826608434
-0.01940554074201542
-0.02016071116047999
-0.07666537517391098
0.005375583039524622
-0.011195439411320004
0.060505402252807455
0.1596739078038292
0.31267761243890185
0.17941675256838366
0.1378997787272877
-0.022501402470591646
-0.15374926327227564
-0.07708341900604672
-0.1256197426433524
-0.2510403163423054
0.04684677753348043
0.2079630972670609
-0.0540934562908822
-0.045845388037605586
-0.10174141755763191
0.03197626794155207
-0.2512145450391667
0.16610866418319234
-0.12312469822545474
-0.04882034014302135
-0.0069212543309767555
-0.02052141802769101
0.0337614369160599
0.011021284144970238
0.058026088435583656
0.09657890123053056
-0.05277772809755877
-0.07465038491532948
-0.019141212858389503
0.17342781310796304
0.08328814694013896
-0.17737094782518828
0.03938115130124581
0.02784316234711853
0.07620716467159713
0.04698674145367356
0.006282909310972921
0.03232817785736161
-0.020691121778982743
0.06723853174087979
-0.09646029200520001
-0.11189211125030264
-0.14928381974533791
-0.07259676619549667
0.042588529206076496
0.10299611887789516
0.05101963388362044
0.0258457747507684
0.042000662893790564
-0.04257013367131772
0.11419256010021676
-0.046510653474477665
-0.037368822516403916
-0.11973639244555437
0.033674652532095284
0.002273397042790231
0.016416216341330166
0.03705904242000406
-0.15697346717102312
-0.1407181212731998
-0.045547468254447394
-0.012620286387182678
0.05540419189159152
0.10060397873734796
0.08889109623093033
0.11096007622598307
0.21917057383389765
0.022227379093887042
0.02815953188740936
0.06798827565423998
-0.09607346717597176
0.05846390549356945
0.045796371673639494
-0.3457325704606708
-0.046104107755323843
-0.07331362891390324
-0.008635931340438215
0.007677424367332481
0.0414504270409303
-0.08241779259806209
0.07643790266024385
0.08490570653922196
0.07425632494102942
0.13255160977973166
-0.017471988275385465
-0.005582812911067088
0.09285940233459748
-0.05515458745934141
-0.21817043292059646
-0.003287515488968456
-0.07140863947258798
0.015330391202270904
0.09284194925886467
0.053340522598283605
0.005848340501332045
-0.043171706404285116
0.013057580731233932
-0.06583843841511224
0.0023871940859679676
0.26817866303421833
0.22543376295064088
-0.155269662083669
-0.09352770172880825
0.0573700301083488
-0.16271198334885884
-0.1418603030178387
0.17654571995870827
-0.09117232921497372
-0.06235089779002658
-0.028787790222601313
-0.03436637012013814
0.02032833543258693
0.03552304663111467
-0.015719714674671148
-0.050565830239388695
-0.1050548051382206
-0.04300655809450441
0.23152265977124958
0.018715060141557643
-0.10212326090227336
0.15945531828771903
-0.10894258382613908
0.1601382226359232
0.09905688050394393
-0.0013827491947334656
-0.04143063349648839
0.028567096439939432
-0.04106599427144775
-0.09343401402734337
-0.11044880858979238
0.16470373259645182
0.08093773270710297
-0.028834871718182057
0.041511794193357016
0.03884323080379606
-0.06662191438838817
-0.11253494609047963
-0.11800475810365664
0.19451383769573022
0.08712274649351727
0.18954623481447655
0.005642830904438069
0.09599737361981565
-0.026818361246152278
-0.19069061927433092
-0.35531404300749125
0.3075187411456548
0.07235539840081891
-0.027804548743604867
-0.0035943339546840834
0.006311254966019045
-0.0607204628940249
-0.11071487813440448
-0.18335117078577662
-0.5408170813943268
-0.1558743666929083
-0.3199568612025689
-0.04712645792181711
-0.2688426034359285
-0.21956500315837862
0.5395673740192477
1.0126149997866811
-0.1477234663486135
-0.12040847391853714
0.13053269131772866
0.07894331054557012
0.012434008343929725
0.3261023693050747
-0.17282592292733592
-0.10705451631781746
0.17496348577759738
0.1492308720921476
0.27496558122871306
-0.06556254960657712
0.008020779786252824
-0.09727031584968376
-0.05447249817941979
-0.3898753552490296
0.2649140397290726
0.16360575817244227
-0.08490016452817366
0.28258096030298824
0.1455034831121516
0.013179126314421788
-0.4124901266078677
-0.3723930764950335
-0.43334413958752327
-0.42086971297883513
-0.4155794632594935
0.10175960447770813
0.14556026955650572
0.028443419686672737
0.3963350050673131
0.5976950170376526
0.24165518087421978
0.12411028602064794
0.12529084263035192
-0.01325645119649157
-0.09282904603136255
-0.17402147498668313
0.017099288705715057
-0.22804862601639908
0.06960728261867166
-0.041332344098209454
0.03910292579185327
0.00850663419015502
-0.05565464247984952
0.06416938142142248
-0.12436186057350769
0.03996262312946287
0.18612858072236332
0.2229128170981172
-0.01050853221903059
0.042832133734578844
-0.03630316382819948
-0.08350632647450693
-0.14723188920226207
-0.17432361983106054
-0.31567713228378963
-0.2059103168051583
-0.013398457741465778
-0.17457916641921079
0.22638603821764772
0.1144423970393217
0.03571551973424823
0.33302111825840636
-0.04758943353242613
-0.03374149889117136
0.1061981674861498
-0.03980320951919288
0.06702167407239036
0.040062463933508916
-0.03828804398454739
-0.0538601195647123
-0.05645349472544489
-0.14421141283420075
-0.02710449661809297
0.06678771991433444
-0.1327996544196947
0.09591009599031236
0.1947320023837595
0.0031392403090280477
-0.12236270646061251
-0.07224232495844027
-0.03357702378322723
-0.16637058801821472
0.2204599704695262
0.21797038393925353
-0.026096284602870334
-0.017781426585414848
-0.08658010418732183
0.1715704624991239
0.11555877614187551
0.22967833476868935
-0.0006026463374187305
-0.08564180962997194
-0.17665827641932444
-0.1673247368356507
0.18523295841052756
-0.02196778980133605
-0.09252370178858638
-0.06856509209466703
-0.007192149327560139
0.040111118466547906
0.03505650717156809
-0.07015185103649427
0.18646936175960876
0.07223466418315029
-0.021510009693934056
-0.11123072224202568
0.0543988492584617
0.06527063417982003
0.04930943551530691
-0.2949422129603856
0.2941764908346519
0.007309548739690562
0.05062810638261367
-0.09005682596654904
-0.02718107625321975
-0.029872896101019744
-0.18804554698950465
-0.016957800646661855
-0.6922001499064564
-0.26263388407707483
-0.22365070654487149
0.0639468636690915
-0.09936203523885698
0.12547852812900553
0.16718758764394426
0.9212337963252192
-0.05080304596583062
-0.030620590118892545
0.05563998755490592
-0.0035830311874764905
0.023591982164588982
0.036688350232213264
0.06360756441588433
-0.09452121709539305
0.10242983976135117
-0.007476549247994541
0.03512872472450191
-0.10240030219180207
0.06334419507504675
-0.03433997222851332
0.03828834612290896
-0.09497428201549861
-0.0243838691212921
-0.03188746158506461
-0.03443825380887532
0.07160445774796516
0.02109074864285025
-0.013247083205325885
0.006836030165085268
0.004425431164656673
0.0026865106085985795
0.019918269347738663
0.04788851248878781
-0.028853264908667287
-0.03937074826323947
0.11135707401546303
0.0627516570251881
-0.17637801031387015
-0.14008603283434456
-0.1577958628023359
0.1007586572140877
-0.015251946532600634
0.05002019562696424
0.03325453396557078
-0.012192877950796453
0.14129333331345478
-0.17155702073533258
-0.1448504926422068
-0.11463883970095881
-0.038583311648393695
0.1268997679449279
0.12040425736837013
0.12011541926781208
0.10221022014578161
0.10383324650097504
-0.021713989246176218
-0.11739382204385593
-0.05552419945564425
0.007802053443475398
0.037459690802422535
0.04259909106897164
0.002937928929831746
0.1081079852306633
0.13992781441840768
0.07672427728806823
0.03668552711743707
-0.019090747676499348
-0.08338815913453686
-0.1367334902227324
-0.12223320702080702
0.11694536801584439
0.055496671446912074
0.036655798043136165
-0.183461744280413
0.11236539892984697
-0.10789119464384928
-0.022273660917807678
-0.00783663659367108
-0.21739236653759933
-0.12604468859804172
0.1099650999184414
0.10095130442091545
0.08438122694775885
0.028153796691825148
-0.03059813649189632
0.05058376364859869
-0.013720961861366678
0.02274460790439467
-0.043900923943630946
-0.0013878851253778222
-0.05475599547915684
0.040222209666486784
0.01532849400957925
0.03547045482907169
0.236617340204504
0.019481720731844863
-0.023753942733753
-0.0928868019811893
-0.04609493295672341
0.002084588972646971
-0.03714724401802956
-0.05830072821930036
0.064125040561724
0.018155720389617287
0.01256121399226699
-0.007638747621693319
0.036855114649887465
-0.037980459710578965
-0.061949459232509024
-0.024128423028714294
-0.09208208252623952
0.026633815259007793
-0.060750430584888535
0.014749066934927736
0.05074101983652636
0.07903130064327178
-0.011167844874815498
-0.007154844687790823
-0.21770972042794925
-0.1438086512239922
0.033528779932412295
0.1923714963786364
-0.11510113562864681
-0.18945861505270595
0.25700887741307904
0.18316896860916837
-0.020601473521397087
-0.039371841914546624
-0.036393932342783014
-0.013646806215341391
-0.007457756648330734
-0.024319394867746476
0.013185856087609093
0.12860534942253743
-0.12099640171546233
0.05514854516637015
0.06635051449909944
-0.010610486392947
0.023419196550234292
-0.018576782313554457
-0.022359117596425324
0.027624531802684944
0.16611564614550167
0.015082014702942613
-0.011791325364605679
0.03656515787027536
-0.09205966879046326
-0.008485842684242358
-0.13135865320510445
0.025932671325693893
-0.18064753735514474
-0.048911018489004636
-0.021901409043663944
0.19466665090625357
0.06806184999338859
-0.10604475354987047
0.08777253469389763
0.0070036828441441615
0.06116114408179093
-0.03742503157924423
-0.030384201126764387
0.0026339459996193174
-0.021260262772408844
-0.022578983552105483
0.032440077073187315
0.015413311875925593
-0.044112017506309206
0.1065348565050445
0.05453584015985739
0.0528141848813607
0.026825818321586047
-0.026179457155124743
-0.07979581245383494
-0.0906234127525786
0.04374341641944892
-0.16975004280431835
-0.09223739015862457
-0.06299217545876751
0.04689153872346039
0.1539324614180183
0.11305552809097892
-0.032643336230198106
-0.06956186707562359
0.15435396393494213
-0.048418389935504805
-0.0038703793813053516
-0.0064274894252240285
0.05159942556844542
-0.0345107876192023
-0.04316447606652706
0.07974310407078868
0.01666947919349156
0.0687902779801644
-0.1099912182659831
-0.07110612601064399
0.17651648614135051
-0.06450114953916045
-0.09612085357000742
0.09370550082386286
0.06955641879006294
0.04037420853996155
-0.04939189806794126
-0.04409628930737202
-0.022894347381001278
-0.06279087515230385
-0.02446271824526932
-0.11599152974485114
-0.06940609532001014
-0.05598977600204615
-0.04929347420212612
-0.04598143574387164
-0.041811270767414435
0.2048885080481316
0.1735850737321881
0.043432463242434875
0.029258841320937538
-0.09642600279235439
0.03924716132027405
0.018904519390742797
0.004980642337831957
0.030291213196723107
-0.06968883801658947
-0.08567816966376547
-0.004731671737533061
-0.014309050456445885
0.018486892198985954
-0.07910642129472398
0.021513395529207623
0.13142694285485654
0.01239808256941563
0.03313389855664392
-0.10011763209288688
-0.0744535139159815
-0.017089098096224747
-0.0631658443068784
-0.0001757666733604149
0.10109192023507663
0.12077603629361203
-0.19614877366997208
-0.1157869009436437
-0.03738256885188255
-0.03936276719391593
0.1416004191159809
0.13484648954246942
0.04439714271508498
0.06783695928587982
0.13151457844639672
0.026918926489029073
0.0501179045894025
-0.060513888722725666
-0.046520074717400474
-0.10395362906403892
-0.023097774655768687
0.02553395763510551
0.07275990863133038
0.08597748194286141
0.07753616403338325
0.003495126559701151
0.10527645689947536
-0.07302047770261112
-0.13842235090094573
-0.13360230946319332
0.17689771197098633
0.05532274564086082
0.025317948814009374
-0.0655847046682343
-0.12027651972224566
0.026867261253969314
-0.016267311959214305
-0.08227713133013005
-0.035835171971502607
0.09298615224894627
0.05555007090009621
-0.000176039455039049
-0.035160602646809945
-0.013043147562846883
-0.01612691107892857
-0.048194350433915276
0.1102193729131882
-0.07067876412475728
-0.029337628537590792
0.06381096126406725
-0.05535593806774626
-0.13272057571328488
0.07670088761253685
0.03736168465358702
-0.11368718244456441
0.2075783041539866
0.11540938690703044
0.07313722234230145
-0.11981253823789398
-0.021247296373118146
-0.01289224662634816
-0.12848564972139484
0.17533737906606747
0.15246383965455843
0.029664133236723424
0.11204832355211372
-0.02404273370768271
0.10001633686271429
-0.34625850545721676
-0.19922877320727603
0.20511405177404357
0.22237377859300858
-0.06233201541001289
0.018476112377494195
0.02630684108557846
0.0256226994177117
-0.05820792520452843
-0.3773535426332921
-0.026985441382869964
0.3534179493212973
0.08378893650528503
-0.021850883713126674
0.005535718775898571
-0.1359147195320108
-0.26777050320516016
0.009778943230687318
0.0
0.0
0.0
0.0
0.0
0.0
0.0
0.0
0.1372410525104045
0.13503272390738288
0.04000255421674045
0.19915846528885295
-0.07469785540890377
-0.22976673968340056
-0.03391184423172593
-0.17305835659935107
-0.10489991592893379
-0.19757860068401958
-0.12609702838313777
-0.13307523415874523
0.14948437383558763
0.1737993387578635
0.17699320368440263
0.06137386287698297
0.025803082391899324
0.060754423478408
0.08688142076336229
0.03426328646211278
-0.09762446434926547
0.054600754652703115
-0.11947745679706208
-0.045201046602158644
0.13516998435980082
0.12419392734324693
0.036012424962642384
0.054116399723197414
-0.14637758034331852
-0.16168489611220915
-0.013907699112528768
-0.02752256082082996
-0.09920602150028224
0.08609022725969397
-0.012557933602701146
-0.023076951880583372
-0.0014821337625313042
0.06741171941463862
0.04714728769550488
-0.06432619362373841
-0.03971587390556597
-0.021604877124752595
-0.059891047177408764
-0.02978738306312896
-0.05737895658176038
0.014901979401284165
0.16304873632966713
0.030427422121665073
0.12976610860680626
0.2319698586251937
-0.07357399456357201
-0.08595961669734381
-0.14473241708796092
0.08849998097499634
-0.11816334069659386
-0.027806579161524278
-0.22940626109524714
-0.11304918046773652
0.1842741397166086
-0.047118465871146646
0.18826139244301526
0.30568845604442374
0.03093136197953034
-0.31958144274944744
-0.07659694491268577
-0.030540487149348445
-0.1660599310405065
0.001801207686510783
-0.04282452014777153
-0.03665380910733288
0.03901788436101065
0.3118566003101228
0.1966854643503092
-0.03778105956804444
-0.07793120459010439
-0.03732700991282099
-0.017596120501212776
-0.01998341312797622
-0.0036312474610492103
-0.0024354091891012576
-0.1305347068660501
-0.1396458128704556
0.056302943529140836
0.18476954379763957
0.18072568186265892
-0.13820577193255118
0.02466361331218932
-0.03807549083257134
0.017726331263139182
0.004887954896753198
-0.08022260614605434
0.03899100850279889
0.0423742094971692
-0.07968244722433376
-0.004398004073059571
0.06032355328358778
-0.06891197618794863
-0.1635047221786172
-0.018121117694000502
0.012789590489873656
-0.12324149836947221
0.2752151440621341
-0.05254040884376794
0.13831498872179668
0.04511765945097134
0.11225838976899476
0.09793952908876405
0.08961761043025494
-0.019126054911221966
-0.07143236140770641
-0.15118137891913785
-0.1031933935009186
0.029708332725360137
-0.09310584852939867
0.017219138061353147
-0.03944601048116414
0.053839218910098546
-0.03086334516649604
0.09588621073902126
-0.033237696258774346
0.06010896661461328
-0.08126788308281516
0.00777020554414339
0.04889041787436373
0.06133882363610263
0.0682064145322754
-0.23822767506167775
0.07318072994299508
0.10571585874308058
-0.034316420447301654
-0.005110052704186238
-0.05492350700735924
-0.026176748862226158
-0.06618926065548432
0.1261980342877858
-0.045197903354308865
-0.06902549599593505
0.017828874383046266
0.07713711599069686
0.039891009986066206
-0.11246914267395922
-0.05637977742212181
0.17383514684998663
-0.07081773111778017
-0.12788687098076684
0.03505617892594667
-0.09554657442878449
0.12067420767375808
0.30729523859224683
-0.07447946800773093
-0.06572726646977003
-0.09938544530489944
0.05035006463929535
0.06494264014801014
0.002147441126413376
-0.10822455380215312
0.07474084842861238
-0.1400602763146286
0.07756688412736333
-0.021463048352912857
-0.09582403475870158
-0.021734524571540174
0.09645217577110873
0.047892236357132675
0.04921787932211524
-0.03531887036665903
-0.09345037213828193
0.05276551038482472
0.03687899769538179
0.05701036961907373
0.028578409613276044
-0.010550183282032884
-0.012589201384228994
0.03507554162469947
-0.051182005629731
-0.08322192825643847
0.33910678981864206
0.10810217325344552
0.01806752995076708
-0.03403552544705196
-0.09645453361037441
-0.007421884750907536
-0.16436692090681326
-0.16299762830770834
-0.01202654116398608
0.04276619419938189
-0.15698877395756838
-0.041057377114145595
0.01124736684144666
0.05360105264986943
0.014860285503496834
0.08759779304150571
0.04052511694902751
-0.021978963571059516
-0.07200230167096475
-0.0934938687422025
0.16058070862902504
-0.14492980898122315
0.11113778704485434
0.02016133034254542
-0.14729543192183855
-0.06572196902701916
0.0005034705774169456
-0.0565141137579705
0.035131116294502794
-0.002962434127488616
0.13364232595190947
0.10321703601048843
0.06901713413203601
0.03042493752728898
-0.021577756017157192
-0.04239208632432635
-0.002174393225388006
0.03433124169982405
-0.058678074669725404
-0.008951003122553113
-0.10558210976613298
-0.046989707278578006
-0.01012267440210414
0.1205355656646487
0.10978582721421933
-0.13827871484194354
-0.04863642888318648
0.1192882422930786
0.05949266442334131
0.22591741525909403
-0.06027795388099433
0.10092936841651254
-0.18310196299699438
-0.07983552447940304
0.0023287495902832383
-0.06545275633184164
0.07620716467159713
0.04698674145367356
0.006282909310972921
0.03232817785736161
-0.020691121778982743
0.06723853174087979
-0.09646029200520001
-0.11189211125030264
0.061920583100635244
0.0942296479592477
0.1520229831414313
-0.056049221646558865
-0.16135769926413132
0.011538966807920088
-0.07090439561702214
-0.03140086448152249
0.1300373509044626
0.060369507293975014
0.1539369998055867
0.12939408961132245
0.13299003243920843
-0.2924337296612532
0.08535138624182838
-0.3996456366351309
-0.18043997923762672
-0.3442472520906787
0.0349131569224692
-0.1373809224331174
0.18013070912238358
0.21303465055142612
0.028180366740575016
0.20580927042456676
0.06434194322888057
-0.016054984848356674
0.4398960191336701
-0.1555522144218103
-0.1267305704255192
-0.07749572057545134
-0.05402936513068772
-0.07437510696072593
0.1608309201246957
0.11761572742756396
-0.07654783984249258
-0.04698435662092589
-0.05019598509951588
-0.03561833388133833
-0.024954750134571983
-0.04414538197341513
-0.16147336410565316
-0.25393917246248027
0.09370291248394363
0.06844752009866081
0.08581221286098006
0.03701080319270818
0.09745836858113259
0.03298071935070799
0.3529814651085957
0.24358509903797215
-0.03453521461505639
0.10121726430441949
-0.198884799989666
-0.09540195306574537
0.030748930731557364
-0.3997107915120802
0.28708772569658175
0.19050673343824964
0.06629034010749678
-0.08249538967581557
-0.10392654309880936
-0.029391408101069036
-0.24129668489968534
-0.08677477346695088
0.224181350996014
0.251229542082158
0.11050100077552676
0.14422186943099222
0.19895890347447984
-0.03701497983682515
-0.45443965037127604
-0.4376380365510698
0.002129142195186338
-0.2687042766078513
-0.13179743627349097
-0.2614293867129079
-0.19990222364131702
0.07443870161920949
0.164588036845986
0.6206774425751863
-0.14197645656423272
-0.12964031943722587
0.06096007221428574
0.24299384144478328
0.03484359240923394
-0.07943569955093036
0.05191178541555786
-0.03965681593147194
0.0397402414789456
-0.22015634877399315
-0.07262520599180643
-0.03182492584443839
-0.17119244768249195
0.12445874028695107
0.10658514655981012
0.22501479996702464
-0.08360806155267092
0.2203040355366111
-0.056579512014951316
-0.04228565582408804
-0.018486188541247846
-0.008935508711770247
-0.0047257398969942485
-0.005683368994888468
0.08290706328898054
0.21669316824503526
-0.10969201109861891
0.14365671330177548
0.32990781411316966
-0.22027807172917296
-0.1340671098848537
-0.3091275662363155
0.32776570102025226
0.08618556269678138
0.12210811980289708
-0.09038171951852743
-0.2511392776159531
0.0434604255022911
-0.09980403308252087
-0.13819477880522124
-0.040743168326628554
-0.09248594840351165
-0.09982789410083728
0.11589537059492644
0.033584526319741695
-0.013698647682272854
0.14085816601210663
-0.04358240441352457
-0.15207198390658105
0.11166762716738121
0.13831053888725933
0.05071581305312224
0.0036082272034437856
-0.0827681346102642
-0.016442804307082042
-0.05301928348727775
0.3033345204234782
-0.054294159905490566
-0.12463805155198185
-0.11502903661064137
0.13693801602795602
0.1590664815090835
-0.004687520874112449
-0.30069024901829244
0.04444709770428822
0.09860201123747452
-0.08025287347633298
0.03554013520650121
-0.02085575782041865
-0.0385678027429824
-0.019376776957743345
-0.019536033150787134
0.188064943222036
0.06672449107621953
-0.041682323372644346
-0.07037065019553554
-0.047451602057074285
-0.03092678648795719
-0.002975982772105483
-0.061382089412937074
-0.41997801621496067
-0.37500773800544834
0.1699215772908191
0.1270011411137089
0.11748162815632142
0.16864082748824308
0.004009585935183935
0.20793099423613384
0.039172761377584873
-0.04842755182074557
-0.01328312299012632
-0.027220755583663866
-0.04057101300467019
0.03763622157792228
-0.0036385453191100574
0.05633200576280954
0.0
0.0
0.0
0.0
0.0
0.0
0.0
0.0
0.20467579643268893
0.14946446254504417
-0.1060375509358259
-0.09395876908804171
0.01719447868140294
-0.09385454341533153
-0.0011823477375337648
-0.07630152648240275
-0.016613807417059735
-0.015272549984990903
-0.027129936268958817
-0.06158243399775243
-0.06959932449860344
-0.05174259425901711
0.13504651373399415
0.1068941326923882
0.11722098244976033
0.05235526649512104
0.0267366878444237
0.05575547924148597
0.09272503970254353
0.056294964104519236
-0.22770875834903778
-0.17337966148881667
0.1950017775609445
0.04792014001977636
0.10194405826465402
0.036658003203865426
-0.10859558176229699
-0.10606259343889286
-0.21524770702055787
0.04838190317250701
-0.009319622422511116
0.02108444644021596
-0.030931673999531423
0.018434141386460226
-0.0016985777466487348
0.016219848991743797
-0.03606942290994506
0.02228086026021623
-0.03921482393190389
-0.15594252982737403
-0.14115521448503102
0.017561249999234096
0.02367338669702611
-0.04709990755334274
0.18342142615120255
0.1587564129501876
-0.10647055244973738
0.01452162866591775
0.08348685382729161
0.007789270646643321
0.01823515744693411
0.08884914095178595
-0.006729731635657339
-0.09968176745317853
-0.0805815813513105
-0.04088559296642319
-0.0024797021652852415
-0.020912110203746552
-0.018320079391702705
0.041921659358009226
0.03742455273962259
0.08383285398083704
0.08241895401244609
0.07176441750601849
-0.03315485149428539
0.009894702558736007
0.06902628464510858
0.004321976183792802
-0.17368174838658665
-0.030589735025228625
-0.06162704604301732
0.03329356217332941
-0.053485417500968156
0.08321243371115017
0.019842678718242725
0.05762971598263164
-0.14501116625374322
0.06614523921237525
0.030148929225901858
-0.13973218998348202
0.13717072042544928
-0.15064502222218418
0.0693146575645979
-0.05621123863960392
0.28605762777157134
-0.17610348414225108
-0.1219834444035508
0.0535634692090424
0.02965386508492311
0.025647659032161485
-0.021017903792850158
0.0335031685883813
0.02235317829703686
-0.02171999201514412
0.05680202978082866
0.05720366142629899
-0.02855681959423048
-0.02918303746895511
-0.029506919449211456
0.0652891602155542
-0.013952685806903013
-0.07809538910338286
0.05932041820612838
0.009033658108099312
-0.0426793242295394
-0.013033801719822633
-0.03333079880436508
-0.06968420966860206
0.03515531476495104
0.05521874334315066
-0.22427939461776009
-0.3014548246043505
-0.13451528634089283
-0.0881442460696471
0.07336736447408986
0.34029487818138865
0.0990723632373457
0.2356591457398261
-0.046382841520868044
0.20037141620890195
0.07252970057415585
0.04367236981347211
0.04123202455639601
-0.22806158110607322
0.015210416106064793
-0.09857150463205258
0.38323501152364675
0.11138856889630597
0.1492912387222571
0.041473402346345875
-0.23035967825142092
-0.20648243315894863
0.01876954044200134
-0.26731565052018963
-0.07886880879104564
0.009946273709963387
-0.047286267657590066
-0.05012284280108552
-0.05072634231210782
0.03219552892141242
0.0067682268729704325
0.17809423205748207
0.093266203645813
0.02225640982187434
-0.009861968790999421
0.038464530624483254
-0.08075176603618907
-0.06167787794749599
-0.18259002267920646
0.18089449136172053
-0.03788526293102252
-0.12221987006510888
-0.09834957527624458
-0.08230121816506658
0.06308525323906296
0.10825825325860221
0.1247728187886201
0.04463960115115713
-0.07204577161296219
0.08734969788872059
0.08199989246459274
-0.07191803701771872
0.0346614351368778
-0.05391520538069257
-0.019497960542749503
0.013365949063933102
-0.04779263795820867
0.18822429618205727
0.04637544081613116
0.030248394170422365
0.03329266415342384
-0.038182352956887565
-0.2004572886551168
-0.011708515751822428
-0.10563807188839645
-0.013729476678110314
-0.001893406502235252
0.05462854819458736
-0.012269991792361117
0.000828918068475379
0.08923116686287358
-0.011157686264833504
0.02827381747079656
-0.0738256867648417
0.004443135413297384
-0.005383006994284196
0.00048115793909107646
-0.0004110828396109692
0.12065438847685671
-0.07423272270130427
0.017354351145254254
0.04138971500225117
0.014925279658113647
0.09368926398735954
-0.02079925372681068
0.11605342639384668
-0.07628989259646246
-0.18632288986355158
-0.0001579948878716094
0.005584595390518001
0.008924032603945456
0.06266528218372104
-0.01044880002589467
-0.0718577733249964
0.06839390471414983
-0.06310324665357125
0.009758946718239202
-0.06293889140220126
0.020867149945045058
-0.058477198007714885
0.10993252948708813
0.006123350114629823
-0.11205122628026172
0.08678533942517624
0.071699814974803
0.05839855250210454
-0.029376523857177726
-0.04317056963251345
-0.07030945441929191
-0.05076650722768824
-0.0037147039436615744
0.06723939160342553
0.1481846823610562
-0.030668270875569517
-0.03929710552242861
-0.15574372496864386
-0.06437108795771995
0.022035997046443996
0.017441796532105407
0.10241771338475583
-0.06876931377210543
-0.020874497552138795
-0.06910333597790493
-0.05467403813475368
0.0018441008079653114
0.11290508667970904
0.05010196545308848
0.04857003249614071
-0.06137854342269727
0.11114996066368273
0.3136269551691163
0.12365274169086453
0.05084106033768488
-0.12140145884894264
-0.16220971128013484
-0.25428100430957185
0.015672727704404893
-0.02425965909033205
-0.0638701591515749
0.08392024226386056
-0.01057213434083061
0.047627964965845676
0.03944097154442948
-0.08795995389580334
-0.00790030211026569
-0.05703136170389396
-0.05565656845514088
-0.03486850084771554
0.049352528351273454
0.09352421978163351
-0.013039569468144916
0.02561955445225398
-0.03016843972699523
-0.0948719527845781
-0.06612625607909792
0.02391652145245648
-0.04574178146024625
0.07638938925248075
0.1379919014405755
-0.0013893820945961538
-0.13647957213288464
-0.006680918365415866
0.006603526971796876
-0.12757428613106683
0.042033341604891306
0.032681303606901725
0.056793051476202026
0.13262355296957543
0.19584363953254474
0.08613655010887665
-0.024175611923888285
-0.026765828259071353
-0.01821063151334202
-0.03906582785615405
-0.08584379664134922
-0.08791849344761603
0.15418721223199985
-0.0049577347697263435
0.15239967642452856
0.012594585602811313
-0.04762085733130689
-0.06310997265315388
-0.07689194833174895
-0.12660096117340192
0.02803118055941171
0.14875517280264222
-0.07437022279706362
-0.06751264026256215
-0.16614099468971488
0.04675812659803067
0.004771856929356296
0.07970752085990042
-0.13095484638428137
0.050274297685597165
0.0878744933042433
0.046372366070147136
0.09305648345951767
-0.03173004727336394
-0.07821084478556828
-0.036681902076291815
-0.5824090036073777
-0.4171749164824535
-0.479665216449437
-0.22193993229059594
-0.09422551297145079
0.5397462531487112
0.4502359363514066
0.8054323923011958
0.045671795558503314
0.16054741480624268
0.19228900895382312
0.047316610103260305
0.0009724433523450268
-0.1951181528568033
-0.06384520405808493
-0.1878339158592832
0.1846338393376735
0.09618185489067793
0.06017240152112244
0.07668690901893792
0.010492826271242067
-0.04852140080986073
-0.0457605627914736
-0.33388586743831666
-0.007036647745493442
0.05045666222548065
-0.01935538766492745
-0.03617636109423592
0.12641436143147153
0.016006985631414297
-0.0534487060847458
-0.07686090669896446
0.006285961267255774
-0.052880115226933526
-0.1068027045199351
-0.10829763712023499
-0.016232825332552707
-0.008454869062527473
0.29745941829285105
-0.011077228297922768
-0.005141120384680921
-0.2995773940202345
-0.0008979336498449564
0.0633236977346614
0.3111861362795868
0.12059431543748159
0.07222409781101495
-0.26171179920798443
0.21550679144251253
0.2121758122433456
0.19563005625368984
0.14536508821873886
-0.3544384425517163
0.08171875869283986
-0.46276881871244285
-0.03318924558696214
-0.17655498005112827
-0.08619167307130957
0.05080236827919506
0.11197619322622672
-0.045252683680024
-0.03649789090258052
-0.02140292201420001
0.2031215882138205
0.04463022912777678
0.06262974114210706
-0.01342682145544333
0.03327137431469952
-0.009529507494089895
-0.01965416284044854
-0.10914322044157851
0.011222367646977253
-0.12473009609218519
0.11916516877313701
0.12330688007579184
-0.06617226987615998
0.056533766428447235
-0.04924313546333333
-0.07109468054263283
0.012234366696934697
-0.3732245836636564
-0.5253799406588121
-0.4178529505806809
-0.1027024304886376
0.08340519029620592
0.3531283101018544
0.34205218325254005
0.6405742217411923
0.34490046438348243
0.06335009411904727
-0.07607746411686601
0.16663386809425623
-0.07111773284567639
-0.2628179077201826
0.017778981390492242
-0.18265030330455181
-0.1926991637123173
0.4056588535407387
0.25541362169952636
-0.24755597088493467
0.27317344055532433
-0.1445549575074941
-0.14047653247165462
-0.2089592912191884
-0.16279485417223707
0.2644808404313324
0.1429460654392854
0.14034981261161292
-0.0748533998199258
-0.16859895201618266
0.057683688475903966
-0.19921320094978953
0.19587873082179932
0.07139257385950233
0.05382132751467851
-0.13765154911492397
-0.20622306568036514
0.15698744605637052
-0.09575918484368988
-0.038446278613369564
-0.06292209774232069
0.31131591631440014
0.009383850185392947
-0.1924149244906362
0.09830541874314742
-0.2524116150311373
0.1409120761504653
-0.05216862412931127
0.06943311988288478
-0.1354559034835775
0.0527096488467419
0.33993829815332055
-0.1205637790417623
-0.11286183900026786
-0.08862881898326036
-0.004570726374079339
-0.098127826608434
-0.01940554074201542
-0.02016071116047999
-0.07666537517391098
0.005375583039524622
-0.011195439411320004
0.060505402252807455
0.1596739078038292
0.31267761243890185
0.17941675256838366
0.1378997787272877
-0.022501402470591646
-0.15374926327227564
-0.07708341900604672
-0.1256197426433524
-0.2510403163423054
0.04684677753348043
0.2079630972670609
-0.0540934562908822
-0.045845388037605586
-0.10174141755763191
0.03197626794155207
-0.2512145450391667
0.16610866418319234
-0.12312469822545474
-0.04882034014302135
-0.0069212543309767555
-0.02052141802769101
0.0337614369160599
0.011021284144970238
0.058026088435583656
0.09657890123053056
-0.05277772809755877
-0.07465038491532948
-0.019141212858389503
0.17342781310796304
0.08328814694013896
-0.17737094782518828
0.03938115130124581
0.02784316234711853
-0.14928381974533791
-0.07259676619549667
0.042588529206076496
0.10299611887789516
0.05101963388362044
0.0258457747507684
0.042000662893790564
-0.04257013367131772
0.11419256010021676
-0.046510653474477665
-0.037368822516403916
-0.11973639244555437
0.033674652532095284
0.002273397042790231
0.016416216341330166
0.03705904242000406
-0.15697346717102312
-0.1407181212731998
-0.045547468254447394
-0.012620286387182678
0.05540419189159152
0.10060397873734796
0.08889109623093033
0.11096007622598307
0.21917057383389765
0.022227379093887042
0.02815953188740936
0.06798827565423998
-0.09607346717597176
0.05846390549356945
0.045796371673639494
-0.3457325704606708
-0.046104107755323843
-0.07331362891390324
-0.008635931340438215
0.007677424367332481
0.0414504270409303
-0.08241779259806209
0.07643790266024385
0.08490570653922196
0.07425632494102942
0.13255160977973166
-0.017471988275385465
-0.005582812911067088
0.09285940233459748
-0.05515458745934141
-0.21817043292059646
-0.003287515488968456
-0.07140863947258798
0.015330391202270904
0.09284194925886467
0.053340522598283605
0.005848340501332045
-0.043171706404285116
0.013057580731233932
-0.06583843841511224
0.0023871940859679676
0.26817866303421833
0.22543376295064088
-0.155269662083669
-0.09352770172880825
0.0573700301083488
-0.16271198334885884
-0.1418603030178387
0.17654571995870827
-0.09117232921497372
-0.06235089779002658
-0.028787790222601313
-0.03436637012013814
0.02032833543258693
0.03552304663111467
-0.015719714674671148
-0.050565830239388695
-0.1050548051382206
-0.04300655809450441
0.23152265977124958
0.018715060141557643
-0.10212326090227336
0.15945531828771903
-0.10894258382613908
0.1601382226359232
0.09905688050394393
-0.0013827491947334656
-0.04143063349648839
0.028567096439939432
-0.04106599427144775
-0.09343401402734337
-0.11044880858979238
0.16470373259645182
0.08093773270710297
-0.028834871718182057
0.041511794193357016
0.03884323080379606
-0.06662191438838817
-0.11253494609047963
-0.11800475810365664
0.19451383769573022
0.08712274649351727
0.18954623481447655
0.005642830904438069
0.09599737361981565
-0.026818361246152278
-0.19069061927433092
-0.35531404300749125
0.3075187411456548
0.07235539840081891
-0.027804548743604867
-0.0035943339546840834
0.006311254966019045
-0.0607204628940249
-0.11071487813440448
-0.18335117078577662
-0.5408170813943268
-0.1558743666929083
-0.3199568612025689
-0.04712645792181711
-0.2688426034359285
-0.21956500315837862
0.5395673740192477
1.0126149997866811
-0.2991009034716317
-0.15540266152584137
-0.1686819660146522
-0.11685119126276675
-0.07865103976137247
0.00880821650665049
0.4508513102040639
0.35902823532555067
-0.1477234663486135
-0.12040847391853714
0.13053269131772866
0.07894331054557012
0.012434008343929725
0.3261023693050747
-0.17282592292733592
-0.10705451631781746
0.17496348577759738
0.1492308720921476
0.27496558122871306
-0.06556254960657712
0.008020779786252824
-0.09727031584968376
-0.05447249817941979
-0.3898753552490296
0.1441784833238571
0.04416115452568143
-0.015850397292656405
-0.12221982046132522
0.011107542760790703
-0.029331036343966947
0.10548583590037651
-0.13753176241275555
-0.02599598686859157
0.0004415422560582353
0.15091690793819323
0.02156400858522311
0.05133864196589761
-0.23730671048799998
0.08591095776301069
-0.04686936115179008
-0.17795453353987256
-0.26690275295621707
-0.043797632710271144
0.362932802546492
0.33655412245456295
-0.23468927724423846
-0.34156241579286484
0.36541968724240664
0.24165518087421978
0.12411028602064794
0.12529084263035192
-0.01325645119649157
-0.09282904603136255
-0.17402147498668313
0.017099288705715057
-0.22804862601639908
0.06960728261867166
-0.041332344098209454
0.03910292579185327
0.00850663419015502
-0.05565464247984952
0.06416938142142248
-0.12436186057350769
0.03996262312946287
0.29869008994508817
0.3863473566029756
-0.025252134525245974
0.04186797821782129
-0.20215818210320127
0.2771994399026257
-0.1764135467153795
-0.6002810013246841
0.18612858072236332
0.2229128170981172
-0.01050853221903059
0.042832133734578844
-0.03630316382819948
-0.08350632647450693
-0.14723188920226207
-0.17432361983106054
-0.40734815271893016
-0.42131125523489393
-0.5664963711976853
0.08019559589248469
0.09422162759060902
0.2657501301746738
0.3104240473043028
0.6445643781894431
-0.31567713228378963
-0.2059103168051583
-0.013398457741465778
-0.17457916641921079
0.22638603821764772
0.1144423970393217
0.03571551973424823
0.33302111825840636
0.04823460122627565
-0.012006974319631585
0.009745991715040711
-0.08769544587632536
0.01780379475027516
0.07538133430016801
0.05516232815373472
-0.10662562994953638
-0.05645349472544489
-0.14421141283420075
-0.02710449661809297
0.06678771991433444
-0.1327996544196947
0.09591009599031236
0.1947320023837595
0.0031392403090280477
-0.12236270646061251
-0.07224232495844027
-0.03357702378322723
-0.16637058801821472
0.2204599704695262
0.21797038393925353
-0.026096284602870334
-0.017781426585414848
-0.19119824933078022
0.13137875753131442
0.052738271377239965
0.3540146520073328
0.024076036217541612
0.013542582603754393
-0.34082481876343756
-0.04372723164296424
0.18523295841052756
-0.02196778980133605
-0.09252370178858638
-0.06856509209466703
-0.007192149327560139
0.040111118466547906
0.03505650717156809
-0.07015185103649427
-0.10246426438734432
0.12009437658084066
-0.015418879642207091
-0.016775561956139558
-0.005638842087178305
0.06284056907428325
0.11670364517745442
-0.15934104275970914
0.11249950547337394
-0.07938768365423352
-0.0026063483984600944
-0.056161284021004884
0.07958220391065451
-0.039024484824266605
-0.05183221119711112
0.0369303027110468
0.2941764908346519
0.007309548739690562
0.05062810638261367
-0.09005682596654904
-0.02718107625321975
-0.029872896101019744
-0.18804554698950465
-0.016957800646661855
-0.6922001499064564
-0.26263388407707483
-0.22365070654487149
0.0639468636690915
-0.09936203523885698
0.12547852812900553
0.16718758764394426
0.9212337963252192
-0.05080304596583062
-0.030620590118892545
0.05563998755490592
-0.0035830311874764905
0.023591982164588982
0.036688350232213264
0.06360756441588433
-0.09452121709539305
0.10461814514345871
0.0401917049678076
0.06282050476463602
-0.1243363172386414
-0.02467868255496008
-0.09918439223372635
0.1641665423441152
-0.12359750519268725
0.10242983976135117
-0.007476549247994541
0.03512872472450191
-0.10240030219180207
0.06334419507504675
-0.03433997222851332
0.03828834612290896
-0.09497428201549861
-0.0243838691212921
-0.03188746158506461
-0.03443825380887532
0.07160445774796516
0.02109074864285025
-0.013247083205325885
0.006836030165085268
0.004425431164656673
0.0026865106085985795
0.019918269347738663
0.04788851248878781
-0.028853264908667287
-0.03937074826323947
0.11135707401546303
0.0627516570251881
-0.17637801031387015
-0.14008603283434456
-0.1577958628023359
0.1007586572140877
-0.015251946532600634
0.05002019562696424
0.03325453396557078
-0.012192877950796453
0.14129333331345478
-0.17155702073533258
-0.1448504926422068
-0.11463883970095881
-0.038583311648393695
0.1268997679449279
0.12040425736837013
0.12011541926781208
0.10221022014578161
0.10383324650097504
-0.021713989246176218
-0.11739382204385593
-0.05552419945564425
0.007802053443475398
0.037459690802422535
0.04259909106897164
0.002937928929831746
0.13160952620928038
0.08806174993137714
0.15281281845672556
-0.02063736834167073
-0.15320950445387374
0.032583167529462255
-0.18647518503514945
-0.04474520429615104
0.1081079852306633
0.13992781441840768
0.07672427728806823
0.03668552711743707
-0.019090747676499348
-0.08338815913453686
-0.1367334902227324
-0.12223320702080702
0.11694536801584439
0.055496671446912074
0.036655798043136165
-0.183461744280413
0.11236539892984697
-0.10789119464384928
-0.022273660917807678
-0.00783663659367108
-0.21770972042794925
-0.1438086512239922
0.033528779932412295
0.1923714963786364
-0.11510113562864681
-0.18945861505270595
0.25700887741307904
0.18316896860916837
-0.013720961861366678
0.02274460790439467
-0.043900923943630946
-0.0013878851253778222
-0.05475599547915684
0.040222209666486784
0.01532849400957925
0.03547045482907169
0.236617340204504
0.019481720731844863
-0.023753942733753
-0.0928868019811893
-0.04609493295672341
0.002084588972646971
-0.03714724401802956
-0.05830072821930036
0.064125040561724
0.018155720389617287
0.01256121399226699
-0.007638747621693319
0.036855114649887465
-0.037980459710578965
-0.061949459232509024
-0.024128423028714294
-0.24855883232376183
-0.08463983458184861
0.009208989516349589
0.07567971350452435
0.07535247826620266
-0.024878001662909748
0.07583337389573556
0.12200211338570922
0.20173937467091815
0.1439056859637313
0.1320235522255172
0.058803335588515526
-0.16670038332485343
0.14499825376507916
-0.33069374561767606
-0.18407607327122977
-0.020601473521397087
-0.039371841914546624
-0.036393932342783014
-0.013646806215341391
-0.007457756648330734
-0.024319394867746476
0.013185856087609093
0.12860534942253743
0.12756243060830053
0.1397883797482186
0.05714152498274941
-0.08629019989747226
-0.0519332817159674
0.0063012193493559255
-0.09819249149215915
-0.09437758158302446
0.16611564614550167
0.015082014702942613
-0.011791325364605679
0.03656515787027536
-0.09205966879046326
-0.008485842684242358
-0.13135865320510445
0.025932671325693893
0.14921539044056392
0.06912349116684477
-0.22094297496083054
-0.043111240797563274
0.012857293077136915
-0.12250091498121285
0.057364346425918436
0.09799460962914225
-0.18064753735514474
-0.048911018489004636
-0.021901409043663944
0.19466665090625357
0.06806184999338859
-0.10604475354987047
0.08777253469389763
0.0070036828441441615
0.06116114408179093
-0.03742503157924423
-0.030384201126764387
0.0026339459996193174
-0.021260262772408844
-0.022578983552105483
0.032440077073187315
0.015413311875925593
-0.044112017506309206
0.1065348565050445
0.05453584015985739
0.0528141848813607
0.026825818321586047
-0.026179457155124743
-0.07979581245383494
-0.0906234127525786
0.04374341641944892
-0.16975004280431835
-0.09223739015862457
-0.06299217545876751
0.04689153872346039
0.1539324614180183
0.11305552809097892
-0.032643336230198106
0.032925650299769765
0.08395443356312536
0.04934804658611057
-0.0389827915343688
0.024129589554298485
-0.09490710989429936
-0.08134043363784613
0.024872615063208942
0.1015999523664308
-0.0025441606141114906
-0.07204076455148824
0.12198809429128196
0.03713218901889281
-0.012786927887689455
-0.03274980709810488
-0.14059857552521016
0.07974310407078868
0.01666947919349156
0.0687902779801644
-0.1099912182659831
-0.07110612601064399
0.17651648614135051
-0.06450114953916045
-0.09612085357000742
-0.23739245340741055
-0.12792639977728354
-0.02829584628824917
0.10299577045950833
0.15925673076748115
0.09489838978958158
0.15940205180595274
-0.12293824334958185
-0.03796999286326276
-0.028315693739649872
0.014771401991887896
-0.0037805037578432146
0.14107220923680844
0.0017885384710732437
-0.040995046374167295
-0.04657091296484726
0.1575250534168304
0.07132418853190094
0.04235669235561668
-0.07174908450137807
-0.04759806850687611
0.02009518835328899
-0.15609408420384568
-0.015859885445535942
-0.06381955259296496
-0.0017677697418374363
-0.0019824838156554626
0.022357186433437006
0.003501779199504376
-0.042989535734290214
0.09330320905154108
-0.008602832799733224
-0.10512943436098264
0.38790420426054195
0.0930295684895245
0.2399739345704312
-0.09142383499631047
-0.22153175477179846
-0.1003886323820836
-0.20243405080932256
-0.11599152974485114
-0.06940609532001014
-0.05598977600204615
-0.04929347420212612
-0.04598143574387164
-0.041811270767414435
0.2048885080481316
0.1735850737321881
0.03313389855664392
-0.10011763209288688
-0.0744535139159815
-0.017089098096224747
-0.0631658443068784
-0.0001757666733604149
0.10109192023507663
0.12077603629361203
-0.19614877366997208
-0.1157869009436437
-0.03738256885188255
-0.03936276719391593
0.1416004191159809
0.13484648954246942
0.04439714271508498
0.06783695928587982
0.13151457844639672
0.026918926489029073
0.0501179045894025
-0.060513888722725666
-0.046520074717400474
-0.10395362906403892
-0.023097774655768687
0.02553395763510551
-0.07131350966991125
-0.017617350055702138
-0.10084737648921067
-0.11117786335726035
0.07324680701559508
0.06303568456605256
0.05772761122909894
0.10694599676133901
0.17689771197098633
0.05532274564086082
0.025317948814009374
-0.0655847046682343
-0.12027651972224566
0.026867261253969314
-0.016267311959214305
-0.08227713133013005
-0.21739236653759933
-0.12604468859804172
0.1099650999184414
0.10095130442091545
0.08438122694775885
0.028153796691825148
-0.03059813649189632
0.05058376364859869
-0.035835171971502607
0.09298615224894627
0.05555007090009621
-0.000176039455039049
-0.035160602646809945
-0.013043147562846883
-0.01612691107892857
-0.048194350433915276
0.0671612886143603
-0.07114131008128523
0.053635429904504484
0.10486007082278669
-0.014706294435410511
-0.09050278776549493
0.043252804636452716
-0.09255920169591188
-0.1024875173753939
0.07039953037181723
-0.09776643652161561
0.03511241215306351
-0.03055707897952259
0.14650653546274464
0.046829646018643874
-0.06803709112973699
-0.09208208252623952
0.026633815259007793
-0.060750430584888535
0.014749066934927736
0.05074101983652636
0.07903130064327178
-0.011167844874815498
-0.007154844687790823
0.01908281220326472
-0.04452122465470806
0.07923348497176466
0.11917152464826195
-0.07362808079555534
-0.131881492976991
0.016396574109605173
0.01614640249435757
-0.00855774808358122
-0.18032590010655378
0.022379818417505738
-0.16683671222812935
-0.02838870324158302
0.2002844583986792
0.08749638575573497
0.0739484010879274
0.09113656070992385
-0.02615753947004945
-0.10857111350935517
-0.05536056338419491
0.018272142727808385
-0.0008390827362937955
0.06030431350293135
0.021215282159229243
0.17643412067357878
0.031527971256542955
-0.003484781653266329
-0.03829387626488166
-0.01954451256501513
0.04145454992980361
-0.015561998465037283
-0.17253147291172583
0.11889071761249201
0.09718317045373645
0.15646916344524234
0.045589541718341474
-0.15899996376634645
0.1560381181697345
-0.329179435086784
-0.08599131254641679
0.18338268213661896
0.16021451341393145
0.041261256790797486
0.0020236484475317515
0.028500786872357374
-0.1344025154549549
-0.23267303513084162
-0.04830733707544227
-0.05194660036622283
0.03762515817833974
0.07961872589228808
-0.04167284266020093
-0.011959396464197915
-0.12129468532590616
0.08501423174074574
0.024615409005152834
-0.023683517225037858
-0.2226202704951794
-0.035895385171811095
-0.2427108213794686
-0.008776295153813974
-0.1442203643348004
0.07680677555065632
0.601099878209455
0.5888393375020091
0.1554124080038912
-0.015578450917953617
-0.07896493669661901
-0.22368604950316148
-0.1421436636796545
-0.11882945409596943
-0.1650491906125423
-0.34914704464904966
-0.30635583509076747
-0.042045669733240705
-0.05804163869670008
-0.19629637970706112
-0.14059659170337058
0.12504550000123324
0.9674376595789559
0.021154485348253038
-0.08500756779479486
-0.26490051278735643
-0.08378315061873634
0.06462083854481858
0.05944258082935245
0.14411105927058765
0.14436226720787348
0.17533737906606747
0.15246383965455843
0.029664133236723424
0.11204832355211372
-0.02404273370768271
0.10001633686271429
-0.34625850545721676
-0.19922877320727603
0.3529814651085957
0.24358509903797215
-0.03453521461505639
0.10121726430441949
-0.198884799989666
-0.09540195306574537
0.030748930731557364
-0.3997107915120802
0.017726331263139182
0.004887954896753198
-0.08022260614605434
0.03899100850279889
0.0423742094971692
-0.07968244722433376
-0.004398004073059571
0.06032355328358778
-0.03971587390556597
-0.021604877124752595
-0.059891047177408764
-0.02978738306312896
-0.05737895658176038
0.014901979401284165
0.16304873632966713
0.030427422121665073
-0.13647957213288464
-0.006680918365415866
0.006603526971796876
-0.12757428613106683
0.042033341604891306
0.032681303606901725
0.056793051476202026
0.13262355296957543
-0.020601473521397087
-0.039371841914546624
-0.036393932342783014
-0.013646806215341391
-0.007457756648330734
-0.024319394867746476
0.013185856087609093
0.12860534942253743
0.1300373509044626
0.060369507293975014
0.1539369998055867
0.12939408961132245
0.13299003243920843
-0.2924337296612532
0.08535138624182838
-0.3996456366351309
-0.31567713228378963
-0.2059103168051583
-0.013398457741465778
-0.17457916641921079
0.22638603821764772
0.1144423970393217
0.03571551973424823
0.33302111825840636
0.015672727704404893
-0.02425965909033205
-0.0638701591515749
0.08392024226386056
-0.01057213434083061
0.047627964965845676
0.03944097154442948
-0.08795995389580334
0.10461814514345871
0.0401917049678076
0.06282050476463602
-0.1243363172386414
-0.02467868255496008
-0.09918439223372635
0.1641665423441152
-0.12359750519268725
-0.19119824933078022
0.13137875753131442
0.052738271377239965
0.3540146520073328
0.024076036217541612
0.013542582603754393
-0.34082481876343756
-0.04372723164296424
-0.0243838691212921
-0.03188746158506461
-0.03443825380887532
0.07160445774796516
0.02109074864285025
-0.013247083205325885
0.006836030165085268
0.004425431164656673
-0.098127826608434
-0.01940554074201542
-0.02016071116047999
-0.07666537517391098
0.005375583039524622
-0.011195439411320004
0.060505402252807455
0.1596739078038292
0.0026865106085985795
0.019918269347738663
0.04788851248878781
-0.028853264908667287
-0.03937074826323947
0.11135707401546303
0.0627516570251881
-0.17637801031387015
0.12976610860680626
0.2319698586251937
-0.07357399456357201
-0.08595961669734381
-0.14473241708796092
0.08849998097499634
-0.11816334069659386
-0.027806579161524278
-0.01202654116398608
0.04276619419938189
-0.15698877395756838
-0.041057377114145595
0.01124736684144666
0.05360105264986943
0.014860285503496834
0.08759779304150571
-0.6922001499064564
-0.26263388407707483
-0.22365070654487149
0.0639468636690915
-0.09936203523885698
0.12547852812900553
0.16718758764394426
0.9212337963252192
0.21550679144251253
0.2121758122433456
0.19563005625368984
0.14536508821873886
-0.3544384425517163
0.08171875869283986
-0.46276881871244285
-0.03318924558696214
0.08290706328898054
0.21669316824503526
-0.10969201109861891
0.14365671330177548
0.32990781411316966
-0.22027807172917296
-0.1340671098848537
-0.3091275662363155
0.07425632494102942
0.13255160977973166
-0.017471988275385465
-0.005582812911067088
0.09285940233459748
-0.05515458745934141
-0.21817043292059646
-0.003287515488968456
-0.07140863947258798
0.015330391202270904
0.09284194925886467
0.053340522598283605
0.005848340501332045
-0.043171706404285116
0.013057580731233932
-0.06583843841511224
0.04511765945097134
0.11225838976899476
0.09793952908876405
0.08961761043025494
-0.019126054911221966
-0.07143236140770641
-0.15118137891913785
-0.1031933935009186
-0.007036647745493442
0.05045666222548065
-0.01935538766492745
-0.03617636109423592
0.12641436143147153
0.016006985631414297
-0.0534487060847458
-0.07686090669896446
0.009758946718239202
-0.06293889140220126
0.020867149945045058
-0.058477198007714885
0.10993252948708813
0.006123350114629823
-0.11205122628026172
0.08678533942517624
-0.17655498005112827
-0.08619167307130957
0.05080236827919506
0.11197619322622672
-0.045252683680024
-0.03649789090258052
-0.02140292201420001
0.2031215882138205
-0.1926991637123173
0.4056588535407387
0.25541362169952636
-0.24755597088493467
0.27317344055532433
-0.1445549575074941
-0.14047653247165462
-0.2089592912191884
0.06010896661461328
-0.08126788308281516
0.00777020554414339
0.04889041787436373
0.06133882363610263
0.0682064145322754
-0.23822767506167775
0.07318072994299508
0.3033345204234782
-0.054294159905490566
-0.12463805155198185
-0.11502903661064137
0.13693801602795602
0.1590664815090835
-0.004687520874112449
-0.30069024901829244
-0.17155702073533258
-0.1448504926422068
-0.11463883970095881
-0.038583311648393695
0.1268997679449279
0.12040425736837013
0.12011541926781208
0.10221022014578161
0.19587873082179932
0.07139257385950233
0.05382132751467851
-0.13765154911492397
-0.20622306568036514
0.15698744605637052
-0.09575918484368988
-0.038446278613369564
0.10571585874308058
-0.034316420447301654
-0.005110052704186238
-0.05492350700735924
-0.026176748862226158
-0.06618926065548432
0.1261980342877858
-0.045197903354308865
0.017354351145254254
0.04138971500225117
0.014925279658113647
0.09368926398735954
-0.02079925372681068
0.11605342639384668
-0.07628989259646246
-0.18632288986355158
-0.023683517225037858
-0.2226202704951794
-0.035895385171811095
-0.2427108213794686
-0.008776295153813974
-0.1442203643348004
0.07680677555065632
0.601099878209455
0.0
0.0
0.0
0.0
0.0
0.0
0.0
0.0
0.38323501152364675
0.11138856889630597
0.1492912387222571
0.041473402346345875
-0.23035967825142092
-0.20648243315894863
0.01876954044200134
-0.26731565052018963
0.05035006463929535
0.06494264014801014
0.002147441126413376
-0.10822455380215312
0.07474084842861238
-0.1400602763146286
0.07756688412736333
-0.021463048352912857
0.04684677753348043
0.2079630972670609
-0.0540934562908822
-0.045845388037605586
-0.10174141755763191
0.03197626794155207
-0.2512145450391667
0.16610866418319234
-0.22427939461776009
-0.3014548246043505
-0.13451528634089283
-0.0881442460696471
0.07336736447408986
0.34029487818138865
0.0990723632373457
0.2356591457398261
-0.050565830239388695
-0.1050548051382206
-0.04300655809450441
0.23152265977124958
0.018715060141557643
-0.10212326090227336
0.15945531828771903
-0.10894258382613908
-0.12473009609218519
0.11916516877313701
0.12330688007579184
-0.06617226987615998
0.056533766428447235
-0.04924313546333333
-0.07109468054263283
0.012234366696934697
0.34490046438348243
0.06335009411904727
-0.07607746411686601
0.16663386809425623
-0.07111773284567639
-0.2628179077201826
0.017778981390492242
-0.18265030330455181
0.03313389855664392
-0.10011763209288688
-0.0744535139159815
-0.017089098096224747
-0.0631658443068784
-0.0001757666733604149
0.10109192023507663
0.12077603629361203
-0.14729543192183855
-0.06572196902701916
0.0005034705774169456
-0.0565141137579705
0.035131116294502794
-0.002962434127488616
0.13364232595190947
0.10321703601048843
0.071699814974803
0.05839855250210454
-0.029376523857177726
-0.04317056963251345
-0.07030945441929191
-0.05076650722768824
-0.0037147039436615744
0.06723939160342553
-0.07204577161296219
0.08734969788872059
0.08199989246459274
-0.07191803701771872
0.0346614351368778
-0.05391520538069257
-0.019497960542749503
0.013365949063933102
-0.19614877366997208
-0.1157869009436437
-0.03738256885188255
-0.03936276719391593
0.1416004191159809
0.13484648954246942
0.04439714271508498
0.06783695928587982
-0.0001579948878716094
0.005584595390518001
0.008924032603945456
0.06266528218372104
-0.01044880002589467
-0.0718577733249964
0.06839390471414983
-0.06310324665357125
0.1950017775609445
0.04792014001977636
0.10194405826465402
0.036658003203865426
-0.10859558176229699
-0.10606259343889286
-0.21524770702055787
0.04838190317250701
0.1601382226359232
0.09905688050394393
-0.0013827491947334656
-0.04143063349648839
0.028567096439939432
-0.04106599427144775
-0.09343401402734337
-0.11044880858979238
-0.15697346717102312
-0.1407181212731998
-0.045547468254447394
-0.012620286387182678
0.05540419189159152
0.10060397873734796
0.08889109623093033
0.11096007622598307
0.1846338393376735
0.09618185489067793
0.06017240152112244
0.07668690901893792
0.010492826271242067
-0.04852140080986073
-0.0457605627914736
-0.33388586743831666
-0.005141120384680921
-0.2995773940202345
-0.0008979336498449564
0.0633236977346614
0.3111861362795868
0.12059431543748159
0.07222409781101495
-0.26171179920798443
0.16611564614550167
0.015082014702942613
-0.011791325364605679
0.03656515787027536
-0.09205966879046326
-0.008485842684242358
-0.13135865320510445
0.025932671325693893
0.17654571995870827
-0.09117232921497372
-0.06235089779002658
-0.028787790222601313
-0.03436637012013814
0.02032833543258693
0.03552304663111467
-0.015719714674671148
0.0023871940859679676
0.26817866303421833
0.22543376295064088
-0.155269662083669
-0.09352770172880825
0.0573700301083488
-0.16271198334885884
-0.1418603030178387
-0.5824090036073777
-0.4171749164824535
-0.479665216449437
-0.22193993229059594
-0.09422551297145079
0.5397462531487112
0.4502359363514066
0.8054323923011958
-0.11599152974485114
-0.06940609532001014
-0.05598977600204615
-0.04929347420212612
-0.04598143574387164
-0.041811270767414435
0.2048885080481316
0.1735850737321881
0.04444709770428822
0.09860201123747452
-0.08025287347633298
0.03554013520650121
-0.02085575782041865
-0.0385678027429824
-0.019376776957743345
-0.019536033150787134
-0.18064753735514474
-0.048911018489004636
-0.021901409043663944
0.19466665090625357
0.06806184999338859
-0.10604475354987047
0.08777253469389763
0.0070036828441441615
-0.14928381974533791
-0.07259676619549667
0.042588529206076496
0.10299611887789516
0.05101963388362044
0.0258457747507684
0.042000662893790564
-0.04257013367131772
-0.21770972042794925
-0.1438086512239922
0.033528779932412295
0.1923714963786364
-0.11510113562864681
-0.18945861505270595
0.25700887741307904
0.18316896860916837
0.06943311988288478
-0.1354559034835775
0.0527096488467419
0.33993829815332055
-0.1205637790417623
-0.11286183900026786
-0.08862881898326036
-0.004570726374079339
0.18523295841052756
-0.02196778980133605
-0.09252370178858638
-0.06856509209466703
-0.007192149327560139
0.040111118466547906
0.03505650717156809
-0.07015185103649427
0.13151457844639672
0.026918926489029073
0.0501179045894025
-0.060513888722725666
-0.046520074717400474
-0.10395362906403892
-0.023097774655768687
0.02553395763510551
-0.12312469822545474
-0.04882034014302135
-0.0069212543309767555
-0.02052141802769101
0.0337614369160599
0.011021284144970238
0.058026088435583656
0.09657890123053056
0.061920583100635244
0.0942296479592477
0.1520229831414313
-0.056049221646558865
-0.16135769926413132
0.011538966807920088
-0.07090439561702214
-0.03140086448152249
0.10383324650097504
-0.021713989246176218
-0.11739382204385593
-0.05552419945564425
0.007802053443475398
0.037459690802422535
0.04259909106897164
0.002937928929831746
-0.013720961861366678
0.02274460790439467
-0.043900923943630946
-0.0013878851253778222
-0.05475599547915684
0.040222209666486784
0.01532849400957925
0.03547045482907169
0.06116114408179093
-0.03742503157924423
-0.030384201126764387
0.0026339459996193174
-0.021260262772408844
-0.022578983552105483
0.032440077073187315
0.015413311875925593
0.32776570102025226
0.08618556269678138
0.12210811980289708
-0.09038171951852743
-0.2511392776159531
0.0434604255022911
-0.09980403308252087
-0.13819477880522124
0.2941764908346519
0.007309548739690562
0.05062810638261367
-0.09005682596654904
-0.02718107625321975
-0.029872896101019744
-0.18804554698950465
-0.016957800646661855
-0.14197645656423272
-0.12964031943722587
0.06096007221428574
0.24299384144478328
0.03484359240923394
-0.07943569955093036
0.05191178541555786
-0.03965681593147194
0.0671612886143603
-0.07114131008128523
0.053635429904504484
0.10486007082278669
-0.014706294435410511
-0.09050278776549493
0.043252804636452716
-0.09255920169591188
-0.07131350966991125
-0.017617350055702138
-0.10084737648921067
-0.11117786335726035
0.07324680701559508
0.06303568456605256
0.05772761122909894
0.10694599676133901
0.18338268213661896
0.16021451341393145
0.041261256790797486
0.0020236484475317515
0.028500786872357374
-0.1344025154549549
-0.23267303513084162
-0.04830733707544227
-0.10647055244973738
0.01452162866591775
0.08348685382729161
0.007789270646643321
0.01823515744693411
0.08884914095178595
-0.006729731635657339
-0.09968176745317853
0.1081079852306633
0.13992781441840768
0.07672427728806823
0.03668552711743707
-0.019090747676499348
-0.08338815913453686
-0.1367334902227324
-0.12223320702080702
-0.12788687098076684
0.03505617892594667
-0.09554657442878449
0.12067420767375808
0.30729523859224683
-0.07447946800773093
-0.06572726646977003
-0.09938544530489944
0.19584363953254474
0.08613655010887665
-0.024175611923888285
-0.026765828259071353
-0.01821063151334202
-0.03906582785615405
-0.08584379664134922
-0.08791849344761603
0.006285961267255774
-0.052880115226933526
-0.1068027045199351
-0.10829763712023499
-0.016232825332552707
-0.008454869062527473
0.29745941829285105
-0.011077228297922768
-0.00790030211026569
-0.05703136170389396
-0.05565656845514088
-0.03486850084771554
0.049352528351273454
0.09352421978163351
-0.013039569468144916
0.02561955445225398
0.1372410525104045
0.13503272390738288
0.04000255421674045
0.19915846528885295
-0.07469785540890377
-0.22976673968340056
-0.03391184423172593
-0.17305835659935107
-0.044112017506309206
0.1065348565050445
0.05453584015985739
0.0528141848813607
0.026825818321586047
-0.026179457155124743
-0.07979581245383494
-0.0906234127525786
0.06901713413203601
0.03042493752728898
-0.021577756017157192
-0.04239208632432635
-0.002174393225388006
0.03433124169982405
-0.058678074669725404
-0.008951003122553113
-0.03921482393190389
-0.15594252982737403
-0.14115521448503102
0.017561249999234096
0.02367338669702611
-0.04709990755334274
0.18342142615120255
0.1587564129501876
0.04374341641944892
-0.16975004280431835
-0.09223739015862457
-0.06299217545876751
0.04689153872346039
0.1539324614180183
0.11305552809097892
-0.032643336230198106
-0.09582403475870158
-0.021734524571540174
0.09645217577110873
0.047892236357132675
0.04921787932211524
-0.03531887036665903
-0.09345037213828193
0.05276551038482472
0.11889071761249201
0.09718317045373645
0.15646916344524234
0.045589541718341474
-0.15899996376634645
0.1560381181697345
-0.329179435086784
-0.08599131254641679
0.0
0.0
0.0
0.0
0.0
0.0
0.0
0.0
0.17643412067357878
0.031527971256542955
-0.003484781653266329
-0.03829387626488166
-0.01954451256501513
0.04145454992980361
-0.015561998465037283
-0.17253147291172583
0.11249950547337394
-0.07938768365423352
-0.0026063483984600944
-0.056161284021004884
0.07958220391065451
-0.039024484824266605
-0.05183221119711112
0.0369303027110468
-0.10246426438734432
0.12009437658084066
-0.015418879642207091
-0.016775561956139558
-0.005638842087178305
0.06284056907428325
0.11670364517745442
-0.15934104275970914
-0.1477234663486135
-0.12040847391853714
0.13053269131772866
0.07894331054557012
0.012434008343929725
0.3261023693050747
-0.17282592292733592
-0.10705451631781746
0.17496348577759738
0.1492308720921476
0.27496558122871306
-0.06556254960657712
0.008020779786252824
-0.09727031584968376
-0.05447249817941979
-0.3898753552490296
0.1608309201246957
0.11761572742756396
-0.07654783984249258
-0.04698435662092589
-0.05019598509951588
-0.03561833388133833
-0.024954750134571983
-0.04414538197341513
0.12756243060830053
0.1397883797482186
0.05714152498274941
-0.08629019989747226
-0.0519332817159674
0.0063012193493559255
-0.09819249149215915
-0.09437758158302446
-0.24855883232376183
-0.08463983458184861
0.009208989516349589
0.07567971350452435
0.07535247826620266
-0.024878001662909748
0.07583337389573556
0.12200211338570922
0.032925650299769765
0.08395443356312536
0.04934804658611057
-0.0389827915343688
0.024129589554298485
-0.09490710989429936
-0.08134043363784613
0.024872615063208942
-0.1024875173753939
0.07039953037181723
-0.09776643652161561
0.03511241215306351
-0.03055707897952259
0.14650653546274464
0.046829646018643874
-0.06803709112973699
-0.06381955259296496
-0.0017677697418374363
-0.0019824838156554626
0.022357186433437006
0.003501779199504376
-0.042989535734290214
0.09330320905154108
-0.008602832799733224
0.1575250534168304
0.07132418853190094
0.04235669235561668
-0.07174908450137807
-0.04759806850687611
0.02009518835328899
-0.15609408420384568
-0.015859885445535942
-0.07886880879104564
0.009946273709963387
-0.047286267657590066
-0.05012284280108552
-0.05072634231210782
0.03219552892141242
0.0067682268729704325
0.17809423205748207
0.14921539044056392
0.06912349116684477
-0.22094297496083054
-0.043111240797563274
0.012857293077136915
-0.12250091498121285
0.057364346425918436
0.09799460962914225
-0.23739245340741055
-0.12792639977728354
-0.02829584628824917
0.10299577045950833
0.15925673076748115
0.09489838978958158
0.15940205180595274
-0.12293824334958185
0.13160952620928038
0.08806174993137714
0.15281281845672556
-0.02063736834167073
-0.15320950445387374
0.032583167529462255
-0.18647518503514945
-0.04474520429615104
0.08241895401244609
0.07176441750601849
-0.03315485149428539
0.009894702558736007
0.06902628464510858
0.004321976183792802
-0.17368174838658665
-0.030589735025228625
0.28708772569658175
0.19050673343824964
0.06629034010749678
-0.08249538967581557
-0.10392654309880936
-0.029391408101069036
-0.24129668489968534
-0.08677477346695088
-0.14008603283434456
-0.1577958628023359
0.1007586572140877
-0.015251946532600634
0.05002019562696424
0.03325453396557078
-0.012192877950796453
0.14129333331345478
0.07974310407078868
0.01666947919349156
0.0687902779801644
-0.1099912182659831
-0.07110612601064399
0.17651648614135051
-0.06450114953916045
-0.09612085357000742
0.1654467477375167
-0.0717799974219854
-0.10020480137462034
0.26154198847502247
-0.12633295402643327
0.0437816470279512
0.04529156557384298
-0.2177441959912914
-0.05194660036622283
0.03762515817833974
0.07961872589228808
-0.04167284266020093
-0.011959396464197915
-0.12129468532590616
0.08501423174074574
0.024615409005152834
-0.03796999286326276
-0.028315693739649872
0.014771401991887896
-0.0037805037578432146
0.14107220923680844
0.0017885384710732437
-0.040995046374167295
-0.04657091296484726
0.1015999523664308
-0.0025441606141114906
-0.07204076455148824
0.12198809429128196
0.03713218901889281
-0.012786927887689455
-0.03274980709810488
-0.14059857552521016
-0.2991009034716317
-0.15540266152584137
-0.1686819660146522
-0.11685119126276675
-0.07865103976137247
0.00880821650665049
0.4508513102040639
0.35902823532555067
0.20173937467091815
0.1439056859637313
0.1320235522255172
0.058803335588515526
-0.16670038332485343
0.14499825376507916
-0.33069374561767606
-0.18407607327122977
-0.04850137972167166
0.12727666886889716
0.1368605994177555
-0.4450037327554316
0.23869835295628022
-0.15167284167180012
-0.06756522649165099
0.20990755939762115
-0.047600149404014795
-0.13358911403736506
0.4043515998827074
0.1772804576452755
-0.41498740206128387
0.011161304877482885
-0.12169910270297495
0.12508240580017255
0.19451383769573022
0.08712274649351727
0.18954623481447655
0.005642830904438069
0.09599737361981565
-0.026818361246152278
-0.19069061927433092
-0.35531404300749125
0.11720743202268574
0.09225676993915634
-0.3652486740908535
-0.16877382345512126
0.35933275958143607
0.05300807654393988
-0.0026627578705324096
-0.08511978267070971
-0.035835171971502607
0.09298615224894627
0.05555007090009621
-0.000176039455039049
-0.035160602646809945
-0.013043147562846883
-0.01612691107892857
-0.048194350433915276
0.16470373259645182
0.08093773270710297
-0.028834871718182057
0.041511794193357016
0.03884323080379606
-0.06662191438838817
-0.11253494609047963
-0.11800475810365664
-0.046382841520868044
0.20037141620890195
0.07252970057415585
0.04367236981347211
0.04123202455639601
-0.22806158110607322
0.015210416106064793
-0.09857150463205258
-0.040743168326628554
-0.09248594840351165
-0.09982789410083728
0.11589537059492644
0.033584526319741695
-0.013698647682272854
0.14085816601210663
-0.04358240441352457
0.10242983976135117
-0.007476549247994541
0.03512872472450191
-0.10240030219180207
0.06334419507504675
-0.03433997222851332
0.03828834612290896
-0.09497428201549861
-0.06162704604301732
0.03329356217332941
-0.053485417500968156
0.08321243371115017
0.019842678718242725
0.05762971598263164
-0.14501116625374322
0.06614523921237525
0.33910678981864206
0.10810217325344552
0.01806752995076708
-0.03403552544705196
-0.09645453361037441
-0.007421884750907536
-0.16436692090681326
-0.16299762830770834
0.24165518087421978
0.12411028602064794
0.12529084263035192
-0.01325645119649157
-0.09282904603136255
-0.17402147498668313
0.017099288705715057
-0.22804862601639908
0.045671795558503314
0.16054741480624268
0.19228900895382312
0.047316610103260305
0.0009724433523450268
-0.1951181528568033
-0.06384520405808493
-0.1878339158592832
-0.06902549599593505
0.017828874383046266
0.07713711599069686
0.039891009986066206
-0.11246914267395922
-0.05637977742212181
0.17383514684998663
-0.07081773111778017
-0.09920602150028224
0.08609022725969397
-0.012557933602701146
-0.023076951880583372
-0.0014821337625313042
0.06741171941463862
0.04714728769550488
-0.06432619362373841
-0.15207198390658105
0.11166762716738121
0.13831053888725933
0.05071581305312224
0.0036082272034437856
-0.0827681346102642
-0.016442804307082042
-0.05301928348727775
-0.06876931377210543
-0.020874497552138795
-0.06910333597790493
-0.05467403813475368
0.0018441008079653114
0.11290508667970904
0.05010196545308848
0.04857003249614071
-0.03016843972699523
-0.0948719527845781
-0.06612625607909792
0.02391652145245648
-0.04574178146024625
0.07638938925248075
0.1379919014405755
-0.0013893820945961538
-0.026985441382869964
0.3534179493212973
0.08378893650528503
-0.021850883713126674
0.005535718775898571
-0.1359147195320108
-0.26777050320516016
0.009778943230687318
0.025803082391899324
0.060754423478408
0.08688142076336229
0.03426328646211278
-0.09762446434926547
0.054600754652703115
-0.11947745679706208
-0.045201046602158644
0.21917057383389765
0.022227379093887042
0.02815953188740936
0.06798827565423998
-0.09607346717597176
0.05846390549356945
0.045796371673639494
-0.3457325704606708
0.18612858072236332
0.2229128170981172
-0.01050853221903059
0.042832133734578844
-0.03630316382819948
-0.08350632647450693
-0.14723188920226207
-0.17432361983106054
0.05680202978082866
0.05720366142629899
-0.02855681959423048
-0.02918303746895511
-0.029506919449211456
0.0652891602155542
-0.013952685806903013
-0.07809538910338286
0.15418721223199985
-0.0049577347697263435
0.15239967642452856
0.012594585602811313
-0.04762085733130689
-0.06310997265315388
-0.07689194833174895
-0.12660096117340192
0.17689771197098633
0.05532274564086082
0.025317948814009374
-0.0655847046682343
-0.12027651972224566
0.026867261253969314
-0.016267311959214305
-0.08227713133013005
-0.10512943436098264
0.38790420426054195
0.0930295684895245
0.2399739345704312
-0.09142383499631047
-0.22153175477179846
-0.1003886323820836
-0.20243405080932256
-0.00855774808358122
-0.18032590010655378
0.022379818417505738
-0.16683671222812935
-0.02838870324158302
0.2002844583986792
0.08749638575573497
0.0739484010879274
-0.08360806155267092
0.2203040355366111
-0.056579512014951316
-0.04228565582408804
-0.018486188541247846
-0.008935508711770247
-0.0047257398969942485
-0.005683368994888468
0.188064943222036
0.06672449107621953
-0.041682323372644346
-0.07037065019553554
-0.047451602057074285
-0.03092678648795719
-0.002975982772105483
-0.061382089412937074
0.093266203645813
0.02225640982187434
-0.009861968790999421
0.038464530624483254
-0.08075176603618907
-0.06167787794749599
-0.18259002267920646
0.18089449136172053
-0.10558210976613298
-0.046989707278578006
-0.01012267440210414
0.1205355656646487
0.10978582721421933
-0.13827871484194354
-0.04863642888318648
0.1192882422930786
-0.05080304596583062
-0.030620590118892545
0.05563998755490592
-0.0035830311874764905
0.023591982164588982
0.036688350232213264
0.06360756441588433
-0.09452121709539305
0.29869008994508817
0.3863473566029756
-0.025252134525245974
0.04186797821782129
-0.20215818210320127
0.2771994399026257
-0.1764135467153795
-0.6002810013246841
-0.17795453353987256
-0.26690275295621707
-0.043797632710271144
0.362932802546492
0.33655412245456295
-0.23468927724423846
-0.34156241579286484
0.36541968724240664
0.1441784833238571
0.04416115452568143
-0.015850397292656405
-0.12221982046132522
0.011107542760790703
-0.029331036343966947
0.10548583590037651
-0.13753176241275555
-0.13095484638428137
0.050274297685597165
0.0878744933042433
0.046372366070147136
0.09305648345951767
-0.03173004727336394
-0.07821084478556828
-0.036681902076291815
0.0397402414789456
-0.22015634877399315
-0.07262520599180643
-0.03182492584443839
-0.17119244768249195
0.12445874028695107
0.10658514655981012
0.22501479996702464
0.04463022912777678
0.06262974114210706
-0.01342682145544333
0.03327137431469952
-0.009529507494089895
-0.01965416284044854
-0.10914322044157851
0.011222367646977253
-0.16279485417223707
0.2644808404313324
0.1429460654392854
0.14034981261161292
-0.0748533998199258
-0.16859895201618266
0.057683688475903966
-0.19921320094978953
0.05949266442334131
0.22591741525909403
-0.06027795388099433
0.10092936841651254
-0.18310196299699438
-0.07983552447940304
0.0023287495902832383
-0.06545275633184164
-0.18043997923762672
-0.3442472520906787
0.0349131569224692
-0.1373809224331174
0.18013070912238358
0.21303465055142612
0.028180366740575016
0.20580927042456676
-0.12236270646061251
-0.07224232495844027
-0.03357702378322723
-0.16637058801821472
0.2204599704695262
0.21797038393925353
-0.026096284602870334
-0.017781426585414848
-0.0805815813513105
-0.04088559296642319
-0.0024797021652852415
-0.020912110203746552
-0.018320079391702705
0.041921659358009226
0.03742455273962259
0.08383285398083704
0.31267761243890185
0.17941675256838366
0.1378997787272877
-0.022501402470591646
-0.15374926327227564
-0.07708341900604672
-0.1256197426433524
-0.2510403163423054
0.11419256010021676
-0.046510653474477665
-0.037368822516403916
-0.11973639244555437
0.033674652532095284
0.002273397042790231
0.016416216341330166
0.03705904242000406
-0.06137854342269727
0.11114996066368273
0.3136269551691163
0.12365274169086453
0.05084106033768488
-0.12140145884894264
-0.16220971128013484
-0.25428100430957185
-0.046104107755323843
-0.07331362891390324
-0.008635931340438215
0.007677424367332481
0.0414504270409303
-0.08241779259806209
0.07643790266024385
0.08490570653922196
-0.05277772809755877
-0.07465038491532948
-0.019141212858389503
0.17342781310796304
0.08328814694013896
-0.17737094782518828
0.03938115130124581
0.02784316234711853
-0.03788526293102252
-0.12221987006510888
-0.09834957527624458
-0.08230121816506658
0.06308525323906296
0.10825825325860221
0.1247728187886201
0.04463960115115713
0.05932041820612838
0.009033658108099312
-0.0426793242295394
